{
  "Layers": [ 784, 49, 16, 1 ],
  "Activations": [ 3, 3, 3 ],
  "Neurons": [
    [ 0.27058823529411763, 0.27058823529411763, 0.26666666666666666, 0.2549019607843137, 0.2549019607843137, 0.27058823529411763, 0.4117647058823529, 0.403921568627451, 0.48627450980392156, 0.16862745098039217, 0.10588235294117647, 0.10196078431372549, 0.1450980392156863, 0.10588235294117647, 0.058823529411764705, 0.24313725490196078, 0.22745098039215686, 0.2, 0.2, 0.2, 0.27058823529411763, 0.24313725490196078, 0.24313725490196078, 0.29411764705882354, 0.4666666666666667, 0.48627450980392156, 0.4823529411764706, 0.44313725490196076, 0.28627450980392155, 0.2901960784313726, 0.2823529411764706, 0.27058823529411763, 0.2627450980392157, 0.25098039215686274, 0.26666666666666666, 0.41568627450980394, 0.47058823529411764, 0.26666666666666666, 0.1803921568627451, 0.11764705882352941, 0.13333333333333333, 0.11764705882352941, 0.0784313725490196, 0.3686274509803922, 0.3137254901960784, 0.25098039215686274, 0.2235294117647059, 0.20784313725490197, 0.24705882352941178, 0.27058823529411763, 0.3764705882352941, 0.4392156862745098, 0.4980392156862745, 0.4823529411764706, 0.4823529411764706, 0.4745098039215686, 0.33725490196078434, 0.30980392156862746, 0.30196078431372547, 0.28627450980392155, 0.28627450980392155, 0.27450980392156865, 0.24705882352941178, 0.34901960784313724, 0.4666666666666667, 0.3803921568627451, 0.24705882352941178, 0.09411764705882353, 0.13725490196078433, 0.3137254901960784, 0.23529411764705882, 0.403921568627451, 0.3333333333333333, 0.2549019607843137, 0.19215686274509805, 0.24313725490196078, 0.3176470588235294, 0.2901960784313726, 0.5254901960784314, 0.49019607843137253, 0.5019607843137255, 0.5019607843137255, 0.4627450980392157, 0.34509803921568627, 0.32941176470588235, 0.32941176470588235, 0.3254901960784314, 0.30980392156862746, 0.30196078431372547, 0.2901960784313726, 0.25882352941176473, 0.35294117647058826, 0.4745098039215686, 0.38823529411764707, 0.20392156862745098, 0.07450980392156863, 0.17254901960784313, 0.3137254901960784, 0.18823529411764706, 0.45098039215686275, 0.2823529411764706, 0.24313725490196078, 0.22745098039215686, 0.2823529411764706, 0.38823529411764707, 0.47058823529411764, 0.5725490196078431, 0.47843137254901963, 0.49411764705882355, 0.403921568627451, 0.2823529411764706, 0.3568627450980392, 0.34509803921568627, 0.3411764705882353, 0.34509803921568627, 0.3333333333333333, 0.3215686274509804, 0.3137254901960784, 0.27450980392156865, 0.3686274509803922, 0.48627450980392156, 0.403921568627451, 0.25882352941176473, 0.13725490196078433, 0.2235294117647059, 0.3137254901960784, 0.23921568627450981, 0.47843137254901963, 0.3607843137254902, 0.35294117647058826, 0.34901960784313724, 0.42745098039215684, 0.5098039215686274, 0.3568627450980392, 0.33725490196078434, 0.3254901960784314, 0.2980392156862745, 0.1568627450980392, 0.30196078431372547, 0.47843137254901963, 0.3607843137254902, 0.3607843137254902, 0.3568627450980392, 0.3568627450980392, 0.35294117647058826, 0.3333333333333333, 0.2823529411764706, 0.3764705882352941, 0.5098039215686274, 0.4235294117647059, 0.24705882352941178, 0.18823529411764706, 0.2549019607843137, 0.39215686274509803, 0.26666666666666666, 0.5490196078431373, 0.5843137254901961, 0.596078431372549, 0.5450980392156862, 0.596078431372549, 0.44313725490196076, 0.24705882352941178, 0.24313725490196078, 0.24313725490196078, 0.24313725490196078, 0.19215686274509805, 0.38823529411764707, 0.5372549019607843, 0.36470588235294116, 0.3803921568627451, 0.3803921568627451, 0.3764705882352941, 0.3686274509803922, 0.34509803921568627, 0.29411764705882354, 0.39215686274509803, 0.5372549019607843, 0.4196078431372549, 0.1843137254901961, 0.2196078431372549, 0.28627450980392155, 0.396078431372549, 0.2235294117647059, 0.5647058823529412, 0.6470588235294118, 0.611764705882353, 0.7372549019607844, 0.5215686274509804, 0.2784313725490196, 0.2980392156862745, 0.27058823529411763, 0.27058823529411763, 0.26666666666666666, 0.20784313725490197, 0.4196078431372549, 0.5803921568627451, 0.5019607843137255, 0.39215686274509803, 0.3764705882352941, 0.39215686274509803, 0.38823529411764707, 0.3568627450980392, 0.30980392156862746, 0.403921568627451, 0.5529411764705883, 0.42745098039215684, 0.1843137254901961, 0.2196078431372549, 0.25882352941176473, 0.3254901960784314, 0.2980392156862745, 0.24313725490196078, 0.10588235294117647, 0.17647058823529413, 0.5725490196078431, 0.3215686274509804, 0.2823529411764706, 0.3215686274509804, 0.28627450980392155, 0.28627450980392155, 0.2823529411764706, 0.21568627450980393, 0.4470588235294118, 0.6392156862745098, 0.6392156862745098, 0.6509803921568628, 0.5450980392156862, 0.43137254901960786, 0.38823529411764707, 0.3215686274509804, 0.27450980392156865, 0.3843137254901961, 0.5058823529411764, 0.4117647058823529, 0.19607843137254902, 0.21568627450980393, 0.23529411764705882, 0.19607843137254902, 0.21176470588235294, 0.24705882352941178, 0.19215686274509805, 0.3686274509803922, 0.41568627450980394, 0.43529411764705883, 0.3607843137254902, 0.3254901960784314, 0.2980392156862745, 0.2980392156862745, 0.29411764705882354, 0.23529411764705882, 0.5058823529411764, 0.6352941176470588, 0.47058823529411764, 0.5686274509803921, 0.6784313725490196, 0.6980392156862745, 0.6196078431372549, 0.611764705882353, 0.6549019607843137, 0.7058823529411765, 0.4196078431372549, 0.2627450980392157, 0.3058823529411765, 0.22745098039215686, 0.23137254901960785, 0.4627450980392157, 0.3803921568627451, 0.2627450980392157, 0.26666666666666666, 0.396078431372549, 0.4392156862745098, 0.5176470588235295, 0.49019607843137253, 0.3333333333333333, 0.30196078431372547, 0.2980392156862745, 0.29411764705882354, 0.2235294117647059, 0.2980392156862745, 0.35294117647058826, 0.45098039215686275, 0.48627450980392156, 0.5215686274509804, 0.5882352941176471, 0.7647058823529411, 0.9529411764705882, 0.9686274509803922, 0.984313725490196, 0.9058823529411765, 0.5294117647058824, 0.3333333333333333, 0.39215686274509803, 0.37254901960784315, 0.396078431372549, 0.35294117647058826, 0.3137254901960784, 0.34901960784313724, 0.25098039215686274, 0.37254901960784315, 0.44313725490196076, 0.5568627450980392, 0.39215686274509803, 0.36470588235294116, 0.3607843137254902, 0.33725490196078434, 0.2, 0.19607843137254902, 0.3568627450980392, 0.4588235294117647, 0.4823529411764706, 0.49411764705882355, 0.5254901960784314, 0.6235294117647059, 0.7725490196078432, 0.803921568627451, 0.8156862745098039, 0.9372549019607843, 0.8745098039215686, 0.4549019607843137, 0.4470588235294118, 0.4588235294117647, 0.34509803921568627, 0.33725490196078434, 0.30196078431372547, 0.4627450980392157, 0.4549019607843137, 0.47058823529411764, 0.5372549019607843, 0.7254901960784313, 0.6470588235294118, 0.5372549019607843, 0.45098039215686275, 0.3686274509803922, 0.34509803921568627, 0.2901960784313726, 0.3803921568627451, 0.4627450980392157, 0.49019607843137253, 0.5098039215686274, 0.5176470588235295, 0.6, 0.7450980392156863, 0.7725490196078432, 0.796078431372549, 0.807843137254902, 0.7803921568627451, 0.5294117647058824, 0.4196078431372549, 0.3568627450980392, 0.3058823529411765, 0.28627450980392155, 0.33725490196078434, 0.47058823529411764, 0.49411764705882355, 0.5529411764705883, 0.5254901960784314, 0.3764705882352941, 0.3176470588235294, 0.42745098039215684, 0.43529411764705883, 0.34509803921568627, 0.38823529411764707, 0.33725490196078434, 0.38823529411764707, 0.4745098039215686, 0.49411764705882355, 0.5058823529411764, 0.5450980392156862, 0.6352941176470588, 0.7568627450980392, 0.7607843137254902, 0.6666666666666666, 0.6352941176470588, 0.49019607843137253, 0.30196078431372547, 0.2627450980392157, 0.28627450980392155, 0.2823529411764706, 0.2235294117647059, 0.1843137254901961, 0.3764705882352941, 0.48627450980392156, 0.6392156862745098, 0.43137254901960786, 0.23137254901960785, 0.24705882352941178, 0.403921568627451, 0.4235294117647059, 0.36470588235294116, 0.34901960784313724, 0.36470588235294116, 0.43529411764705883, 0.4745098039215686, 0.4980392156862745, 0.5019607843137255, 0.5764705882352941, 0.592156862745098, 0.6509803921568628, 0.5058823529411764, 0.3686274509803922, 0.4745098039215686, 0.5019607843137255, 0.2627450980392157, 0.23137254901960785, 0.26666666666666666, 0.28627450980392155, 0.3058823529411765, 0.3333333333333333, 0.4, 0.47843137254901963, 0.5843137254901961, 0.4823529411764706, 0.3607843137254902, 0.3333333333333333, 0.3411764705882353, 0.3215686274509804, 0.23921568627450981, 0.26666666666666666, 0.34509803921568627, 0.403921568627451, 0.47843137254901963, 0.5019607843137255, 0.4980392156862745, 0.6196078431372549, 0.5254901960784314, 0.4470588235294118, 0.30980392156862746, 0.2901960784313726, 0.30196078431372547, 0.3254901960784314, 0.26666666666666666, 0.32941176470588235, 0.3686274509803922, 0.3333333333333333, 0.37254901960784315, 0.33725490196078434, 0.3411764705882353, 0.38823529411764707, 0.4980392156862745, 0.5176470588235295, 0.48627450980392156, 0.41568627450980394, 0.22745098039215686, 0.3254901960784314, 0.1450980392156863, 0.21568627450980393, 0.34509803921568627, 0.403921568627451, 0.47843137254901963, 0.5215686274509804, 0.5607843137254902, 0.6196078431372549, 0.4627450980392157, 0.35294117647058826, 0.30196078431372547, 0.29411764705882354, 0.21568627450980393, 0.2235294117647059, 0.3215686274509804, 0.37254901960784315, 0.34901960784313724, 0.2235294117647059, 0.20392156862745098, 0.1843137254901961, 0.2901960784313726, 0.36470588235294116, 0.49019607843137253, 0.5333333333333333, 0.7137254901960784, 0.5372549019607843, 0.23137254901960785, 0.34901960784313724, 0.15294117647058825, 0.23137254901960785, 0.33725490196078434, 0.3803921568627451, 0.7058823529411765, 0.792156862745098, 0.8392156862745098, 0.7647058823529411, 0.5098039215686274, 0.3803921568627451, 0.24705882352941178, 0.3411764705882353, 0.3333333333333333, 0.45098039215686275, 0.5372549019607843, 0.5019607843137255, 0.4745098039215686, 0.25098039215686274, 0.15294117647058825, 0.1843137254901961, 0.30980392156862746, 0.47843137254901963, 0.44313725490196076, 0.49019607843137253, 0.5490196078431373, 0.5647058823529412, 0.42745098039215684, 0.38823529411764707, 0.14901960784313725, 0.2, 0.3058823529411765, 0.32941176470588235, 0.7176470588235294, 0.6941176470588235, 0.5411764705882353, 0.8588235294117647, 0.6941176470588235, 0.4627450980392157, 0.40784313725490196, 0.5098039215686274, 0.41568627450980394, 0.4745098039215686, 0.5411764705882353, 0.6, 0.5686274509803921, 0.35294117647058826, 0.2980392156862745, 0.25882352941176473, 0.27058823529411763, 0.42745098039215684, 0.5411764705882353, 0.5176470588235295, 0.4196078431372549, 0.5686274509803921, 0.4745098039215686, 0.29411764705882354, 0.12549019607843137, 0.1803921568627451, 0.29411764705882354, 0.33725490196078434, 0.4980392156862745, 0.4823529411764706, 0.41568627450980394, 0.7254901960784313, 0.7019607843137254, 0.4627450980392157, 0.4, 0.49411764705882355, 0.596078431372549, 0.6392156862745098, 0.6901960784313725, 0.7176470588235294, 0.6941176470588235, 0.611764705882353, 0.611764705882353, 0.596078431372549, 0.5529411764705883, 0.4, 0.48627450980392156, 0.8235294117647058, 0.5882352941176471, 0.6196078431372549, 0.7725490196078432, 0.5764705882352941, 0.2980392156862745, 0.27450980392156865, 0.24313725490196078, 0.30980392156862746, 0.49019607843137253, 0.4745098039215686, 0.40784313725490196, 0.47058823529411764, 0.4980392156862745, 0.34509803921568627, 0.35294117647058826, 0.4666666666666667, 0.6313725490196078, 0.7098039215686275, 0.7254901960784313, 0.7215686274509804, 0.6862745098039216, 0.6784313725490196, 0.6509803921568628, 0.6196078431372549, 0.5725490196078431, 0.43137254901960786, 0.4588235294117647, 0.8392156862745098, 0.8235294117647058, 0.7607843137254902, 0.8274509803921568, 0.7372549019607844, 0.5647058823529412, 0.396078431372549, 0.23137254901960785, 0.2784313725490196, 0.4549019607843137, 0.41568627450980394, 0.3607843137254902, 0.2980392156862745, 0.3176470588235294, 0.3686274509803922, 0.3686274509803922, 0.5058823529411764, 0.596078431372549, 0.6078431372549019, 0.6392156862745098, 0.6352941176470588, 0.596078431372549, 0.5764705882352941, 0.5372549019607843, 0.5019607843137255, 0.43137254901960786, 0.403921568627451, 0.44313725490196076, 0.6470588235294118, 0.7215686274509804, 0.7137254901960784, 0.6039215686274509, 0.592156862745098, 0.4823529411764706, 0.33725490196078434, 0.25882352941176473, 0.30196078431372547, 0.38823529411764707, 0.3333333333333333, 0.27058823529411763, 0.16470588235294117, 0.14901960784313725, 0.17254901960784313, 0.17647058823529413, 0.1843137254901961, 0.1843137254901961, 0.1843137254901961, 0.1843137254901961, 0.19215686274509805, 0.19215686274509805, 0.19215686274509805, 0.19607843137254902, 0.19215686274509805, 0.19215686274509805, 0.18823529411764706, 0.1803921568627451, 0.1843137254901961, 0.403921568627451, 0.4196078431372549, 0.1843137254901961, 0.37254901960784315, 0.38823529411764707, 0.25882352941176473, 0.2549019607843137, 0.30980392156862746, 0.3058823529411765, 0.28627450980392155, 0.26666666666666666, 0.25882352941176473, 0.2901960784313726, 0.30980392156862746, 0.3333333333333333, 0.47058823529411764, 0.596078431372549, 0.611764705882353, 0.6235294117647059, 0.6392156862745098, 0.6509803921568628, 0.6588235294117647, 0.6627450980392157, 0.6627450980392157, 0.6588235294117647, 0.6509803921568628, 0.6470588235294118, 0.5058823529411764, 0.5019607843137255, 0.4196078431372549, 0.25098039215686274, 0.3411764705882353, 0.6, 0.19607843137254902, 0.24313725490196078, 0.3333333333333333, 0.27450980392156865, 0.34509803921568627, 0.4196078431372549, 0.4627450980392157, 0.49019607843137253, 0.5176470588235295, 0.6078431372549019, 0.8, 0.8705882352941177, 0.9137254901960784, 0.9333333333333333, 0.9490196078431372, 0.9568627450980393, 0.9647058823529412, 0.9647058823529412, 0.9725490196078431, 0.9607843137254902, 0.9490196078431372, 0.9607843137254902, 0.8509803921568627, 0.592156862745098, 0.20392156862745098, 0.25098039215686274, 0.2, 0.6588235294117647, 0.48627450980392156, 0.2, 0.30196078431372547, 0.3607843137254902, 0.44313725490196076, 0.4627450980392157, 0.48627450980392156, 0.5137254901960784, 0.5294117647058824, 0.5607843137254902, 0.6352941176470588, 0.788235294117647, 0.8274509803921568, 0.8588235294117647, 0.8784313725490196, 0.8941176470588236, 0.8980392156862745, 0.8941176470588236, 0.8666666666666667, 0.8823529411764706, 0.8784313725490196, 0.8274509803921568, 0.5137254901960784, 0.22745098039215686, 0.20784313725490197, 0.20784313725490197, 0.1843137254901961, 0.40784313725490196, 0.7294117647058823, 0.5450980392156862, 0.25098039215686274, 0.41568627450980394, 0.4392156862745098, 0.4627450980392157, 0.47843137254901963, 0.49411764705882355, 0.5411764705882353, 0.47058823529411764, 0.35294117647058826, 0.4196078431372549, 0.43137254901960786, 0.44313725490196076, 0.4470588235294118, 0.45098039215686275, 0.4549019607843137, 0.44313725490196076, 0.396078431372549, 0.44313725490196076, 0.44313725490196076, 0.34901960784313724, 0.21176470588235294, 0.2980392156862745, 0.27450980392156865, 0.34901960784313724, 0.5333333333333333, 0.3411764705882353, 0.5490196078431373, 0.6823529411764706, 0.5843137254901961, 0.4, 0.4196078431372549, 0.4392156862745098, 0.4549019607843137, 0.4745098039215686, 0.5333333333333333, 0.3686274509803922, 0.2980392156862745, 0.32941176470588235, 0.34901960784313724, 0.2980392156862745, 0.30196078431372547, 0.2980392156862745, 0.2980392156862745, 0.2980392156862745, 0.3058823529411765, 0.3137254901960784, 0.3137254901960784, 0.34901960784313724, 0.38823529411764707, 0.4745098039215686, 0.6549019607843137, 0.3333333333333333, 0.7803921568627451, 0.7843137254901961, 0.6862745098039216, 0.6431372549019608, 0.7333333333333333 ],
    [ -0.05052087111281752, 0.31489157815189894, -0.06046316060002469, 1.43246814956292, -0.03263182405650881, -0.08193336837612064, 2.089488541217615, -0.014318573305705094, 4.25943240574012, -0.04249303532255571, -0.09371109562084312, 3.378340933146819, 1.5855807738573797, -0.07713723984473977, -0.03546429959304949, -0.03824522176557569, 4.6346185583485155, -0.03382736106830205, -0.016280407110598034, -0.008144198658478975, -0.03595343112153509, 1.5199138183080358, 1.4992945777544935, -0.005356173450500474, -0.025394790271298793, -0.0406788176218773, -0.027342723089970586, -0.06830440219445891, 3.17251848719143, -0.0739028954558977, 1.643180009261493, 1.9220872774460567, -0.033676893370033635, -0.02419065333431322, -0.003105431006813385, 0.19312235105385567, -0.033186486418264056, -0.00823824770623549, -0.05949916011809069, -0.05134652116795224, -0.058848173641468014, 2.406356503143553, 4.2731597515888025, -0.01930175237399187, -0.0403115245260066, 7.225802802845612, -0.016414556803857065, 0.3001164769946642, -0.024882981123414517 ],
    [ 0.8535628754077262, 1.2296867803994265, -0.09090491996624168, -0.008244004648862957, -0.02855545714525998, -0.032742342485988674, -0.0732283654523075, -0.004350168996974494, -0.058789027072229605, -0.0040742674280221085, 0.6512503865576941, -0.02374541449945947, -0.0023704515928975284, 6.768839269822539, -0.028881905645392197, -0.024646945932502013 ],
    [ 0.34316612252386547 ]
  ],
  "Biases": [
    [ -0.24000652222957752, -0.14989177485614916, -0.05000124193707765, 0.49002271736183406, -0.4299985166459537, -0.5000000279676132, -0.21015447213774538, 0.39002422993286007, -0.3900707361936477, 0.4900001829525705, -0.3299991721000332, 0.32995890142025075, 0.47008927165467407, 0.2799984820905988, 0.39999896864773193, -0.16000628336660946, -0.04005719644590569, -0.3500103218906239, -0.36995799728191825, 0.3400005457162651, 0.25999137650400267, -0.020010764232798448, 0.23003650692680835, -0.3900414310645649, 0.029998888203069243, -0.41000127327300784, 0.17000838836223603, -0.41000006901715086, -0.11005880322708637, 0.4700011078346541, 0.17989899241730983, -0.33002478561330767, 0.3399999777629488, 0.1799946062318452, 0.39986011068390803, 0.19005067996882472, 0.2299953280554346, -0.09000900420977456, 0.18999789239051695, -0.36999990072030636, -0.14999903411061982, 0.38999439549790904, -0.0699652423251893, 0.2700673332195204, 0.320001660455306, 0.4400694467655427, -0.1700041208214291, 0.4699975282025503, 0.42000078668086577 ],
    [ 0.43521914661619704, -0.48919225405938327, -0.1899946491050845, 0.27189692857181996, -0.18004532940538318, 0.4870323532398603, 0.27981640847861194, 0.12431030098806405, -0.16030665854239867, -0.038548282027165724, 0.47312279536689195, -0.18567047216603072, -0.3002958674702791, -0.005125587947943568, -0.36652914114783663, -0.19965502700866372 ],
    [ 0.42487294915046137 ]
  ],
  "Weights": [
    [
      [ 0.47999557347534594, -0.21000464055422527, 0.37999652597490796, -0.2900021966387726, 0.09999735060798813, -0.4600024707258854, -0.040002076537463245, 0.4899979736531637, -0.02000197891047059, 0.36999813550505944, -0.4500017182283732, 0.4499983393523846, -0.21000162450266968, 0.07999845388630673, 0.2599984473920448, 0.18999855188199677, -0.34000142606665135, -0.05000136867471502, 0.45999873005928404, -0.13000126734846684, -0.12000117083106508, 0.019998949291097058, 0.1799989687170114, -0.3800010274752246, -0.4300010561096394, -0.11000105096299351, 0.43999902219963694, 0.2199990046892942, 0.28999550066462837, -0.3500046077150336, -0.12000317720962439, -0.20000221670645357, -0.03000316856284854, 0.3199972045781815, 0.4599974100788397, -0.46000257450513615, -0.4200026215924644, 0.20999740655569718, -0.17000237230483584, 0.4599978656645856, 0.34999815804920215, 0.27999838366476115, 0.32999846146290385, -0.39000139939783135, 0.2199986309719263, 0.1599987314198608, -0.46000130850227655, 0.3799986636961103, -0.30000123956313285, 0.12999886933673538, -0.47000097509668703, -0.46000096571013244, -0.34000102328924425, 0.42999898857146435, 0.09999901185300238, -0.05000099193898131, 0.09999555382754412, 0.2599954325355535, -0.3600031861053419, -0.29000238796288264, -0.40000326784442597, 0.22999740580422554, -0.3000025990852787, -0.170002710066596, -0.020002848527186694, 0.24999705983932488, -0.020002959341118055, -0.040002852709332036, 0.10999747565031769, 0.2199979947492446, 0.1099973553743464, -0.05000267742296002, -0.38000218708913897, 0.489998283793442, 0.009998599666717636, 0.08999871609815314, 0.18999880724761797, 0.06999884966641502, -0.11000090457849172, -0.09000084520731334, -0.16000097235881897, -0.44000101722280593, 0.009998935406334843, -0.34000092705073687, -0.3900045235321358, -0.16000459514284945, -0.3700028538174408, 0.029997371191039967, -0.29000312761888414, 0.009997557566458403, -0.07000257811346133, -0.18000263979476627, 0.06999728106819349, -0.390002800341199, 0.3599972171933674, -0.39000267700128755, 0.07999777984341469, -0.0100022104555275, 0.11999662930014664, 0.4699964572879555, -0.3300033387829718, 0.069996914884358, -0.240003072778001, -0.020002684800095576, -0.4800022696210163, 0.07999849446981401, 0.4199988383495419, -0.3300009629650272, -0.08000077451327181, -0.5000008812553319, 0.24999893763205558, -0.47000119524493883, -0.14000479167938698, 0.22999575230876093, 0.3599973599001218, -0.4700029406491938, -0.28000290720120036, -0.47000253029833267, -0.29000262649029407, -0.36000271319720645, 0.10999715407137392, 0.449997126458868, -0.2500028521756147, -0.4000025970812944, -0.22000207958280807, -0.21000284237302264, 0.36999651246525594, -0.5000033993508701, -0.3800032337320089, -0.11000285148824022, -0.4900031259007024, -0.3100034559096596, 0.4399965610826242, -0.08000315214403185, -0.2700022377375428, 0.25999766648766026, 0.29999778412095784, -0.4700019208090293, -0.37000117870347116, 0.029998658842720693, -0.08000492892850479, 0.45999611298855175, -0.3900025225381408, -0.3000031882392525, 0.24999721581612613, -0.10000258567000567, 0.4499973816715497, 0.33999722144068323, -0.2500028732544766, 0.3299970514387367, 0.389997052602208, 0.03999754474637986, -0.23000240809309216, -0.02000344018433595, -0.15000351807823825, -0.2900034518649712, -0.18000319140772852, -0.34000296467310204, -0.3100030098961465, 0.22999655815808334, 0.1999964069762891, 0.40999639948779837, -0.46000194020980123, -0.4800020071465544, 0.48999673292256246, 0.05999773670418492, -0.420001210732782, 0.4399987850935714, -0.01000388767716852, -0.4100033326980637, -0.2800026471875431, -0.3200033385498045, 0.39999724642829826, 0.1799972671414115, 0.21999723817317712, 0.1499971937018551, 0.33999711345099526, -0.4600029000593443, -0.16000282012513195, 0.37999771374853536, -0.17000305318598743, -0.47000356223158873, 0.23999654586108654, -0.21000342688360613, -3.1434413057771227E-06, -0.040003011269212595, 0.4199970670151233, -0.05000346590333424, -0.43000383415624904, -0.49000250225166203, -0.0600015984451064, 0.1299969738486228, 0.33999767620446386, -0.10000121754015753, 0.32999870300895523, -1.3735730943728168E-06, 0.4199957158238777, -0.4100032680354204, -0.30000300484078274, -0.31000338221249324, -0.19000281420173773, -0.49000290703899607, -0.1500027899416632, -0.3400027218197596, 0.09999692220234006, 0.19999707904837088, 0.13999748445537938, 0.08999750276477934, 0.2599963544229204, 0.1999964811441982, -0.13000344101207698, -0.23000346942514177, 0.30999681568334525, -0.2000029145172838, -0.11000275377747047, 0.16999617814305223, -0.33000302095412587, 0.2399984320182203, 0.009997057040567617, 0.029997451980393375, 0.13999873566522544, 0.1199986416473245, 0.35999859008716123, -0.03000141591130117, 0.13999503542123778, 0.07999653401740679, -0.16000363002321596, -3.3797004321275E-06, 0.33999719508807585, -0.28000287309479904, 0.2199972822710324, 0.23999736985712497, 0.3299969468426836, -0.35000282451660275, 0.06999774874126435, -0.18000314693310218, 0.17999623869252296, 0.07999649792572858, 0.17999649920700128, 0.28999651810061866, 0.30999682766620373, -0.18000274877168634, 0.18999661822377711, -0.13000337715232563, 0.1399982820044931, -0.3400026989398643, 0.30999757263567346, 0.029998721452214848, -0.5000013400895529, -0.35000139548741016, -0.17000139466597775, -0.3300014641874657, 0.06999522723788282, 0.16999671165101926, 0.049996052310771005, 0.1799968477719786, -0.3600028464332986, 0.3699971483569256, 0.009997227120883285, -0.490002782976987, -0.14000289754064965, -0.3600026257227292, 0.2399973757268065, 0.03999627144849551, 0.4699963510314444, 0.11999651394449544, -0.06000348803456466, 0.15999655100795387, 0.22999699392094522, -0.43000317544795963, 0.48999622215105104, 0.07999787175984495, -0.4500028195057365, 0.21999733082267514, 0.2099987181060356, -0.19000122189672178, 0.4299986658871505, -0.010001397369193823, 0.32999852977256794, -0.020001519792159216, 0.26999531226532897, 0.29999664143303933, -0.010003990137804892, 0.189997065042426, 0.3799969933743842, 0.049997115298566056, -0.3300027975120808, -0.34000269811644174, 0.08999727842280786, 0.3799975041437217, -0.33000333651177644, 0.2999959966948432, -0.4300037549774872, 0.159996500464116, -0.0800032927511645, 0.16999690507956697, 0.06999689799120881, -0.35000364367734993, -0.11000223684273736, -0.49000279053598, 0.2199970975342111, -0.3600013965808516, 0.29999870048031, 0.4299986603908095, -0.340001384213673, 0.23999855689453264, -0.3900014712352424, 0.3499984919584754, 0.4499958462505392, -0.2700034671958444, 0.2499961131202303, 0.1399971255405286, -0.4700029666035341, -0.47000282537418575, -0.2600027262722371, 0.05999741322347522, 0.14999764070769253, -0.4500027340402378, 0.14999621138330074, -0.08000373980666697, -0.05000355520846605, -0.23000338194188502, -0.4300032256195434, 0.33999687250816457, 0.38999631759966735, -0.3200022576272706, 0.009997661802931846, -0.11000294356237672, -0.21000142663062343, -0.4600012808387872, 0.2399987379001185, 0.2699986703354639, -0.4100013865824542, 0.31999856159189316, 0.25999855561947, 0.119998516491325, 0.4899966778982475, 0.0599962454120722, 0.019996398547054484, -0.3600028137434422, -0.07000282800676849, -0.19000275083584509, -0.30000262728687216, -0.14000252732210025, -0.37000240179256944, 0.01999673476610832, 0.2599962394198903, -0.47000357903726375, -0.08000344738905601, 0.35999678375572075, -0.48000305768202983, 0.009996267940714886, -2.6825502946316768E-06, 0.46999785326498444, 0.049997130220395126, -0.060001565626335546, -0.43000128405085714, 0.44999869024609995, -0.47000126362560946, 0.469998629122794, -0.2800013586851588, 0.2199985859757872, 0.059998499710135406, 0.39999844584490113, -0.010003442168025655, 0.46999632367624444, 0.039996775074637364, -0.29000281294916114, -0.24000271891059527, 0.11999734252579557, 0.05999750176856576, -0.4100023830781383, 0.019997290861737137, -3.580183017249626E-06, 0.47999629392255033, -0.37000362785019497, -0.4300034197641035, 0.19999684462460127, 0.2099962642979612, -0.13000324872430583, -0.08000228539797583, -0.030002945334935506, 0.4599984583513465, -0.08000130464716458, -0.48000134381693793, -0.2800012698358539, -0.24000121005365072, -0.38000131753733857, -0.24000126306943773, -0.19000139138461283, 0.03999849186248437, -0.46000158429036897, 0.019996729934035177, 0.049996778207693264, 0.4099969603610497, 0.1999971545533678, 0.24999716084537535, -0.21000267682592064, 0.36999754214957864, -0.35000231946517807, 0.47999689789270356, 0.03999593916210141, 0.25999596388211815, 0.2899960437630991, -0.2100037224710347, 0.4299959967469997, 0.4799963321630458, 0.4899975666113449, 0.4799969485430715, -0.09000170274062957, -0.13000132552208274, -0.1300013379323386, -0.2600013839499656, 0.15999861918563954, 0.04999880502374815, 0.24999875699070204, 0.25999877817971906, -0.3700013678795512, 0.37999847585888125, -0.24000162117419122, 0.20999642397886054, -0.08000360981869935, 0.4499965975318641, 0.44999688765236484, -0.42000305786916997, 0.01999715183252386, 0.05999743210372361, 0.4699976485488661, 0.08999669548296427, -0.2200043716997873, -0.12000411369890308, 0.2699960763644484, 0.3299958552158338, 0.0599958921173852, -0.11000256584130075, 0.36999689052102047, 0.19999792702977534, -0.3400013277166982, -0.3700013719113352, -0.41000135748992783, -0.2700013346902334, -0.240001341398361, -0.3700011962244794, 0.33999880353167333, 0.4399987678154434, -0.3300013458962759, 0.2899985037442598, 0.3599983716875536, 0.4899959370119044, -0.3400041497349487, 0.4399959813765801, 0.11999622167714918, -0.09000369013410107, 0.09999656750625227, -0.06000304666868584, 0.04999726637003449, 0.08999676775039415, 0.30999542405575675, 0.20999548970094387, 0.25999562730388837, -0.14000429579101226, -0.49000284923250614, -0.10000300526338579, 0.19999770431425035, -0.4700015509573117, 0.08999856609912991, 0.029998674145071232, 0.17999862863897376, -0.23000132138344925, 0.17999871100152598, -0.4600012117805163, 0.08999872158614454, 0.4899987145811405, 0.28999856478030156, -0.48000160588239, -0.060001655761538465, -0.21000417464103724, -0.400004236388057, -0.5000041470816028, 0.40999595511530507, 0.21999588124655384, 0.1899960678474176, 0.4799963999909881, -0.07000335685504316, -0.16000343094204725, 0.25999541288720823, -0.14000478097400804, -0.270004708843824, -0.39000323152088645, 0.32999701380468627, -0.2300023602039852, 0.379998396800566, -0.050001626124497704, -0.1400014967207913, 0.2199985157155095, -0.28000145217845435, 0.3599985848878475, -0.07000139416644308, 0.3099987034774795, -0.16000136024015582, 0.1299985838378964, -0.3900015554161961, 0.08999832838045126, -0.19000171491293463, -0.39000421128382695, -0.15000425894916503, 0.11999586074826263, 0.11999590903909158, 0.06999584351981766, 0.48999599092621826, -0.24000381193304007, -0.010003846253024837, 0.309996216088966, 0.2999956230784059, -0.4700049155755915, 0.16999617000878448, -0.48000297789189017, 0.4699974622085882, -0.15000153604552305, -0.2300015789849536, -0.2700015111118719, -0.20000141682370637, 0.059998630414164526, -0.07000150195267733, -0.09000146049787121, -0.35000134457333404, -0.3700014120635276, 0.1299985194020296, -0.440001459854186, 0.299998481090601, 0.06999840151645376, 0.3599981489844271, -0.22000405453517066, 0.149995847700603, -0.2300040394465069, 0.09999599279708898, -0.41000416706566234, 0.1699960419347525, -0.18000388909620782, 0.4899960542783996, -0.3700040479695036, 0.23999569946950441, 0.1499954744637414, -0.38000354285779775, 0.06999717474307117, 0.26999834418679614, -0.430001620701776, 0.14999849793706094, -0.18000145507311796, -0.45000138475364726, -0.30000141867781915, 0.3899984778293432, -0.4300015072827923, 0.03999859147068977, -0.4000014274601752, -0.17000150998639335, 0.04999861025657224, -0.34000154483581824, 0.3899980982988618, 0.44999773845721736, -0.290003776888894, 0.4899960298504029, 0.049996155420006, 0.26999627388940184, -0.08000382675078793, -0.10000376519914587, -0.29000386219158986, -0.3500041450359138, 0.019996127741552135, -0.07000370070505474, 0.06999648608184177, -0.1500032499390501, 0.1399974881673299, -0.1400018405211925, -0.3700015035061391, -0.010001532982196833, 0.13999855479737142, -0.060001425310700456, 0.34999853215124266, 0.12999842428005554, -0.42000154882641033, -0.02000140333646245, -0.2000013832204392, -0.49000143495264725, 0.08999843647035777, 0.17999797923343067, 0.27999773557725, 0.2399975453644582, 0.03999629975896303, 0.42999607002149015, -0.45000378061889357, 0.4299963799777402, 0.2699963284352168, -0.14000366867237435, 0.2699960933372009, -0.36000443692924283, -0.32000346002860486, 0.3799971985105286, 0.19999710442069463, -0.3300027708951864, 0.059997374364614726, 0.41999760565095073, -0.3800015883944243, 0.3899984879829862, -0.030001516687654425, 0.33999857433971525, -0.2600014472321961, 0.20999848833592746, -0.1000014952457036, 0.10999863399073767, 0.1899985010698465, -0.3900017915592369, -0.20000202200937028, -0.24000234800011655, 0.35999750182238677, 0.21999751908786092, 0.1799966149189236, 0.029996296811892996, -0.3300035631465282, 0.22999643948468498, 0.10999635891924536, -0.04000374599033954, 0.09999588789513855, 0.07999588748779982, -0.13000365332517766, 0.12999740048519975, 0.0799973423931574, -0.22000263869031345, 0.07999756549866006, 0.4899975599304782, -0.20000184508809157, 0.2599986387574069, 0.22999860664237523, 0.16999854080125326, -0.430001451778277, -0.34000149378508177, -0.14000153483347838, -0.10000167050483415, 0.039998017838151066, 0.24999773944308734, -0.060002416392755685, -0.43000250915277144, -0.17000256047281964, 0.4299975204314397, -0.26000333496705436, 0.4299966011017341, 0.11999669115055767, -3.42562041177464E-06, -0.010003323624586617, -0.45000398120943974, -0.05000415132921903, 0.14999681862269618, 0.1999961616544168, 0.4599973407982897, 0.059997763021961345, -0.41000248884753326, -0.19000238932089095, 0.02999773302210346, 0.009997995145903974, 0.3299986526690847, -0.25000134852469647, 0.4599985182596822, -0.38000148455866983, -0.09000158380380407, -0.20000182608495348, 0.41999796043270865, -0.13000224202472827, 0.11999764280424989, -0.32000237245480423, 0.1999975264996396, -0.140002503600847, -0.22000244900532087, 0.4899965203733195, -0.09000317383773913, -0.21000310483789691, 0.0399968754911343, -0.37000287029907486, 0.15999660228801932, -0.1600041649944586, -0.060003334978353765, -0.4900037695780927, -0.43000273996343297, 0.27999764597049953, 0.029997453124968047, 0.029997600947266573, 0.14999771005545998, -0.45000226670055776, 0.2699983198001887, -0.39000150090733343, 0.4799985249221847, 0.349998434342205, 0.31999818709567346, 0.38999788305557126, 0.19999776240874392, -2.3828891052023327E-06, -0.030002409570288546, 0.4399976088477886, 0.40999746295101247, 0.1299974763208335, -0.19000243026899896, 0.04999674893158271, -0.5000029243410564, -0.18000283732842204, 0.28999686058089463, 0.17999693770571643, -0.3300031295192518, 0.15999582465385487, -0.22000391345890108, 0.1699959904351493, -0.49000314421866087, 0.4499976824075816, 0.13999778668217258, -0.31000245803612814, -0.4300024207087705, 0.3199975810530109, -0.3300021357067001, -0.3300016229270981, 0.08999843671754641, 0.37999834754980794, 0.13999795425569153, 0.36999762750436566, 0.09999760343046513, 0.009997553141645714, -0.31000249868956314, 0.3499975175421052, 0.03999757467688836, -0.1200022684742414, -0.22000234630720833, 0.4099967827320034, 0.3099971035110922, 0.09999719789910308, -0.2900030587466331, -0.47000299826389086, -0.48000295318221864, 0.37999644915008496, -0.49000389185489523, 0.24999580772308672, 0.4799964781008292, 0.34999765534714855, -0.1500022272849901, 0.4899975706073868, 0.2699975887316857, -0.40000232628859905, -0.41000229139948463, -0.4800017162495918, -0.30000153231645127, 0.1199984498589398, 0.3099981080628658, 0.3799977243091256, -0.1800024316165704, -0.2100024168931039, -0.16000235488946402, -0.470002461739657, 0.4799977147797505, -0.060002212964819494, 0.4499976839744533, -0.020002550645427695, -0.3800026044725338, 0.4299971773039844, -0.3700029519402548, 0.2799969586288999, -0.12000291504696133, -0.14000326804717791, 0.34999597285864886, -0.09000440748264169, 0.2299961379778013, 0.09999739253039673, -0.3300024974566816, -0.3200025211357526, 0.30999754707474847, -0.08000239092512074, -0.31000237556226684, 0.2399979941074016, 0.01999844288417426, 0.14999843572226987, -0.41000177825032597, -2.095734983170622E-06, -0.0900024472137992, -0.34000261973024215, 0.13999747998971898, 0.40999741317443045, 0.0699974620681647, -0.1000024348877323, 0.08999745365906488 ],
      [ 0.010058990608075302, -0.24993839347387936, -0.31993805002331144, -0.45993556247474987, 0.07006786734215556, 0.43006933176258133, 0.02006422385683238, 0.12006434183016206, -0.4499376107175535, 0.21005765611692753, 0.07004775579157832, 0.10004214892540794, -0.09995936571184945, -0.2599599133333043, 0.18004107270960618, -0.20996480481039856, 0.09003596944977989, -0.049965525314889084, 0.12002893965069766, -0.4399716455849842, 0.3900243416517991, -0.39998267205523513, 0.10001403181005424, 0.010015381985574213, -0.16998664765168486, -0.1499887725526372, -0.049992446906867445, -0.4299915055778672, 0.45005884947724295, -0.2199390063986867, -0.27993298260228594, -0.28993458452308796, 0.4700663423725286, 0.27007416731401557, -0.1699301913232397, -0.33993173839218355, 0.05006606347290326, 0.06006047927775726, 0.09004873964681176, -0.24995855683570573, -0.20996052373306207, 0.29003721506100344, -0.3699629854314736, -0.4699646329348467, 0.4400404639621618, -0.45996905211634626, 0.18002671852399052, -0.24997182062891277, 0.23002323749838527, 0.3700217618306458, -0.4499840690338139, -0.049985123275825896, 0.44001626197904786, -0.16998643854473852, 0.19000670592928295, -0.09999325703549444, 0.15006735514679423, 0.17006481479876306, 0.21007313729041327, -0.27992743075857046, -0.029925329530050126, -0.05991861713596117, 0.1700776186669354, 0.2600777828418507, -0.00992440486119196, -0.13993014240903648, 0.13005958898945938, 0.1300528860060121, 0.40004448089959554, 0.010039767093745126, 0.24004026168918308, -0.46995855910169565, 0.360044994303142, -0.13996787593623283, 0.2700275099240593, -0.39997243383429515, 0.4600285390091639, 0.06002457403354282, 0.06001846214906553, -0.21998369948660423, 0.16002100109864062, -0.2999819453604051, -0.1599861780596642, -0.42999056822263065, -0.26992497588434444, 0.26007094955576127, -0.23992463301225195, 0.1300753445641925, -0.4299208714563031, 0.4200842846130481, 8.02236093045296E-05, 0.3700805118503339, 0.3500790473587085, -0.13992825767400788, 0.2800605981783197, 0.34005285374301214, -0.3799575791412787, -0.12996154851523736, 0.030041635820555832, 0.08005110534213714, -0.08995214140403658, -0.4499684868868703, -0.15997851362023915, -0.28997353007096793, -0.3699725048216205, -0.48997648157216805, 0.09002057179892917, 0.08001779954640521, 0.060017976116488236, 0.09001627933897341, -0.059989191863566625, -0.4199896182335219, -0.39992430567505993, -0.07992868523066222, 0.06007514731087944, -0.22992321975244384, -0.4099198348933426, 0.09008542662467746, 0.020082293335465184, 0.2300818651921458, -0.39992191584336223, 0.49007384667185133, 0.0500675540584429, 0.4800573703507676, -0.4999504522888983, 0.3600448273214891, -0.3199533003452114, -0.009948731579701189, 0.0800419164670163, 0.4200242324295741, 0.4800197616827703, 0.09002798485791015, -0.47997126839072213, 0.47002750246582, 0.3700251155553028, 0.11002558617851083, 0.35002080114380624, -0.369986799954124, 0.44001025439544483, -0.2899884722553138, -0.3399223693746777, 0.18007372263907404, -0.42992357847871904, -0.019920652216921884, -0.01991678641161596, -0.07991235257647118, 0.2600828784785417, -0.07991732453238981, 0.300081554345193, 7.728671736091277E-05, 0.2400733874772059, 0.02006011564861239, 0.3500520406111749, 0.30005009093541174, -0.019948002120398326, -0.0899494338327868, -0.009965375626684394, -0.13997683641712036, -0.29997493374547907, -0.2299722733677562, 0.33002970152442923, -0.40997254351544155, 0.4900232754725013, 0.14002263362007428, 0.10002582655431563, 0.3400206168280361, -0.44998341109751017, -0.3699879221072916, 0.05007614793596667, 0.4500747105089992, -0.08992278711801416, 0.46008146079032197, 0.14008309672723585, -0.19991142728569247, 0.060082913510254805, -0.07991782515235633, 0.4200818231076172, -0.42992659415002193, -0.0099274872950852, 0.08006108761009292, -0.4099456320707961, 0.250048503175689, 0.19004851748061957, -0.42995302140226704, -0.3299699370085983, -0.04997376331839169, 0.23002371936403546, -0.2899756074251481, -0.009971264698557936, -0.04997204234259984, -0.3799764182374457, -0.009978171129858993, 0.42002396264496344, 0.17002080946637493, -0.11998146259187457, -0.42998379751863985, 0.18007472070201952, -0.07992630394494966, 0.3700754063201244, 0.1300799634809452, -0.13991727047295463, 0.13008719151632975, 0.36007782914992364, 0.3500774568734918, -0.4099192803600776, 0.2800719682516255, 0.3700623112146208, 0.04005473144864613, -0.259948809945249, -0.43995611119076444, -0.009956479258387045, -0.08995275508646426, 0.3600323270438623, 0.11002504638018035, -0.3299780858923686, -0.4199717688377815, -0.1099726343867946, 0.4200257915441084, -0.029971431709488523, -0.35997207427828054, -0.39997356962442876, 0.330023093972412, 0.13002059778676114, -0.3999813881151514, 0.3300727654571146, 0.42007163814990583, -0.4699269506944335, 0.47007534529719086, 0.42008298154658, -0.009913302766915141, 0.23007747486305005, -0.009921573232811492, -0.30991970487590575, 0.3500690154722684, -0.2899472254481839, -0.049948881315320805, 0.3800462741690225, 0.3400411552321299, 0.4800391632864053, -0.11995697106864192, 0.08002945915255456, -0.3099754872877096, 0.47002721364433103, -0.06996807435057963, 0.4500288385040796, 0.2000268057722864, 0.1200231238530465, -0.1899741655624415, -0.009971031863809373, -0.1999746329707666, 0.17002083956953104, 0.25001989114137135, 0.4500721080516908, 0.23007161488187972, 0.02007316031528623, 0.020074109919757187, -0.4999193904355953, 0.26008240182113773, -0.4899267032457464, -0.3399258940439724, 0.24007263556868894, 0.40006752142451035, 0.12005708939709038, 0.2500520732651692, -0.17995151179522037, 0.4900440936260149, -0.2799589209469325, -0.4899565015792959, -0.10996910922254612, 0.21002619174673462, -0.30996484224347837, 0.050032582053865716, 0.430034746275277, -0.41996790257696937, 0.060023632575314415, 0.41002059273546126, 0.36002653799046186, -0.29997453101951166, -0.35997708118210575, -0.3799775746000243, -0.20993187629181445, 0.22006682497267077, -0.029930539003302278, 0.12007167486104828, 0.3200759195271606, 0.47007528373781043, 0.04006865438344798, -0.03993008664046203, -0.17993018569061386, 0.1900699277234779, -0.04993384795948784, -0.379941518566314, 0.32005262390646255, 0.310045029669924, 0.1400383334665596, 0.1700363643302307, 0.07002966193157377, -0.27997576502823757, -0.39996948982482694, 0.4600332209495244, -0.02996630394032441, 0.11002925694282743, 0.4100253725732607, 0.2700234655502063, -0.3999740578662535, -0.389976827783643, 0.3200215784864347, 0.360024397809465, -0.33993404759619367, 0.11006581706953614, 0.1600670415634158, 0.30006809078781166, 0.11006851497723895, 0.3800705829338047, 0.3600644644126438, -0.47993516644296136, -0.07993103400415312, 0.49007052677126944, 0.43006366195170237, -0.15994439695745885, -0.059951160690796354, 0.26004627736169605, 0.18003960033125166, 0.20003305823499956, -0.23997473297291272, -0.43997925875756305, 0.2200260363581693, -0.38996505033281104, -0.069968381731829, 0.390025133393734, -0.1599775697747493, 0.13002298651801805, -0.4099752901988928, -0.3199763900306661, 0.15002157911017358, 0.1800256442922931, 0.31006093510482335, 0.2000623358846363, 0.010062528292467598, 0.2000603766845375, -0.34994151439453053, 0.170063733772553, -0.19994188149652506, 0.21006563896276895, -0.4799315714352953, 0.15006514491487113, 5.409705869168817E-05, 0.4300458629527195, 0.45003900518845397, 0.12003323826737351, -0.2499745915396334, 0.07002401972236404, -0.20998009341437426, 0.26001908938965274, 0.010022417152973417, 0.2100352194985126, 0.42003410120335566, -0.29997134432900635, 0.010026275887987693, -0.45997160369413415, -0.10997543124857588, 0.2000227933315617, -0.06997605652277308, -0.22997191505674966, -0.23994399759759627, -0.4799466998672528, 0.20005095460521163, -0.07995399285431198, -0.2699543068758046, -0.3299482996772829, -0.29995555727034723, 0.22005161714465774, -0.019943226266422632, -0.2799494778378288, -0.31995629807900866, 0.270043739312243, -0.049962230349331865, 0.4700329353909243, 0.1800287972555528, 0.11002386051973226, 0.050021478174386604, 0.28002357061279515, -0.33997945843863, 0.31003182415737374, 0.1300342122715752, 0.27002864957018585, -0.15997820457562248, -0.16997347824081988, 0.17002737421686076, 0.43002307940132894, 0.26002026270715384, 0.11002413712311282, -0.31994636869590476, -0.02995022815410877, -0.1999544394625523, -0.04996027176682789, -0.2599567727665945, -0.4699503250913281, -0.059960484422847696, 0.49004201390433333, 0.44005032434949126, -0.4299539875584175, 0.19004023331253428, 0.27004460847627026, -0.08996184241876276, 0.03003463414103672, -0.41997315995525336, -0.43998180093472294, 0.07002034119016934, 0.2400199007306512, -0.24997792726593787, 0.450029368406486, 0.020030100183896005, 0.4000280462204616, -0.019978138552724845, 0.10002384273617973, 0.03002560245286088, 0.1100223350232494, 0.13001899843065615, -0.00997806539713086, 0.18005375646834432, -0.1299509903306925, 0.2500428029978334, -0.19996085895629034, -0.08995740193640694, 0.0900456976012033, 0.030037540825715834, -0.4899604448976487, 0.42004531615777396, 0.2200436588734383, 0.020034953035334688, -0.07996513061217082, 0.020031851266406806, 0.18002968096204086, 0.16001869601908333, -0.029981798169480357, -0.4199822941822111, -0.10998618351676184, -0.09998130328903967, -0.399973453323427, 0.18002708316004185, -0.22997052407244686, 0.2500244314922678, 0.4200201973733024, 0.17002306580689083, 0.3000201050169162, -0.40998234787956667, -0.21998083624947992, 0.48005584495580556, 0.20004974010736892, 0.420044523945567, 0.13004295394363127, -0.10995305243500907, 0.44005163269994285, -0.18995718587530538, 0.060042832492036215, -0.17995422882315687, -0.10995285467002733, -0.149958915405072, 0.3200372895814313, 0.4900290698338361, -0.42997289947253425, -0.35998131309291354, 0.3400208599452043, -0.2899843894631478, 0.33001149380788714, -0.07998327246957418, 0.33002482331646743, -0.26997400934237054, -0.49997481702566077, 0.010020275964198692, -0.369977744961957, -0.289978644122296, 0.030018421786453624, 0.31001976928782055, -0.09998098222740642, 0.11005499397203324, 0.32005007216021275, 0.12004688202354531, 0.11004387273179264, 4.783137124083799E-05, -0.2599483298230395, -0.46995709658737017, -0.28995554158606507, 0.3000457624934739, 0.3800480727520105, -0.4699537050221567, 0.08003946365764233, -0.12997096184629967, -0.4099751686607145, -0.34997972575698666, 0.19002267125571926, -0.46998486668854417, 0.07001454262380126, -0.3999820768973048, 0.11002258066678554, -0.36997625008360635, 0.4100218042794455, 0.21001892633776054, 0.3400243429215427, -0.11997557357874113, -0.24997985957529015, -0.44997966187862726, 0.4700213651860516, -0.3099442590463191, 0.28005125523961166, -0.07995015843160465, 0.36004658282885044, -0.3699491912460659, 0.40005302923844, 0.4500462655010253, -0.009950290910861912, 0.2600498904554817, 0.2400457929741782, -0.17995505577606816, 0.2500396626726251, -0.45996796901153947, 0.42002420102961147, -0.46998143641822343, -0.17998017892675225, 0.29001894866014083, 0.33002091319716687, -0.04998181871059965, -0.36997719620120173, 0.3500220183169284, 0.32002083749499594, -0.40997468885345567, 0.13002841509165083, -0.0799732887205404, -0.29997869424743734, -0.22998025609078038, 0.2000229538953226, -0.389944003720926, 0.2800539810778817, -0.27994865670731933, -0.25995037700761264, -0.3099477298737459, -0.449945312218211, -0.47994954061709405, -0.48994709148113386, -0.03994492115342113, -0.3299513868568074, -0.04995210212720271, -0.02995805147335141, -0.3599617634408305, 0.15002802130284307, 0.42001815522406044, -0.2099797762971113, -0.24997512250131168, -0.14997523522724823, 0.07002291802187621, -0.29997221151655074, 0.3700247493648136, -0.11997870493709559, -0.4599741243339098, 0.04002848381107003, 0.290025210578925, 0.41002110580230966, -0.37997813240695494, -0.1299791722009734, 0.18005610013962173, 0.28005300890762447, -0.06994905288386005, 0.4200502980940406, 0.13005448883487564, -0.25994260924832663, -0.1299467164826066, 0.48005508637635425, 0.010058381646715261, -0.4299500509666328, 0.05004806337472257, 0.4800466332043819, 0.4000451207041437, -0.4799673446723244, 0.3600241624073138, 0.12002892716346772, -0.11996925028091716, 0.4800276713689142, 0.480025091937587, -0.3099685105411745, 0.39002861030393593, 0.3000212761473144, -0.1199765942897485, -0.42997672329421216, 0.12002200101543721, -0.43998022556015676, 0.3300205108642132, 0.23002232490807975, 0.24005697990338365, 0.17006195289028506, -0.0499454921373156, -0.22995157603003807, 0.4300547171689672, 0.14005669762147083, -0.16994828730228723, 0.18005314774361333, 0.23005428947346618, 0.020046649524319025, 0.3400413413108322, 0.4000431573076184, -0.2299625587044428, 0.4400299564439378, 0.27002301171237963, -0.31997363019044195, 0.29003090918252733, 0.08002366529873974, -0.20997651638787845, 0.3500290311699583, 0.020028309153459968, -0.08997908156047381, -0.33997890724307434, 0.30002130442042363, 0.4300204934982348, 0.42001862795262196, -0.029979461737361462, 0.3800222666639266, -0.09994771409366912, -0.13994304446223987, -0.19995007285432734, 0.06004532197788877, -0.08995091852746516, 0.1400515099383571, -0.2699520338226029, 0.33004650941130376, 0.12004846273696222, -0.21995713993436034, -0.4499618776289128, -0.24996161258945482, 0.19003148238859507, -0.32996981182951884, 0.38002302935323484, 0.35002263107319254, -0.3599712689639853, -0.41997658185067654, 0.41002202598356347, 0.45002478823142833, -0.46997751153529377, -0.30997927970160444, -0.2299794390128271, -0.45998039466083657, 0.2600206933966246, 0.4700180569998802, -0.2899848428312954, -0.1799816347398401, 0.010050268512317544, 0.14005209663344032, -0.15995387233192815, -0.4999557429158051, -0.3299529628431227, -0.05995027389062473, -0.2199527819662326, -0.1299542849551094, -0.27995204158616455, -0.2299607541921196, -0.019965570890646635, 0.1300381404367901, 0.20003344866250364, 0.43003093269309467, 0.050022711557525856, 0.0100212817889009, 0.02002746181587684, -0.45997492091459047, -0.33997806179806395, -0.15997533188103716, 0.02002087961347566, -0.19998063555228188, 0.16002052658778254, 0.34001846673745273, -0.4899837775167403, 0.020015900875303267, 0.3500147094364753, -0.29998258112713055, -0.4199511231227028, -0.24994993995687656, 0.30004433261812696, -0.06995947369209404, -0.06995751873870043, 0.4000469325354721, -0.1799562561187806, 0.48004208767994744, 0.4400439805114549, -0.44996419684106026, -0.4199679482674053, -0.2599650772441151, 0.3900329256873081, 0.010030073918728193, 0.13002520339910187, 0.3700221575814257, 0.09002572710804718, -0.21997711760913477, -0.25997767441930425, -0.40997456189876563, 0.14002391958018495, 0.2600249722228167, 0.010024965826865328, 0.22002307151819783, 0.3100213521990895, 0.36002370032332376, 0.2900246901452907, -0.28997762531760424, 0.4700475497843004, -0.009948354342658542, 0.4900446158667868, 0.14003926584202675, 0.09004113815898294, -0.4299548520403742, -0.21995771944093068, 0.46004217975632183, -0.02995575089327525, -0.44995986225785256, -0.2999626415978352, 0.2900384803453438, 0.11003824276175014, 0.07003633154565071, 0.06003346597499428, -0.029967729784867572, 0.45002875555697713, 0.42002837989811787, -0.059972850395434596, -0.48996881101324863, 0.17003227805765977, 0.2800310394692633, -0.2599699727597968, 0.22003073745606047, -0.2199722072302963, 0.25002496056043055, 0.06002245075558532, -0.17997737032517477, 0.23004748420455592, -0.4299503161250481, 0.11004480500024451, 0.060041439099934014, -0.3899580095673005, -0.3899551775206544, -0.4999576007578521, -0.05995723913300791, -0.43995569248077976, -0.06995888936896892, 0.1400377735439791, 0.3200374538740138, -0.27996317034871954, 0.1600351338657518, -0.10996587164076886, 0.04003514802965642, -0.41996819302895033, -0.05996969588649051, -0.01997331201302177, -0.4299705253604344, -0.3099655162548194, -0.459968290166963, 0.26002579264714476, 0.39002913753983603, -0.0799688521266087, 0.2800250688905294, 0.030020420411081043, -0.31997755714651116, -0.24994972230229562, -0.23995304876584103, -0.1399531016019158, 0.3400483400126174, 0.010048911213791171, 0.4500496346179429, -0.2699518342765768, -0.1099509660766103, -0.06995063755919209, 0.14004816867238604, 0.18004560888940785, 4.3455868527822995E-05, 0.06004253517593378, -0.37995939834858, -0.09995941589012561, 0.010041456263520378, -0.22996123347495642, 0.12003381860110904, 0.2800311702703922, -0.49996686766837667, -0.10996672172237996, 0.19003477508152564, 0.14003378467197974, 0.33003386707292354, -0.2299657443676269, -0.009969605810349542, -0.369973942576674, 0.1900280184858723 ],
      [ -0.20000062442253172, 0.20999934937769452, -0.37000065708643287, -0.18000067994228117, 0.06999929062480892, 0.3099992784124104, -0.31000067291016664, 0.29999932413626756, -0.4300006587861605, 0.2899993903837281, -0.20000051425841153, -0.23000046284369297, -0.07000045020755595, -0.5000004483342341, -0.40000046192488903, -0.06000040974307351, 0.249999577259931, 0.46999958363161715, -3.6439613660112586E-07, -0.4300003393903367, 0.12999971750945208, -0.2500002208855458, 0.10999979955866743, 0.2899997813488678, 0.4899997920824246, 0.029999817426101104, 0.2899998495210297, 0.049999818232499854, 0.10999936964251376, 0.01999934608527745, 0.06999928797232047, -0.48000069832497444, 0.31999929326889903, 0.029999224085721116, -0.4100007333719078, 0.20999927193679196, -7.181131777084532E-07, -0.14000066830700528, 0.429999436400579, 0.24999950218468994, 0.42999951894011784, 0.09999953987787778, -0.06000046208463017, -0.02000044135947335, -0.18000048211659567, 0.009999596582080468, 0.06999962936260871, -0.12000036028855575, 0.08999971952146908, -0.3000002587349279, -0.43000020136590905, -0.21000021386202625, 0.4799997708471949, -0.4500001884385507, -0.4500001273459337, -0.4500001390594303, -0.4000007105668668, -0.16000068927967936, -0.1800007681178651, -0.47000076556021386, -0.49000078470012, 0.12999915824376476, -0.3100007994100166, 0.039999190810124735, -0.2800008028612358, -0.2300007511477446, -0.06000066449979357, 0.3899993934934285, 0.4099994653864686, -0.11000050034537094, 0.43999948491245056, -0.1100005199726891, -0.4600005434911153, 0.24999956413754915, -0.3600003947979055, -0.4700003823866489, 0.3099996491967387, -0.370000307362904, -0.030000249056247808, -0.020000231287177445, 0.44999972745088485, -0.1000002398149384, 0.45999978020574617, -0.10000016235616511, -0.060000792666326186, -0.23000074496712544, -0.47000078832335584, 0.26999920926305926, -0.020000826776380664, -0.4700008724068106, 0.10999916962224753, -0.35000083518483127, -0.4700008276757817, 0.38999924881332143, 0.22999934953901696, -0.21000057977091044, -0.09000048441310413, 0.3899995444579229, -0.25000049542612734, -0.46000058200319194, -0.44000054700738983, 0.1699996018899435, -0.030000299350016232, -0.3100003525067113, -0.24000035029181016, 0.17999967779576503, -0.2600002843619639, -0.27000024703322967, 0.4099997520783102, -0.48000023830908645, -0.260000197539808, 0.4599997747336542, 0.369999188161545, 0.3399992348257083, -0.4200007928127046, 0.09999918903677028, 0.15999915601836948, 0.2799991090969688, -0.41000086183414297, 0.43999913855869743, -0.2600008285412406, 0.16999921945276816, -0.0900007234729715, 0.36999937086917295, 0.2699994431480686, 0.2799994890288898, -0.140000533124938, -0.3500005822063917, -0.4800004930992697, 0.3399996747780906, 0.11999970211461164, 0.41999961210996795, 0.3799996347694759, -0.07000035739512273, -0.09000032503896617, -0.22000035112591282, 0.42999968281837614, 0.2599997381470242, -0.3700002330004846, 0.2599997523040658, -0.4700008159237317, 0.2999992148144839, 0.3499991933418156, -0.04000082875772065, 0.28999913200097993, 0.14999908849433977, -0.22000087090904202, -0.3100008741052899, 0.30999912748103803, -0.380000829857013, 0.11999920449148774, 0.11999932596159374, 0.2899994010332492, -0.20000058023875905, 0.2999993982240448, -0.11000058772711933, -0.25000043338782013, 0.09999967770139971, -0.08000035015307794, -0.020000372842401894, -0.190000375369093, -0.4100003532022464, -0.2900003048920049, -0.44000033461190236, -0.11000038864831196, -0.19000030900240011, -0.42000027474322776, -0.06000021311617475, -0.08000078585116566, 0.2999992244380753, 0.16999919567341853, 0.3999991640514973, 0.13999915184013376, -0.17000090320415892, 0.40999914188257336, -0.060000857683641884, 0.30999913145354274, 0.44999920058770765, -0.43000079709145045, -0.3900006947231991, -6.330366379899647E-07, -0.3300005760398402, -0.17000056468572178, 0.3899994420591901, -0.2800003945264253, 0.4899996444100129, -0.38000033967631974, 0.06999966737967114, 0.11999963880090812, -0.48000033496851063, -0.480000290207405, -0.17000032919694022, -0.17000033157282946, 0.14999972381573085, -0.050000255656236135, 0.42999976278771346, 0.07999922004252508, 0.28999922681887813, -0.44000079027988526, -0.030000835911488624, 0.06999914630415903, 0.33999910608269135, 0.2599991860092701, -0.4900008164746168, -0.06000085416715086, 0.21999921806565506, 0.47999929908617756, -0.04000063525479461, -0.110000608826632, -0.14000052865221535, 0.06999950143809197, -0.2000005414653011, 0.01999960924271303, -0.20000032138038623, 0.46999968909832335, -0.3600003679008987, 0.24999965181929457, -0.190000310405709, 0.32999966501933614, -0.10000035276704689, -0.31000031533073863, -2.884288458267218E-07, 0.3099997350875339, -0.10000024555433017, 0.2799992363973904, -0.16000075672598926, 0.059999233874910324, 0.4799992201850785, 0.37999915405711915, 0.4699991265030286, 0.34999920820025454, -0.4900008050715386, 0.3899991672631395, 0.09999925394523837, 0.039999391799476716, 0.1599994029783016, -0.10000055296531513, -0.18000047945794448, -0.050000457995950126, -4.95971408124154E-07, -0.49000036149878134, 0.1599996879611271, -0.330000349485848, -0.240000399341254, -0.06000036796620696, 0.2099996761916672, 0.3099997175572776, -0.480000308887762, 0.16999966880738182, -0.2000003034172255, -0.3200002637813569, -0.24000024879682916, 0.45999924007212295, 0.15999923963257393, -0.22000077658453746, -0.44000077024692785, -0.48000082666195515, -0.14000083773013838, -0.28000075393175883, -0.4000007680873577, -0.35000076431042215, 0.489999271380794, 0.06999935438329594, -0.0900006036596345, -5.646078816143176E-07, 0.05999949476165554, -0.10000045113708993, 0.409999542623995, 0.2599996283538201, -0.19000032157669275, 0.23999959465536652, -0.08000040071786198, 0.3599995846252458, -0.1700003612948529, -0.12000027312757623, 0.019999767950282785, -0.17000028776521284, 0.039999717180733294, 0.44999974385696045, -0.4400002485669659, 0.029999275246900013, 0.02999928509653012, -0.20000074233385298, 0.06999925397935435, 0.2899992140114423, 0.07999922598944953, -0.4500007172779818, -0.2700007377417123, -0.19000072880020744, -0.020000750272942357, 0.1299992669641643, -0.4700006643408464, -0.4100005933261229, -0.16000049162131144, -0.16000042254523184, -0.49000039724755606, -0.42000033952481125, 0.25999970831773156, 0.2599996319245871, 0.3799995930239866, -0.20000039739287434, 0.3899996707152777, -0.2400002822667411, -0.1400002558161784, 0.05999971828917479, 0.24999974157239643, -0.10000024555927552, 0.11999972863041067, -0.23000070672495462, 0.25999929147972833, 0.22999927706324738, -0.020000709761003287, -0.09000071261256785, -0.3400007316058201, 0.06999932212286032, 0.11999932277634298, 0.1799993037773286, -0.5000007322328811, 0.10999931368997481, 0.4199993808845959, -5.307204476209893E-07, -0.3300004700799394, 0.08999958232692186, -0.2200003742263256, 0.17999970229412854, 0.19999974090276806, -0.18000032844467273, 0.009999579627281922, 0.47999963518196304, -0.13000028220273066, -0.07000025281509199, 0.059999738168848286, 0.26999972718606535, -0.4300002623810567, 0.2499997507970337, 0.1299997192230248, -0.24000066044524318, 0.4399993246701947, -0.49000068164758115, -0.4600006480055127, -0.3200006265253384, -0.07000066653682059, 0.4599993841465434, 0.04999930608671397, 0.23999929977661538, -0.3500006747645363, 0.11999940770154789, 0.4299995019949443, 0.2699995813880674, 0.21999966812872263, -0.1800002772343084, -0.420000303644559, -0.36000025504734784, 0.33999974969995067, -0.13000029608450647, -0.3700004178999336, -0.21000038777943028, 0.47999966970381963, 0.16999969785608515, 0.34999968276322035, -0.08000027647813715, 0.3799997379980283, 0.1299997291917365, 0.3899997003181631, -0.18000061625198593, -0.3400005923992222, 0.19999942468011322, -0.17000052086580078, -0.09000051440044636, 0.4299994433205989, -0.1500004879099941, 0.23999943987077696, 0.47999939648395074, 0.06999944355125955, 0.23999949769873913, -0.4300004743911306, -0.2900004009854134, -0.4600003424217295, 0.029999696517521084, 0.02999972001293649, -0.4300002732221206, -0.11000029464568614, 0.22999972002108635, -0.24000039058308043, -0.4600004103374602, -0.15000034707336216, -0.09000026686981957, 0.4299996961290631, 0.19999969716418328, 0.10999973418751073, -0.1600002390254931, -0.22000026461553313, -0.2400005958571489, -0.3500005589741488, 0.10999947583242388, -0.21000046023604704, 0.28999951281422087, -0.4400005349794434, -0.27000044005908097, 0.07999953410532029, -0.060000542269745875, -0.21000052127924798, 0.009999509666995376, 0.33999950040311844, -0.13000041344382665, 0.07999961984912296, -0.4100002869069925, 0.05999978749966086, -0.4100002585273541, -0.21000025284487875, 0.4099997104884939, -0.2500003665401699, -0.05000037286257603, -0.3600003375373057, 0.2699997360418385, -0.47000027882464146, -0.3600002891680235, -0.1300002586776076, 0.34999977637601426, 0.46999975700096913, 0.23999940207225662, 0.25999945129517077, 0.12999950436928875, 0.2899995490089639, 0.07999952437693152, -0.44000049801533914, -0.03000041852727563, 0.3299995606816177, 0.45999950054276145, -0.060000499719533223, -0.2200004457199891, -0.35000040507350105, 0.29999966268177775, 0.43999968606766815, -0.42000020245821434, 0.2799997896013376, 0.36999977568596154, 0.38999981484734497, 0.37999974989036206, -0.050000340178737716, -0.2500003427071223, 0.3499996531970631, 0.32999971807039485, -0.10000023985998649, 0.19999973931218404, -0.41000022986796103, 0.3199997969024024, -0.39000021102995874, -0.13000061251016737, 0.06999944865959219, -0.3600005065291175, -0.0900004793407276, -0.30000051030230585, -0.24000054851159186, 0.3299995328294487, 0.16999952835682566, 0.15999948944661294, 0.219999459118519, -0.2500004941378189, -0.20000044134670117, -0.3900003396235257, -0.24000031405975647, 0.0999997706571735, 0.14999975247424693, -0.49000020232204144, 0.2599998390552595, -0.06000023998784489, -3.3831548218747406E-07, -0.440000348318449, 0.48999967581176357, -0.3500002625777622, -0.25000027401831476, -0.020000261542391345, -0.1100002328839872, 0.20999975599142942, 0.38999976763744637, 0.41999939601413455, -0.28000056024685116, -0.4100005329548103, -0.010000500684587176, -0.26000052942955065, -0.15000056937392528, -0.05000049483516215, -0.11000054031044999, -0.20000057634833435, 0.3599994008911621, 0.43999941756040817, 0.039999487025218376, -0.390000409407248, -0.10000035843311202, -0.3800002911928049, -0.35000030706425955, 0.13999976418693305, 0.07999977438910191, -0.16000028644865855, 0.47999964190198274, -0.2600003628040998, -0.32000032610997975, -0.11000027988330968, 0.4299996772873468, 0.13999967996458082, -0.18000027983273487, -0.45000027791707486, -0.12000028194485472, -0.09000060433355221, 0.38999942961459033, 0.42999944439130094, 0.3099994803435561, 0.039999440528235126, 0.42999940791866736, 0.2499994622248662, -0.07000059495025017, 0.12999939203221642, 0.24999942555671745, -0.4400005676254785, 0.2599994971448609, 0.3099995769667152, -0.3000003538179399, -0.15000030825007196, -0.36000030961038254, 0.30999970129391063, 0.38999968485313075, -0.11000029700878304, 0.1499996499673729, 0.3599996593633954, -0.5000002996800273, 0.10999967420464607, 0.3899996502171725, -0.450000329809282, 0.21999971808734167, 0.13999973573591923, 0.23999970927152833, 0.3199993850152425, -0.3500005918274787, 0.34999943655590804, 0.41999945330217486, -0.21000057877080683, -0.4400006069936091, 0.46999939435559324, -0.10000066183162873, 0.4299993186667885, -0.37000061884674423, -0.5000006098199139, -0.3300005428362875, 0.14999950267709053, 0.17999960770635784, 0.009999689816709493, 0.37999968344697543, 0.019999650393994685, 0.07999965510070878, -0.3300003168078974, -0.46000035196406847, 0.32999967999554586, -0.250000277736359, -0.39000031514261274, 0.23999966429772498, 0.42999970024103584, -0.10000026352718702, 0.019999732368116797, -0.1000002577198213, -0.22000059818792148, -0.4700005718501208, 0.2499994442930952, 0.30999945006031554, -0.2200005877404028, -0.5000006439940927, 0.10999934062559849, -0.030000674762937305, 0.399999330217294, -0.36000058236173155, -0.04000057570186818, 0.23999942404253613, -0.2700005472299161, 0.43999958953834184, -0.29000032192960945, 0.17999963546838785, 0.3899996136622257, -0.29000034829482985, 0.4899996923835481, -0.3200003633191691, -0.010000339110587612, 0.2199997340209347, -0.1300002769786911, -0.030000273935342124, 0.049999743849777005, 0.09999976387146317, 0.39999975960066353, 0.06999974629820284, -0.47000059775359126, -0.40000065104059357, 0.47999941519786155, 0.38999947493993264, 0.03999941691882602, 0.059999374263380145, -0.38000059689935806, 0.39999939734961304, -0.13000060220692966, -0.3200005308027672, 0.379999517421066, 0.139999504367536, -0.43000044045892394, -0.4700003638730788, 0.46999970462741125, -0.1200003254883323, -0.3900003713832258, -0.07000030666132355, 0.29999970233380624, 0.3899996550543591, -0.47000034136359753, -0.07000029209319754, 0.3499997277242504, 0.20999974296633567, -0.10000024869088422, -0.17000023372117512, 0.4099997497187699, 0.04999973553349795, 0.14999945289964628, -0.23000060208054676, -0.24000053401805052, 0.17999951223840935, -0.400000532631541, -0.47000055636122234, -0.06000052440615103, 0.29999947976486563, -0.3500005527339766, 0.059999493083237224, -0.31000046603837833, 0.15999953135154255, 0.3199996058635133, -0.19000037744329262, -0.2000003186627403, 0.2099996723032236, -0.18000039061921566, -0.15000035412761883, -0.4000003484628022, -0.0500003660592562, 0.2499996644516945, 0.48999967641221337, -0.15000032909293037, -0.39000028990716784, 0.28999971062992674, -0.4900002665760639, 0.02999975944704026, 0.08999973395147781, -0.2500005511180255, -0.23000058259977535, -0.010000522186595999, -0.3000005166534318, 0.14999944530443907, 0.06999940320864642, -0.26000057181450287, -0.4100005739478567, 0.4199993884717888, -0.3000005381676402, 0.03999949006529227, -0.4700005331735222, 0.08999954714846391, -0.34000041885331983, -0.2700003440935542, 0.03999964915064877, -0.27000042051701567, -0.3600004081236672, -0.4300003879610498, 0.2199996032914476, -0.3700003656620851, -0.3700003244866791, -0.11000031630911954, -0.4500002939741079, -0.27000026470941313, -0.04000025859531204, 0.28999976061635463, 0.15999973784330723, 0.41999943164522513, -0.3600005789029871, 0.3799994700226205, -0.41000051341102844, -5.363053368927822E-07, 0.33999940782525045, 0.04999941385568163, 0.3699994140527347, -0.4300005894052721, 0.47999949904240463, -0.4900004875288572, -0.2500005032004388, -0.4300004407667884, -0.30000040808496015, 0.279999643271037, -0.390000342575926, 0.29999961825134075, -0.4300003621194717, 0.34999964224169555, 0.07999961662636179, 0.24999963122780963, 0.30999964195454166, 0.37999965659955104, 0.14999968013585388, 0.43999969280671075, 0.30999966487331854, -0.04000033143811879, -0.39000029734004255, 0.37999945694530124, -0.07000058712756183, 0.4699994649745815, -0.32000050859266854, 0.2699994791052034, 0.06999942011569359, -0.3300005744613812, 0.2699994245996012, -0.1800005567892812, -0.060000504202677454, 0.029999506716396, 0.2399994995354934, 0.10999951465031717, -0.15000046677144782, -0.04000043191838275, -0.26000042311084676, -0.3800003899977177, 0.3099996084447757, 0.14999961323757444, 0.41999957548234396, -0.15000043716731523, -0.23000039932021243, -0.26000038354642613, -0.3500003816870795, 0.0999996454624723, -0.29000032984881896, 0.4099996923362249, -0.4000003000954769, -0.24000053907958102, -0.28000057411077445, -0.350000562817793, 0.18999946067738785, -0.12000053408273206, -0.06000056002233372, 0.48999944628073216, 0.13999943094748823, -0.49000055429700873, 0.3299994937657071, -0.0300004751688577, -0.01000046542767682, -0.4800004627166447, -0.5000004556705295, 0.2899995676950208, -0.15000043026953186, 0.03999960692875132, -0.3900003843579551, 0.4699996419860617, -0.10000038592272435, -0.1600004292822316, 0.1299995966852789, 0.019999658870390444, -0.38000036576514423, -0.35000038190710536, 0.02999967512324472, 0.2599997187425359, 0.0999996924461357, -0.3200005732091762, 0.3099994249312125, 0.0699994077063574, 0.059999409678508815, 0.15999940768885873, -0.44000060474712394, 0.0099993834351679, -0.4000006237817531, -0.21000060492303646, 0.33999942132033867, -0.14000053932633372, -0.33000051436236494, -0.15000051262450145, 0.3199995106466119, -0.27000048996681714, -0.2100004862837041, -0.16000045717748906, -0.35000041555395756, 0.3999996047575834, -0.16000042185535987, -0.020000418590443197, 0.3799995687940838, 0.10999958053992999, -0.010000418452449889, -0.27000042000238555, 0.009999614485374609, 0.25999965391841934, 0.1299996277710883 ],
      [ 0.19000744471929615, -0.47999311413424683, 0.030006948022763193, 0.3400083737143057, 0.17000949702079093, -0.10998944739050852, -0.04999060994725413, -0.30999082233789205, -0.24999112328400092, 0.41000815995376944, 0.3300071167282987, 0.4500063446240926, -0.009993852143432423, 0.19000630738007626, -0.43999314509870935, 0.19000690538446316, 0.24000724554350583, 0.29000682681213846, -0.45999429148516885, 0.01000656833262666, -0.10999501088229133, -0.26999741541980715, 0.2800025705142772, 0.490003597312195, 0.13000349880925235, -0.07999715632328935, -0.38999846207528377, -0.19999710650192, -0.2999926285996229, -0.42999280126224176, -0.17999086966579386, -0.35999110910948595, -0.1999907702284177, 0.3800119320545749, -0.09998998615094695, -0.239990116747445, -0.19999014842656268, 0.010009996755213921, -0.009990655579172949, 0.4600066750289405, -0.12999386288468695, -0.45999370849706894, -0.45999353589843595, -0.07999363346290936, -0.17999240334952005, 0.44000591019944546, 0.34000434884095926, 0.2900049679944825, 0.32000253729535405, 0.4100017876656289, 0.25000058529925984, -0.05999783764416909, -0.039996570564391654, -0.24999792699682274, -0.2700000841931063, -0.03999931221897393, -0.25999026793739904, 0.03000883837588787, -0.2899886395306276, -0.24998784321928347, -0.229987228761471, -0.34998547814152325, 0.4900127621708668, -0.32998670451291795, 0.09001320727883591, 0.18001323841542952, 0.15001265721283177, 0.11001027452501282, -0.21999158386869413, 0.29000824844237555, -0.10999125354228342, -0.27999097195800876, -0.20998999437833749, -0.4299931913041094, -0.35999575209631296, -0.1499952464905473, -0.30999615869656766, -0.14999729691908587, 0.170001675930239, 0.18000173407956296, 0.07000381849234621, -0.179997055172569, -0.02999733572840562, -0.2199995073164594, -0.179987096789412, 0.3800113928054066, 0.18001254439574368, -0.44998659347159536, 0.14001465127356974, 0.44001659195206705, -0.47998579134777364, 0.2600140412123266, -0.19998574783189768, -0.2599863084516279, 0.190011566151115, -0.27999032778668226, -0.4599930167763423, 0.3600065978463724, 0.3300077907428698, 0.13001058180465488, -0.2099902821073806, -0.26999459892112704, 3.9671936444796506E-07, -0.46999683894935634, 0.020003329644569724, 0.020002629361687094, -0.3599974897914298, -0.11999759228937933, -0.39999682222806715, 0.380002715906636, -0.22999885696273997, 0.39000212817329044, 0.36001324017188246, 0.020011871837854286, 0.1700125185735427, 0.4400134621272709, 0.1700149646787367, 0.21001633825027433, 0.35001464302402885, 0.20001445544159993, -0.4999862468931834, 0.10001400031958183, 0.4600137198542377, -0.15998942367138502, 0.2600083979522554, 0.12000737874094078, 0.4100089149814288, -0.44998995216685667, -0.11999164478424501, 0.4200034791224557, -0.19999860085011942, -0.1799954269315131, 0.0200036595899769, -0.45999648054471864, -0.1099966294445, -0.1599943550366905, 0.3100050129234944, -0.06999675390088506, 0.25000258029483197, 0.29000291045263565, 0.2400132399391202, -0.20998736501456425, 0.44001363528387505, 0.26001422495307464, 0.16001607518575023, -0.37998269471758916, 0.40001539441154127, 0.2800151887747733, 0.060015205225302806, 0.24001566786877618, 0.040015473152042715, -0.16998810459463248, -0.48999093695538964, -0.37999163199032593, 0.12001053232180507, 0.18000903010707525, -0.23999516175394123, -0.3399980427064438, -0.23999731045156938, 0.4000036867219071, 0.10000324321996566, -0.4199974954445017, 0.49000242405717037, -0.3199948054620284, 0.0700065756481496, 0.44000373037938834, -0.12999635857690028, 0.31000110969485667, -0.37998751043121964, -0.16998736541429438, -0.36998630654115494, -0.25998623577596724, 0.4500144088365956, -0.44998375653894873, 0.46001470024059454, 0.21001484537210938, 0.16001522873589794, -0.2999841012308437, 0.17001659958530932, 0.1400131083789867, 0.22001078782962272, -0.37999158992215, -0.00999149224086593, 0.14000734149405514, -0.11999640357406015, 0.4700031105997597, -0.1899972453326468, -0.10999726711383753, -0.07999715613842395, 0.20000197290153604, -0.42999758402568544, 0.1500047139400421, -0.32999515319496286, 0.3500028813430888, -0.30999782129188685, 0.15000189061384148, -0.2099875784897552, 0.2500121547735622, -0.3099874074991436, 0.22001368188996115, 0.25001384166018853, -0.4199851769057371, 0.16001291610356522, -0.269987363757305, 0.11001304788958448, -0.19998729377104763, -0.12998836359800825, 0.45000980474247804, -0.34999131172924836, 0.4100061203618988, -0.4799953207984981, -0.43999406715756223, -0.019995992367559032, 0.12000194804568187, -0.3299981127734318, -0.02999547410694395, 0.09000380984628073, -0.14999779188384538, 0.30000408186077065, 0.0900055899981333, 0.13000508684115217, 0.4700040715701131, -0.10999680731320965, -0.089997124118791, -0.24998854588240615, -0.029988369975107978, -0.4399879466814678, -0.3999873291990272, 0.36001409503566806, -0.1999848579473489, -0.08998706393634412, 0.40001273215870314, -0.4899867446113325, 0.4500114232575376, 0.38000743848409724, 0.13000715042905062, -0.03999370426299264, -0.2399951797296831, -0.4699968824961557, -0.42999631613648, 0.10000307775233164, -0.1499977366140493, -0.26999634392351796, 6.027173355594654E-06, 0.17000511347435093, -0.4899966626595035, -0.32999740250329823, 0.04000450828020578, 0.17000579320226883, 0.21000497162321635, -0.4399967354400894, 0.44000287705583374, 0.4400110979087442, 0.09001145472769187, -0.4099879741695677, 0.27001267628762265, 0.18001431596486162, -0.25998484514548686, 0.4700121558615781, -0.36998787035796077, -0.26998784835494244, -0.23998763766132078, -0.40999110618425355, 0.3400071422850537, -0.009993111409478889, -0.38999321938349707, -0.4499950708587036, 0.02000459681825133, 0.23000489820983502, 0.04000415032363923, -0.48999436652339257, -0.16999348423711, -0.18999255860961742, 0.22000636536253637, 0.49000399566913927, -0.22999766932303786, 0.23000507312091228, 0.3800048802992574, 0.2400034328157463, -0.25999637567581163, -0.1999884291176913, 0.02001130985552509, -0.06998833352644722, -0.3499875236436044, -0.25998548969115587, -0.029984704321668627, 0.4600125521095293, -0.07998791841847419, 0.36001174491663807, -0.3999872625984669, 0.4400118887755473, -0.2799904958237646, -0.21999197699366974, 0.40000681028898977, 0.3400044189962343, -0.1699960277550886, -0.23999663660778756, -0.11999702795846856, -0.489995067130614, 0.050006206644107716, 0.46000704288449445, 0.14000632887502934, 0.3000047204356853, -0.37999617533210917, 0.20000529691946753, 0.23000391737387793, 0.12000288407294045, -0.2899956534718985, 0.09001195167271339, 0.31001175253369034, -0.45998768689052233, 0.29001260570617876, -0.00998594203947248, 0.22001520894151375, 0.32001228909927526, 0.21001135047429778, 0.33001211421860477, 0.4400130235605517, 0.10001116988820881, -0.4899911050937254, -0.3499933992932188, 0.13000531445231228, 0.16000369483795707, 0.13000393644811473, 0.09000203734299479, 0.2800017584242001, -0.4599960441816668, -0.08999367581224119, 0.3800064660350396, 0.15000487807998542, -0.4999964794031186, -0.1499953138136622, 0.37000558319665716, -0.3199958911054776, -0.21999668247506327, 0.16000457777596622, 0.21001103077138408, -0.1999892880414317, -0.04998840693745765, 0.010011377274251712, 0.3400124929256325, 0.24001365893821788, 0.32001058222952256, -0.4599897046681769, -0.43998827223733356, -0.34998790436297833, 0.22000969739554724, 0.05000614210065201, -0.429996222845965, -0.3699976803270815, 4.879719460340129E-07, -0.1799977113687313, 0.2800017003667482, 0.4900021625041542, -0.09999599795443546, -0.1699923651018136, 0.4800080249135863, -0.3299931343127861, 0.03000598474374964, 0.4100066048055296, 0.18000596446564512, -0.28999522889175283, -0.16999548412680468, 0.430005516810196, 0.3000098747300939, 0.18000843600875138, 0.4200084396136789, -0.18999177016233787, -0.05999089539253041, -0.33999014044812936, -0.4999932811591643, 0.03000661579649158, -0.009991927210956975, -0.4199921191551146, -0.3399933209851544, -0.09999406695037635, 0.3000041852350481, 0.11000393616397572, 0.06000232682848416, -0.05999762190223706, -0.44999763395621484, -0.019996685125483606, -0.16999481765201574, 0.25000871600181884, -0.34999053743565295, 0.18000789842727816, 0.060004774643096434, 0.3700060071766634, 0.2700068137178073, 0.45000606046082203, 0.1800036028652951, 0.03000396695130133, 0.2600096291360434, 0.030007981358241113, 0.32000779376459254, 0.13000711413227112, -0.08999233401767644, 0.3800088992183266, -0.2599943285410129, -0.12999421995019134, -0.2799925958152517, -0.09999354675944687, -0.39999313410005477, 0.4100072095224967, -0.36999525935342537, 0.47000491789139703, 0.32000438277399573, 0.1900037518924207, 0.3300035114087972, 0.4900036390339439, 0.020005781154858262, -0.12999107790105874, 0.10000863357517419, -0.419992009209995, 0.35000464934035613, -0.30999469723873485, 0.38000621781219573, 0.08000550294515898, 0.2700043837670776, -0.38999653074096235, -0.389990474526529, -0.4499921766690473, 0.03000736843534023, -0.009992521357209941, -0.01999182513333396, -0.03999135622978578, 0.2600059650523376, 0.4500064119030882, -0.24999207174993726, 0.030006819259050157, 0.4900062004866657, 0.41000694379333974, -0.13999435836347068, -0.3099941904272133, -0.27999663387153256, 0.14000394302898125, -0.12999637130328134, -0.07999791969629663, 0.11000446114006616, -0.3199913185394953, 0.36000812396981335, 0.3700086155415451, -0.45999443487950464, 0.28000369344266574, -0.07999544309728036, -0.1999962660111294, 0.4300036414213158, 0.1700035219087042, 0.17000998399333214, 0.1300088507361152, 0.2500085292279423, 0.33000806387245846, -0.3999911604454379, -0.37999019616139335, -0.24999259736914461, -0.3299923585874426, 0.3700092483273618, 0.11000972451272768, -0.06999162587678634, 0.16000867901445523, -0.2899930145412654, 0.37000730435428963, -0.06999630385742996, -0.19999482984826344, -0.4999967568805368, 0.10000147316400321, -0.49999554181487554, -0.08999144210455456, 0.3600082456582976, -0.2999932008090557, 0.3100035341499033, -0.03999650286559234, 0.4600033102714296, 0.09000241678136119, -0.24999660043630006, -0.25999654799165683, -0.48998969591902664, 0.25001005501308626, -0.429990102373253, -0.32999171062246235, 0.030008513674866337, -0.4199902156605936, -0.2299922438408643, 0.12000966276241877, 0.2700121656703626, -0.3499868796948697, 0.30001239737579183, -0.25998907103031665, 0.4300088722729529, -0.4599927090858639, 0.270004789852234, 0.2600064698916132, 0.4900036288469801, 0.45000343626155553, 0.47000598919259784, 0.4800082101184521, -0.06999211470129343, 0.23000503841217948, 0.2700021641084835, 0.31000352617324134, -0.19999552819796365, 0.010002780798057257, 0.3100032367570505, -0.03999630951997399, 0.31001061248365563, -0.20998966742443997, 0.3700101986202894, 0.010008519685525092, 0.3600094422482734, -0.48998907072850456, -0.33999078773964664, -0.3899887727053636, 0.030012651301632755, -0.2499882024796146, -0.3699882835651073, -0.36998937870477727, 0.09000941611379949, 0.3000068588745769, 0.020005479284383013, 0.3400062262627078, 0.30000589341278494, 0.2500071507632697, -0.019993185830944518, 0.32000866778724935, -0.06999253936013826, -0.45999615380227943, -0.0399966233389125, -0.4899960693195791, 0.1100046690731539, -0.22999692992127405, 0.30000275572051704, -0.22999651864159898, 0.48001092799624645, -0.2499893004529469, 0.3600099560483742, -0.4899909776569343, -0.2299899789735572, 0.3000115156948482, 0.3100117273597158, -0.019986196773335425, -0.2199851738707479, -0.20998673421067027, -0.12998691910101828, 0.41001279296746523, 0.38001279065007326, 0.16000891975309128, -0.2699943043601729, 0.2300061533263845, 0.3100075597752874, 0.34000740550946645, -0.10999372169131433, 0.1300079887664793, -0.28999340683937425, 0.4200038366691452, -0.48999650734639993, 0.04000384810690721, -0.4699958728045996, 0.48000305088034767, -0.46999655722473976, 0.2600025927738519, 0.3200107399945223, 0.3600099561075208, 0.39000940225904474, 0.09000921557202321, -0.28998970100986876, 0.3900129413051359, -0.3699864118882253, -0.21998639742132914, -0.10998625884999609, -0.3799880298497264, 0.35001209206722145, 0.28001396063516715, 0.49001402771847974, -0.46999093597928304, 0.060005554129251064, 6.8567464482451236E-06, -0.1299914927834441, 0.06000724043946513, 0.4300056700507973, 0.2600081628174386, 0.3100071689522613, 0.23000407071694887, -0.3099964415249874, 0.2700032063313589, 0.3700037790381035, -0.3299967177099729, -0.4499964776527282, -0.4499966558412971, -0.26998861360648024, -0.18998680163298748, 0.4800104930609563, -0.21999177494362396, 0.27001003690990477, -0.4599877457390743, 0.15001075812208717, -0.07998949169697649, -0.1099885099089876, 0.2800107176178425, 0.20000947484226858, 0.49001073270854256, 0.020009485706420835, 0.45000741562212065, -0.15999462151232643, 0.1800060923849024, 0.4800087409869864, 0.10000674673783676, 0.13000599104623256, -0.32999210609232615, -0.1399922355702949, 5.944739338663369E-06, -0.3299965865701414, -0.039997895098014054, -0.44999739301614405, -0.23999733196146514, 0.4400034103992956, -0.41999641475588395, 0.16001017350940502, -0.3799880132195648, 0.2100092837232551, -0.45999314209565717, 0.3300085465633842, -0.4199900049632019, -0.4599918196409674, -0.42999173033577404, -0.3599895826318364, 0.07001060915484177, -0.4899899968642396, 0.4400106178413011, -0.1299918432174979, -0.3599918108784347, -0.38999352435584955, 0.09000618904345295, 0.3600087489884068, 0.44000731283335776, -0.2599931619310975, 0.3600069753081378, -0.10999441215105875, 5.271240090655968E-06, 0.2900042693162714, -0.22999806200090586, 0.030002196855618078, 0.3800015624973589, 0.19000194931895223, 0.23000338042490986, -0.3599908696632596, 0.010010683726333914, -0.26999171344854517, 7.482642303567298E-06, -0.40999071057099884, 0.07001117578807586, 0.2600098291453887, -0.22998942683175605, -0.43998770777099405, 0.16001106832780296, -0.34998941233855874, -0.05998826238264318, 0.4100092238976984, -0.22999119489064976, 0.04000626918803185, -0.09999367395359934, 0.08000866090037637, 0.18000826848058604, 0.29000726055992754, -0.2799923262030639, -0.10999401483897771, 0.07000423838450398, 0.09000362412854188, -0.3999975675621393, -0.47999752544185514, -0.4199982184304296, 0.1900009698159314, -0.3499975935841919, -0.16999072638827264, -0.05998980961781468, 8.600189452362022E-06, 0.45000795103084124, -0.1199909757374909, -0.199988338724381, 0.4200111847615332, 0.12001216722380345, -0.15998776349293095, 0.010010202183815863, 0.34001028588996457, 0.3000111642908703, -0.1199906460399065, 0.3400088831510214, 0.030007110205096478, -0.2999933519295549, 0.2800076935551742, 0.2900070483070356, 0.4500066558014189, -0.37999243345107053, 0.46000668410794665, -0.11999434465844826, 0.1800050049933136, 0.34000384744603296, -0.41999605546738517, -0.0299951955350098, -0.169996069595341, 0.07000231677216037, 0.4100091920762564, -0.3799890691540792, -0.02999077388795106, -0.48999149936851916, 0.370009088271569, 0.10001177687365483, 0.44001143458796155, 0.1200116327682437, -0.34998894575107914, -0.29998939520823314, -0.4499892729483855, 0.1000109993627628, -0.15998936595243266, 0.42000975302632126, -0.44999183246337615, -0.42999191762855016, 0.33000706862117085, 0.48000734177609256, 0.33000693424962685, 0.050008032116169394, -0.4599917561244813, -0.10999349608169402, -0.18999405563771707, -0.269994323150483, -0.379994926457141, 0.07000464855132839, -0.31999709157881634, 0.4400024273292953, 0.25000910121714376, 0.16001100616338634, 0.3600105668522173, 0.4100094911690946, 0.4700091895844225, -0.14998958274624874, 0.20000986370698307, -0.2899896986885751, -0.46999075903925597, 0.3300086485094156, 0.43000850384541345, 0.27000815194873246, 0.4000084768382362, 0.4000084142495819, -0.459992760655618, 0.0800067599553209, 0.23000638399792328, -0.1499933842049389, 0.27000567027248673, -0.4599929811379834, -0.1799919459199723, 0.11000631496132851, -0.49999556013237334, -0.40999466926377953, 0.1300062500105514, 0.2800046426112564, 0.030002682923984725, 0.02000313295480117, 0.3000100010510272, -0.25998946024761654, 0.3800112867321681, -0.19998937600495978, -0.08998947843560168, 0.49001121964952243, 0.3700119067003582, -0.009988103238733205, -0.1699888782580692, -0.3599890479689635, 0.13001017072264578, 0.49000956698070913, -0.28999003577593874, 0.3300097236355656, -0.45999066714555137, -0.4999914091057099, -0.44999162876278404, -0.4399920521923537, 0.140007317879098, -0.3699918469715502, -0.15999223607826357, 0.23000665075043958, -0.00999367205940708, 0.2700069089182345, 0.2900068605878806, -0.35999369299396994, 0.11000541705348324, -0.3699943338289998 ],
