{"_layers":[784,28,28,1],"_neurons":[[0,0,0,0,0,0,0,0,0,0,0,0,0,0,0,0,0,0,0,0,0,0,0,0,0,0,0,0,0,0,0,0,0,0,0,0,0,0,0,0,0,0,0,0,0,0,0,0,0,0,0,0,0,0,0,0,0,0,0,0,0,0,0,0,0,0,0,0,0,0,0,0,0,0,0,0,0,0,0,0,0,0,0,0,0,0,0,0,0,0,0,0,0,0,0,0,0,0,0,0,0,0,0,0,0,0,0,0,0,0,0,0,0,0,0,0,0,0,0,0,0,0,0,0,0,0,0,0,0,0,0,0,0,0,0,0,0,0,0,0,0,0,0,0,0,0,0,0,0,0,0,0,0,0,0,0,0,0,0,0,0,0,0,0,0,0,0,0,0,0,0,0,0,0,0,0,0,0,0,0,0,0,0,0,0,0,0,0,0,0,0,0,0,0,0,0,0,0,0,0,0,0,0,0,0,0,0,0,0,0,0,0,0,0,0,0,0,0,0,0,0,0,0,0,0,0,0,0,0,0,0,0,0,0,0,0,0,0,0,0,0,0,0,0,0,0,0,0,0,0,0,0,0,0,0,0,0,0,0,0,0,0,0,0,0,0,0,0,0,0,0,0,0,0,0,0,0,0,0,0,0,0,0,0,0,0,0,0,0,0,0,0,0,0,0,0,0,0,0,0,0,0,0,0,0,0,0,0,0,0,0,0,0,0,0,0,0,0,0,0,0,0,0,0,0,0,0,0,0,0,0,0,0,0,0,0,0,0,0,0,0,0,0,0,0,0,0,0,0,0,0,0,0,0,0,0,0,0,0,0,0,0,0,0,0,0,0,0,0,0,0,0,0,0,0,0,0,0,0,0,0,0,0,0,0,0,0,0,0,0,0,0,0,0,0,0,0,0,0,0,0,0,0,0,0,0,0,0,0,0,0,0,0,0,0,0,0,0,0,0,0,0,0,0,0,0,0,0,0,0,0,0,0,0,0,0,0,0,0,0,0,0,0,0,0,0,0,0,0,0,0,0,0,0,0,0,0,0,0,0,0,0,0,0,0,0,0,0,0,0,0,0,0,0,0,0,0,0,0,0,0,0,0,0,0,0,0,0,0,0,0,0,0,0,0,0,0,0,0,0,0,0,0,0,0,0,0,0,0,0,0,0,0,0,0,0,0,0,0,0,0,0,0,0,0,0,0,0,0,0,0,0,0,0,0,0,0,0,0,0,0,0,0,0,0,0,0,0,0,0,0,0,0,0,0,0,0,0,0,0,0,0,0,0,0,0,0,0,0,0,0,0,0,0,0,0,0,0,0,0,0,0,0,0,0,0,0,0,0,0,0,0,0,0,0,0,0,0,0,0,0,0,0,0,0,0,0,0,0,0,0,0,0,0,0,0,0,0,0,0,0,0,0,0,0,0,0,0,0,0,0,0,0,0,0,0,0,0,0,0,0,0,0,0,0,0,0,0,0,0,0,0,0,0,0,0,0,0,0,0,0,0,0,0,0,0,0,0,0,0,0,0,0,0,0,0,0,0,0,0,0,0,0,0,0,0,0,0,0,0,0,0,0,0,0,0,0,0,0,0,0,0,0,0,0,0,0,0,0,0,0,0,0,0,0,0,0,0,0,0,0,0,0,0,0,0,0,0,0,0,0,0,0,0,0,0,0,0,0,0,0,0,0,0,0,0,0,0,0,0,0,0,0,0,0,0,0,0,0,0,0,0,0,0,0,0,0,0,0,0,0,0,0,0,0,0,0,0,0,0,0,0,0,0],[0,0,0,0,0,0,0,0,0,0,0,0,0,0,0,0,0,0,0,0,0,0,0,0,0,0,0,0],[0,0,0,0,0,0,0,0,0,0,0,0,0,0,0,0,0,0,0,0,0,0,0,0,0,0,0,0],[0]],"_biases":[[-0.05815159,0.28075096,-0.39998317,0.4692482,-0.28052357,-0.10998566,0.29050055,-0.009954383,-0.47001186,-0.34857604,0.44998524,-0.22998905,0.36228222,-0.4499807,0.2103081,-0.038293324,0.01995787,0.121207684,-0.14014529,0.23887049,-0.20234746,0.19002508,-0.10000753,0.20902173,0.4795037,0.37998495,-0.09869519,0.40997678],[-0.03881963,0.3763716,0.35980612,0.061568975,-0.019855041,-0.42931655,-0.381779,-0.43107736,-0.4877988,0.43851078,-0.48985797,0.3208445,0.3940208,-0.36899132,-0.070138454,0.36618665,-0.24821648,0.3933184,0.086425394,0.066568956,-0.45023152,0.040139217,0.44298267,0.3028242,-0.16389082,0.13854906,-0.2097311,0.23516989],[-0.20281328]],"_weights":[[[-0.108788125,0.4912155,-0.16881922,0.49117643,0.37126186,-0.46853018,-0.35854682,-0.20874773,-0.12895212,0.29096612,0.28081053,0.43080315,0.13108349,-0.07890818,0.051154416,0.11101282,0.030617954,0.38059586,-0.33940488,-0.2393167,0.06071092,-0.039112207,-0.4488495,-0.20923269,0.33042908,0.360547,0.41088864,0.4306314,-0.45940563,-0.27944764,0.35049814,0.28046826,-0.12950782,0.20049714,0.14058913,0.47064346,0.17066851,0.33071148,0.4907445,-0.39922383,-0.21920663,0.050757628,0.3707318,-0.37933028,0.3005933,0.13060668,-0.079414025,-0.37944245,-0.1194431,-0.2994522,0.3105986,0.25067645,-0.37934795,-0.019348148,0.31059214,0.42,0.43,-0.46,-0.35,-0.5,-0.39,-0.29,-0.25,-0.35,0.44,0.49,0.05,0.42,0.27,0.08,0.44,0.2,0.39,-0.45,0.47,-0.5,0.09,0.43,-0.02,-0.3,-0.06,0.28,0.05,0.33,-0.1,-0.41,0.15,0.38,0.39,0.22,-0.47,0.12,0.18,0.48,0.49,-0.43,-0.2,0.21,-0.32,0.3,-0.43,-0.01,-0.15,0.29,-0.24,-0.39,0.36,-0.43,0,0.3,-0.17,-0.5,0.05,0.45,0.06,-0.18,0.15,-0.09,0.25,0.34,-0.16,0.16,-0.48,-0.45,0.05,-0.19,-0.48,0.4,-0.44,0.4,0.2,0.37,0.24,0.18,-0.38,0.44,-0.07,0.25,0.07,-0.21,-0.27,0.08,-0.13,-0.41,-0.12,-0.47,-0.43,0.22,-0.08,0.16,-0.09,0.38,0.46,-0.16,-0.04,-0.1,-0.03,-0.2,-0.26,0.45,-0.41,0.45,-0.49,0.1,-0.41,-0.05,-0.24,0.37,0.33,0.11,0.39,0.4,0.34,-0.05,0.1,0.26,-0.22,0.43,0.16,0.01,-0.26,-0.21,-0.02,-0.1,-0.01,0.31,0.4,-0.11,-0.29,0.21,-0.03,-0.37,0,0.12,-0.31,-0.22,0.06,0.27,0.49,0.42,0.27,-0.31,0.39,0.3,0.26,0,-0.46,0,0.23,0.2,-0.39,0.03,0.13,0.22,0.2,0.29,-0.04,0.11,-0.4,-0.22,0.04,0.36,0.16,-0.39,-0.36,0.26,-0.11,-0.28,-0.24,-0.18,-0.31,0.01,0.43,0.23,0.24,-0.46,-0.1,0.18,0.13,0.48,0.27,-0.1,0.16,0,0.09,0.43,-0.01,0.27,0.41,-0.1,0.31,0.45,0.17,0.21,-0.13,0.4,0.03,0.27,0.15,-0.5,-0.39,0.31,-0.26,-0.1,0.01,0.1,0.09,0.4,0.48,0.15,-0.11,0.28,0.48,-0.38,0,-0.36,-0.31,-0.35,0.02,-0.3,-0.24,0.11,-0.19,0.35,0.01,-0.27,0.34,-0.28,-0.15,0.34,0.01,0.12,-0.48,0.12,0.37,0.45,-0.35,-0.24,0.49,0.49,-0.16,0.09,0.29,-0.25,-0.5,-0.47,0.47,0.04,-0.3,-0.27,0.2,-0.13,-0.25,-0.05,0.24,-0.01,0,-0.12,0.39,-0.23,0.26,-0.13,0.04,-0.36,-0.37,0.26,0.25,-0.15,-0.26,0.04,0.48,0.43,-0.35,0.03,0.36,0.17,0.31,-0.45,0.34,-0.02,-0.24,-0.21,-0.49,-0.38,-0.37,-0.36,-0.13,0.07,0.38,-0.13,-0.05,0.27,-0.13,0.22,-0.28,0.46,-0.46,0.15,-0.39,-0.26,-0.23,0.11,-0.2,0.15,-0.26,0.27,-0.28,0.21,0.08,-0.44,0.17,-0.06,0.03,-0.1,-0.5,-0.04,-0.15,-0.09,-0.49,0.49,-0.12,-0.33,-0.03,0.36,-0.41,-0.29,0.06,-0.07,-0.2,0.39,0.12,-0.34,0.44,0.1,-0.3,0.14,0.49,-0.15,0.38,-0.15,0.41,0.15,0.49,0.31,0.2,-0.5,-0.27,0.46,0.21,0.25,0.11,0.13,0.14,-0.39,0.35,-0.41,-0.36,-0.07,0.06,-0.48,-0.3,0.28,-0.09,0.18,-0.06,0.01,0,0.43,-0.31,-0.15,-0.03,0.49,0.02,0.15,-0.42,0.23,-0.32,0.15,-0.34,-0.42,0.48,0.09,0.21,0.04,-0.22,0.48,0.01,0.32,0.25,-0.39,0,0.05,0.29,0.35,-0.36,-0.38,-0.26,-0.2,-0.13,-0.32,-0.01,-0.2,0.26,-0.14,-0.23,0.11,-0.4,0.48,-0.47,-0.38,0.4,-0.02,-0.24,-0.03,-0.46,0.1,-0.43,0.36,-0.1,-0.05,0.49,0.18,-0.32,-0.42,0.34,0.41,-0.3,0.17,0,0.45,-0.02,0.38,-0.22,0.48,0.08,0.17,0.33,-0.15,-0.24,0.16,0.38,0.02,0.29,0.12,-0.3,-0.48,-0.21,-0.19,0.3,0.03,-0.45,-0.13,0.39,0.41,-0.31,0.31,-0.38,0.18,0.01,-0.15,-0.09,-0.07,-0.02,-0.42,0.13,-0.48,-0.31,-0.22,0.38,-0.14,0.27,0.22,0.09,0.24,0.07,-0.04,0.38,0.05,0.38,0.32,0.12,0.38,0.36,0.46,0.39,-0.39,0.49,-0.13,0.28,0.26,0.05,-0.35,0.34,0.4,-0.25,-0.06,-0.46,0.2,0.49,-0.33,0.33,-0.49,-0.08,-0.06,0.26,-0.17,0.27,-0.35,-0.16,0.22,0.42,0.07,0.29,0.18,0.23,0.02,0.06,0.01,-0.32,0.01,-0.47,0.32,-0.01,-0.39,0.31,0.12,0.37,0.18,-0.01,-0.38,-0.09,-0.32,0.05,0.2,0.49,0.1,-0.04,-0.08,-0.3,0.06,-0.17,0.33,-0.48,-0.45,0.34,0.48,-0.15,-0.35,-0.33,0.22,0.37,0.03,0.02,-0.03,-0.36,-0.5,0.01,-0.2,0.12,-0.37,-0.05,-0.41,0.16,-0.29,-0.19,0.24,-0.49,-0.41,0.19,-0.38,-0.44,-0.36,-0.2,0.11,-0.32,-0.31,0.29,-0.07,-0.23,0.32,-0.24,0.22,0.01,0.26,-0.26,0.38,0.15,-0.42,0.05,0.48,-0.42,-0.35,0.29,-0.43,-0.39,-0.26,-0.33,0.3,0.24,-0.41,0.47,-0.24,-0.05,-0.46,0.16,0.23,-0.28,0.4,-0.21,0.45,-0.29,-0.42,-0.48,0.3,0.36,0.22,0.07,0.39,0.47,-0.08,-0.42,0.43,0.03,0.21,-0.46,0.4,-0.16,-0.27,0,0.43,-0.49,0.48,0.18,-0.32,0.35,-0.5,-0.24,-0.03,-0.41,0.01,0.15,0.25,0.28,0.1,0.27,-0.5,-0.38,0.49,-0.3,-0.12,0.17,-0.23,0.33,-0.18,-0.5,-0.47,0.23,0.24,-0.5,0.26,-0.12,0.49,-0.11,-0.15,0.43,-0.28,-0.11,0.34,0.44,0.36,-0.05,-0.4,0.3,-0.04,0.26,-0.17,-0.36,0.42,0.44,-0.47,0.27,-0.15,-0.47,-0.39,-0.24,0.24,-0.35,-0.14,-0.32,0.31,-0.23,0.02,-0.03,-0.17,-0.38,0.16,-0.15,-0.07,0.17,0.05,0.11,-0.22,-0.45,-0.16,0.42,0.07,-0.03,-0.13,0.05,0.16,0.39,0.3,0.3,0.46,0.48,-0.47,0.46,-0.22,-0.42,-0.31,-0.44,-0.48,0.15,-0.38],[0.0803719,0.4303587,0.12033237,-0.029666236,-0.16961114,-0.39947972,0.47050872,0.21048865,-0.24954605,-0.10959258,-0.07961337,-0.01960014,-0.19951846,0.18048151,-0.31959,0.19032097,-0.23968968,0.28030178,0.31029692,0.010297979,0.42034745,-0.029575277,0.2204474,0.00035156222,-0.15978724,-0.4097957,0.20030318,-0.42969495,-0.15974642,-0.019776901,-0.019784845,0.08022487,0.13023435,0.42023727,0.25027502,0.4903063,0.44031432,-0.4996819,-0.4696778,-0.059674215,0.18032508,-0.3297095,0.040261578,-0.0997753,0.040176585,0.00017580784,0.23013972,-0.22988279,-0.4098819,-0.119881935,0.4201425,-0.21981388,-0.28981233,-0.3598313,-0.30984148,-0.39,-0.3,-0.38,-0.38,-0.26,-0.11,0.4,-0.14,0.27,0.4,0.34,0.35,-0.13,0.43,-0.32,0.25,-0.24,0.24,-0.14,0.32,0.25,0.42,-0.19,0.46,0.34,-0.15,-0.07,0.48,0.45,0.05,-0.31,-0.13,-0.02,0.23,0.13,0.29,0.31,0.37,0.29,-0.45,0.28,0.31,0.27,0,0.2,0.14,-0.14,-0.17,0.4,0.13,0.15,0.04,0.34,-0.19,-0.06,-0.31,0.38,-0.35,-0.22,0.38,0.46,0.42,-0.1,-0.29,0.21,-0.04,-0.14,0.13,-0.21,-0.11,0.43,-0.12,0.45,-0.19,-0.46,0.43,-0.36,0.31,-0.24,-0.31,0.49,-0.41,-0.42,-0.18,0.39,0.15,0.03,-0.34,-0.22,-0.06,0.4,0.15,0.09,0.4,-0.42,0.36,-0.09,0.05,0.28,-0.27,-0.23,0.22,-0.46,0,0.19,-0.23,0.08,0.02,-0.23,0,-0.46,-0.43,0.39,-0.41,0.38,0.36,0.34,-0.42,-0.19,-0.45,0.43,-0.3,-0.16,0.34,-0.02,-0.22,0.29,-0.46,-0.27,-0.32,0.02,0.08,-0.48,-0.48,0.41,-0.23,-0.45,0.07,0.12,0.12,-0.44,-0.5,0.39,0.27,-0.11,0.33,0.26,0,-0.49,-0.29,-0.49,-0.17,-0.26,0.23,-0.21,-0.43,-0.13,-0.31,-0.48,-0.09,-0.03,0.04,-0.21,-0.41,0.48,-0.05,-0.46,0.36,-0.33,0.11,0.31,-0.24,-0.05,0.18,0.49,0.43,-0.19,0.06,-0.06,0.14,0.01,-0.21,-0.47,-0.49,-0.34,-0.31,-0.16,-0.21,0.22,0.33,0.4,0.36,0.04,-0.29,-0.35,0.02,0.2,0.29,0.29,0.44,0.29,0.39,-0.18,-0.1,-0.1,0.24,0.37,0.05,0.23,-0.14,0.26,0.3,0.24,-0.13,0.39,-0.32,0,-0.22,0.43,0.29,-0.39,0.24,-0.37,-0.17,0.2,0.44,0.22,-0.27,0.03,-0.03,-0.28,0.01,0.27,0,0.35,0.12,0.46,0.13,0.1,-0.09,-0.19,0.29,0.06,-0.14,-0.43,-0.4,-0.38,-0.34,-0.19,0.46,-0.49,-0.08,0.35,-0.5,0.32,-0.46,0.25,0.49,0.19,-0.04,-0.48,0.13,-0.49,-0.24,-0.36,-0.25,-0.48,-0.27,0.02,-0.24,-0.29,0.37,0.17,0.02,-0.03,-0.18,-0.32,0.27,-0.24,0.1,0.32,0.05,0.42,0.07,-0.05,0.29,0.15,0.27,0.18,0.3,0.36,0.47,0.43,-0.36,-0.12,0.17,0.27,-0.21,-0.29,0.32,-0.43,0.38,0.14,-0.46,0.24,-0.36,0.25,-0.17,0.02,-0.01,0.35,0.47,0.22,-0.42,0.13,-0.03,0.21,-0.06,0.3,-0.16,0.09,-0.25,0.04,0.22,-0.1,-0.26,0.43,0.02,-0.37,0.29,0.05,0.38,0.06,-0.06,0.03,0.43,0.41,0.37,0.32,-0.2,-0.46,-0.19,-0.26,-0.32,0.44,0.38,-0.26,0.35,0,0.4,0.45,-0.17,-0.01,0.36,-0.28,0.32,-0.16,0.41,0.14,0,-0.29,-0.28,-0.31,0.22,0.44,0.46,-0.09,-0.22,0.05,0.2,0.06,0.34,0.11,-0.01,-0.2,-0.23,-0.49,-0.14,0.27,0.01,0.49,-0.42,-0.48,-0.28,0.34,-0.29,-0.11,0.19,-0.29,0.2,0.09,0.49,-0.28,-0.18,-0.41,0.31,-0.38,0.01,-0.27,0.47,-0.04,0.46,-0.21,0.3,-0.16,-0.39,0.21,0.49,0.06,0.44,0.3,0.47,-0.36,-0.37,0,-0.37,-0.3,0.46,0.38,0.22,0.07,0.22,-0.44,0.34,-0.39,0.07,0.12,-0.21,-0.1,-0.02,-0.35,-0.01,-0.38,0.29,-0.46,-0.48,0.28,-0.29,0.38,0.23,0,-0.1,-0.37,-0.23,0.4,0.11,0.34,-0.42,0.31,0.46,0.11,-0.35,0.12,0,-0.1,0.24,0.39,-0.06,0.18,0.27,-0.01,-0.08,0.09,-0.43,0.28,-0.19,0.35,-0.15,-0.41,-0.03,-0.16,0.48,-0.42,-0.35,-0.28,-0.34,0.09,0.29,0.44,-0.01,0.22,0.03,-0.02,-0.07,0.37,-0.5,0.36,0.11,-0.12,-0.21,-0.37,-0.17,0.02,-0.4,-0.27,-0.42,0.31,-0.45,-0.02,0.08,0.26,-0.01,0.49,-0.17,0.11,0.12,-0.44,-0.03,-0.22,-0.27,-0.36,-0.4,0,-0.31,-0.45,0.45,0.43,-0.35,-0.31,0.28,-0.06,-0.27,0.46,0.29,-0.16,-0.49,-0.05,0.48,0.41,-0.36,-0.15,0.04,-0.19,-0.14,0.23,-0.28,0.04,-0.36,0.32,-0.26,0.43,-0.11,-0.17,-0.36,-0.35,-0.48,0.33,-0.17,-0.45,-0.22,-0.36,0.15,0.35,0.19,-0.37,0.03,0.02,-0.31,0.48,0.1,-0.34,-0.42,0.05,-0.37,0.38,0.1,0.29,-0.37,-0.05,0.32,-0.09,0.29,-0.18,0.45,0.34,-0.45,0.39,0.31,0.14,-0.18,-0.33,-0.39,0.42,0.13,-0.5,0.19,0.18,0.11,-0.28,-0.3,0.19,-0.15,-0.34,-0.29,-0.42,0.35,0.33,-0.3,-0.24,0.04,-0.28,0.19,0.38,-0.28,0.36,-0.15,-0.18,0.4,0.35,-0.43,0.13,0.2,0.04,0.16,-0.08,-0.46,-0.35,0.41,-0.37,-0.32,0.41,-0.32,0.41,-0.25,-0.38,-0.44,0.13,-0.4,0.36,0.48,-0.28,0.19,0.05,-0.41,-0.41,-0.03,-0.27,0.2,0.27,0.15,-0.13,0.28,0.25,-0.36,0.06,0.49,0.3,-0.01,0.29,-0.47,0.19,0.41,-0.44,-0.42,0.13,-0.46,0.28,0.12,-0.4,0.3,0.21,-0.28,-0.47,0.36,0.35,0.44,-0.35,-0.06,0.06,0.44,0.31,-0.05,-0.36,-0.02,0.31,-0.37,-0.08,0.26,0.19,-0.37,-0.25,-0.37,-0.19,0.33,-0.21,-0.2,0.12,-0.04,-0.04,-0.45,0.19,0.1,0.09,0.46,0.43,-0.36,0.24,0.39,-0.21,0.11,0.33,-0.14,0.43,0.34,-0.29,-0.26,0.26,0.08,-0.23,-0.01,0.11,-0.49,0.43,0.46,0.04,0.08,0.4,-0.31,0.07,0.04,-0.18,0.18,0.47,0.01,-0.25,-0.3,0.35,-0.33,0.05],[0.16001137,-0.10998858,0.030010194,-0.03998892,-0.41998833,-0.20998627,0.38001332,-0.30998847,-0.029991,0.1200092,-0.45999238,0.030006878,-0.46999,-0.30998987,0.47001073,-0.069990404,0.18000609,0.17000593,0.1200059,-0.07999338,-0.1599931,-0.2599917,0.040010832,-0.17999265,0.24000446,-0.21999452,-0.3599917,-0.11999378,-0.08999412,0.090005524,-0.48999512,-0.11999523,0.090004936,-0.4699952,0.1100058,-0.3999939,-0.41999367,0.040006936,0.35000712,0.16000746,0.15000753,-0.11999269,-0.079992905,0.07000653,0.020005023,-0.4999942,-0.21999425,-0.019995298,-0.49999458,-0.41999468,0.07000593,0.020005757,-0.27999374,0.2500062,-0.29999432,-0.09,0.34,-0.29,0.21,0.29,-0.35,0,0.28,0.38,0.1,0.16,0.44,-0.5,0.08,0.37,-0.16,-0.37,0.32,0.46,0.26,0.45,0.31,0.47,0.29,0.24,-0.5,0.16,-0.12,-0.17,-0.48,-0.02,-0.35,0.33,0.32,-0.31,-0.25,0.37,0.32,-0.45,0.01,-0.35,0.1,0.04,0.46,0.35,-0.44,-0.23,0.4,-0.38,0.24,-0.07,0.2,-0.24,0.49,-0.25,0.09,0.37,-0.09,0.47,0.29,-0.02,-0.39,-0.05,0.35,-0.38,0,-0.39,-0.32,-0.11,0.11,-0.04,-0.2,0.26,-0.06,0.1,-0.16,-0.23,-0.5,0.43,0.17,0.22,0.25,-0.25,0.08,0.08,0.27,0.38,0.33,0.07,0.09,-0.12,-0.04,0.34,-0.24,-0.48,-0.46,-0.35,0.18,0.34,-0.16,0.44,-0.41,0.01,0.01,-0.23,-0.37,0.44,0.32,-0.12,0.4,-0.18,0.37,-0.03,-0.2,-0.44,0.22,0.35,0.36,-0.23,-0.16,0.12,-0.23,0.11,0.29,-0.28,-0.5,-0.05,-0.01,-0.09,0.06,-0.31,0.08,-0.35,0.09,0.23,0.13,-0.26,0.24,-0.19,-0.06,0.33,-0.44,-0.05,0.16,-0.23,0.01,0.48,0.04,-0.31,-0.2,-0.32,-0.21,-0.09,-0.01,0.22,0.17,-0.03,0.21,-0.22,-0.23,0.18,-0.06,-0.09,0.32,0.2,0.23,0.21,0.38,0.07,-0.07,-0.02,-0.39,0.05,0.32,0.01,0.05,0.32,0.44,0.01,0.21,-0.49,0.4,-0.2,-0.39,-0.13,0.4,-0.33,0.15,0.36,-0.45,-0.35,0.03,-0.04,-0.47,0.26,-0.11,0.15,0.12,0.45,0.03,0.29,-0.4,0.47,0.26,0.32,-0.43,0.23,0.08,0.48,-0.34,0.35,0.03,-0.3,0.06,-0.25,0.27,-0.36,-0.2,-0.06,0.3,0.06,-0.44,-0.49,0.01,-0.22,0.44,0.15,0.01,-0.44,-0.39,0.4,-0.31,0.48,0.48,0.42,0.4,0.42,0.04,-0.21,-0.2,-0.34,0.09,0.16,0.19,-0.3,0.12,-0.17,0.39,0.27,0.48,-0.26,-0.15,-0.32,-0.35,0.47,0.23,-0.42,-0.04,-0.03,0.37,-0.08,-0.29,0.01,0.36,-0.25,0.15,0.04,-0.29,0.14,-0.15,0.35,0.1,-0.5,-0.36,0.13,0.47,-0.11,-0.18,-0.2,0.16,0.11,0.25,0.24,-0.43,0.37,0.05,-0.49,0.33,-0.5,-0.32,0.32,-0.04,-0.44,-0.08,0.38,0.45,-0.43,0.3,-0.07,0.05,-0.43,-0.39,-0.26,-0.08,-0.37,0.14,-0.16,-0.46,0.01,-0.5,-0.16,0.26,-0.35,0.31,-0.25,0.16,-0.03,-0.06,0.49,0.2,0.13,0.2,-0.3,-0.05,0.02,-0.11,0.03,0.08,-0.25,0.18,0.39,0.09,0.38,0.25,0.08,0,0,-0.19,0.44,-0.28,-0.29,0.47,-0.18,-0.5,0.34,-0.45,-0.2,-0.25,-0.34,-0.29,-0.03,0.13,0.3,0.23,0.41,-0.13,0.4,0.29,0.39,0.24,-0.4,0.25,0.28,0.32,-0.4,0.25,0.37,-0.1,-0.28,0.24,-0.35,-0.35,-0.01,0.26,-0.02,0.16,-0.12,-0.3,0.11,-0.03,-0.42,-0.22,-0.08,-0.47,-0.29,-0.24,0.28,-0.36,0.34,-0.29,0.1,0.21,-0.08,-0.3,-0.38,-0.04,-0.31,-0.01,0.4,-0.41,-0.33,0.4,-0.48,-0.08,-0.44,-0.19,-0.37,-0.47,-0.25,-0.26,0.48,0.2,-0.33,-0.08,0.15,0.31,-0.17,0.24,0.11,0.34,0.46,0.23,0.06,-0.49,-0.37,-0.07,0.23,-0.21,0.14,-0.48,-0.03,0.38,-0.21,0.02,-0.21,-0.32,-0.24,0.49,0.47,0.39,-0.38,0.25,0.39,0.09,-0.28,0.4,0.03,0.49,0.04,-0.2,-0.37,-0.06,0.37,-0.45,-0.38,-0.06,-0.17,-0.49,-0.22,0.12,0.07,0.34,-0.12,-0.27,0.27,-0.4,-0.1,0.15,-0.38,-0.03,0.05,-0.17,0.26,0.22,0.22,-0.29,0.33,0.46,0.28,-0.27,0.4,0.24,0.24,-0.16,0.38,-0.48,-0.5,-0.26,-0.11,0.34,0.34,-0.25,0.21,-0.15,-0.18,-0.23,-0.14,0.16,0.31,-0.38,0,0.37,0.36,-0.43,0.25,0.29,0.17,-0.35,-0.17,0.41,0.11,-0.14,-0.28,-0.45,0.22,0.33,-0.4,-0.46,-0.16,0.24,-0.41,-0.35,-0.24,-0.23,0.12,-0.2,0.12,-0.09,-0.1,-0.06,0.35,-0.34,-0.36,0.16,0.23,-0.48,0.37,0.17,0.09,-0.41,-0.15,0.34,0.4,-0.02,-0.27,-0.03,-0.48,0.16,0.13,-0.02,-0.33,-0.19,-0.18,-0.43,-0.48,-0.16,0.11,0.09,-0.06,-0.06,-0.33,-0.25,0.25,0.39,-0.45,-0.05,-0.29,0.05,-0.19,0.19,0.45,-0.08,-0.05,-0.26,-0.11,-0.25,-0.25,0.27,-0.46,-0.35,-0.23,0.46,0.28,0.41,-0.23,0.03,0.33,-0.43,0.14,-0.12,-0.09,-0.22,-0.28,-0.36,0.42,-0.41,-0.42,-0.49,-0.08,0.28,-0.25,-0.04,-0.16,0.43,0.02,0.24,0.36,-0.43,0.18,0.27,-0.41,0.33,0.04,-0.21,-0.33,-0.3,-0.03,0.34,0.12,0.02,0.11,-0.36,0.41,0.43,-0.22,0.17,-0.31,-0.19,-0.18,-0.2,-0.34,-0.27,-0.16,-0.25,0.39,0.31,0.12,0.35,-0.12,0.02,0.17,0.26,-0.11,0.37,-0.21,0.07,0.23,0.43,0.47,0.21,0.12,-0.26,-0.11,0.4,-0.33,-0.39,0.04,-0.09,0.15,0.34,0.05,0.04,0.24,-0.12,0.11,0.35,-0.01,-0.22,-0.1,-0.15,0.08,0.11,-0.05,-0.41,0.35,0.35,0.25,-0.46,0.13,0.21,0.44,-0.24,-0.16,0.11,0.17,0.41,0.34,-0.06,-0.42,0.28,-0.24,-0.29,-0.31,0.03,0.46,-0.38,-0.49,-0.49,-0.25,-0.06,-0.42,-0.06,0.03,0.11,-0.38,-0.5,0.28,-0.21,-0.46,-0.19,-0.14,0,0.27,0.43,0.4,-0.22,-0.3,-0.37,0.2,0.19,-0.5,-0.46,-0.3,0.12,-0.41,-0.13,-0.09,0.42,-0.37],[0.2295056,0.3295025,0.22951889,0.2795183,-0.32051626,0.12939957,-0.00059463433,0.22949123,0.21957494,-0.010395195,0.16966966,-0.3703273,0.03955954,-0.11044387,0.25952968,-0.0904132,0.2597495,-0.0702431,-0.2402428,0.12972324,0.17971155,0.4096399,0.37953064,-0.19031051,0.05982301,-0.070224315,-0.47036353,-0.26025763,0.4097567,0.009772588,0.24979593,0.079808325,0.35980114,-0.3402009,-0.19023824,-0.03026381,0.11972971,0.20970967,0.08969609,-0.20031686,-0.10032144,0.049690563,-0.030300472,0.1397257,-0.48024338,0.059752423,-0.050240614,0.13977052,-0.070227735,-0.30022532,-0.170246,0.43972275,-0.35026714,-0.220266,-0.06024422,0.32,0.45,-0.08,-0.28,0.24,0.09,-0.25,0.31,-0.29,0.23,-0.42,-0.24,-0.12,-0.42,-0.22,0.29,-0.46,0.34,0.45,-0.27,-0.38,-0.07,-0.27,-0.22,-0.5,0.48,-0.11,0.31,0.21,-0.32,0.3,-0.08,0.07,0.21,-0.02,0.02,-0.31,-0.01,0.34,0.2,-0.36,0.24,-0.24,0.4,0.43,-0.21,-0.43,0.05,-0.36,-0.1,-0.21,-0.4,-0.3,-0.45,-0.18,-0.12,0.22,-0.36,-0.29,0.26,-0.3,-0.06,-0.4,-0.48,0.42,0.16,0.19,0.17,0.09,0.26,0.09,0.05,0.49,-0.26,-0.42,-0.12,-0.34,-0.17,-0.16,0.21,0.4,0.33,0.17,-0.2,0.39,0.2,-0.28,0.02,-0.12,-0.4,0.29,-0.45,-0.23,-0.43,0,0.2,0.13,-0.27,0.47,-0.23,0.09,-0.11,0.45,-0.13,0.3,0.23,-0.4,0.45,0.46,0.44,-0.29,-0.12,0.29,0,0.35,-0.14,0.27,0.29,-0.37,-0.29,-0.07,-0.33,-0.22,-0.01,0.46,0.04,-0.23,0.42,0.23,-0.12,0.24,0.43,-0.14,-0.43,-0.39,0.01,0.37,-0.21,0,-0.35,0.1,-0.24,0.05,-0.06,0.38,-0.09,-0.25,0.27,-0.29,-0.37,0.43,0.33,-0.41,0.25,0.33,-0.08,-0.39,-0.04,-0.1,-0.25,-0.04,-0.33,-0.29,0.08,-0.31,-0.22,-0.48,0.22,-0.12,-0.16,-0.02,-0.03,-0.21,0.48,0.11,-0.33,0.11,0.34,0.11,0.05,-0.21,0,0.21,0.1,-0.05,0.41,0.33,0.1,-0.27,0.18,-0.11,-0.09,0.39,-0.26,0.18,-0.07,-0.45,0.46,-0.26,0.09,-0.12,0.02,-0.12,0.36,0.14,-0.05,0.03,-0.39,-0.36,0.16,0.3,-0.24,0.34,0.34,0.46,0.46,-0.04,0.11,-0.37,-0.22,-0.05,-0.09,-0.01,0.2,0.44,-0.43,0.07,-0.45,-0.21,-0.33,-0.38,0.15,0.09,-0.48,-0.34,0.26,-0.39,0.34,0.45,0.49,-0.13,0.22,-0.04,0.07,0.37,-0.37,0.07,-0.46,-0.23,0.22,0.46,-0.07,0.33,0.46,-0.36,0.47,-0.47,0.18,0.41,0.07,0.37,-0.03,0.31,0.46,0.04,-0.35,0.16,0.32,0.18,-0.31,0.34,0.12,0.16,-0.37,0.4,0.23,0.45,0.42,0.32,0.31,-0.01,0.03,0.27,0.07,-0.29,0.18,0.31,0.13,0.37,-0.31,0.23,-0.07,0.42,-0.13,-0.39,0.39,0.4,0,-0.48,0.22,-0.04,0.24,-0.14,-0.42,0.37,-0.16,0.27,0.2,-0.44,-0.09,-0.49,-0.4,0.35,-0.41,-0.42,-0.16,0.2,-0.26,0.25,0.35,-0.16,-0.47,0.44,-0.02,-0.05,-0.1,0.19,-0.21,-0.49,-0.5,0.32,-0.05,0.39,-0.41,-0.15,0.24,-0.34,0.19,0.19,0.36,0.41,-0.4,0.07,-0.04,-0.33,0.13,0.08,0.32,-0.21,0.27,-0.31,0.16,0.24,-0.34,-0.12,-0.07,0.3,0.37,0.12,-0.03,0.15,-0.02,0.18,-0.45,0.08,0.06,-0.3,0.25,0.24,-0.17,-0.33,-0.5,0.05,0.38,0.44,-0.27,-0.04,-0.02,-0.2,0.32,0.32,0.36,0.49,-0.26,0.3,-0.34,0.2,0.22,0.21,0.42,0.44,-0.21,-0.44,-0.29,-0.29,-0.07,-0.08,0.01,0.37,0.11,-0.08,0.32,-0.42,0.46,0.09,-0.31,-0.4,0.36,-0.28,-0.36,0.46,-0.18,0.06,0.3,0.14,0.28,-0.02,-0.06,-0.25,-0.08,0.36,-0.02,-0.47,0.32,-0.12,0.38,0.43,-0.17,0.16,0,0.31,0.44,0.1,0.19,-0.1,-0.5,0.28,-0.47,0.14,0.11,-0.45,0.33,0,0.07,0.45,0.12,0.22,-0.24,0.06,-0.07,0.45,0.48,-0.24,-0.05,0.24,0.44,0.28,-0.25,0.07,0.21,-0.25,0.27,-0.31,0.21,-0.17,-0.49,0.21,0.37,-0.1,0.14,-0.5,-0.06,0.29,0.13,-0.14,-0.48,0.47,-0.04,0.37,0.25,-0.35,0.17,0.26,-0.27,0.05,0.32,0.18,-0.36,0.44,-0.05,-0.29,0.02,-0.04,0.43,-0.14,-0.22,0.14,0.28,-0.26,0.43,0.4,0.35,0.36,0.42,-0.07,0,-0.31,0.12,-0.41,0.22,0.46,-0.18,-0.12,0.32,0.05,0.07,-0.5,0.45,-0.34,0,-0.17,0.07,0.42,0.44,-0.07,-0.03,0.48,0.35,-0.23,-0.43,-0.12,-0.31,-0.28,0.43,0.34,-0.2,0.31,0.34,0.3,-0.45,0.13,-0.44,-0.46,-0.28,-0.01,0.39,-0.36,0.14,-0.12,0.28,-0.23,0.18,0.12,0.23,0.1,-0.17,0.43,0.41,-0.02,0.45,0.02,-0.17,-0.15,-0.49,-0.17,0.26,-0.41,-0.06,0.47,-0.26,0.26,-0.34,-0.35,-0.39,0.36,-0.24,0.02,0.19,-0.05,0.03,-0.18,-0.16,-0.04,-0.02,0.3,0.2,0.07,-0.02,-0.17,0.01,-0.13,0.39,-0.15,0.34,0.02,-0.21,0.2,-0.47,0.39,0.22,0.29,0.2,0.16,-0.37,-0.49,-0.39,0.02,0.01,0.37,-0.17,0.3,-0.27,-0.04,0.45,0.13,-0.32,0.36,0.37,-0.29,0.13,-0.31,0.1,-0.39,-0.05,0.36,0.37,0.3,-0.2,0.08,0.06,0.06,-0.01,0.3,0.22,0.23,0.12,0.17,-0.17,-0.04,0.19,-0.33,-0.44,0.11,-0.5,0.21,-0.37,-0.08,-0.1,-0.29,-0.16,-0.08,0.33,0.31,-0.24,0.03,-0.31,0.09,-0.29,-0.24,-0.36,-0.2,-0.29,0.42,-0.2,0.26,-0.2,-0.07,0.24,-0.29,-0.49,0,0.03,-0.1,0.02,-0.05,-0.37,0.49,-0.4,0.23,0.23,-0.06,-0.1,-0.41,-0.26,-0.37,0.23,0.17,0.04,-0.32,0.04,-0.47,-0.05,-0.44,-0.18,-0.12,0.45,-0.37,-0.19,-0.27,-0.09,0.2,0.18,-0.32,-0.31,0.33,0.39,-0.07,-0.21,0.3,-0.1,-0.31,-0.02,-0.03,0.03,0.19,0.39,-0.38,0.18,-0.34,-0.47,0.12,0.39,0.06,0.16,0.48,-0.46,-0.03,-0.43,-0.37],[-0.010406897,0.48959592,0.17962158,0.3696256,-0.18037559,-0.48037082,0.25962156,-0.29030585,0.38976455,-0.100237116,-0.26018625,-0.20017062,-0.12027697,0.22973517,0.26967767,-0.15032542,0.039842155,0.4798435,0.0198389,0.12980016,-0.020211585,0.32972237,-0.060393967,-0.3602227,-0.3100792,0.28986296,0.309691,-0.38019475,0.00983922,-0.2901365,0.27989018,-0.090095475,-0.15009783,-0.34009287,-0.19012876,-0.10014772,0.009846818,0.09982672,-0.3501829,0.009807049,0.41979772,0.16979183,-0.28021693,-0.23020935,0.41981143,0.22979462,-0.27020898,-0.35020062,0.27979913,-0.19019864,-0.070218615,-0.44024956,0.43975994,-0.06023999,0.13978885,0.15,0.05,0.04,0.18,0.03,-0.29,0.14,0.2,0.18,0.12,0.32,0.44,-0.28,-0.09,-0.14,0.33,0.44,0.32,-0.49,0.21,0.31,0.11,-0.33,-0.28,-0.05,0.05,0.15,-0.17,-0.31,0.28,0.21,-0.04,0.41,0.01,0.15,0.35,0.47,0.42,0.12,-0.2,-0.23,0.47,0.04,0.14,-0.41,0.29,-0.49,0.23,-0.09,-0.02,-0.01,-0.27,0.43,0.23,0.33,-0.46,-0.13,-0.19,-0.28,0.47,0.05,-0.19,0,0.39,0.41,-0.14,-0.47,0.2,0.26,0.01,0.36,-0.49,-0.3,0.21,-0.07,0.33,-0.44,0.02,-0.37,0.16,0.03,0.41,0.42,0.21,-0.21,-0.03,0.02,-0.32,0.17,0.1,-0.03,0.15,0.2,0.14,0.24,0.46,-0.03,0.14,0.23,0.22,0.25,-0.2,0.47,0.4,0.11,-0.03,-0.47,-0.28,-0.21,-0.5,0.47,0.35,-0.32,0.05,-0.06,0.13,-0.12,0.28,0.1,-0.07,0.33,0.35,-0.48,-0.35,-0.47,-0.29,-0.19,0.06,0.46,-0.03,-0.14,-0.08,0.28,-0.1,0.41,-0.28,0.44,-0.48,-0.41,0.31,-0.06,-0.2,0.38,0.17,0.12,0.12,-0.04,-0.36,-0.3,-0.4,0.07,0.18,-0.47,-0.2,0.39,0.39,-0.23,0.32,0.36,-0.1,-0.34,-0.03,-0.24,0.31,0.13,0.05,-0.43,0.28,0.14,-0.29,0.19,-0.14,0.18,0.29,0.49,0.03,0.46,-0.16,0.02,-0.1,0.24,-0.33,-0.15,0.35,0.39,0.17,-0.11,-0.03,0.01,-0.49,0.45,-0.39,-0.35,0.19,0.14,0.46,-0.47,-0.44,-0.46,-0.43,0.04,0.18,-0.01,0.48,-0.09,-0.29,0.49,-0.27,-0.2,-0.15,0.42,0.42,-0.21,-0.04,0.16,0.49,-0.39,-0.1,0.42,0.45,-0.34,0.09,-0.23,0.12,-0.24,0.07,-0.3,0.49,-0.36,-0.48,-0.01,0.4,-0.2,-0.06,0.35,-0.45,0.17,-0.13,-0.06,0.17,0.18,-0.35,-0.33,-0.35,-0.41,-0.48,0.32,0.19,-0.47,0.15,0.34,0.12,-0.36,-0.42,0.41,0.45,-0.09,0.36,0.22,0.33,-0.49,-0.5,-0.41,-0.23,0.36,-0.48,0.12,0.34,0.1,0.1,-0.19,0.24,0.46,-0.26,-0.23,-0.49,-0.08,-0.38,0.03,-0.26,0.25,0.01,0.45,-0.02,-0.32,0.36,0.25,-0.28,0.03,0.4,0.14,0.31,0.14,0.1,0.16,0.18,-0.44,0.39,-0.22,-0.44,-0.11,0.47,-0.41,-0.07,-0.16,-0.4,0.16,0.4,0.3,0.39,0.03,-0.22,-0.18,-0.02,-0.42,-0.01,-0.46,0.1,-0.41,0.49,-0.23,-0.1,-0.19,0.19,0.45,0,-0.41,-0.15,0.07,0.09,0.45,0.02,0.33,-0.03,0.34,0.28,-0.09,0.02,-0.36,-0.43,-0.3,0.35,-0.09,0.13,-0.14,-0.15,-0.02,-0.34,0.02,-0.34,0.13,-0.05,0.29,-0.21,0.29,0.49,0.16,-0.11,-0.03,0.34,-0.5,-0.2,-0.18,-0.29,0.44,-0.5,-0.05,0.35,0.13,-0.2,-0.43,0.01,-0.04,-0.49,0.28,-0.09,0.48,0.17,-0.18,0.09,-0.49,0.43,0.33,-0.1,0.45,-0.01,0.23,0.03,0.17,0.34,-0.39,-0.48,-0.45,-0.2,-0.43,0.4,0.03,-0.31,0.19,-0.14,0.4,0.12,0.02,-0.28,-0.42,-0.38,0.49,0.27,0,-0.13,-0.5,0.48,-0.44,0.37,0.32,-0.44,-0.03,0.41,-0.24,-0.05,-0.23,0.41,-0.33,0.28,-0.32,-0.45,-0.04,-0.35,0.44,0.38,0.38,0.29,0.48,0.46,0.19,-0.11,-0.1,0.1,-0.19,0.32,-0.01,0.45,-0.47,-0.2,0.33,-0.38,0.45,-0.33,-0.02,-0.5,-0.07,0.11,0.43,-0.27,-0.41,0.48,-0.05,0.24,-0.46,-0.47,0.16,0.33,0.33,0.12,-0.01,-0.29,-0.5,-0.4,-0.32,-0.07,0.16,0.36,0.09,-0.07,0.45,-0.19,0.38,0.37,0.44,-0.45,-0.4,-0.22,0.17,0.43,-0.05,-0.24,0.35,0.24,0.36,0.2,0.43,0.16,0.06,-0.22,-0.34,0.16,-0.39,-0.1,0.3,0.12,-0.38,0.34,0.48,-0.46,-0.16,0.06,-0.48,-0.01,-0.22,0.27,-0.4,0.08,0.29,0.49,0.43,-0.13,-0.35,0.4,-0.34,-0.28,-0.14,-0.24,-0.27,-0.02,-0.01,0.49,-0.2,-0.2,-0.23,-0.22,-0.31,-0.03,-0.44,-0.18,0.42,-0.25,-0.2,0.12,0.08,0.38,-0.26,-0.15,-0.04,-0.41,0.1,-0.15,0.37,0.07,-0.15,0.29,0,-0.29,-0.27,0.08,-0.24,0.35,0.11,0,0.05,-0.15,-0.24,0.21,-0.28,0.49,0.08,0.12,0.01,-0.04,-0.44,0.17,-0.44,0.02,-0.19,-0.22,0.48,-0.5,0.3,-0.36,0.38,-0.36,-0.38,0.23,0.45,-0.03,0.28,0.47,-0.27,-0.02,-0.44,-0.43,0.14,0.3,-0.43,-0.27,0.12,0.03,-0.37,-0.04,0.01,0.47,0.34,-0.1,0,0.17,0.22,0.47,0.4,0.45,0.1,-0.25,-0.45,-0.04,0.12,-0.09,-0.28,0.03,0.25,0.24,-0.29,0.1,-0.11,-0.48,-0.11,0.49,-0.47,-0.24,-0.05,-0.42,0.15,-0.06,0.36,-0.17,0.13,0.4,-0.21,0.22,-0.28,-0.23,0.25,0.3,-0.43,-0.23,0.38,0.3,-0.49,-0.33,-0.33,0.16,-0.49,-0.42,0.27,-0.12,-0.25,0.4,0.07,0.31,-0.5,0.01,0.13,-0.05,0.02,0.31,-0.2,-0.35,-0.11,0.22,0.33,0.21,-0.39,0,-0.19,-0.03,0.49,-0.1,0.02,-0.39,-0.36,0.09,0.48,0.36,-0.41,0.29,-0.44,0.07,0.17,-0.02,-0.43,0.22,-0.18,-0.02,0.21,0.2,0.14,-0.2,-0.23,-0.24,0.47,0.23,-0.09,-0.22,-0.17,-0.04,0.04,0,0.27,-0.21,-0.11,0.34,-0.12,-0.04,0.17,-0.09,0.03,0.27,-0.14,0.23,0.24,0.22,-0.02,0.4,0.14,-0.4,-0.12,0.13,0.28,0.1,0.33,0.18,-0.38],[-0.23999034,-0.35999045,-0.099990554,-0.32999083,0.19001004,0.020010747,0.120011516,-0.2599903,0.060008418,0.2900076,-0.12999344,-0.40999362,-0.2799915,-0.16999131,0.360009,0.30000794,-0.19999483,-0.32999524,0.3600048,0.44000548,0.04000587,0.0100067705,-0.2599909,-0.24999379,0.010003312,0.13000461,-0.279993,-0.42999488,0.41000476,0.2200046,-0.33999595,-0.03999594,0.20000412,0.21000415,-0.3799953,-0.18999466,-0.23999453,-0.2699943,0.33000603,-0.25999376,0.2300064,-0.019994685,-0.3199941,0.43000534,-0.3899952,0.3100049,-0.08999517,0.26000452,0.0100042205,0.32000446,-0.019995883,-0.069994435,0.46000528,0.24000533,0.080004945,0.25,0.39,-0.35,0.16,-0.45,-0.21,0.05,-0.17,0.34,0.12,0.41,-0.12,0,-0.29,0.04,0.04,-0.44,-0.17,0.12,-0.3,-0.44,-0.18,-0.19,-0.37,0.2,-0.29,-0.05,0.05,-0.41,-0.27,0.23,-0.01,0.46,-0.37,-0.13,-0.08,-0.39,0.07,0.28,0.44,-0.33,-0.35,-0.16,-0.2,-0.31,-0.08,0.41,0.05,0.47,-0.22,-0.09,-0.41,-0.16,0.03,0.01,-0.08,0.08,-0.49,0.46,0.33,0.33,0.49,-0.26,0.1,0.38,-0.09,-0.08,-0.13,0.34,-0.38,-0.08,-0.01,0.05,0.17,-0.47,0.4,0.47,-0.5,0.43,-0.23,-0.2,0.4,0.08,0.3,0.31,0.14,-0.36,-0.08,0.11,0.44,0.33,-0.41,0.1,0.44,-0.4,-0.33,0.41,0.24,-0.09,0.28,0.49,0.04,0.2,0.34,0.35,0.42,0.04,0.16,0,0.11,-0.06,0.07,-0.43,0.18,0.03,0.43,-0.09,-0.07,0.28,-0.26,-0.24,0.49,0.25,0.39,-0.22,-0.17,0.38,0.1,0.06,0.35,0.49,-0.27,0.08,-0.35,-0.23,0.26,-0.31,0.23,0.45,0.39,-0.41,-0.02,0.42,-0.5,-0.01,-0.25,-0.49,0.41,-0.09,-0.33,0.26,-0.03,0.45,-0.34,0.01,-0.5,0.28,0.31,0.05,0.01,-0.47,0.43,-0.41,0.15,0.11,-0.29,0.49,0.42,-0.09,0.26,0.23,0.17,-0.02,0.39,-0.35,0.28,-0.43,0.24,-0.1,-0.48,-0.19,0.46,-0.31,-0.11,-0.42,0.01,-0.22,-0.09,0.13,-0.23,0.47,-0.12,-0.32,-0.07,0.35,-0.35,-0.12,-0.23,-0.11,-0.22,-0.24,-0.41,0,0.14,-0.07,-0.41,0.49,-0.45,-0.49,0.23,0.43,-0.46,-0.1,0.03,-0.3,-0.44,0.23,0.2,0.06,-0.41,0.43,0.07,-0.22,-0.37,0.28,-0.15,-0.01,-0.46,-0.46,0.49,-0.11,0.3,-0.15,-0.39,0.25,-0.28,-0.05,0.05,0.46,0.49,0.02,-0.28,-0.1,0.4,-0.16,0.43,0.47,0.14,-0.27,0.28,-0.08,0.18,0.2,-0.21,-0.15,0.19,0.31,-0.13,0.35,-0.42,0.09,0.45,-0.49,-0.48,-0.17,-0.37,0.19,-0.21,0.27,0.48,0.1,-0.32,0.24,0.07,0.07,0.2,-0.34,-0.13,0.29,0.35,-0.13,0.34,0.31,-0.25,0.07,0.21,-0.41,-0.45,0.26,-0.44,-0.1,-0.42,0.19,0.37,-0.11,0.06,-0.29,-0.12,0.07,-0.3,-0.26,0.18,0.37,-0.26,-0.33,-0.27,0.44,-0.38,0.22,0.15,0.02,-0.06,0.07,-0.5,0.2,0.25,-0.37,0.25,-0.06,0.12,-0.47,0.13,0.02,0.21,0.07,0.02,-0.01,0.36,-0.33,-0.5,-0.02,0.28,0.3,0.08,0.1,0.19,0.47,0.06,-0.43,-0.17,0.26,0.46,-0.17,-0.39,0.03,0.46,0.01,0.18,-0.33,0.14,-0.07,-0.05,0.43,0.44,-0.33,0.1,-0.34,-0.34,0.17,0.15,0.23,-0.43,0.44,0.21,-0.34,0.23,0.14,0.48,-0.1,-0.49,0.28,0.07,0.18,-0.39,0.35,-0.44,-0.2,-0.1,-0.33,0.11,-0.5,0.31,0.18,0.03,0.07,-0.48,0.35,0.35,-0.09,-0.5,0.03,0.3,0.39,-0.09,0.09,0.18,-0.48,0.11,0.44,0.3,-0.18,0.02,-0.22,-0.34,0.35,0.36,0.27,0.32,-0.41,-0.39,-0.21,0.25,0.49,-0.45,0.15,0.42,-0.11,-0.09,-0.36,-0.37,0.38,0.28,0.07,-0.11,-0.03,0.47,0.17,-0.24,0.01,-0.34,-0.46,0.19,-0.04,-0.13,-0.21,-0.02,0.03,0.02,0.17,0.21,-0.26,-0.47,0.25,-0.2,0.21,0.28,0.31,0.33,0.26,0.17,-0.21,0.11,-0.03,0.31,0.41,0.03,0.44,0.38,0.18,0.38,-0.32,0.01,-0.19,0.43,-0.44,0.09,-0.21,0.11,0.25,-0.34,-0.11,0.36,0.23,-0.08,0.39,0.34,-0.47,-0.23,0.18,0.19,-0.35,0.33,-0.01,0.33,0.36,-0.07,-0.28,0.15,-0.05,0.26,0.03,0.14,0.34,0.29,0.02,0.23,0.22,0.32,-0.27,-0.39,-0.02,-0.31,-0.42,0.1,-0.23,-0.07,0.37,-0.46,0.41,-0.43,0,0.17,-0.3,0.48,0.22,-0.16,-0.49,-0.03,-0.43,0.13,-0.13,0.14,-0.34,0.49,0.12,0.25,-0.48,0.43,0.4,-0.35,-0.38,-0.3,-0.46,0.07,-0.3,0.45,0.25,0.39,0.06,-0.08,0.05,-0.33,0.23,-0.12,-0.25,0.36,-0.06,0.35,-0.44,-0.32,0.21,-0.26,0.25,0.09,0.23,0.34,-0.47,-0.42,0.47,0.02,-0.09,0.44,-0.36,0.26,0.44,-0.21,0.12,0.13,0.27,0.26,0.08,-0.38,0.41,0.14,-0.42,-0.31,0.4,0.28,0.23,0.26,-0.19,-0.34,0.36,0.22,-0.06,0.37,-0.05,-0.05,0.33,-0.14,0.42,0.17,0.42,-0.47,-0.49,0.11,-0.47,0.47,-0.07,0.46,-0.27,0.3,-0.42,-0.2,0.09,0.08,-0.17,-0.4,0.01,0.03,0.43,-0.26,-0.16,-0.3,-0.29,-0.26,-0.43,-0.08,-0.19,-0.44,0.33,-0.33,0.29,-0.09,0.34,0.41,-0.31,0.37,0.12,-0.04,-0.34,0.43,-0.15,0.27,0.02,0,-0.42,0.06,-0.38,0.35,0.04,-0.16,0.44,-0.2,-0.08,0.17,-0.18,0.21,0.32,0.27,0.04,0.11,0.15,-0.14,-0.38,-0.44,-0.49,0.16,-0.05,0.17,-0.12,-0.04,-0.02,-0.46,-0.13,0.49,0.39,0.07,0.17,0.2,-0.35,0,-0.21,-0.04,0.02,-0.02,-0.27,-0.01,0.49,-0.34,0.08,-0.02,-0.46,0.35,0.42,0.04,-0.22,0.48,0.14,-0.04,-0.01,-0.08,-0.4,-0.06,-0.04,-0.42,0.36,0.39,0.42,-0.08,0.27,0.25,-0.47,-0.38,0.11,-0.46,-0.18,-0.31,0.33,0.14,0.32,0.01,0.17,-0.21,-0.41,0.4,-0.09,0.13,-0.39,0.32,0.21,0.41,0.43,-0.29,-0.29,0.23,-0.11,0.34,0.49],[-0.05967442,0.120327406,-0.16968712,0.0603168,0.06033984,-0.11960419,0.3303949,-0.059664067,0.42028463,-0.26973566,0.3802224,-0.2797795,-0.41970575,-0.35970297,-0.49968642,0.14026916,0.4701698,0.24015824,0.31016463,-0.14981999,0.05019142,0.16023563,-0.26968613,0.2802093,-0.3998801,0.20014438,0.3602434,0.32017457,0.32016426,0.40015292,0.3801383,0.14012338,-0.02986835,-0.2998635,-0.1098422,-0.48982248,-0.019820834,0.44019595,-0.39979532,0.40021324,-0.24979077,-0.039796233,-0.009802634,-0.10981902,-0.27983612,0.10016235,0.120157406,0.26015404,0.4201531,0.07014802,-0.26983476,0.48018634,0.070176184,-0.009825153,-0.06983994,0.28,-0.12,0.04,-0.04,0.36,0.02,-0.49,0.12,-0.49,-0.15,-0.27,0.24,0.38,0.24,0.48,-0.35,-0.48,0.14,0.4,-0.41,-0.41,-0.34,0.33,0.05,-0.01,-0.42,-0.41,0.39,-0.25,0.16,0.39,-0.44,0.48,0.26,0.11,0.12,0.43,-0.02,-0.26,-0.12,-0.26,0.34,-0.03,-0.46,0.48,0.36,0.23,-0.48,0.43,-0.09,-0.29,-0.17,0.17,-0.11,-0.17,0.11,0.05,0.48,0.47,0.27,-0.07,-0.39,-0.14,-0.16,-0.04,-0.33,0.25,-0.38,-0.37,-0.15,-0.29,0.04,-0.1,0.02,0.34,-0.25,0.19,0.29,0.07,0.12,-0.16,-0.43,0.45,0.33,-0.05,0.05,-0.11,0.08,-0.08,-0.5,-0.43,0.44,0,-0.04,0.44,-0.37,-0.03,-0.38,0.08,0.31,-0.39,0.11,0.38,0.08,-0.3,0.16,0.43,-0.36,0.05,-0.42,0.41,0.25,-0.09,-0.16,-0.07,-0.15,-0.35,0.02,0.39,0.4,0.27,-0.34,0.19,-0.37,-0.22,-0.24,-0.47,0.44,0.07,0.21,0.28,0.06,-0.29,0.25,0.01,0.23,-0.32,-0.13,0.13,0.29,0.12,-0.26,-0.47,-0.16,-0.42,-0.19,0.03,-0.34,-0.48,0.08,0.47,0.44,-0.27,0.17,-0.47,0.44,0.41,0.25,-0.21,0.44,0.12,0.48,0.07,0.33,-0.21,-0.15,0.04,0.16,0.32,0.19,-0.33,0.28,0.39,-0.4,-0.22,0.03,-0.38,-0.15,-0.46,0.46,0.23,0.37,0.41,0.48,0.23,0.33,-0.18,0.03,0.21,0.07,0.32,-0.07,-0.43,0.19,-0.34,0.13,0.16,-0.31,-0.46,0.22,0.27,0.36,-0.17,-0.17,-0.09,-0.31,-0.46,-0.37,-0.11,0,0.31,0.05,0.2,-0.17,-0.3,0.24,-0.44,0.09,-0.4,-0.04,-0.48,-0.5,0.44,-0.25,0.36,0.23,0.2,-0.3,0.43,0.14,0.36,0.42,-0.19,-0.19,-0.32,0.36,0.04,0.08,0.06,0.03,0.29,-0.31,-0.36,-0.3,0.25,-0.23,0.22,0.24,-0.02,-0.08,0.07,-0.43,-0.41,0.08,0.2,0.27,0.42,-0.43,-0.04,0.18,-0.01,0.34,-0.3,0.25,0.14,0.38,-0.26,-0.12,-0.36,-0.16,-0.3,-0.02,-0.48,0.06,0.17,0.33,0.35,0.24,0,0.09,-0.5,0.46,0.22,0.01,-0.44,0.28,0.33,0.22,0.11,-0.09,0.44,-0.04,-0.39,0.38,-0.46,0.44,0.49,-0.11,0.06,0.36,-0.48,-0.16,0.09,-0.37,-0.28,-0.42,-0.45,0.02,0.41,0.36,0.41,-0.33,0.07,0.36,0.17,0.02,-0.39,0.18,0.18,0.36,-0.45,0.01,0.26,0.22,-0.1,0.23,-0.14,-0.37,0.01,0.22,0.34,-0.04,-0.33,0.13,0.06,0.16,-0.14,0.08,-0.21,0.48,0.22,-0.2,0.31,0.25,0,0.26,0.38,-0.25,-0.29,0.02,0.32,-0.2,0.2,0.2,0.31,0.01,0.07,0.36,0.23,-0.02,0.22,0.41,-0.49,-0.32,-0.48,-0.06,-0.5,0.44,-0.21,-0.5,-0.35,0.03,-0.11,0.2,-0.37,0.24,0.19,-0.49,-0.28,0.14,0.34,-0.39,0.42,0.49,0.39,0.03,0.25,-0.03,0.31,-0.45,-0.41,0,0.35,0.3,-0.25,0.31,-0.21,0.12,0.22,-0.45,0.26,0.44,0.45,-0.3,-0.14,-0.21,0.4,-0.5,0.06,-0.44,0.31,0.05,0.13,-0.41,0.14,0.1,0.49,-0.49,-0.21,-0.02,0.19,0.02,-0.38,-0.26,0.41,0.15,0.18,0.08,-0.06,-0.19,-0.05,-0.44,-0.21,-0.33,0.37,0.39,-0.34,0.21,0.13,0.1,0.12,0.25,0.4,0.24,-0.27,0.03,0.36,0.25,-0.34,0.14,0.32,-0.23,-0.17,-0.27,-0.14,-0.27,0.31,0.2,-0.22,0.2,0.1,-0.19,0.05,-0.25,0.11,0.25,-0.24,-0.04,-0.29,0.24,-0.06,-0.23,-0.12,0.19,0.35,0.43,0.11,-0.13,-0.49,-0.13,0.29,0.42,-0.08,0.29,-0.01,-0.33,0.22,-0.45,0.31,0.14,-0.42,-0.05,-0.08,0.42,0.49,-0.2,-0.31,0.15,-0.37,-0.02,-0.23,-0.1,0.04,-0.09,-0.3,0.04,0.38,0.14,-0.12,-0.08,0.12,-0.06,0.19,0.4,0.41,0.18,0.39,0.26,0.25,-0.07,-0.48,-0.3,0.14,0.07,0.16,0.49,0.34,-0.04,0.19,0.04,0.24,0.45,-0.26,0.03,-0.4,-0.12,-0.12,-0.5,0.09,0.44,-0.21,-0.42,0.17,-0.11,-0.49,0.14,0.26,0.01,-0.49,-0.19,-0.09,-0.08,0.39,0.19,-0.05,-0.44,0.25,0.47,0.25,-0.3,0.2,-0.08,0.44,0.33,0.17,0.16,-0.31,-0.35,0.3,0.02,-0.21,0.38,-0.34,0.31,-0.36,0.43,0.03,-0.25,0.05,-0.48,-0.28,-0.18,-0.05,-0.12,-0.38,-0.19,-0.45,0.04,-0.43,-0.47,0.13,-0.09,-0.25,-0.12,-0.26,0.36,-0.37,0.33,0.21,-0.16,-0.06,0.1,0.21,-0.02,-0.49,0.03,-0.24,-0.42,0.04,0.02,0.03,0,-0.09,0.23,0.48,-0.13,0.47,0.06,0.2,-0.15,0.11,0.14,-0.42,0.27,0.39,0.38,0.13,0.28,0.06,-0.23,0.3,0.2,0.03,-0.3,0.07,0.11,0.11,0.46,-0.13,0.09,-0.45,0.46,-0.5,0.05,0,-0.38,0.49,0.01,-0.1,0.36,0.39,0.07,-0.38,-0.14,0.23,0.29,0.02,0.44,0.08,-0.37,0.4,-0.02,0.01,-0.24,0.21,0.33,0.47,-0.3,-0.35,-0.14,0.25,-0.5,-0.31,-0.39,-0.2,0.14,0.14,0.03,-0.24,0.27,0.38,-0.39,-0.13,0.2,-0.12,-0.28,0.07,-0.33,-0.03,0.28,-0.41,0.17,-0.13,-0.27,0.19,0.07,-0.05,0.23,0.33,0.17,-0.35,0.29,-0.14,-0.47,-0.4,0.39,-0.12,-0.49,-0.45,-0.41,-0.36,0.48,0.17,0.31,-0.26,0.29,-0.4,0.31,0.38,-0.01,-0.25,0.3,0.23,-0.14,-0.23,-0.42,0.12,0.45,-0.09],[0.22003427,-0.30996528,0.40003514,0.20003475,0.09003565,0.11003843,-0.40996265,0.2400354,-0.15996684,0.09002556,-0.009977097,0.34002644,0.050031032,-0.3899684,-0.11996726,0.13003047,-0.39997965,-0.49997994,0.060025703,0.4900284,0.40002885,-0.029970028,0.13003343,0.35002726,-0.16998014,-0.08998288,-0.14998284,-0.43998286,0.49002337,0.26002413,-0.47997645,-0.2399773,-0.069977075,0.09002381,-0.16997491,0.40002543,-0.25997773,-0.21998142,-0.4299857,-0.30998698,-0.35998657,-0.45998573,0.260015,-0.2799868,-0.109988205,0.1500107,0.20001087,0.18001013,-0.15999025,0.2300106,-0.33998975,-0.41998944,-0.43998963,0.45001054,0.01000922,-0.25,0.05,-0.45,-0.14,-0.32,-0.24,-0.47,0.25,0.08,0.07,-0.28,-0.1,0.45,0.28,-0.02,-0.11,0.32,0.42,-0.14,0.35,0.36,0.21,-0.1,-0.05,0.18,0.21,0.16,0.21,-0.24,0.09,0.43,-0.3,-0.03,-0.42,-0.43,-0.16,-0.32,0.42,0.38,0.43,-0.39,-0.22,-0.33,0.15,-0.34,-0.26,0.24,0.4,0.36,-0.17,-0.16,-0.35,0.19,-0.4,0.15,0.04,-0.35,0.09,0.17,-0.03,0.1,-0.19,-0.01,0.48,0.13,-0.48,0.42,0.37,0.2,-0.36,-0.29,0.39,-0.47,-0.08,0.23,0.07,0.03,0.25,-0.22,-0.07,0.47,0.25,0.34,0.42,-0.25,0.27,0,-0.13,-0.08,0.02,-0.31,0.08,-0.26,-0.09,-0.18,0.29,0.29,-0.31,-0.49,-0.36,-0.19,0.36,-0.31,0.22,-0.38,-0.06,-0.39,-0.24,-0.14,-0.43,-0.49,-0.11,-0.19,-0.26,0,0.34,-0.03,0.06,0.23,0.35,0.01,0.05,-0.05,-0.32,0.45,0.12,0.15,0.12,-0.41,0.44,0.28,-0.17,0.24,-0.36,-0.38,-0.4,0.05,-0.38,0.29,0.3,0.15,-0.27,-0.49,-0.16,0.01,0.29,-0.23,-0.5,0.41,-0.02,-0.18,-0.28,-0.04,-0.35,0.13,0.26,-0.09,-0.49,0.27,-0.01,0.28,-0.01,-0.33,-0.08,-0.21,0.17,0.14,-0.34,-0.39,-0.11,-0.21,-0.16,0.26,0.42,-0.31,-0.22,0.04,-0.4,0.16,-0.35,-0.15,0.15,0.2,0.11,0.11,0.05,0.37,0.08,0,-0.14,0.19,0.03,-0.15,-0.2,-0.49,-0.34,-0.44,0.09,-0.46,0.33,-0.35,-0.4,0.38,0.02,-0.32,0.47,-0.05,0.03,0.46,-0.15,-0.28,-0.2,-0.16,0.11,-0.36,-0.37,0.29,0.05,0.3,0.23,0.3,-0.44,0.15,0.25,0.19,0.25,0.49,-0.04,0.4,-0.47,-0.29,0.44,-0.45,0.33,-0.5,-0.26,0.26,-0.32,-0.07,0.14,-0.4,-0.17,0.12,-0.35,-0.37,-0.12,-0.32,0.23,-0.35,0.38,-0.14,0.01,0.29,-0.2,-0.48,-0.42,-0.06,-0.38,0.32,-0.08,0.48,0.48,0.12,0.42,-0.37,-0.23,-0.25,0,0.11,0.39,-0.14,0.11,-0.39,-0.35,0.13,-0.03,-0.07,0,0.11,-0.19,0.06,-0.25,-0.19,-0.48,0.16,0.2,-0.35,0.24,0.31,0.41,0.3,0.13,-0.15,-0.5,0.15,-0.39,0.2,0.19,-0.48,0.36,-0.37,0.17,-0.39,-0.25,0.01,0.25,-0.11,0.13,0.17,0.05,0.15,0.44,0,0.01,0.36,0.22,0.17,0.09,-0.25,-0.07,-0.39,0,0.19,0.2,-0.41,0.22,-0.25,-0.39,0,0.02,0.26,0.24,-0.03,0.25,-0.33,0.38,-0.36,-0.45,0.01,0.41,-0.19,0.02,-0.43,-0.24,-0.24,0.35,-0.38,0.34,-0.36,0.42,-0.07,-0.4,-0.06,0.09,0.24,0.13,0.48,-0.09,-0.35,0.28,-0.01,-0.23,-0.38,-0.36,0.28,0.41,-0.04,0.25,-0.17,0.47,0.08,0.11,-0.42,-0.17,-0.38,0.08,-0.08,-0.08,-0.06,-0.26,0.1,-0.1,0.47,0.07,-0.42,0.15,-0.21,0.38,-0.49,0.04,0.4,0.22,0.39,0.23,-0.09,-0.47,-0.1,0.42,-0.03,-0.15,-0.11,-0.13,0.01,-0.33,-0.16,0.32,-0.48,-0.4,-0.04,-0.35,-0.3,0.05,0.47,0.41,-0.32,-0.42,-0.2,0.04,-0.44,-0.38,0.11,0.07,0.24,0.29,-0.44,0.36,0.21,-0.16,0.41,-0.42,-0.32,0,0.45,-0.42,0.35,-0.28,0.39,0.3,-0.27,-0.24,0.13,-0.31,-0.09,0.35,-0.16,-0.15,0.25,0.48,0.05,-0.17,0.23,0.35,0.36,-0.15,0.23,0.31,0.13,0.22,-0.4,-0.03,-0.4,0.17,-0.32,-0.12,0.47,0.2,0.1,0.38,-0.44,0.45,-0.31,0,-0.19,0.29,-0.01,-0.09,-0.35,0.38,-0.06,0.21,-0.39,0.23,0.29,0.08,-0.15,-0.17,0.13,0.09,-0.16,-0.47,0.08,-0.33,0.19,0.25,-0.35,0.45,-0.49,-0.47,0.38,0.14,0.24,0.36,0.41,0.09,-0.37,-0.28,0.04,-0.43,0.35,-0.18,0.15,0.24,-0.23,-0.11,-0.14,-0.14,0.37,0.09,-0.48,0.13,-0.44,-0.5,0.03,-0.48,-0.14,-0.49,0.31,0.05,0.13,0.04,-0.11,-0.39,-0.5,0.3,0.46,-0.26,0.32,-0.3,-0.05,-0.37,0.29,0.05,0.24,-0.48,-0.13,0.34,0.4,-0.21,-0.11,0.29,-0.43,-0.08,-0.49,-0.26,0.07,0.23,-0.18,0.38,-0.28,-0.39,-0.09,0.48,-0.07,-0.19,0.42,0.03,0.24,-0.04,-0.08,-0.39,0.04,0.17,-0.37,0.39,0.34,0,-0.24,0.01,0.14,0.02,-0.39,0.01,-0.34,0.34,-0.04,0.47,-0.4,0.26,-0.27,-0.28,0.41,0.43,0.48,-0.17,0.21,0.3,-0.38,-0.08,-0.41,0.34,-0.41,-0.07,0.37,-0.23,-0.26,-0.1,-0.22,-0.38,-0.11,-0.44,-0.03,0.31,-0.27,0.19,-0.5,0.4,0.32,0.09,0.35,0.44,-0.07,0.48,-0.27,-0.31,-0.3,0.11,0.18,0.3,-0.33,-0.47,-0.12,0.34,-0.09,0.3,-0.07,0.18,0.13,0.38,0.09,-0.45,0.19,0.48,-0.14,-0.34,0.25,-0.41,0.19,-0.22,-0.17,0.3,0.48,0.03,0.07,-0.36,-0.1,-0.39,-0.31,0.17,-0.43,0.13,0.22,-0.03,0.44,-0.15,0.18,0.13,-0.1,-0.08,-0.24,-0.19,-0.24,0.43,0.49,0.29,-0.25,-0.05,0.12,-0.44,-0.06,-0.4,0.41,-0.11,-0.04,-0.13,-0.45,0.35,-0.24,-0.24,-0.1,-0.18,-0.02,0.46,0.31,0.46,-0.17,-0.29,-0.47,-0.5,-0.02,-0.38,0.19,-0.23,-0.48,-0.49,0.04,-0.46,0.03,0.27,0.39,0.44,-0.02,-0.37,-0.27,0.46,0.22,-0.18,-0.5,0.07,-0.21,0.32,-0.14,-0.36,-0.48,0.43,0.33,-0.2,-0.38,-0.47,-0.04],[-0.4700078,-0.09000807,0.10999218,0.07999217,-0.1800083,-0.09000969,0.1299905,-0.13000818,-0.05000699,0.32999378,-0.4900053,-0.19000538,-0.010006757,-0.14000718,-0.05000766,0.32999346,-0.15000421,0.22999594,0.33999598,-0.2700046,-0.49000475,-0.30000582,-0.040007666,0.1999949,0.14999701,0.24999627,0.039993986,-0.26000422,-0.42000404,-0.32000378,-0.2700035,0.40999678,-3.0695226E-06,-0.19000338,0.34999606,0.02999552,0.3699955,0.039995093,0.39999503,0.049994685,-0.42000517,0.43999502,0.049994964,0.22999546,-0.22000405,-3.7906432E-06,0.369996,0.2699962,0.05999609,-0.4000038,-0.020004207,0.05999533,-0.23000447,0.2899956,-0.050004143,0.33,0.44,0.4,0.42,0.06,0.36,-0.12,-0.22,-0.24,0.09,-0.41,0.31,-0.32,0.01,0.42,0.45,0.3,0.32,-0.22,-0.35,-0.44,0.14,0.22,-0.08,-0.36,0.38,0.27,0.17,0.47,0.2,0.17,0.14,0.2,0.35,-0.48,0.08,0.46,0.11,-0.16,0.19,0.19,0.15,-0.22,-0.36,-0.32,0.19,0.18,-0.24,0.14,-0.36,0.17,0.24,0.49,0.14,-0.12,-0.32,-0.28,-0.02,0.28,0.18,-0.42,0.21,-0.19,0.06,0.42,-0.05,-0.39,-0.18,-0.02,-0.16,0.49,-0.31,-0.02,0.09,-0.05,-0.1,-0.15,0.07,-0.27,-0.05,-0.31,0.01,-0.47,0.32,-0.48,0.42,0.14,-0.44,-0.03,0.33,-0.15,-0.03,0.33,0.15,0.1,0.48,-0.16,0.22,-0.28,0.23,0.08,-0.14,0.27,-0.2,-0.35,-0.02,-0.25,-0.11,-0.31,0.47,0.32,0.14,-0.25,-0.18,-0.01,0.07,0.17,-0.02,0.04,0.49,0.3,-0.46,0.35,0.15,0.48,0.01,-0.15,0.32,0.49,-0.04,-0.44,0.13,-0.15,0,0.37,0.32,0.23,0.22,0.17,0.04,0.16,-0.25,0.36,-0.01,-0.49,0.21,-0.28,0.01,-0.34,-0.48,-0.2,0.36,-0.33,-0.27,0.42,0.03,0.01,-0.38,-0.18,0.14,-0.38,-0.07,-0.1,0.22,0.41,-0.32,-0.22,0.24,-0.06,0.16,0.33,0.44,0.31,0.49,-0.18,0.05,-0.32,-0.15,0.13,-0.24,-0.22,0.34,0.16,0.46,-0.35,-0.31,-0.04,-0.38,0.07,-0.16,-0.19,0.11,-0.1,-0.47,-0.09,-0.27,0.34,-0.36,0.07,0.32,-0.08,-0.03,-0.44,0,-0.32,-0.14,-0.45,-0.33,0.4,-0.13,-0.15,-0.34,-0.02,-0.44,-0.15,-0.22,0.27,-0.06,0.07,0.21,0.22,-0.34,-0.33,-0.41,-0.16,-0.28,0.04,0.28,0.08,-0.42,0.2,-0.47,0.27,0.3,0.33,0.31,0.27,-0.35,0.27,0.29,-0.36,-0.22,-0.29,-0.3,0.49,-0.35,-0.37,-0.16,0.17,-0.37,-0.04,-0.1,0.07,0.35,-0.4,-0.24,-0.2,0.46,-0.35,0.46,0.31,-0.23,0.09,0.31,0.16,-0.19,-0.12,0.17,-0.28,0.04,0,0.11,0.16,0.27,0.07,-0.06,0.45,0.46,-0.4,-0.31,-0.42,-0.3,-0.4,-0.06,0.11,-0.2,-0.04,0.41,0.2,0.07,0,0.3,-0.5,0.31,0.47,0.37,0.18,-0.11,0.04,0.18,0.26,-0.04,-0.39,-0.37,0.12,0.35,0.23,0.29,-0.22,0.16,-0.2,-0.16,0.36,0.45,0.38,0.11,-0.34,-0.36,-0.31,-0.15,0.34,-0.04,0.46,0.15,-0.47,0.2,0.11,0.35,0.29,0.2,0.25,0.05,-0.08,-0.08,-0.07,0.12,-0.42,0.46,0.32,0.26,0.06,0.17,0.13,-0.46,-0.24,-0.34,0.43,-0.46,0.43,-0.14,0.2,0.03,-0.31,-0.32,0.33,-0.21,-0.01,-0.04,-0.41,0.42,-0.27,0.38,0.49,0.08,0.4,0.25,0.42,-0.06,0.02,-0.25,0.02,-0.3,-0.18,-0.07,0.29,-0.33,0.33,0.42,-0.12,0.37,0.26,0.06,0.42,-0.07,-0.5,-0.29,-0.15,-0.27,0.08,-0.37,-0.37,0.11,0.36,0.39,0.02,0.17,0.17,-0.45,-0.36,0.01,-0.26,-0.01,0.01,0.17,0.33,-0.01,-0.29,0.26,-0.11,0.16,-0.04,0.06,-0.42,-0.29,-0.35,0.17,0.46,0.06,0.07,0.18,-0.11,0.18,0.35,-0.11,-0.38,0.41,-0.17,-0.08,0.4,-0.39,0,0.28,0.28,0.37,0.13,-0.24,-0.45,-0.26,0.09,0,-0.5,0.08,0.34,0.42,0.16,0.06,0.03,0.14,0.24,0.35,0.21,-0.4,-0.03,-0.05,-0.39,0.05,0.14,-0.38,0.04,0.42,-0.34,0.28,0.36,-0.23,-0.35,0.17,0.28,-0.29,0.08,0.39,0.11,0.21,0.47,-0.43,0.18,0.31,0.34,0.42,0.22,0.06,-0.13,0.18,0.18,-0.46,-0.1,-0.11,-0.19,-0.17,0.25,-0.42,0.12,0.42,0.19,0.16,-0.17,-0.29,0.22,0.06,0.26,0.49,0.27,-0.18,-0.44,0.34,-0.27,0.49,-0.38,-0.11,0.26,-0.2,0.21,0.21,-0.1,0.48,0.04,-0.02,-0.4,0.31,0.37,0.26,-0.14,-0.05,-0.05,0,-0.24,0.19,-0.48,-0.2,0.24,-0.03,-0.42,-0.23,-0.34,0.23,0.29,-0.45,0.11,0.33,0.31,-0.09,-0.24,0.42,0.06,-0.05,-0.14,0.41,0.02,0.21,-0.39,0.35,-0.4,0.41,0.18,-0.5,0.12,-0.19,0.37,0.06,0.08,0.04,0.46,0.32,0.15,-0.21,-0.29,-0.07,0.05,0.16,-0.31,-0.01,0.36,-0.24,-0.5,-0.04,-0.01,-0.06,0.39,0.49,-0.37,-0.15,-0.34,-0.2,-0.32,0.38,-0.14,-0.33,0.09,-0.35,-0.4,-0.03,-0.33,-0.46,-0.25,-0.24,-0.06,-0.06,-0.24,-0.24,-0.26,0.43,-0.14,0.35,0.02,0.12,0.48,0.34,0.4,-0.29,0.01,-0.32,-0.08,0.38,-0.07,-0.27,-0.13,0.16,0.13,0.26,0.43,-0.46,0.34,-0.11,0.05,0.21,-0.19,0.31,-0.49,0.23,-0.48,-0.46,-0.33,0.12,0.25,-0.31,0.48,-0.2,0.28,0.06,0.4,0.01,-0.24,-0.13,0.14,0.42,-0.46,-0.21,0.11,-0.48,0.38,0.27,0.31,0,-0.17,-0.31,-0.41,0.47,-0.21,0.3,-0.2,-0.34,0.32,-0.34,-0.31,-0.04,-0.5,0.29,-0.38,-0.27,-0.26,-0.44,0.37,-0.44,0.35,-0.09,0.27,-0.04,0.24,0.13,0.17,-0.48,-0.3,0.49,0.35,-0.26,-0.27,0.16,-0.21,0.05,-0.4,-0.49,-0.49,0.48,-0.25,0.23,0.19,-0.41,-0.33,-0.32,0.41,-0.26,-0.34,-0.13,0.27,0.31,0.4,0.24,0.15,0.41,-0.08,0.12,-0.28,0.16,-0.37,-0.22,0.46,0.33,-0.19,0.44,-0.27,-0.17,0,0.07,-0.37,-0.28,-0.45,0.39,0.3,-0.38,0.22],[0.17110358,-0.2189037,0.061026137,0.21101741,-0.07898006,0.35100147,0.3210203,-0.2891719,-0.46935806,-0.15935294,-0.019487923,-0.48953086,-0.119239554,-0.37927714,-0.029119805,0.2908818,-0.15956333,0.35042843,0.4704447,0.26054728,0.36057737,0.28075275,-0.26893896,0.4406055,0.08022701,0.24037464,0.09082636,-0.26948196,0.05044178,0.2503722,-0.49969867,0.4302603,0.020272847,-0.3097456,0.24035558,-0.15959212,0.15041505,0.45045203,0.21048026,-0.06949565,-0.35948017,0.11054012,-0.21943715,0.090539806,0.24048303,-0.17947291,-0.37946916,-0.05948752,0.16051286,-0.06949187,0.21056068,-0.45936394,0.33061042,-0.14938384,0.36053294,0.39,-0.45,0.11,-0.37,0.17,-0.25,0.08,0.16,-0.23,-0.17,0.04,-0.01,-0.31,-0.12,-0.38,-0.37,-0.11,-0.36,0.04,0.12,-0.26,0,0.13,-0.3,-0.25,0.12,-0.36,0.07,-0.38,-0.46,0.46,-0.4,-0.34,-0.17,0.35,-0.22,-0.46,0.31,-0.47,-0.33,0.05,0.45,-0.5,-0.24,-0.31,0.33,0.43,-0.44,0.03,-0.21,-0.19,0.39,-0.21,0.23,0.11,-0.12,-0.09,-0.09,0.37,-0.46,-0.4,-0.49,0.04,-0.27,-0.14,-0.06,-0.18,0.36,0.02,0.34,-0.41,0.07,-0.4,-0.14,-0.44,-0.21,-0.01,-0.13,-0.5,-0.08,0.19,-0.42,-0.47,0.32,0.22,-0.43,0.31,-0.08,0.21,-0.03,0.37,0.12,0.43,0.48,-0.44,0.04,-0.09,0.27,0.39,0.25,0,-0.44,0.04,0.19,-0.31,0.23,0.29,0.42,0.17,-0.19,0.38,-0.46,-0.1,-0.05,-0.15,-0.48,0.47,0.21,0,-0.21,0.12,0.39,-0.36,-0.45,0.46,-0.04,0.14,-0.38,-0.21,0.01,0.38,0.22,-0.02,-0.25,0.41,0.12,0.04,-0.17,0.13,0.49,-0.23,0.38,0.25,-0.11,0.08,0.32,-0.28,-0.02,0.13,-0.46,0.06,0.2,-0.24,0.09,-0.38,0.11,0.42,-0.01,0.22,0.22,-0.41,0.17,0.13,-0.35,-0.07,-0.35,0.06,-0.35,0.03,0.22,-0.03,0.14,-0.42,0.01,-0.49,0.24,-0.36,0.24,-0.04,-0.36,-0.26,-0.35,-0.02,-0.26,0.45,-0.33,-0.05,0.38,-0.38,-0.2,0.19,-0.45,0.1,0.4,0.39,0.1,-0.25,0.09,0.45,-0.08,-0.24,-0.43,0.44,0.4,0.06,0.42,0.11,0.25,0.07,-0.12,-0.03,-0.32,-0.48,0.08,-0.02,0.43,-0.32,-0.12,-0.3,-0.25,0.2,0.17,-0.48,-0.27,-0.48,-0.08,-0.47,-0.32,0.11,-0.1,-0.01,0.04,0.28,-0.46,0.37,-0.34,-0.29,0.08,0.17,-0.47,0.06,0.2,-0.19,0.24,0.33,0.01,-0.48,-0.48,-0.09,0.45,-0.08,0.36,-0.12,0.19,0.22,0.09,-0.46,0.2,0.37,-0.37,0.38,-0.07,-0.37,-0.34,0.38,0.42,-0.11,0.48,0.2,-0.19,0.22,0.09,0.2,-0.33,0.19,-0.5,-0.15,-0.22,-0.1,0.01,-0.1,-0.5,0.26,0.16,0.48,0.12,-0.34,-0.41,-0.19,-0.22,-0.38,0,0.2,0.03,-0.36,-0.38,0.06,-0.35,0.35,0.41,-0.38,-0.47,-0.18,-0.41,-0.28,0.32,-0.35,-0.29,0.49,0.22,-0.27,0.26,-0.2,-0.14,0.23,0.38,0.17,-0.03,-0.32,-0.25,0.26,-0.2,0.16,-0.09,-0.31,-0.28,0.39,-0.34,-0.47,0.07,-0.07,-0.3,-0.08,-0.01,-0.12,-0.14,0.18,0.17,-0.07,-0.35,-0.03,0.44,-0.41,0.09,-0.45,-0.15,-0.31,-0.16,0.3,-0.24,-0.06,-0.42,0.47,0.09,-0.36,0.32,-0.13,0.4,0.39,-0.5,0.43,0.48,-0.32,-0.08,-0.22,-0.47,-0.16,0.3,0.47,-0.13,-0.31,-0.5,-0.47,-0.48,0.28,0.31,-0.29,-0.43,-0.14,0.34,-0.48,0.04,-0.14,0.27,-0.38,-0.15,-0.27,0.33,-0.16,0.05,0.49,0.28,0.27,-0.07,-0.28,-0.02,0.26,0.16,-0.19,-0.49,-0.49,-0.11,-0.14,-0.08,-0.44,-0.06,-0.45,0.44,0.31,-0.17,0.11,-0.2,0.04,-0.45,0.47,-0.11,0.11,-0.1,-0.21,0.42,0.3,0.01,-0.04,-0.09,-0.12,-0.09,-0.28,0.09,0.3,-0.21,-0.46,0.04,0.25,-0.16,0.32,0.13,-0.33,0.43,0.2,0.17,-0.21,-0.22,-0.48,-0.49,0.44,0.19,-0.27,0.21,-0.04,0.33,0.37,-0.15,-0.14,-0.12,-0.29,0,0.42,0.44,-0.46,0.14,-0.29,-0.05,-0.36,0.01,-0.22,-0.44,0.04,-0.31,-0.28,-0.17,-0.29,0.18,0.2,0.11,0.13,0.02,-0.02,-0.05,-0.03,0.19,-0.33,0.01,-0.37,0.47,-0.08,0.19,-0.33,-0.14,-0.38,-0.18,0.2,-0.28,0.39,-0.45,-0.05,0.34,-0.37,0,0.22,0.37,-0.36,-0.46,-0.01,-0.38,0.11,-0.31,0.15,0.24,0.25,0.19,-0.49,-0.03,-0.03,-0.15,-0.03,0.2,-0.18,-0.33,-0.42,0.09,0.39,-0.33,-0.43,0.39,0.12,0.48,0.28,0.14,-0.35,0.28,-0.12,0.48,0.22,0.09,0.04,-0.37,-0.48,-0.5,-0.15,-0.27,-0.46,-0.08,0.11,-0.08,-0.19,-0.28,0.25,0.04,0.08,0.25,0.02,0.45,-0.09,-0.37,0.48,0.46,0.47,0.09,0,0.13,-0.1,-0.5,0.08,0.46,-0.19,-0.47,0.25,0.38,0.3,-0.17,0.18,-0.19,0.32,0.35,0.05,-0.04,0.06,0.14,0.08,-0.11,-0.27,-0.26,-0.44,-0.1,-0.24,-0.08,0.06,0.09,0.1,0.07,-0.34,-0.07,0,0.21,0.33,-0.47,0.34,0.14,-0.39,-0.22,-0.03,0.37,0.23,-0.26,-0.43,-0.3,-0.37,0.06,0.08,0.02,-0.1,-0.18,-0.5,-0.4,-0.1,-0.35,0.44,-0.32,0.19,0.38,-0.04,-0.34,-0.23,-0.28,-0.33,-0.26,0.31,-0.4,-0.48,0.01,0.12,0.41,0.02,-0.2,0.42,-0.15,0.01,0.31,-0.18,-0.44,-0.21,-0.5,-0.5,-0.43,-0.33,0.33,-0.08,-0.1,-0.19,0.17,-0.42,0.15,0.44,-0.27,0.31,-0.19,0.09,0,-0.44,0.32,-0.12,-0.48,0.04,-0.44,0.4,-0.01,0.3,0.2,-0.32,-0.46,0.14,-0.37,0.35,0.13,0.08,-0.04,-0.35,-0.31,-0.45,-0.16,0.32,-0.09,0.28,-0.16,-0.07,0.46,0.46,-0.21,-0.02,0.1,0.26,-0.5,0.24,0,0.17,-0.24,-0.05,0.44,-0.33,0.18,-0.48,0.22,-0.28,-0.23,-0.48,0.45,0.3,-0.19,0.14,-0.15,-0.34,-0.1,-0.06,0.22,-0.5,0.47,-0.26,-0.31,0.13,0.43,0.02,0.01,-0.29,0.07,-0.22,0.14,-0.12,-0.15,0.45],[-0.19001004,-0.5000098,-0.29000953,-0.49000958,-0.13001043,-0.19001207,-0.41001174,-0.31001008,0.009991714,-0.1800081,-0.020006048,-0.34000662,0.14999102,0.13999094,-0.38000938,-0.07000847,-0.15000539,0.04999478,-0.49000502,-0.010005424,0.19999392,-0.4800073,-0.2400095,-0.20000647,-0.2700038,-0.3500047,0.009992931,-4.9619493E-06,0.13999484,0.48999536,-0.12000445,0.0599958,-0.050004344,-0.1400043,-0.18000506,-0.15000553,0.44999447,-0.12000609,-0.44000623,-0.090006605,0.40999335,0.27999365,0.21999377,0.35999435,-0.350005,0.2699949,0.36999506,0.35999525,-0.4200047,-0.3600047,0.41999492,-0.42000565,-0.13000555,0.34999457,-0.260005,-0.21,0.23,0.4,0.28,-0.28,0.3,0.08,0.04,0.02,0.44,0.42,0.21,-0.22,-0.19,0.27,-0.02,0.47,-0.01,0.1,0.08,0.42,-0.2,-0.1,-0.35,-0.05,-0.22,0.14,-0.09,0,-0.44,-0.21,-0.32,0.09,-0.39,-0.47,0.11,-0.46,0.09,0.34,0.11,-0.18,-0.27,-0.3,0.42,-0.28,-0.44,0.08,0.05,-0.19,0.15,0.44,0.09,0.26,-0.24,-0.18,0.48,-0.17,0.24,-0.18,0.43,-0.35,-0.33,-0.46,-0.05,0.14,0.23,-0.39,-0.33,-0.23,-0.34,-0.07,-0.13,0.14,0.49,-0.24,0.18,-0.41,-0.03,0.42,-0.11,0.2,-0.41,-0.4,0.34,-0.39,0.2,-0.08,-0.17,0.28,-0.46,-0.22,-0.21,-0.23,0.41,-0.05,-0.36,-0.31,0.25,-0.22,-0.01,0.45,-0.09,-0.23,-0.36,-0.29,0.07,0.44,0.26,-0.5,0.14,0.39,0.35,0.31,0.43,-0.28,-0.44,-0.44,-0.3,-0.17,0.43,-0.2,0.28,-0.12,-0.28,0.38,-0.37,-0.4,0.23,0.04,-0.39,-0.01,-0.16,-0.31,-0.07,-0.06,-0.21,0.31,0.45,0.12,0.04,0.26,0.15,-0.18,-0.36,-0.35,-0.08,-0.02,-0.17,0.18,-0.11,-0.42,0.49,-0.09,-0.16,-0.32,-0.34,-0.48,-0.45,-0.24,-0.42,-0.04,-0.29,-0.28,0.38,-0.36,0.04,0.16,-0.12,-0.01,0.43,-0.26,-0.39,0.07,0.28,-0.33,0.14,-0.05,-0.27,-0.43,-0.05,0.15,0.26,-0.46,-0.36,-0.47,0,0.42,0.35,-0.26,-0.23,-0.24,0.26,0.18,0.04,-0.42,0.04,-0.07,-0.06,-0.5,0.1,0.25,-0.41,0.34,0.25,-0.35,0.47,-0.09,0.13,-0.33,0.04,0.21,0.29,0.47,0.3,-0.08,0.19,-0.34,-0.42,0.35,0.14,0.11,0.31,-0.37,-0.29,0.16,-0.03,-0.08,-0.48,0.2,0.12,-0.29,-0.49,-0.27,-0.04,0.19,0.06,0.42,-0.21,0.49,-0.44,-0.42,-0.21,0.18,0.2,0.06,-0.03,0.28,0.37,-0.39,-0.12,-0.13,-0.15,0.09,-0.15,0.48,0.44,0.45,0.12,-0.42,0.17,0.04,-0.12,0.42,0.04,-0.18,0.19,0.06,0.01,-0.4,0.36,0.27,0.37,-0.41,0.28,0.05,-0.18,-0.37,-0.07,0.15,-0.31,0.19,0.04,0.4,-0.19,-0.26,0.36,-0.08,0.37,-0.03,0.25,0.1,-0.21,-0.3,-0.19,0.01,0.2,-0.14,-0.37,-0.12,0.36,0.4,-0.23,0.26,-0.25,0.11,0,-0.24,0.3,0.3,0.16,0.31,0.02,0.47,0.39,0.48,-0.5,-0.03,0.11,-0.21,-0.04,-0.23,0.18,-0.47,-0.15,-0.25,-0.03,0.17,0.27,-0.23,0.35,0.45,0.49,-0.45,0.28,-0.22,-0.09,0.27,0.15,0.2,0.24,0.1,0.12,-0.44,0.31,0.43,-0.43,-0.18,-0.2,-0.17,0,-0.28,0.25,0.33,0.41,0.09,-0.29,-0.27,-0.09,0.49,-0.36,0.32,-0.02,0.02,0.45,0.21,0.31,-0.03,-0.32,0.1,0.06,-0.27,0.32,0.41,0.05,0.36,0.15,0.12,-0.28,-0.08,-0.32,-0.36,-0.13,-0.07,0.27,0.12,-0.31,-0.34,-0.37,-0.31,-0.44,-0.32,-0.14,0.15,0.05,0.41,-0.39,-0.41,-0.39,-0.41,-0.39,0.1,-0.36,0.19,0.27,-0.24,-0.1,0.34,-0.22,-0.45,0.43,0.09,-0.49,0.48,0.31,0.49,-0.05,-0.45,0.25,-0.18,0.01,0.15,-0.17,0.48,0.03,-0.13,0.37,-0.34,-0.15,0.13,0.25,0.05,0,-0.38,-0.2,0.07,-0.5,0.17,0.15,0,-0.28,-0.15,0.37,-0.42,-0.25,-0.03,-0.33,-0.13,0.33,0.06,-0.04,-0.45,-0.16,0.28,0.08,-0.05,-0.24,-0.35,-0.34,-0.11,-0.11,-0.27,-0.01,0.14,-0.2,-0.12,-0.42,0.38,0.18,-0.26,0.48,0.28,-0.11,-0.26,-0.4,-0.34,0.27,-0.25,0.23,-0.44,-0.3,0,-0.18,0.28,-0.33,0.19,-0.3,0.22,0.04,0.34,-0.2,0.35,0.01,-0.24,-0.39,0.49,0.36,-0.27,0.27,0.37,-0.12,-0.22,0.19,0.09,0.08,0.18,0.15,-0.41,0.18,-0.08,0.17,-0.49,-0.08,-0.41,-0.32,0.39,0.4,0.2,-0.03,0.1,-0.33,-0.14,-0.16,0.33,0.43,-0.37,-0.23,-0.37,-0.37,-0.4,-0.21,0.04,-0.03,0.35,0.18,0.42,0.3,0.23,-0.3,-0.02,-0.47,-0.39,-0.47,-0.39,-0.33,-0.21,-0.07,-0.09,-0.43,-0.29,-0.41,-0.35,0.25,-0.33,0.2,-0.49,0.43,0.36,0.15,-0.06,-0.1,0.01,0.46,0.07,-0.38,-0.37,0.03,0.06,-0.09,-0.24,-0.42,-0.34,0,0.48,0.06,-0.44,-0.17,-0.27,0.15,0.14,0.2,0.35,-0.44,0.41,-0.49,-0.37,0.28,-0.2,-0.35,0.16,0.48,0.44,-0.43,0.25,-0.42,0.02,-0.36,-0.05,0.48,-0.47,0.25,0.36,-0.5,0.31,-0.37,0.42,0.15,0.27,0.1,0.14,0.18,0.2,-0.3,-0.5,0.24,0.05,-0.05,-0.46,0.06,0.49,-0.16,-0.28,-0.09,0.24,-0.23,-0.37,-0.42,0.24,0.4,-0.46,0.41,0.37,-0.26,0.11,0.39,0.33,0.34,-0.25,0.28,-0.41,-0.02,-0.49,0.2,0,0.47,-0.22,0.24,-0.43,-0.5,0.02,-0.44,-0.4,0.39,0.49,0.19,0.02,-0.06,-0.25,0.03,0.49,0.33,0.4,0.36,0.05,0.22,0.31,-0.04,0.08,-0.39,0.41,0.2,-0.3,-0.25,-0.04,0,-0.17,0.02,0.4,0.27,0.49,-0.11,-0.49,0.24,-0.13,0.47,0.3,0.48,-0.26,0.42,-0.14,-0.11,0.09,0.21,0.28,-0.24,0.07,-0.36,-0.36,0.28,-0.35,0.32,-0.34,0.46,-0.41,0.32,0.36,0.34,-0.08,-0.02,-0.14,-0.5,0.04,-0.02,0.04,0.1,0.31,-0.34,-0.01,0.07,0.42,0.33,-0.29,0.15,0.24,0.02,-0.39,-0.02,-0.03,-0.3,0.43],[-0.3199928,-0.1299926,-0.37999305,0.11000716,-0.32999253,-0.2799913,-0.44999138,0.14000753,0.050006386,-0.3899942,0.45000485,0.050005004,0.25000638,0.060006656,-0.13999304,0.34000602,-0.3999963,-0.33999634,-0.32999638,-0.0499957,-0.09999555,0.1500054,0.060007013,0.35000458,-0.17999724,0.10000355,5.132731E-06,-0.28999618,0.070003845,0.20000347,-0.12999682,-0.12999697,-0.27999693,0.05000322,-0.32999644,0.12000409,-0.089995824,0.3600044,-0.12999539,-0.12999523,0.2500048,0.020004753,0.43000445,-0.039995745,0.4600037,-0.21999623,-0.049996253,-0.40999648,-0.12999652,0.17000347,-0.49999624,-0.18999577,-0.20999591,0.25000405,0.020003814,0.03,0.3,-0.24,-0.22,0.06,0.22,0.33,-0.43,0.34,0.23,0.08,-0.18,-0.3,-0.12,0.24,-0.07,-0.26,0.29,0.3,0.19,0.38,0.21,-0.4,0.39,-0.46,-0.35,-0.09,0.34,0.4,0.2,-0.45,-0.42,-0.03,-0.48,0.13,0.31,-0.36,0.07,0.31,0.15,0.41,-0.05,-0.41,0.22,-0.13,0.45,-0.26,0.2,0.12,-0.27,0.26,0.02,-0.01,-0.45,0.14,0.32,0.2,-0.13,-0.26,-0.1,-0.19,0.49,-0.34,-0.36,0.17,0,0.35,-0.33,0.25,0.43,-0.22,0.16,0.48,-0.36,0.27,-0.07,0.11,-0.13,0.01,-0.41,0.4,0.2,-0.29,0.16,0.44,0.03,0.08,-0.09,-0.12,0.3,-0.4,0.27,-0.17,-0.1,-0.16,0.41,-0.22,0.45,-0.46,0.37,-0.4,-0.44,0.44,0.19,0.44,-0.41,0.03,-0.16,-0.23,-0.29,-0.29,-0.18,0.36,-0.35,-0.01,0.1,0.28,0,-0.31,-0.36,0.41,-0.07,0.29,0.44,0.32,0.01,-0.17,0.07,0.3,0.35,-0.36,0.16,-0.18,0.13,0.48,0.34,0.25,0.01,0.21,0.34,0.49,-0.26,-0.37,-0.34,0.09,0.27,0.41,-0.33,0.41,0.23,-0.37,0.28,0.25,0.4,0.46,0.17,-0.23,-0.5,0.37,-0.07,0.26,0.46,0.03,-0.08,-0.43,0.05,-0.5,-0.28,-0.34,0.15,0.34,-0.24,0.28,-0.15,-0.36,0.17,-0.21,0.13,-0.15,-0.46,0.1,-0.35,0.16,-0.43,0.22,-0.15,0.4,-0.08,0.17,-0.19,0.07,0.25,0.13,-0.22,-0.42,-0.47,0.2,0.21,-0.41,-0.46,0.27,0.18,-0.49,-0.25,0.39,0.36,-0.5,-0.1,0.25,-0.22,-0.12,0.13,0.15,0.33,0.32,0.1,-0.21,-0.04,0.2,0.21,0.14,0.07,0.04,0.35,-0.42,-0.41,0.12,-0.01,-0.24,-0.4,0.46,0.07,0.04,-0.2,-0.24,0.41,-0.36,-0.09,-0.33,0.35,-0.15,0,0.16,-0.12,0.43,0.43,-0.4,0.3,-0.05,-0.02,0.24,-0.27,-0.49,-0.12,-0.11,-0.3,-0.36,-0.35,-0.33,0.29,-0.27,0,-0.37,0.15,-0.18,0.3,-0.41,-0.16,0.06,0.41,-0.05,0.38,-0.22,0.34,-0.15,-0.36,0.41,-0.35,0.42,-0.35,0.49,0.32,-0.47,0.28,-0.14,0.22,0.05,-0.35,0.4,-0.44,0.26,0.49,-0.27,-0.13,0.11,0.35,-0.14,-0.49,-0.44,-0.38,0.33,0.25,-0.27,0.04,-0.48,0.35,0.45,-0.33,-0.48,-0.25,-0.22,0.49,-0.28,-0.48,0.3,-0.09,-0.04,-0.15,-0.22,0.09,-0.26,0.43,-0.06,0,-0.36,-0.04,0.14,0.4,-0.27,-0.01,0.27,0.4,-0.42,0.3,-0.19,-0.27,0.08,-0.01,0.26,0,0.27,-0.12,-0.37,0.14,0.27,0.27,0.26,-0.29,0.07,-0.3,-0.12,-0.49,0.22,-0.04,0.37,0.4,-0.2,0.22,-0.1,0.05,-0.29,-0.46,0.43,0.02,-0.02,-0.12,0.4,-0.08,0.2,0.06,0.32,0.46,0.09,0.27,0.32,0.36,0.3,0.29,0.23,-0.14,0.2,-0.08,-0.17,-0.47,-0.39,0.26,-0.33,0.11,0.42,-0.09,0.43,0.36,-0.41,-0.3,-0.21,0.22,-0.06,0.1,-0.34,-0.12,0.37,-0.17,0.01,-0.5,-0.13,-0.09,-0.09,0.45,0.14,-0.49,-0.41,0.01,0.49,-0.47,0.35,0.28,0.2,0.4,-0.09,0.21,-0.29,-0.22,0,-0.21,0.13,0.46,0.37,-0.12,-0.02,-0.41,-0.09,-0.3,0.12,-0.16,-0.02,-0.14,0.41,-0.17,0.15,0.19,-0.16,-0.28,0.47,0.41,-0.18,-0.09,0.36,-0.45,-0.16,0,-0.49,0.03,-0.32,-0.06,-0.33,0.09,0.33,-0.29,-0.14,-0.09,0.04,-0.48,-0.04,0.05,0.09,0.38,0.38,0.15,0.05,-0.02,0.37,-0.13,-0.25,0.22,-0.13,0.48,-0.19,0.09,0.47,-0.28,-0.41,0.32,-0.47,0.48,-0.43,0.37,-0.49,-0.32,-0.34,0.38,0.03,0.19,0.46,-0.27,-0.36,-0.19,0.25,-0.08,-0.19,-0.07,0.02,-0.29,0,0.36,0.12,0.14,-0.22,-0.05,-0.43,-0.32,-0.22,-0.26,-0.26,-0.36,-0.19,0.22,0.49,-0.02,-0.03,0.22,0.37,0.2,-0.02,0.16,0.45,-0.32,-0.1,-0.49,0.07,-0.45,-0.27,0.38,-0.23,0.04,0.19,0.38,-0.18,-0.33,-0.15,-0.07,0.09,0.05,-0.4,0.47,0.1,-0.21,-0.06,0.32,0.42,-0.08,-0.18,-0.23,0.44,0.09,0.06,0.32,0.22,0.33,0.4,-0.06,-0.27,-0.23,0.38,-0.49,0.45,-0.11,0.46,0.2,-0.06,-0.07,-0.11,0.31,-0.38,-0.47,-0.37,-0.19,0.09,0,-0.45,0.15,0.23,0.07,-0.41,-0.36,0.23,0.45,0.44,0.18,0.48,0.36,-0.35,-0.02,-0.24,0.4,-0.31,-0.19,0.17,-0.41,-0.48,-0.3,-0.18,0.24,-0.13,-0.02,-0.48,0.01,-0.35,0.4,-0.04,-0.26,-0.28,-0.28,0.27,-0.25,0.21,0.15,-0.32,0.23,-0.23,-0.5,-0.05,-0.22,0.22,0.07,-0.22,0.41,0.04,-0.29,0.34,0.31,0.13,0,-0.02,0.34,-0.17,0.48,-0.3,0.1,-0.38,-0.28,0.3,-0.47,-0.29,0.23,0.14,0.43,0.2,-0.49,-0.31,0.04,-0.37,0.44,0.31,-0.49,0.25,-0.46,-0.49,0.29,-0.3,-0.39,0.46,0.43,-0.44,0.15,0.11,0.22,0.23,0.42,0.42,0.22,-0.05,0.07,0.11,-0.45,-0.3,-0.09,-0.43,0.49,0.43,-0.16,-0.3,0.03,-0.48,-0.21,0.17,0.19,0.18,-0.04,-0.41,-0.22,0.47,-0.1,-0.11,-0.5,-0.24,0.36,0.46,0.06,-0.39,0.41,-0.31,0.28,-0.41,-0.04,-0.42,0.06,-0.17,0.25,0.31,-0.17,0.47,-0.48,0.36,0.35,0.41,-0.07,0.4,0.26,0.47,0.42,-0.47,-0.24,0.33,0.13,0.25,-0.45,-0.33,0.1,0.29],[-0.1685045,-0.048494056,0.0014556894,0.3714557,-0.48843858,-0.35818172,-0.0781992,-0.06845477,0.0612915,-0.28880388,-0.38899624,-0.13900518,0.4213339,0.1513475,0.25142437,-0.18875019,0.44076186,0.040740386,0.030739851,-0.4091606,0.3208767,0.46109518,-0.29857597,0.08094623,-0.3094676,0.38067818,0.43110064,0.44078267,-0.03926145,0.21068503,-0.47938213,-0.1194159,0.22060306,0.460609,-0.02927497,0.3807974,-0.039177395,-0.35911855,0.34092242,0.21096134,-0.01902275,0.4909342,-0.15909341,0.0508317,0.35073543,0.0607462,-0.39927778,0.11069428,-0.4293139,-0.1893207,0.30074206,0.010840242,0.130808,0.01080558,0.4607341,-0.13,-0.25,0.42,0.18,-0.37,-0.29,-0.03,0.47,0.35,-0.32,0.23,0.13,0.46,-0.33,0.37,0.35,0.3,0.19,0.32,0.1,0.33,0.12,0.14,0.22,0.12,0.27,-0.19,0.37,-0.36,0.4,0.01,0.24,-0.3,0.49,-0.4,0.13,0.04,-0.04,0.2,-0.01,-0.49,-0.48,-0.01,-0.14,-0.38,0.42,-0.37,-0.07,-0.3,-0.04,-0.5,0.31,0.31,0.4,-0.37,0.24,0.1,-0.31,-0.45,-0.15,0.39,0.1,0.32,0.44,0.17,0.49,-0.07,0.46,-0.43,-0.26,-0.19,-0.16,0.48,-0.17,0.09,0.31,-0.37,-0.22,0.1,0.2,0.13,0.38,0.16,0.18,0.4,0.19,0.43,-0.2,0.36,-0.15,-0.47,-0.16,-0.1,-0.15,0.09,-0.1,-0.31,0.04,0.19,-0.37,-0.01,-0.33,-0.14,0.46,-0.35,0.15,0.32,-0.03,-0.19,-0.18,0.11,-0.19,0.09,-0.16,0.21,-0.49,0.43,-0.36,-0.47,0.47,-0.45,-0.38,-0.41,0.21,-0.29,0.46,0.43,0.13,0.23,-0.32,0.11,0.08,0.09,-0.04,-0.29,-0.04,0.02,0.2,0.02,-0.26,0.36,-0.05,0.48,0.04,0.23,0.21,0.25,-0.45,0.13,0.08,-0.03,-0.45,0.01,0.21,-0.43,-0.14,-0.43,0.14,0.25,-0.32,0.22,-0.31,0.23,-0.38,0.2,-0.47,0.22,-0.38,-0.37,-0.26,-0.02,-0.28,0.11,0.28,-0.4,0.1,-0.36,0.04,0.47,-0.01,-0.3,0.38,0.49,-0.35,0.21,0.06,-0.44,0.37,-0.12,0.34,-0.12,0.38,0.45,-0.16,0.02,0.17,0.21,0.36,0.34,0.19,0.48,0.12,0.41,-0.12,-0.41,-0.26,-0.06,0.22,0.1,-0.03,-0.28,0.02,0.16,-0.25,0.48,0.34,-0.31,0.08,-0.1,-0.36,0.47,0.35,0.23,-0.21,0.36,0.1,-0.23,-0.23,-0.24,-0.07,0.38,-0.23,0.2,-0.22,0.01,0.08,0.46,0.11,-0.44,-0.03,-0.38,-0.17,-0.24,0.41,0.12,0.36,-0.29,0.2,-0.15,0.18,-0.02,-0.37,-0.04,0.19,0.22,-0.38,0.39,0.12,0.02,-0.01,0.47,-0.34,-0.04,-0.33,0.08,0.44,0.32,-0.12,0.23,-0.1,0.38,0.08,0.02,0.42,-0.48,0.13,0.08,0.32,0.16,-0.5,-0.12,0.06,0.41,0.07,0.45,0.25,0.31,-0.5,0.05,-0.12,0.18,-0.17,-0.42,0.06,0,0.45,0.36,-0.41,-0.18,0.17,-0.47,0.33,0.47,0.45,0.3,0.4,0.11,0.03,0.17,-0.42,0.03,-0.44,0.46,0.02,-0.4,-0.1,-0.25,0.38,-0.28,0.33,-0.37,0.31,0.32,-0.16,0.21,0.04,-0.01,0.45,-0.08,-0.43,0.26,-0.01,-0.01,0.48,0.46,0.05,0.08,0.45,0.27,-0.45,-0.37,-0.22,-0.17,-0.04,0.34,0.12,-0.13,0.06,-0.04,-0.41,0.19,0.48,0.36,-0.02,0.04,-0.28,-0.5,0.12,-0.26,-0.25,-0.1,0.16,-0.4,0.1,-0.18,-0.46,0.06,0.47,0.06,0.05,0.31,-0.21,-0.39,-0.33,0.2,0.35,-0.03,-0.15,-0.01,-0.41,-0.33,0.43,-0.01,-0.17,-0.13,0.28,0.12,-0.49,-0.06,0.23,0.04,0.45,0.21,0.02,0.14,-0.03,-0.33,0.23,-0.36,0.3,-0.45,-0.11,0.49,0.4,-0.23,-0.1,0.36,0.19,0.28,0.19,0.24,0.14,-0.37,-0.35,-0.43,-0.03,-0.34,0.27,-0.28,0.03,-0.09,0.05,0.02,0.32,-0.5,0.36,0.08,0.09,0.02,-0.28,0.17,0.24,-0.3,0.18,-0.47,0.27,0.43,0.08,-0.45,0.47,0.41,0.42,-0.28,0.25,0.49,0.4,0.32,0.05,-0.06,-0.33,-0.2,-0.1,0,0.11,-0.11,-0.01,0.37,-0.33,0.4,-0.09,0.31,-0.23,-0.33,0.05,-0.49,-0.5,-0.07,-0.06,-0.39,-0.2,0.03,0.08,0.21,-0.25,0.11,-0.02,-0.18,0.27,0.32,-0.4,-0.47,-0.47,-0.36,-0.15,0.42,-0.23,-0.27,0.09,-0.21,0.04,0.4,0.25,0.18,0.14,-0.34,0.13,0.25,0.17,0.23,0.49,-0.04,-0.13,-0.07,-0.36,0.13,0.22,0.18,-0.25,0.49,0.4,-0.34,-0.41,-0.16,0.29,-0.13,0.27,-0.38,0.31,0.13,0.24,0.26,0.34,-0.35,0.07,-0.11,0.28,0.4,-0.43,-0.41,0.47,0.22,0.15,-0.47,0.33,0.14,0.16,0.09,-0.5,0.22,-0.3,0.08,0.47,0.09,-0.12,-0.13,0.3,-0.1,0.38,-0.24,-0.12,0.01,0.44,-0.46,0.49,-0.28,0.12,-0.29,0.35,0.24,0.34,0.32,0.11,-0.34,-0.48,-0.33,0.01,-0.44,0.01,-0.35,0.21,-0.32,-0.39,-0.42,-0.08,-0.34,0.28,-0.26,0.26,-0.3,0.08,-0.13,-0.49,0.3,0.2,-0.04,0.28,0.11,-0.46,0.1,-0.49,-0.06,0.24,-0.24,0.37,-0.12,0.47,0.31,0.07,-0.29,0.36,0.24,0.39,0.22,0.05,-0.3,-0.11,0.35,0.11,0.33,-0.06,-0.13,-0.05,0.15,-0.34,-0.03,0.3,0.3,-0.05,0.05,-0.11,0.39,-0.48,0.4,-0.37,-0.23,-0.06,0.35,-0.3,-0.46,-0.32,0.47,0.16,0.05,-0.16,0.33,-0.03,-0.22,-0.25,0,-0.43,0.42,-0.5,-0.3,-0.34,0.14,0.48,-0.41,-0.4,-0.1,0.07,-0.34,-0.14,-0.49,0.31,0.46,0.22,0.49,0.09,-0.23,0.25,0.03,0.14,0.06,0.14,-0.03,0.2,0.39,-0.2,-0.18,0.49,0.02,0.05,0.44,-0.02,-0.04,0.38,0.31,0.23,-0.01,-0.22,-0.16,0.25,0.3,-0.03,-0.48,0.11,0.15,0.23,-0.12,-0.39,-0.02,0.19,0.47,0.24,0.03,-0.23,-0.06,0.06,0.19,0.43,-0.42,0.28,0.27,-0.09,-0.45,0.11,-0.09,0.03,-0.16,-0.43,0.4,-0.25,-0.4,0.49,-0.09,0.27,0.34,-0.42,0.11,0.36,-0.45,-0.34,0.42,-0.3,0,0.33,0.07,-0.31,0.44],[-0.30997252,-0.059971523,-0.2599721,-0.45997214,0.050027903,-0.30997533,0.06002562,0.47002676,-0.10997102,-0.07997019,-0.08996861,-0.30996886,-0.38997167,-0.11997178,-0.19997267,-0.29997107,-0.26996684,0.080033496,0.4800335,-0.16996744,0.25003242,-0.069969155,-0.14997214,0.45003223,0.33003592,0.38003483,0.4200313,0.36003408,0.070034534,0.40003493,-0.28996462,-0.45996386,-0.28996372,0.090035535,-0.3499664,0.13003223,0.16003174,-0.29996863,0.050032124,0.29003105,0.34003073,0.30003124,-0.04996749,0.16003221,-0.29996672,0.16003314,0.44003364,0.27003503,0.11003535,0.49003485,-0.23996572,-0.2599671,0.0800334,0.35003373,-0.31996566,0.25,-0.42,-0.21,-0.29,0.16,-0.24,0.19,-0.1,-0.02,-0.3,-0.13,0.47,0.02,-0.28,0.17,0.04,-0.48,-0.47,-0.32,-0.01,0.45,0.48,0.19,0.25,-0.34,0.44,-0.35,-0.26,0.07,0.13,0.47,-0.05,-0.14,-0.1,-0.1,0.04,-0.14,0.49,0.38,0.03,-0.35,-0.11,0.46,-0.04,0.32,0.18,-0.09,0.04,0.44,-0.05,-0.26,-0.3,-0.11,-0.14,-0.28,0.27,-0.11,0.04,-0.46,0.22,-0.39,-0.05,0.32,0.34,-0.28,0.41,0.11,-0.38,0.32,-0.38,-0.33,-0.47,-0.35,0.15,-0.16,0.06,-0.49,-0.28,0.42,-0.03,0.02,0.1,-0.21,-0.38,-0.11,0.26,-0.44,0.49,-0.33,0.12,-0.36,0.32,0.45,-0.35,-0.09,0.19,0.07,-0.39,-0.27,0.41,-0.43,-0.21,0.21,0.32,-0.23,-0.29,-0.45,0.23,-0.48,0.16,0.25,-0.34,0.11,0.06,-0.31,0.01,-0.35,0.2,-0.05,-0.04,0.35,0.11,0.44,-0.3,0.48,-0.16,-0.43,0.49,-0.26,0.14,0.48,0.4,0.49,-0.49,-0.1,-0.28,0.38,-0.03,0.34,-0.32,0.21,-0.18,0.47,0,0.36,0.47,-0.3,-0.12,0.46,0.4,0.03,0.37,0.16,0.27,-0.45,-0.04,-0.16,0.01,0.33,0.42,-0.37,-0.45,-0.02,-0.12,0.18,0.35,-0.33,0.1,-0.34,0.46,0.12,0.18,0.35,-0.23,0.24,0.02,0.14,-0.06,-0.17,-0.5,-0.36,0.18,-0.47,-0.16,-0.4,-0.39,-0.26,-0.28,0.45,0.44,0.38,-0.13,0.13,0.42,-0.46,0.16,0.34,0.09,0.32,-0.49,0.3,0.1,-0.28,0.49,-0.22,0.35,-0.49,-0.12,-0.47,0.03,0.31,0.4,-0.33,0.33,0.28,-0.06,-0.48,-0.36,-0.23,0.06,0.1,0.45,0.15,-0.29,-0.42,-0.26,-0.46,0.42,-0.28,-0.43,0.18,-0.45,0.12,-0.19,-0.31,0.04,-0.05,-0.47,-0.45,-0.26,-0.41,0.35,-0.31,-0.09,-0.38,0.47,-0.31,0.29,-0.37,0.09,0.14,0.19,-0.19,-0.25,-0.09,0.35,0.44,-0.5,0.4,-0.47,0.31,-0.41,-0.34,0.45,0.35,0.26,-0.22,0.36,0.14,-0.26,0.48,0.48,-0.41,-0.47,-0.04,0.25,0.25,-0.27,-0.41,-0.39,-0.46,-0.26,0.29,0.12,-0.07,0.49,0.24,-0.14,0.4,-0.16,0.09,-0.05,-0.37,-0.48,-0.07,-0.5,0.18,-0.26,0.06,-0.14,0.18,-0.17,-0.35,0.39,0.11,0.16,0.1,-0.22,0.29,0.16,-0.41,0.21,0.41,0.29,0.48,0.06,-0.21,0.04,0.01,0.36,-0.48,0.42,0.46,-0.21,0.14,0.03,0.34,-0.43,0.09,-0.05,-0.44,0.01,0.17,0.23,-0.08,0.21,-0.42,0.39,-0.49,0.27,-0.12,-0.04,0.06,-0.26,-0.26,0.38,0.03,-0.17,-0.47,0.37,0.2,-0.36,0.22,0.19,-0.17,0.26,-0.13,0.35,-0.26,-0.43,0.31,0.03,0.18,-0.17,0.1,0.07,-0.47,-0.32,-0.13,-0.23,-0.03,-0.1,0.02,0.24,-0.03,0.06,-0.15,0.22,-0.45,0.26,-0.5,0.01,-0.47,0.22,0.24,0.41,0.29,0.47,-0.11,0.15,-0.16,-0.28,0.14,0.44,0.46,0.35,0.27,-0.28,0.13,0.16,0.34,-0.16,0.46,0.25,-0.11,-0.2,0.11,0.48,-0.28,0.27,-0.1,0.15,0.3,-0.03,-0.44,-0.21,-0.01,0.46,0.08,0.18,0.28,-0.44,0.29,0.21,0.43,-0.26,0.25,0.08,0.27,0.11,0.28,-0.38,-0.42,-0.12,0.42,0.15,0.05,-0.23,-0.18,-0.06,-0.21,0.3,0.25,0.11,-0.26,0.19,-0.08,-0.33,0.37,0.16,-0.14,0.31,0.14,0.45,0.38,0.28,0.05,-0.26,0.32,-0.35,0.04,-0.48,-0.3,0.1,0.48,-0.22,0.07,-0.08,0.05,-0.09,0.24,-0.29,0.13,-0.36,-0.12,0.47,-0.2,-0.33,-0.03,-0.27,0.32,0.08,0.21,-0.39,-0.25,0.47,-0.02,-0.38,0,-0.36,-0.41,-0.2,-0.05,-0.33,0.4,-0.23,0.1,-0.35,0.12,0.46,-0.39,-0.5,0.12,-0.05,0.41,-0.36,-0.33,-0.01,0.06,0.4,-0.03,-0.13,0.27,0.08,-0.17,0.45,-0.2,-0.42,-0.16,-0.49,0.29,-0.06,0.41,-0.1,-0.19,-0.07,0.26,-0.04,-0.26,-0.39,-0.13,-0.36,0.05,0,-0.38,0.32,0.46,-0.24,-0.31,-0.4,0.3,0.48,0.05,0.09,0.16,0.22,0.03,0.36,0.33,0.44,0.46,0.01,0.31,0.11,-0.34,0.17,-0.42,-0.29,-0.37,-0.02,-0.12,0.2,-0.25,-0.05,0.03,-0.17,0.32,-0.24,-0.04,0.01,0.48,-0.46,0.39,-0.26,-0.29,0.31,0.38,-0.19,0.23,0.09,0.4,0.4,0.12,-0.21,-0.35,0.35,-0.17,0.43,-0.17,-0.06,0.23,0.25,-0.38,0.21,0.21,-0.41,0.22,-0.4,-0.44,-0.17,0.39,-0.24,-0.11,-0.18,0.45,0.41,0.12,0.06,-0.1,-0.15,0.28,0.26,-0.03,0.03,0.08,-0.02,-0.42,0.46,-0.2,0.18,0.49,0.38,0.42,-0.48,0.27,-0.27,0.41,-0.33,0.02,-0.38,-0.42,0.28,-0.25,-0.1,0.2,0.13,0,-0.2,-0.16,-0.27,-0.28,0.26,0.03,0.48,0.16,0.47,-0.23,0.09,-0.37,-0.27,-0.49,0.26,0.29,-0.12,-0.17,-0.49,-0.17,-0.13,0.05,0.21,-0.5,-0.06,-0.46,-0.23,-0.23,-0.5,0.01,-0.44,0.33,0.44,0.47,0.28,0.12,-0.44,-0.05,-0.27,-0.16,0.44,-0.14,0.3,0.45,-0.18,-0.46,-0.22,-0.4,-0.19,0.48,0.37,-0.43,0.18,-0.21,-0.37,0.24,0.12,-0.27,0.28,0.21,-0.25,0.2,0.16,-0.04,-0.29,0.25,-0.32,-0.25,-0.27,-0.36,0.23,0.42,-0.41,0.16,-0.11,-0.5,0.25,0.25,0.18,-0.11,0.25,-0.34,0.45,-0.49,0.14,0.48,-0.36,0.14,0.33,-0.47,0.49,0.33],[0.16016887,0.0101492535,-0.4198838,-0.2698884,0.2001133,-0.15989253,0.2401159,0.060122125,0.3501173,-0.47988045,0.3701245,-0.32987732,-0.2498214,0.44015652,0.4701295,-0.47986713,0.40012786,-0.37987193,0.4901321,0.36013627,0.05017935,-0.1197652,0.45025322,-0.4198321,0.2500432,0.14004011,0.3201548,-0.2798414,0.110092044,0.040056333,-0.079953775,-0.30994758,-0.35994577,0.39004782,-0.23992522,0.080093704,0.070095636,-0.3499071,-0.19991188,-0.09991466,-0.48991176,-0.3899171,0.040080786,0.22007161,-0.20995577,0.2800617,0.25004435,0.19002685,-0.48997054,-0.37997,0.23005101,0.2000877,-0.4699097,-0.36992532,-0.21993907,-0.22,0.05,0.49,-0.02,-0.45,0.02,0.02,0.45,-0.19,0.1,0.18,-0.48,-0.14,0.18,-0.11,-0.06,0.25,0.32,0.08,0.35,-0.07,0.34,-0.28,0.29,0.46,0.38,-0.38,-0.29,-0.01,0.31,0.21,-0.34,-0.49,0.1,0.47,-0.48,0.07,0.16,-0.25,0.38,-0.02,-0.34,-0.27,-0.38,0.1,0.26,-0.11,-0.49,0.11,0.17,0.47,0.38,-0.06,-0.22,0.34,-0.06,-0.18,-0.3,0.02,-0.34,-0.1,-0.19,-0.04,-0.01,0.39,0.02,-0.49,0.25,0.2,-0.13,0.36,-0.41,0.07,0.2,-0.14,-0.23,0.11,-0.4,-0.32,-0.3,-0.01,-0.4,0.09,0.31,0.33,0.32,0.21,0.22,0.26,0.03,0.19,-0.13,-0.36,-0.42,-0.02,-0.34,0.2,0.23,-0.28,-0.42,0.24,0.14,-0.19,-0.27,0.3,0.38,-0.19,0.24,0.41,0.07,0.33,-0.28,-0.49,-0.18,0.17,-0.21,0.21,0.14,0.16,-0.44,0.3,-0.22,0.49,-0.33,0.18,-0.01,0.44,-0.02,-0.29,-0.3,0.06,0.37,0.38,-0.4,-0.05,0.35,0.29,-0.14,-0.5,0.44,0.01,0.46,0.31,-0.32,0.2,-0.03,-0.14,0.32,-0.09,-0.32,-0.06,-0.45,-0.43,-0.35,-0.22,-0.04,0.15,-0.36,0.05,-0.19,0.44,0.33,0.02,0.21,-0.49,0.45,-0.17,0.41,0.36,0.32,0,-0.15,0.13,0.21,0.05,0.33,-0.03,0.3,-0.04,-0.3,-0.38,-0.38,-0.43,-0.47,0.25,0,0.3,0.22,0.31,0.49,-0.31,0.14,0.3,0.19,-0.5,0.17,-0.06,-0.4,-0.33,0.25,-0.37,-0.05,0.45,0.09,0.17,-0.41,-0.08,-0.15,0.09,-0.06,0.48,0.34,0.17,-0.16,-0.32,0.31,0.25,-0.01,0.45,0,-0.36,0.11,-0.41,0.37,0.12,0.35,0.05,0.43,0.2,0.37,-0.11,-0.13,0.13,0.21,-0.43,0.17,-0.34,-0.02,-0.15,0.16,-0.42,-0.06,-0.38,-0.13,-0.5,-0.15,0.47,-0.05,0,-0.31,0.41,0.45,-0.36,0.16,0.1,0.02,-0.14,-0.42,0.46,0.31,0.03,-0.02,0.14,0.21,-0.45,0.11,-0.29,0.45,-0.23,0.01,0.14,-0.23,-0.37,-0.22,-0.08,0.19,-0.02,0.21,0.37,-0.24,0.38,-0.41,-0.07,0.01,0.45,-0.07,-0.28,0.46,-0.39,0.04,-0.2,-0.42,0.01,0.03,-0.38,0.09,0.3,-0.1,-0.18,-0.12,-0.36,-0.49,-0.32,0.49,0.04,0.14,0.31,0.35,-0.26,0.4,-0.47,0.14,-0.29,0.2,0.43,-0.06,-0.45,-0.37,0.25,0.11,-0.11,-0.26,0.34,0.22,-0.29,0.06,0.26,0.1,-0.34,0.32,0.39,-0.43,-0.11,-0.02,-0.38,0.37,0.41,-0.07,0.47,-0.19,0.11,-0.14,0.21,-0.3,0.01,0.15,0.37,0.31,0.1,0.17,0.04,0.16,0.14,0.2,0.49,0.39,-0.34,-0.05,0.28,0.48,0.37,-0.29,0.19,-0.08,-0.5,0.45,-0.25,0.22,0.07,-0.44,0.03,0.11,-0.35,-0.06,-0.5,-0.48,0.02,0.13,-0.29,0.05,0.18,0.45,0.49,-0.02,-0.23,-0.28,-0.08,0.19,-0.01,-0.28,0.2,-0.04,0.15,0.49,-0.07,-0.11,0.17,-0.21,-0.31,0.05,-0.1,-0.36,-0.27,0.04,-0.36,0.42,0.01,-0.3,0.19,0.46,-0.13,0.03,-0.27,-0.28,-0.21,0.42,-0.29,-0.3,-0.36,0.28,0.03,0.05,-0.27,-0.15,-0.15,-0.43,0.46,-0.34,-0.5,0.1,-0.16,-0.27,-0.07,0.16,-0.36,0.03,0.22,-0.05,-0.16,-0.15,0.21,-0.28,0.49,0.02,0.35,-0.34,-0.28,-0.08,0.19,0.01,-0.33,-0.04,-0.36,-0.09,-0.48,0.35,0.41,0.37,-0.32,-0.44,0.46,-0.16,-0.3,-0.41,0.11,-0.37,-0.41,0.06,-0.42,0.25,-0.3,0.25,0.36,0.29,-0.44,-0.2,0.05,0.2,-0.01,-0.32,0.34,0.03,-0.03,-0.01,-0.08,0.37,-0.42,-0.48,0.14,-0.21,0.11,0.34,-0.23,-0.23,-0.12,-0.13,-0.48,0.4,0.4,0.21,-0.43,0.16,-0.16,0.43,-0.2,-0.09,0.1,-0.15,-0.16,0.21,-0.21,-0.29,-0.13,0.49,-0.28,-0.07,0.37,0.2,0.16,0.24,-0.45,-0.43,0.41,0.29,-0.37,-0.14,-0.02,0.09,-0.1,0.19,-0.22,0.15,0.29,0.28,-0.39,-0.32,-0.31,0.03,-0.31,-0.5,-0.23,0.22,0.17,0.43,-0.5,-0.1,-0.04,-0.22,-0.46,0.45,0,-0.19,-0.27,-0.34,0.16,0.49,0.24,0.04,0.3,0.43,0.43,-0.5,0.44,0.15,-0.08,0.13,-0.09,0.09,0.38,-0.46,-0.27,-0.17,0.01,0.16,-0.04,-0.18,-0.11,0.48,0.28,0.23,0.4,-0.3,0.04,-0.05,-0.31,0.47,-0.08,0.13,-0.39,-0.39,-0.07,0.14,0.23,-0.25,-0.43,-0.23,0.27,-0.48,0.01,-0.14,0.48,0.36,-0.1,-0.5,0.21,-0.34,0.29,0.07,0.2,-0.16,0.1,0.25,0.26,-0.44,-0.47,0.23,-0.05,-0.01,-0.05,-0.06,-0.29,0.28,-0.02,0.26,0.1,0.09,0.1,-0.24,0.09,-0.32,0.04,-0.13,-0.03,-0.08,0.24,-0.47,0.3,0.03,0.24,-0.47,-0.33,0.34,0.42,0.27,0.01,0.17,0.38,0.16,-0.29,-0.17,0.31,-0.22,0.07,-0.44,-0.35,-0.31,-0.12,0.13,-0.1,-0.38,0.05,0.03,0.48,0.01,0.29,-0.27,-0.22,-0.17,-0.19,0.49,0.43,0.41,0.25,-0.08,-0.23,-0.14,0.36,0.2,-0.25,0.42,0.2,0.44,-0.46,-0.25,-0.13,-0.24,0.3,-0.09,-0.24,0.04,0.15,-0.34,-0.37,0.11,-0.02,0.13,0.36,-0.1,0.48,-0.22,-0.11,0.04,-0.16,-0.29,-0.1,0.39,0.03,-0.35,0.29,0.29,-0.17,0.17,-0.12,-0.02,-0.09,0.1,-0.01,0.22,-0.36,0.03,-0.08,0.37,-0.43,0.26,-0.16,0.26,0.28,-0.37,0.43],[0.13111699,0.0011252994,-0.048912376,0.22108743,0.4611735,0.021360284,-0.33864987,0.09115505,0.32097024,0.35090014,-0.02924849,0.23074311,0.15099657,0.12100911,-0.028934155,-0.2890599,0.47057557,0.28055832,0.1405508,-0.2993664,0.37066168,-0.35917503,-0.36892945,-0.23929578,-0.049600653,0.35051352,0.020823661,-0.029413888,0.07055312,0.3705186,0.13046136,-0.39955902,-0.1095468,-0.28953803,-0.34945315,-0.21940434,0.38062018,0.45066544,-0.08930806,0.4507251,-0.25926453,-0.49929518,0.16067715,0.37062693,0.1605492,0.29056287,0.27054626,-0.24948393,0.09051527,0.050508942,-0.12944598,0.4806329,-0.3693896,0.42060712,-0.43944466,-0.02,-0.14,-0.32,-0.24,-0.39,-0.5,0.19,-0.48,0.45,-0.29,-0.14,-0.17,-0.07,-0.04,-0.32,-0.17,-0.49,-0.14,0.18,0.46,0.36,-0.03,-0.25,0.1,0.15,-0.43,-0.24,0.37,-0.49,-0.01,0.14,0.46,-0.03,-0.35,0.17,0.41,0.19,0.18,-0.2,0.45,0.05,0.48,0.21,0.15,-0.21,-0.04,-0.16,0.29,-0.09,-0.28,-0.15,0.12,-0.06,0.46,-0.31,-0.5,-0.39,0.08,0.11,-0.47,0.23,0.31,-0.5,-0.05,0.07,-0.1,0.35,-0.22,0.28,-0.24,0.13,-0.18,-0.44,0.23,-0.1,0.38,0.26,0.1,-0.2,-0.32,0.23,-0.03,-0.04,0.29,-0.37,-0.48,0.01,0,0.45,0.16,0.3,-0.4,-0.44,-0.24,-0.29,0.23,0.47,-0.25,-0.42,0.39,0.11,-0.45,-0.5,-0.36,0.08,-0.48,0.05,0.21,0.05,-0.2,-0.26,0.01,-0.23,-0.07,-0.2,-0.24,-0.15,-0.29,-0.18,0.04,0.38,-0.16,-0.18,-0.38,-0.04,0.02,-0.25,0.3,0.02,0.17,0.4,0,0.01,-0.09,0.07,0.18,-0.04,-0.19,-0.3,-0.4,-0.04,0.3,0.45,0.15,-0.09,-0.21,0.32,0.13,0.46,0.44,-0.13,0.26,0.43,0.03,-0.49,-0.24,0.22,0.38,0.18,-0.45,0.26,0.25,-0.32,0.38,-0.1,0.24,0.49,0.36,0.35,0.12,0.29,-0.47,-0.5,-0.29,-0.43,-0.43,-0.11,0.17,0.2,-0.34,0.19,0.12,0.33,0.08,-0.21,-0.37,0.06,0.47,-0.1,-0.19,0.45,0.08,0.13,-0.36,-0.17,0.21,0.12,-0.44,-0.25,0.17,-0.21,0.46,0.28,-0.17,-0.36,-0.17,0.26,0.22,-0.04,0.44,0.36,-0.45,-0.33,0.01,-0.15,-0.36,0.41,0.1,0.09,-0.24,-0.33,-0.48,-0.04,0.04,0.16,-0.29,-0.11,0.36,0.37,-0.14,-0.06,-0.17,-0.08,-0.47,0.36,0.23,0.34,0,-0.07,0.45,-0.13,0.34,0.01,-0.04,-0.06,0.39,-0.1,-0.38,0.28,-0.32,0.29,-0.48,-0.03,0.48,-0.01,-0.23,0,-0.27,0.17,0.43,0.43,0.4,0.34,-0.41,-0.01,0.03,0.13,-0.36,0.15,0.12,-0.2,-0.09,-0.34,0.13,0.39,-0.18,0,0.49,-0.41,0.26,0.3,-0.23,-0.43,0.18,0.07,-0.08,0.36,-0.07,0.04,0.08,-0.28,0.1,0.32,0,-0.49,-0.03,0.49,-0.09,0.46,0.41,-0.24,-0.24,-0.03,-0.35,0.38,-0.13,0.35,0.33,-0.41,-0.34,0.26,0,-0.36,0.4,-0.38,0.16,0.32,-0.34,0.02,-0.43,0.17,-0.3,0.09,-0.44,-0.11,0.2,0.08,0.16,0.12,-0.08,-0.17,-0.41,-0.47,-0.33,0,0.04,0.3,0.41,0.3,-0.31,0.06,-0.48,-0.17,-0.13,0.31,0.22,-0.04,0.42,-0.12,-0.15,0.14,0.33,0.39,0.39,-0.26,-0.44,0.16,-0.1,0.25,-0.33,0.28,-0.31,-0.29,0.17,0.33,0.17,-0.03,0.46,-0.1,0.07,0.35,0.41,-0.15,-0.18,0.01,0.14,0.36,-0.28,-0.26,0.17,-0.26,0.16,-0.22,-0.24,0.27,-0.01,-0.3,-0.37,0.43,-0.07,0.38,-0.11,-0.35,0.12,-0.1,-0.14,0.31,0.15,0.04,-0.36,-0.26,0,0.01,0.3,-0.01,0.23,-0.02,0.06,-0.12,0.1,-0.31,-0.06,-0.34,-0.42,0.43,-0.38,0.41,0.44,0.39,-0.16,-0.03,-0.17,-0.48,0.46,0.19,-0.04,0.25,0.22,0.42,-0.36,0.32,-0.3,0.18,-0.41,-0.08,0.24,-0.36,-0.03,0.27,-0.46,-0.5,0.13,0.25,-0.17,-0.26,-0.06,-0.27,-0.43,0.19,-0.22,-0.05,0.37,0.26,-0.31,0.17,0.41,-0.03,0.05,-0.4,-0.48,0.47,0.25,0.14,-0.26,0.27,0.48,0.25,-0.44,0.15,-0.31,0.47,-0.07,-0.34,0.35,-0.17,0.33,0.07,0.19,0.22,-0.25,-0.28,0.17,-0.47,0.13,0.18,0.45,-0.06,-0.02,-0.08,0.01,-0.24,0.09,-0.14,0.24,-0.44,-0.26,0.49,0.01,0.05,-0.25,0.18,-0.33,-0.08,0,-0.19,-0.48,0.2,0.41,0.36,0.33,-0.17,0.27,0.33,0.35,0.3,-0.2,0.22,-0.5,0.05,0.31,0.03,-0.23,0.13,-0.36,0.42,-0.13,-0.44,-0.09,0.28,-0.42,0.33,-0.44,-0.37,-0.04,0.07,-0.45,-0.25,0.03,-0.19,0.16,-0.26,0.03,0.12,0.08,-0.33,-0.02,0.26,0.01,0.44,0.26,0.02,0.48,0.45,0.23,0.21,-0.1,0.03,-0.23,0.07,0.43,0.45,-0.21,-0.38,0.27,0.49,-0.23,0.14,-0.13,-0.22,0.24,-0.46,-0.31,0.19,0.38,0.06,-0.5,0.15,-0.46,0.46,-0.06,0.11,0.05,-0.04,-0.48,0.06,0.35,-0.4,-0.11,0.24,-0.34,0.02,0.48,0.45,-0.13,0.21,0.45,-0.09,0.34,0.08,0.39,0.34,-0.11,-0.28,-0.3,0.21,-0.17,-0.21,-0.43,-0.33,0.21,0.25,-0.02,-0.2,-0.37,-0.18,-0.1,0.32,-0.4,-0.29,-0.36,-0.34,-0.26,0.12,-0.39,-0.28,-0.44,-0.27,-0.19,-0.33,0.11,0.09,0.3,-0.05,-0.43,0.09,-0.28,-0.18,-0.24,-0.2,-0.27,0.06,-0.47,-0.28,-0.48,-0.09,-0.47,0.17,0.32,-0.45,-0.19,-0.37,-0.2,0.13,-0.06,0.23,0.1,0.26,-0.39,0.48,0.15,-0.41,0.47,0.39,0.05,-0.38,0.44,-0.48,-0.27,0.03,-0.4,-0.43,0.06,0.3,0.47,0.08,-0.37,-0.49,0.09,0.2,-0.32,-0.11,-0.1,-0.24,0.36,-0.03,-0.22,-0.33,-0.49,-0.17,0.49,-0.05,-0.29,-0.23,0.14,-0.37,0.08,-0.36,0.16,0.4,-0.04,-0.5,-0.07,-0.22,0.44,-0.27,0.06,0,0.15,0.35,0.09,0.09,-0.34,-0.1,0.29,-0.24,0.18,0.21,-0.48,-0.42,0.34,0.27,-0.49,0.39,0.04,0.14,0.36,-0.22,-0.35,0.34],[0.4899766,0.48997903,-0.16001646,0.1899841,-0.270016,-0.32001513,0.44998387,-0.39001685,-0.19001618,0.1299832,0.3999824,0.2699827,0.009975161,-0.35002178,0.23998189,-0.10001852,-0.21001768,0.29998222,-0.02001811,-0.12001859,-0.06002436,0.36996827,-0.39003405,0.07997728,-0.4400058,0.18999444,0.47997883,0.029978154,0.23998718,-0.21000801,-0.13000675,-0.22000764,-0.15000784,0.30999312,0.3499894,0.099986844,-0.2600133,-0.030012945,-0.33001232,0.09998812,-0.2000122,0.059988506,-0.11001116,-0.110009864,-0.3300061,-0.44000837,-0.2400061,0.34999615,-0.35000423,-0.36000422,-0.1500074,-0.45001262,0.289987,0.26998913,-0.10000899,-0.38,0.37,0.25,0.13,0.04,-0.31,-0.08,-0.13,-0.49,-0.25,0.12,-0.09,0.2,-0.21,-0.37,-0.35,0.32,0.13,0.37,-0.43,0.37,-0.03,0.22,-0.09,0.49,-0.07,-0.37,-0.13,0.09,0.44,-0.19,-0.02,0.08,-0.09,0.23,0.23,-0.02,0.33,0.13,-0.1,0.38,-0.31,-0.13,-0.37,0.05,0.14,0.06,0.06,-0.48,0.48,0.03,-0.08,0.42,0.19,0.02,0.15,-0.36,-0.16,0.13,-0.39,-0.44,-0.46,0.27,-0.43,0.43,-0.37,0.33,-0.21,0.06,-0.11,0.16,0.48,0.49,-0.04,-0.32,0.18,-0.4,0.08,0.36,-0.16,0.36,0.06,-0.15,0.1,-0.1,0.39,0.06,0.38,0.38,-0.42,0.09,-0.36,-0.3,0.01,-0.16,0.34,-0.09,-0.21,-0.31,-0.09,0.31,-0.24,0.49,0.12,-0.18,0.05,-0.08,-0.05,0.01,0.34,0.04,0.05,-0.02,-0.22,-0.26,-0.01,0.18,-0.34,0.16,-0.46,0.07,0.44,-0.1,-0.02,0.3,0.02,0.28,-0.03,-0.38,-0.17,-0.24,0.3,-0.11,-0.06,0.03,0.1,0.06,0.22,-0.22,0.35,-0.04,-0.39,-0.13,-0.46,0.03,-0.47,0.16,0.41,-0.23,0.34,-0.35,-0.26,0.13,-0.35,0.33,0.36,0.36,0.01,0.32,0.3,0.27,0.44,-0.18,-0.33,0.07,0.24,-0.34,-0.47,0.25,0.14,0.42,0.46,0.38,0.31,0.07,-0.04,0.07,-0.14,0.45,0.27,0.36,0.36,-0.3,-0.22,-0.32,-0.48,-0.33,-0.27,0.1,0.16,0.23,-0.45,0.4,-0.02,-0.42,0.02,0.28,-0.3,-0.03,0.28,0.36,0.12,-0.34,0.13,0.41,-0.31,-0.14,0.31,0.08,-0.13,-0.21,0,0.06,-0.46,0.44,0.4,0.24,-0.46,0.49,0.04,0.07,0.43,-0.08,-0.42,0.4,0.37,-0.44,-0.11,0.23,-0.45,0.17,-0.13,0.38,-0.34,0.4,-0.27,0.2,0.06,-0.14,0.48,0.16,-0.15,0.15,-0.28,-0.13,-0.27,-0.01,0.35,0.04,-0.33,0.27,0.24,-0.29,0.42,-0.3,0.43,-0.31,-0.43,0.22,-0.47,-0.37,0.46,-0.42,0.03,0.2,0.42,0.11,-0.11,-0.36,0.2,-0.31,-0.33,0.17,-0.5,0.38,-0.28,-0.22,-0.3,0.21,0.17,-0.12,-0.3,0.35,0.05,-0.23,0.43,-0.35,0.46,0.46,0.47,-0.46,0.13,0.33,-0.18,0.35,0.19,-0.23,-0.39,0.02,-0.05,0.12,-0.41,0.2,0.33,0.48,0.09,-0.44,-0.29,-0.47,0.48,0.15,0.49,-0.14,-0.45,0.15,0.42,-0.4,0.03,-0.25,0.26,0.26,0.14,-0.07,-0.33,0.16,0.06,-0.16,-0.16,-0.36,-0.32,0.45,-0.34,0.17,-0.24,-0.45,-0.22,0,-0.49,0.07,0.17,0.37,0.44,0.42,0.47,-0.19,-0.46,-0.23,0.27,0.17,0.43,0.09,0.23,0.35,0.26,0.18,0.47,0.16,0.03,-0.33,-0.09,-0.25,0.21,-0.44,0.34,-0.47,-0.01,-0.18,-0.41,-0.5,-0.14,-0.08,-0.42,0.46,0.08,0.39,0.31,0.21,-0.05,0.35,0.11,-0.21,0.06,0.17,-0.29,0.09,-0.29,-0.2,0.4,0.07,-0.43,0.12,0.46,0.34,-0.35,-0.09,-0.35,0.38,-0.42,0.44,0.32,0.22,-0.33,0.27,-0.2,0.01,0,0.27,-0.23,0.36,0.36,-0.25,-0.3,0.18,0.06,-0.38,0.19,-0.47,0.35,-0.25,0.32,-0.32,-0.09,0.02,0.42,0.24,-0.05,-0.26,0.3,-0.34,0.23,0.43,0.13,0.01,-0.48,0.38,-0.39,0.29,-0.13,0.19,-0.41,-0.07,-0.48,-0.47,0.2,0.32,-0.09,-0.22,-0.23,-0.48,0.22,-0.38,-0.47,0.32,-0.38,0.14,-0.19,0.15,0.34,0.05,-0.45,-0.25,0.46,-0.4,-0.37,0.43,0.11,0.19,0.15,0.18,-0.5,0.39,0.16,-0.35,-0.35,-0.12,-0.35,-0.13,0.31,-0.4,-0.17,-0.33,0.47,0.28,-0.06,0.11,0.4,0.3,-0.12,-0.12,0.06,-0.04,0.44,0.31,0.14,0.33,-0.04,0.42,0.4,0.27,-0.3,0.21,0.12,0.09,-0.49,0.32,-0.05,0.38,0.17,0.23,-0.02,0.44,0.33,0.24,-0.28,0.38,-0.22,-0.32,0.16,0.01,-0.47,0.3,-0.2,-0.24,-0.39,0.04,0.45,0.34,0.01,-0.18,0.41,-0.27,-0.04,-0.47,0.39,0.11,0.04,-0.12,0.26,0.11,-0.35,-0.48,-0.37,0.15,0.4,0.12,0.12,-0.3,0.08,0.25,0.05,-0.22,-0.24,-0.12,0.24,-0.1,-0.1,-0.15,-0.03,-0.03,0.37,0.11,-0.13,-0.16,0.31,-0.26,-0.03,0.29,0.35,0.11,-0.16,0.4,-0.09,-0.45,-0.14,-0.5,0.17,0.15,-0.14,-0.02,0.41,0.24,-0.25,0.25,0.27,0.13,0.47,-0.42,-0.21,-0.01,-0.3,-0.32,0.4,-0.21,0.23,0.04,0.15,0.29,0.33,0.15,-0.35,0.33,-0.15,0.47,-0.1,0.14,0.36,-0.29,-0.48,0.23,0.22,0.25,0.49,0.48,0.05,-0.37,-0.15,0.11,0.07,-0.32,-0.23,-0.12,0,-0.15,-0.1,-0.34,0.49,-0.38,-0.19,0.31,-0.15,0.37,0.32,0.2,-0.17,-0.42,-0.11,-0.22,-0.15,-0.38,0.26,0.26,-0.44,0.05,0.26,-0.05,-0.32,0.41,0.23,0.1,-0.31,-0.47,-0.29,0.14,-0.12,0.26,-0.18,0.49,0.07,-0.26,0.15,0.24,0.39,-0.3,-0.13,0.34,0.43,-0.22,0.15,-0.03,0.23,-0.43,-0.24,-0.05,-0.08,0.01,-0.18,0.44,0.09,0.44,0.47,-0.43,-0.11,0.2,0.12,-0.19,0.16,-0.33,-0.18,0.06,0.25,-0.1,0.2,-0.4,-0.03,-0.48,0.36,0.35,-0.33,0.41,0.02,0.4,-0.24,-0.25,0.37,-0.39,0.27,0.26,-0.29,0.37,-0.07,-0.13,-0.11,0.12,-0.24,0.07,-0.16,-0.32,0.07,-0.44,-0.32,0.25,0.45,-0.42,0.21,-0.17,-0.14,-0.35,0.48,-0.1],[0.14079264,-0.029203603,0.26077095,0.18077224,-0.07917216,-0.42903572,0.31095332,-0.36918226,0.33068377,0.00063287094,0.040530704,0.40052733,0.45070714,-0.049287207,-0.36924458,-0.11933763,-0.49959612,-0.41960835,0.3403916,0.39044568,0.17046537,0.18058108,-0.22924446,-0.38949925,0.22028331,0.26036087,0.44058436,-0.3295849,0.04038942,0.030362856,0.25032848,0.12030887,0.28032106,0.31032392,-0.2796164,0.4604228,0.11043412,0.2104663,-0.30951178,-0.3194911,0.25051615,-0.29950532,-0.15951973,-0.4295598,0.010388759,-0.2196051,0.3003834,-0.009633728,0.450365,-0.16963881,-0.17960563,-0.22955544,-0.19957142,-0.41957316,0.22038999,0.46,-0.31,0.14,0.45,0.15,-0.38,0.13,0.09,-0.21,0.24,0.41,-0.39,-0.37,-0.28,-0.34,0.27,-0.21,0.38,0.15,-0.37,-0.04,-0.17,-0.3,0.1,-0.06,0.46,-0.06,-0.28,-0.29,-0.29,-0.02,-0.19,0.19,-0.42,-0.24,0.26,0.46,0.25,0.04,-0.44,-0.38,0.11,-0.46,-0.18,0.09,-0.34,0.16,-0.23,0.28,0.06,-0.48,-0.12,0.15,0.44,-0.24,0.12,0.49,-0.46,0.01,0.19,0.17,-0.09,-0.13,-0.42,-0.24,0.1,-0.08,-0.45,0.46,-0.1,0.31,0.03,-0.16,0.09,-0.49,0.34,-0.22,0.37,-0.5,-0.23,-0.21,-0.33,-0.07,0.15,-0.32,-0.41,0.16,0.25,0.32,0.14,0.27,0.41,-0.26,0.35,-0.12,0.2,-0.26,0.46,-0.45,0.49,0.24,0.11,-0.19,-0.12,0.24,-0.02,-0.46,-0.45,0.43,-0.09,-0.16,-0.39,-0.46,-0.27,-0.11,0,0.48,0.22,0.39,-0.33,0.44,0.16,-0.28,-0.19,0.13,0.39,-0.21,-0.01,-0.29,-0.19,0.1,-0.19,0.32,-0.5,0.03,0.18,0.36,-0.46,0.4,0.19,-0.45,0.1,0.32,-0.1,-0.2,0.15,0.36,-0.5,-0.05,0.37,0.21,0.01,-0.43,0.38,-0.45,-0.43,-0.12,0.49,0.25,0.34,-0.31,0.04,0.34,0.11,0.3,-0.48,-0.21,-0.47,0.2,0.2,0.13,0.43,0.32,-0.31,-0.38,-0.17,0.34,0.31,-0.49,0.47,-0.47,-0.22,-0.47,-0.17,0.09,-0.41,-0.26,0.44,0.45,-0.05,-0.2,0.37,-0.21,-0.45,0,0,0.26,-0.3,0.1,-0.23,-0.14,0.32,-0.2,0.25,-0.26,0.28,0.19,0.37,0.25,0.21,-0.28,0.06,0.47,0.28,0.31,0.4,0.01,0,-0.48,0.21,0.27,-0.16,-0.42,-0.26,-0.1,0.25,0.14,0.26,0.19,0.11,0.06,0.14,-0.29,0.23,0.1,-0.29,0.48,-0.22,-0.41,0.31,-0.11,-0.14,-0.32,-0.27,-0.28,0.23,0.4,0,-0.27,0.09,0.49,-0.24,-0.33,0.38,0,-0.49,0.24,-0.45,-0.15,-0.02,-0.37,0.42,-0.32,-0.37,-0.36,0.08,-0.16,-0.27,-0.33,0.1,0.42,-0.28,-0.09,-0.29,-0.19,-0.09,-0.34,0.34,-0.48,0.16,0.35,-0.37,0.02,-0.41,0.12,-0.2,-0.04,-0.18,-0.27,0.09,-0.04,0.43,0.43,0.11,0.17,-0.03,-0.33,-0.46,-0.41,0.14,-0.12,0.16,-0.17,0.13,0.16,0.26,0.35,0.46,0.06,-0.41,0.35,0.39,-0.47,0.18,0.12,0.49,-0.11,-0.41,0.01,0.34,-0.39,-0.49,0.49,0.08,-0.37,0.49,-0.21,0.3,0.04,0.34,-0.27,-0.39,0.25,-0.13,-0.23,-0.31,0.3,0.39,-0.07,0.35,-0.05,0,0.26,-0.36,0.24,0.07,0.39,-0.26,0.48,0.17,-0.43,-0.42,0.03,-0.26,0.03,-0.13,0.16,0.25,0,0.17,-0.03,-0.45,-0.08,0.22,0.35,0.23,-0.36,0.16,-0.09,-0.08,-0.31,0,0.15,0.15,-0.12,0.1,-0.25,0.35,0.33,0.06,-0.41,-0.46,0.31,0.36,0.27,-0.36,0.08,0,0.33,0.4,0.02,-0.46,-0.12,0.25,-0.12,-0.1,-0.42,-0.47,-0.22,-0.5,-0.08,-0.27,0.33,0.05,-0.02,0.07,-0.08,0.37,0.36,0.42,-0.39,0.31,0.41,0.44,0.07,-0.07,-0.27,0.06,0.45,0.2,-0.36,0.14,0.32,0.01,0.4,-0.36,-0.39,0.4,-0.24,0.48,0.02,-0.29,0.06,0.32,-0.37,0.36,-0.29,-0.25,-0.13,-0.31,0.21,0.2,0.13,0.4,0.28,0.21,-0.37,-0.06,-0.32,0.45,-0.34,0.02,-0.42,0.08,0.36,0.27,-0.1,-0.19,0.15,-0.17,-0.05,0.02,0.1,0.37,-0.1,0.39,-0.26,-0.42,0.3,0.21,-0.29,0.47,-0.32,0.25,0.49,-0.07,-0.5,0.41,0.22,-0.32,-0.49,0.16,0.21,-0.19,0.31,-0.5,-0.38,0.48,0.46,-0.15,-0.05,0.39,0.1,-0.46,0.24,-0.31,-0.41,0.26,0,0.39,-0.03,-0.46,0.14,-0.03,0.23,-0.32,-0.16,-0.17,0.08,-0.08,0.27,-0.02,0.09,-0.03,-0.18,0.28,0.3,-0.21,-0.45,-0.11,0.26,-0.24,-0.38,-0.06,-0.25,-0.19,-0.13,-0.37,-0.5,0.29,-0.16,-0.26,-0.09,0.33,0.21,0.46,-0.48,-0.26,0.07,0.13,0.16,0.29,-0.11,0.03,0.08,0.46,-0.2,-0.38,0.21,0.45,-0.12,0.3,0.2,-0.4,-0.38,-0.3,0.42,-0.3,-0.29,-0.09,0.31,-0.3,-0.18,0.29,-0.42,0.03,-0.43,0.26,0.26,-0.14,0.26,0.06,0.21,-0.08,0.23,0.47,0.36,0.08,0.35,-0.22,-0.49,-0.26,-0.08,-0.46,-0.09,0.03,0.03,-0.2,0.2,0,-0.47,0.31,-0.48,-0.35,0.31,-0.04,-0.04,0.1,-0.06,-0.45,0.39,0.03,-0.14,-0.16,-0.31,0.31,-0.42,-0.23,-0.13,-0.35,-0.17,-0.17,-0.16,0.42,-0.1,0.06,0.27,-0.23,-0.13,0.05,0.49,0.26,-0.44,-0.25,-0.18,0.44,0.04,0.05,0.1,-0.23,0,-0.24,-0.37,0.3,-0.11,-0.03,0.38,-0.43,0.35,0.1,-0.06,-0.25,0.43,0.04,-0.34,0.19,-0.03,-0.41,0.25,-0.25,0.18,-0.32,-0.28,0.39,-0.44,-0.38,-0.03,-0.4,-0.48,-0.26,-0.24,0.03,0.16,-0.4,0.14,-0.43,-0.3,0.04,0.03,0.42,0.18,0.2,-0.08,0.27,-0.4,0.23,0.33,0.01,-0.41,0.12,-0.03,-0.05,0.3,-0.15,0.08,-0.18,-0.47,-0.27,0.24,-0.23,-0.5,0.27,-0.45,0.11,-0.17,0.41,0.09,0.32,0.4,-0.41,-0.01,0.42,0.06,0.33,0.06,0.48,0.26,-0.05,0.29,-0.18,-0.22,0.46,-0.49,-0.11,0.26,0.31,0.23,-0.19,0.02,-0.18,-0.47,0.46,0.3,-0.25,0.42,0.41,0.14,0.3,-0.06],[-0.31013626,-0.36014226,-0.49014217,0.09985767,0.4898581,-0.370142,0.03985769,0.38989466,0.45992622,0.28992674,0.08995215,0.049957868,0.07992717,-0.060075056,-0.090111755,0.47988898,-0.47003153,0.2499696,0.14996833,0.34995162,0.0099613285,-0.3200496,-0.23009783,-0.20004757,0.079976186,-0.45005143,0.019909564,-0.3800354,-0.20004477,0.39995375,0.1499626,-0.17002787,0.45997152,-0.4900284,0.099964745,-0.32003766,-0.23003873,-0.15004754,-0.49005333,-0.24005888,-0.29006147,0.41993424,0.2599294,0.019930102,0.4199304,0.2599286,-0.0500798,0.019918106,-0.11008053,-0.23007944,0.37991792,-0.35008383,0.4899218,0.4499163,0.41992489,-0.49,0.36,0.2,-0.48,0.44,0.1,-0.09,0.08,-0.44,-0.37,-0.24,0.09,0.07,0.34,-0.28,0.21,0.17,0.24,-0.12,0.13,0.08,-0.09,0.25,-0.13,0.31,0.1,-0.5,0.23,-0.47,-0.48,-0.01,-0.16,-0.5,-0.42,0.08,-0.18,0.06,-0.17,-0.43,0.16,0.3,-0.17,0.2,-0.12,0.16,-0.33,0.38,0.17,-0.34,0.05,-0.3,-0.1,0.1,-0.18,-0.16,0.09,-0.4,-0.18,-0.29,-0.17,0.09,0.18,0.05,-0.47,0.14,0.41,0.08,-0.02,-0.25,0.4,-0.35,-0.16,0.17,0.22,0.33,-0.26,0.21,-0.13,0.21,0.14,0.22,-0.17,0.07,-0.03,0.31,-0.42,0.23,0.18,0.24,0.49,-0.28,-0.27,-0.39,0.23,-0.44,-0.39,0.27,0.16,0.24,0.24,0.08,-0.11,-0.09,-0.24,-0.1,0.36,0.23,0.38,-0.02,-0.41,0.38,0.22,0.11,0.07,0.11,-0.24,-0.4,-0.42,-0.28,0.05,-0.32,0.39,0.24,-0.24,0.17,0.41,-0.28,0.43,0.15,0.21,-0.03,-0.45,0.13,0.47,-0.44,-0.18,0.41,-0.2,-0.44,0.44,-0.15,0.35,-0.31,0.14,-0.39,-0.01,0.12,0.04,-0.38,0.3,-0.49,0.19,-0.07,-0.32,0.05,0.18,0.14,-0.35,0.08,-0.02,0.13,0.3,-0.28,0.27,0.12,0.33,-0.42,0.13,0.01,-0.22,-0.16,0.3,-0.49,-0.23,-0.3,-0.18,0.2,-0.4,-0.35,-0.32,-0.21,0.17,0.31,0.34,0.2,0.27,0.11,-0.05,-0.09,-0.13,0.17,0.26,0.22,0.07,-0.19,0.04,0.12,-0.08,-0.48,-0.22,-0.1,0.48,-0.47,0.33,-0.04,-0.29,0.17,-0.34,0.48,-0.27,0.48,0.04,-0.5,-0.1,-0.31,0.46,0.48,-0.12,-0.43,0.34,-0.29,0.13,-0.28,-0.37,0.1,0.08,-0.43,-0.07,0.46,0.15,0.19,-0.23,-0.43,0.37,0.27,-0.19,0.13,0.47,-0.12,-0.02,-0.4,-0.06,-0.04,-0.32,-0.11,-0.37,0.25,-0.18,-0.12,-0.15,0.06,-0.26,-0.16,-0.32,-0.44,0.27,0.26,0.4,-0.28,0.37,-0.37,-0.27,-0.31,-0.17,0.03,0.2,-0.03,-0.38,0.12,0.38,-0.18,-0.5,0.49,0.08,0.24,0.27,-0.33,-0.47,0.23,-0.03,0.32,0.25,-0.45,0.11,-0.41,-0.05,0.43,0.39,0.31,-0.5,0.04,0.23,0.25,0,-0.15,0.36,-0.25,-0.37,0.15,0.19,0.15,0.13,0.19,0,-0.48,0.05,-0.26,0.26,-0.07,-0.22,0.1,0.22,-0.34,0.25,-0.45,-0.13,-0.32,0.08,-0.26,-0.42,0.27,0.07,-0.19,0.12,-0.17,0.08,-0.25,-0.01,-0.28,0.37,0.02,-0.47,-0.12,-0.46,0.31,-0.31,-0.44,0.05,0.08,0.03,-0.3,-0.33,-0.05,0.02,-0.1,0.31,0.06,0.49,-0.06,0.48,0.18,0.16,0.39,0.07,0.41,-0.42,-0.19,-0.43,-0.34,-0.07,-0.21,0.25,0.03,0.06,0.26,0.06,-0.16,-0.39,0.43,0.35,-0.19,0.12,0.49,0.2,0.38,0.09,-0.38,0.29,-0.29,0.01,-0.48,-0.25,-0.46,-0.26,-0.31,0.35,-0.36,0.31,-0.38,0.23,0.37,0.48,-0.11,-0.36,-0.27,-0.06,0.14,0.39,0.25,0.33,-0.03,-0.06,-0.44,0.09,0.16,-0.44,0.17,-0.32,0.19,-0.18,0.46,0.02,0.35,0.14,-0.09,-0.47,0.2,-0.22,-0.13,0.41,-0.09,0.03,0.48,-0.31,0.47,-0.18,-0.27,0.34,-0.04,-0.07,0.45,-0.28,-0.47,-0.13,-0.46,0.07,-0.31,-0.05,0.07,-0.38,-0.32,0.45,-0.38,0.3,0.27,-0.15,-0.38,0.24,0.23,-0.3,0.24,-0.15,0.02,0.34,-0.09,0.43,-0.05,0.36,0.11,-0.17,0.32,0.32,0.21,-0.25,-0.14,0.23,-0.01,-0.03,0.09,0.34,0.34,-0.26,0.2,-0.26,0.23,-0.04,-0.09,-0.32,-0.08,0.12,-0.31,-0.02,-0.39,-0.24,0.19,0.1,0.2,-0.31,0.46,-0.4,-0.39,-0.17,0.34,-0.26,-0.2,-0.15,-0.26,0.36,-0.06,-0.46,0.36,0.15,-0.36,0.39,-0.15,-0.01,0.15,-0.23,-0.4,0.45,0.02,-0.23,-0.07,0.48,-0.37,-0.16,0.21,-0.06,0.06,0.25,-0.48,-0.21,0.01,-0.01,0.22,0,-0.1,-0.04,0.44,-0.13,-0.29,0.04,0.23,-0.12,0.26,0.04,-0.17,-0.28,0.4,-0.31,0.45,-0.08,-0.42,-0.5,0.08,0.33,0.39,0.35,-0.4,0.45,0.14,0.29,-0.21,0.18,-0.49,0.06,-0.37,0.15,-0.34,0.35,-0.41,-0.32,-0.17,0.23,0.24,0.47,0.04,-0.45,-0.28,0.09,-0.5,-0.01,0.04,-0.13,0.3,0.1,-0.29,0.01,0.41,0.38,0.1,0.04,-0.14,0.48,0.23,-0.08,-0.25,-0.46,-0.13,-0.31,-0.09,0.17,-0.45,-0.45,-0.41,0.26,-0.42,-0.15,-0.24,0.1,-0.21,0.34,0.13,0,0.45,-0.35,-0.25,0.42,0.37,-0.1,-0.16,0.12,0.24,-0.23,-0.26,0.05,0.32,-0.15,0.49,-0.19,0.22,-0.01,0.17,-0.48,-0.32,-0.18,-0.07,-0.02,-0.23,-0.46,0.01,0.36,-0.25,-0.2,0.09,0.26,0.4,0.35,-0.48,0.08,-0.34,-0.18,-0.34,0.46,0.34,0.28,0.43,0.28,0.3,0.04,0.44,0.23,-0.15,0.44,0.38,0.29,-0.34,0.1,-0.18,0.12,0.21,0.26,0.14,0.33,0.39,-0.02,-0.13,-0.07,0.17,-0.02,0.14,0.47,-0.18,-0.09,-0.36,-0.11,-0.17,0.21,-0.33,-0.11,-0.11,0.14,0.17,0.22,-0.4,0.28,0,-0.2,-0.08,0.3,0.09,-0.21,0.02,-0.1,0.36,-0.11,0.17,-0.18,-0.44,-0.14,-0.09,-0.01,-0.4,-0.18,0.4,0.47,-0.1,0.44,0.29,-0.02,-0.05,-0.05,-0.07,0.43,-0.28,-0.44,-0.41,0.42,0.23,-0.39,0.47,-0.44,-0.5,0.37,0.38,-0.16,-0.06,0.42,0.04],[0.23925762,0.20925304,-0.5007352,0.13927671,0.3092247,0.46909842,0.38910854,0.039234407,-0.16063856,0.3194078,-0.37049642,-0.13049194,0.049338415,0.009331824,0.42929354,-0.16062032,-0.37037674,0.35963473,0.07963341,-0.3304159,0.28956628,-0.20054139,0.24929479,0.08953181,0.44973597,-0.120338336,-0.1505459,-0.020388428,-0.2703653,-0.07034145,0.049691916,0.019710673,-0.020300185,-0.1003033,-0.46035796,0.26960537,-0.050407697,0.30956373,0.11954186,0.45952418,-0.1704829,0.01953568,0.23955046,-0.41041183,0.09963314,0.22963016,-0.09036079,0.039654262,-0.44034162,0.0196604,0.24963088,-0.030417724,0.35959876,0.23960069,0.23963517,-0.06,0.45,-0.1,0.18,-0.08,0.12,-0.1,-0.19,0.41,-0.24,0.1,0.39,-0.35,-0.04,-0.34,0.39,-0.18,-0.26,0.12,0.34,-0.23,0.06,0.15,0.49,-0.29,0.46,0.3,-0.09,0.2,0.18,-0.42,0.16,0.24,0.15,0.1,0.31,-0.46,-0.38,-0.31,-0.17,0.42,-0.29,0.33,0.33,0.49,0.34,-0.24,-0.43,0.4,0.13,-0.07,-0.27,-0.27,0.39,-0.03,0.38,-0.2,-0.09,-0.03,-0.05,0.31,0.48,0.1,-0.27,-0.32,0.44,-0.36,0,0.36,-0.15,0.34,-0.31,-0.45,-0.22,0.42,-0.45,0.23,0.32,-0.5,-0.14,0.2,0.22,0.01,-0.43,-0.26,0.35,-0.08,0.34,-0.33,0.22,0,0.12,0.15,0.23,0.02,0.43,0.11,0.1,0.15,-0.46,0.19,0.25,-0.29,0.04,0.28,-0.26,-0.33,0.45,0.47,-0.08,-0.35,-0.02,-0.09,-0.4,0.25,-0.41,-0.03,0.02,0.48,-0.17,0.01,-0.21,-0.17,-0.36,0.34,-0.29,0.03,-0.19,0.26,0.48,-0.06,-0.38,-0.34,0.45,0.16,0.44,0.01,0.47,-0.22,-0.5,0.17,-0.03,0.37,0.24,0.06,-0.48,-0.29,0.05,0.47,-0.08,-0.04,-0.42,0.12,-0.19,0.02,-0.1,-0.08,-0.44,0.19,0.06,0.2,0.35,-0.32,0.48,0.48,-0.48,-0.19,-0.05,-0.07,0.3,0.08,0,-0.27,0.47,0.16,-0.46,-0.08,0.08,0.07,0.31,-0.5,0.48,-0.16,-0.17,0.02,-0.15,0,0.34,-0.08,-0.24,0.02,-0.06,-0.23,0.22,-0.2,0.31,-0.22,0.39,0.26,0.04,0.21,0.25,-0.39,-0.33,0.34,0.46,0.35,0.14,0.15,-0.02,0.47,0.34,-0.02,0.37,0.06,0.21,0.01,0.35,-0.05,0.12,0.01,-0.04,-0.47,-0.34,-0.22,-0.37,-0.28,0.01,0.16,0.34,0.25,0.02,0.31,-0.48,-0.4,-0.26,0.36,-0.34,-0.02,0.06,0,0.35,-0.32,0.44,-0.22,0.18,0.46,-0.11,-0.35,0.08,-0.21,-0.07,-0.07,-0.37,-0.47,-0.26,0.22,0.45,0.39,0.21,0.23,-0.17,0.48,0.31,0.23,-0.05,-0.48,-0.05,0.27,-0.18,0.34,-0.16,-0.14,0.39,-0.38,0.15,-0.23,-0.41,0.37,0.09,-0.34,0.33,-0.15,-0.43,0.05,-0.19,-0.41,0.17,0.49,0.35,0.01,0.41,-0.23,0.27,0.32,-0.34,0.37,-0.13,-0.3,0.33,0.15,0,0.12,0.33,0.23,0.44,-0.43,0.04,-0.49,-0.12,0.47,0.13,-0.43,-0.21,0.05,0.39,0.47,0.4,-0.24,-0.09,-0.15,-0.16,-0.04,0.41,0.3,0.43,-0.43,0.09,-0.44,0.46,0.28,0.39,0.38,-0.47,0.43,0.15,-0.29,0.02,-0.17,0.1,-0.26,0.05,0.16,0.11,0.38,0.38,0.34,0.48,-0.29,0.43,-0.32,0.46,-0.39,0.28,-0.03,-0.19,-0.46,0.2,-0.47,0.3,0.37,-0.03,-0.03,-0.46,0.09,-0.43,0.24,-0.47,-0.15,0.39,0.18,-0.05,0.07,0.15,-0.33,0.3,0.18,0.34,-0.48,0.41,-0.42,-0.42,-0.13,-0.37,0.27,0.31,0.27,-0.4,0.06,0.12,0.11,0,-0.01,0.03,0.22,0.27,-0.43,0.11,-0.49,0.31,-0.37,0.31,0.12,-0.18,-0.26,0.23,-0.11,-0.04,0.11,0.16,0.12,-0.31,0.18,-0.39,0.21,0.28,-0.41,-0.17,-0.24,0.28,-0.21,0.14,-0.03,0.23,-0.22,-0.33,0.46,-0.47,0.42,-0.1,0.23,-0.44,0.33,-0.29,0.28,-0.23,-0.04,-0.45,0.38,-0.46,-0.09,-0.19,-0.02,0.39,0.49,-0.09,0.32,-0.13,0.31,0.44,0.17,0.23,-0.16,-0.28,0.01,-0.02,-0.17,0.39,-0.46,-0.43,0.27,-0.15,0.03,-0.3,0.43,0.06,-0.14,-0.04,-0.17,-0.06,-0.19,-0.46,-0.05,-0.28,-0.14,0.47,-0.35,0.07,0.23,0.36,-0.15,0.08,-0.28,0.48,0.22,0.49,0.21,0.1,0.19,-0.21,0.43,0.07,-0.5,0.31,-0.23,-0.44,0.28,-0.22,0.45,-0.07,-0.45,-0.15,-0.46,-0.14,0.12,0.12,-0.22,-0.38,0.36,0.04,-0.18,0.26,-0.35,-0.33,0.21,-0.32,-0.38,0.04,-0.03,0.44,0.34,0.25,0.27,-0.47,0,0.24,-0.47,0.13,0.45,-0.2,-0.32,0.37,0.12,-0.21,0.31,0.49,0.04,0.35,-0.14,-0.4,0.2,0.09,0.24,-0.35,0.46,-0.33,-0.09,0.33,-0.41,-0.42,0.43,-0.26,0.3,-0.5,0.08,-0.21,0.08,-0.5,0.36,0.37,0.08,0.15,-0.34,0.05,-0.15,-0.06,-0.37,0.35,-0.15,0.22,0.14,-0.24,-0.32,-0.13,-0.27,-0.25,-0.5,0.12,-0.44,-0.18,-0.18,-0.3,0.03,0.37,-0.14,0.44,-0.43,0.11,0.21,0.02,-0.09,0.03,0.49,-0.02,0.01,-0.45,-0.08,-0.32,0.29,0.02,-0.46,0.05,-0.03,-0.13,-0.07,0.16,-0.44,-0.08,0.27,-0.17,-0.22,0.45,0.43,0.03,0.05,-0.12,-0.39,-0.21,-0.32,-0.1,-0.13,0.02,-0.36,0.33,-0.19,-0.39,-0.23,0.19,0.35,-0.32,0.33,0.32,0.32,0.04,-0.22,0.26,0.22,-0.34,-0.07,0.2,0.38,0.14,0.34,-0.12,-0.27,-0.05,0.09,-0.05,0.43,-0.37,0.43,-0.38,0.49,-0.11,-0.36,0.01,-0.09,0.14,-0.44,-0.18,-0.11,-0.14,0.06,0.08,-0.01,-0.04,-0.37,-0.11,-0.25,0.28,0.15,0.45,0.36,-0.02,0.01,0.22,0.17,0.26,0.09,0.35,0.02,0.31,0.26,0.22,-0.26,0.2,0.32,-0.07,-0.11,0.26,-0.15,-0.43,-0.4,-0.39,-0.2,0.02,-0.42,-0.25,0.38,0.27,-0.18,-0.3,-0.3,-0.36,-0.03,0.48,-0.24,0.01,0.37,-0.08,0.34,0.15,-0.45,-0.3,0.29,0.07,0.09,0.34,-0.17,0.29,0.14,0.19,0.49,-0.02,-0.07,0.07,0.35,0.24,-0.32],[0.4884586,0.13844937,-0.08149893,0.36849868,0.3183904,0.018127283,-0.19185166,0.10841207,0.108672105,-0.26123187,-0.24103366,-0.0710241,-0.20137289,0.04861343,0.46853244,0.41871187,0.189215,-0.48076108,0.38923967,-0.19086537,0.219097,0.41887265,-0.26146606,0.4090284,-0.42055035,-0.3807009,0.1188656,-0.3008065,0.21923961,0.20929238,0.39936158,-0.3806003,0.019377455,-0.18062888,0.37925434,0.27917784,-0.08084583,0.2690916,-0.27095076,0.16900928,-0.02100474,0.45903677,0.46906486,0.08914358,-0.44076002,-0.15076907,-0.17074662,-0.3607153,-0.48071003,0.049297467,0.22923298,0.039134726,0.4491657,-0.08082983,-0.050758243,-0.44,-0.1,0,0.29,0.19,0.4,-0.4,0.39,0.4,-0.16,-0.36,0.41,0.48,0.16,-0.32,0,0.42,0.29,-0.29,0.33,0.26,0.44,0.14,0.34,0.23,0.29,-0.02,-0.32,-0.34,0.47,-0.15,-0.34,-0.41,0.37,0.32,-0.12,0.41,0.48,0.03,0.27,-0.13,-0.43,-0.43,-0.26,0.42,-0.06,-0.15,-0.03,0.33,-0.46,0.3,0.25,0.24,0.09,0.18,-0.39,0.25,0.15,-0.45,0.4,-0.09,0.42,0.22,0.42,0.49,0.47,0.32,-0.4,0.34,0.29,0.08,0.44,-0.24,-0.07,-0.04,0.19,0.37,-0.11,0.42,-0.22,-0.07,-0.5,-0.16,-0.39,-0.33,0.1,-0.08,0,-0.32,0.2,0.13,-0.24,0.42,0.13,-0.15,-0.06,-0.16,-0.36,-0.25,0.45,0.11,-0.26,0.13,-0.47,-0.04,0.36,-0.02,-0.2,-0.38,0.49,-0.27,-0.15,0.22,0.27,-0.04,-0.09,0.07,0.11,0.25,-0.11,0.04,-0.19,0.41,-0.37,-0.34,-0.18,-0.49,0.12,-0.42,-0.49,-0.16,0.23,-0.36,0.46,0.16,-0.31,-0.14,-0.2,0.15,-0.2,-0.39,-0.38,-0.13,-0.31,-0.04,-0.23,0.03,-0.35,-0.34,0.43,0.37,0.23,-0.11,0.36,-0.1,-0.2,-0.18,-0.01,0.37,-0.37,0.35,0.35,-0.29,-0.39,0.14,0,-0.29,0.25,-0.4,-0.23,-0.45,-0.24,0.45,-0.05,-0.23,-0.09,0.44,0.22,0.16,0.38,0.28,0.36,-0.04,-0.36,-0.36,0.11,-0.17,-0.23,0.06,-0.14,0.36,0.36,-0.07,0.01,-0.05,-0.25,0.4,-0.24,0.04,0.46,-0.44,0.27,-0.45,0.39,0.38,0.1,0.28,0.43,0.08,0.48,-0.15,0.1,0.32,0.48,-0.15,0.48,-0.11,-0.43,0.46,-0.47,-0.34,0.43,-0.31,0.23,-0.1,-0.32,0.33,-0.07,-0.5,-0.48,0,0.18,-0.33,0.2,0.32,-0.5,0.31,0.06,-0.25,0.03,0.33,-0.1,0.18,0.07,-0.49,-0.25,-0.46,-0.06,-0.34,-0.04,0.35,0.33,-0.21,0,0.29,-0.38,0.08,-0.19,-0.02,0.2,0.27,-0.16,0.43,0.06,-0.03,0.17,-0.08,-0.38,-0.35,-0.16,-0.33,0.33,0.32,-0.07,-0.3,0.26,-0.26,0.12,0.22,-0.35,-0.36,-0.12,-0.23,0.03,-0.34,0.17,-0.12,0.16,0.41,0.2,-0.08,-0.01,-0.43,0.05,0.26,-0.02,-0.04,-0.38,-0.41,-0.17,0.33,0.41,-0.21,0.31,-0.21,-0.49,-0.49,0.36,-0.2,-0.48,0.37,0.45,0.09,-0.17,0.06,-0.11,-0.44,-0.1,-0.11,0.3,-0.21,0.25,-0.29,-0.05,0.42,0.17,0.25,-0.23,0.16,0.21,-0.2,-0.38,0.02,-0.12,-0.19,-0.28,-0.42,-0.04,-0.26,-0.35,0.16,0.01,-0.14,0.38,0.32,-0.04,0.39,0.24,0.48,-0.13,-0.08,-0.45,0.22,-0.21,-0.46,-0.43,0.2,0.33,0.39,0.11,-0.25,0.24,-0.31,0.08,0.21,0.25,-0.07,-0.29,-0.49,-0.16,-0.2,0.1,-0.34,-0.26,-0.37,0.27,-0.11,-0.18,0.13,-0.05,0.28,-0.49,-0.22,-0.21,-0.21,-0.26,-0.11,-0.27,-0.16,-0.26,0.01,-0.25,0.06,0.12,0.39,0.42,-0.19,0.27,-0.33,-0.43,-0.47,0.18,0.22,0.14,-0.43,0.31,0.39,-0.02,-0.35,-0.24,0.18,-0.12,-0.3,-0.07,0.33,-0.26,-0.05,0.4,-0.21,-0.04,-0.15,-0.31,0.37,0.27,0.32,-0.46,-0.47,0.03,-0.15,-0.29,-0.05,0.11,-0.35,0.06,-0.08,-0.41,-0.21,0.13,-0.28,-0.02,-0.15,0.4,-0.43,-0.43,0.05,-0.38,-0.46,-0.37,0.29,0.15,-0.04,-0.09,-0.03,0.2,0.21,0.33,0.31,0.45,0.32,-0.48,0.27,-0.15,-0.37,0.44,0.31,-0.44,-0.27,0.14,-0.5,0.23,0.44,0.32,0.17,0.31,-0.39,-0.06,-0.38,0.29,-0.29,0.19,0.49,0.39,0.24,0.2,0.24,-0.46,-0.37,-0.06,0.34,0.09,-0.22,-0.16,0.31,-0.3,0.2,-0.5,0.27,-0.37,-0.25,-0.01,0.39,-0.1,-0.37,-0.44,0.2,0.14,0.23,0.16,0.09,-0.24,0.2,-0.49,0.23,-0.38,-0.48,0.37,0.11,-0.07,-0.31,0.27,0.42,0.28,0.29,-0.09,-0.06,0.1,-0.5,-0.03,-0.4,-0.39,0.17,0.49,0.04,0.22,0.3,0.09,0.26,0.17,0.49,-0.4,-0.2,-0.03,0.35,0.08,0.38,-0.23,0.1,0.18,-0.32,0.33,-0.12,-0.16,0.43,-0.02,0.06,-0.4,0.1,0.22,0.11,-0.41,0.13,-0.24,0.06,-0.02,0.09,0.21,-0.03,-0.49,-0.18,-0.08,-0.4,0.43,-0.07,-0.41,-0.03,-0.05,0.43,-0.29,0.02,-0.33,-0.5,-0.18,-0.21,-0.24,0.22,-0.18,-0.45,-0.44,-0.35,0.19,0.48,-0.46,-0.44,0.4,-0.04,-0.46,0.4,-0.13,0.48,-0.34,0.29,0.08,-0.14,0.25,0.22,-0.06,0.41,0.34,-0.49,-0.4,-0.33,-0.11,-0.31,-0.07,-0.41,-0.19,0.46,-0.21,0.25,-0.24,0.16,-0.09,0.35,0.12,-0.07,-0.44,0.37,0.02,0.12,-0.08,0.05,0.05,-0.28,-0.15,-0.13,-0.09,0.45,0.04,0.04,-0.22,-0.09,-0.3,-0.46,-0.46,0.02,0.09,0.34,0.12,0.31,-0.36,-0.43,0.1,0.12,0.22,0,-0.12,0.22,0.23,-0.19,0.16,0.06,-0.12,-0.28,0.08,0.05,0.11,-0.34,0.33,-0.44,0.17,-0.15,-0.08,0.25,-0.03,0.35,-0.05,-0.14,0.31,-0.4,0.33,-0.29,-0.25,0.21,-0.03,-0.16,0.44,0.43,0,0.35,0.48,0.19,-0.28,-0.28,0.37,0.21,-0.47,0.48,-0.04,-0.01,0.4,-0.07,-0.49,0.06,-0.37,0.29,0.15,0.35,-0.36,0.37,-0.46,-0.48,0.41,0.12,-0.03,-0.06,-0.19,0.16,0.24,-0.27,0.11,0.18,0.16,0.48,-0.43,0.48,-0.38,-0.31,0.37,0.26],[0.31001788,-0.029982947,0.39001778,-0.18998224,-0.30998164,-0.099979974,-0.29998067,0.19001824,0.08001722,0.18001659,0.19001539,-0.409984,0.28001773,0.120018154,0.30001813,0.45001668,0.27001444,0.10001282,0.24001235,-0.06998626,-0.109986834,-0.139986,-0.2699845,-0.2799872,0.3800101,-0.27999008,0.27001098,-0.4699905,-0.0199913,-0.34999022,0.1600094,-0.04999147,0.47000855,-0.11999037,-0.44998997,0.07001,-0.36999136,0.090008676,-0.07999185,-0.42999196,-0.25999224,0.120007634,-0.419992,-0.43999225,0.040007073,0.020005235,0.39000568,-0.46999452,-0.32999396,-0.38999394,-0.29999423,0.020005183,-0.04999398,-0.059993826,-0.13999417,-0.05,-0.27,0.16,-0.07,0.47,0.12,-0.33,-0.3,-0.08,-0.49,-0.27,-0.39,-0.1,0.07,-0.27,0.32,-0.33,-0.33,0.16,-0.32,0.27,-0.22,-0.34,0.18,-0.15,-0.17,0.23,0.35,-0.13,0.44,-0.37,-0.5,0.03,-0.49,0.1,-0.17,-0.04,-0.35,-0.05,-0.06,-0.43,-0.08,0.15,-0.46,-0.2,-0.1,-0.01,-0.04,0.43,-0.22,-0.47,-0.16,0.28,-0.25,0.09,-0.34,-0.43,0.47,-0.43,0.13,0.39,-0.19,0.32,-0.02,0.38,-0.27,0.07,-0.12,0.46,0.39,-0.14,-0.49,0.22,-0.28,-0.39,-0.16,0.12,-0.39,-0.12,0.45,0.34,-0.23,0.42,-0.41,0.41,0.28,-0.29,-0.22,-0.08,-0.07,-0.24,-0.02,-0.42,0.31,0.05,0.25,0.09,-0.34,-0.34,-0.44,0.33,-0.4,-0.01,-0.47,0.42,-0.49,0.12,0.06,-0.37,-0.25,0.03,0.45,0.09,-0.38,0.29,0.11,-0.11,0.23,0.07,-0.41,-0.49,-0.21,0.46,0.03,0.13,0.37,0.43,0.4,0.16,-0.14,0.24,-0.04,0.45,-0.19,-0.38,0.23,0.28,0.38,-0.34,0.39,-0.35,0.15,-0.36,-0.33,0.39,-0.19,0.39,0.45,-0.48,0.44,-0.14,0.36,0.09,-0.44,-0.46,0.03,-0.36,0.45,-0.1,-0.46,-0.43,0.22,0.39,0.27,0,-0.43,0.49,-0.23,-0.5,-0.44,0.33,0,0.06,0.17,0.43,-0.14,-0.35,0.28,0.13,-0.18,0.48,0.48,0.37,0.22,0.49,0.38,0.36,0.38,-0.23,0.08,0.08,0.32,-0.02,-0.38,0.31,-0.08,0.25,-0.13,0.17,0.32,-0.19,0.11,0.44,0.46,-0.39,0.35,-0.21,0.41,-0.38,0.18,-0.12,-0.14,-0.18,-0.43,-0.45,-0.41,0.35,-0.33,0.27,0.11,-0.3,-0.39,-0.5,-0.09,-0.02,-0.5,-0.48,-0.06,0.35,0.01,0.11,0.27,-0.39,0.31,-0.5,-0.13,-0.47,0.41,0.11,-0.36,0.09,0.45,0.25,0.09,-0.3,-0.28,-0.01,-0.1,-0.44,0.22,0.07,0.08,0.09,-0.45,0.11,-0.3,0.11,0.02,-0.02,-0.4,0.33,0.35,-0.45,0.11,-0.43,0.1,-0.26,0.01,-0.44,0.18,-0.45,0.44,0.06,0.13,-0.48,-0.25,-0.15,-0.1,-0.29,-0.25,0,