{"_layers":[784,28,28,1],"_neurons":[[0.5686275,0.30588236,0.48235294,0.73333335,0.45490196,0.4509804,0.5137255,0.5803922,0.6509804,0.69803923,0.75686276,0.8156863,0.8627451,0.9019608,0.94509804,0.98039216,0.99215686,1,1,1,1,0.99607843,0.99607843,1,0.9843137,0.94509804,1,0.98039216,0.9843137,0.99215686,0.99215686,0.99607843,0.99607843,0.99607843,0.99607843,0.99215686,0.99215686,0.99215686,0.99215686,0.99215686,0.9882353,0.9882353,0.99215686,0.99215686,0.9882353,0.98039216,0.98039216,0.96862745,0.95686275,0.9490196,0.9411765,0.9372549,0.9372549,0.93333334,0.9254902,0,0,0,0,0,0,0,0,0,0,0,0,0,0,0,0,0,0,0,0,0,0,0,0,0,0,0,0,0,0,0,0,0,0,0,0,0,0,0,0,0,0,0,0,0,0,0,0,0,0,0,0,0,0,0,0,0,0,0,0,0,0,0,0,0,0,0,0,0,0,0,0,0,0,0,0,0,0,0,0,0,0,0,0,0,0,0,0,0,0,0,0,0,0,0,0,0,0,0,0,0,0,0,0,0,0,0,0,0,0,0,0,0,0,0,0,0,0,0,0,0,0,0,0,0,0,0,0,0,0,0,0,0,0,0,0,0,0,0,0,0,0,0,0,0,0,0,0,0,0,0,0,0,0,0,0,0,0,0,0,0,0,0,0,0,0,0,0,0,0,0,0,0,0,0,0,0,0,0,0,0,0,0,0,0,0,0,0,0,0,0,0,0,0,0,0,0,0,0,0,0,0,0,0,0,0,0,0,0,0,0,0,0,0,0,0,0,0,0,0,0,0,0,0,0,0,0,0,0,0,0,0,0,0,0,0,0,0,0,0,0,0,0,0,0,0,0,0,0,0,0,0,0,0,0,0,0,0,0,0,0,0,0,0,0,0,0,0,0,0,0,0,0,0,0,0,0,0,0,0,0,0,0,0,0,0,0,0,0,0,0,0,0,0,0,0,0,0,0,0,0,0,0,0,0,0,0,0,0,0,0,0,0,0,0,0,0,0,0,0,0,0,0,0,0,0,0,0,0,0,0,0,0,0,0,0,0,0,0,0,0,0,0,0,0,0,0,0,0,0,0,0,0,0,0,0,0,0,0,0,0,0,0,0,0,0,0,0,0,0,0,0,0,0,0,0,0,0,0,0,0,0,0,0,0,0,0,0,0,0,0,0,0,0,0,0,0,0,0,0,0,0,0,0,0,0,0,0,0,0,0,0,0,0,0,0,0,0,0,0,0,0,0,0,0,0,0,0,0,0,0,0,0,0,0,0,0,0,0,0,0,0,0,0,0,0,0,0,0,0,0,0,0,0,0,0,0,0,0,0,0,0,0,0,0,0,0,0,0,0,0,0,0,0,0,0,0,0,0,0,0,0,0,0,0,0,0,0,0,0,0,0,0,0,0,0,0,0,0,0,0,0,0,0,0,0,0,0,0,0,0,0,0,0,0,0,0,0,0,0,0,0,0,0,0,0,0,0,0,0,0,0,0,0,0,0,0,0,0,0,0,0,0,0,0,0,0,0,0,0,0,0,0,0,0,0,0,0,0,0,0,0,0,0,0,0,0,0,0,0,0,0,0,0,0,0,0,0,0,0,0,0,0,0,0,0,0,0,0,0,0,0,0,0,0,0,0,0,0,0,0,0,0,0,0,0,0,0,0,0,0,0,0,0,0,0,0,0,0,0,0,0,0,0,0,0,0,0,0,0,0,0,0,0,0,0,0,0,0,0,0,0,0,0,0,0,0,0,0,0,0,0,0,0,0,0,0,0,0,0,0,0,0,0,0,0,0,0,0,0,0,0,0,0,0,0,0,0,0,0,0,0,0,0,0,0,0,0,0,0,0,0,0,0,0,0,0,0,0,0,0,0,0,0,0,0,0,0,0,0,0,0,0,0,0,0,0,0,0,0,0,0,0,0,0,0,0,0,0],[1.2897651,-0.02203412,-0.0005683273,-0.021492612,1.7470912,-0.019571243,-0.004423648,-0.008864752,-0.010856305,-0.005924874,-0.020879587,0.89653474,2.4264596,-0.007190783,1.81403,-0.0018863436,-0.001149256,-0.01929374,-0.030997466,-0.011891421,-0.0070178187,-0.0070013073,1.584808,-0.0004022613,-0.040884446,-0.0004925939,0.12313953,-0.0038820468],[0.9202813,-0.016238028,-0.022076555,-0.0071251974,-0.011683801,-0.008944099,0.8193599,0.6810979,1.4883106,-0.008262066,0.51634973,0.07916412,-0.01812507,-0.0059655965,0.79552007,-0.0139419455,-0.001201463,0.9517895,-0.014188536,0.5882118,-0.015610072,-0.014346361,-0.0037646214,-0.015434062,-0.011479919,-0.023152001,-0.028060589,2.4464483],[0.5876702]],"_biases":[[-0.423708,-0.27994448,0.06370321,-0.36003157,-0.30187395,0.040282305,0.27227193,-0.14027044,0.21967947,0.44137302,-0.35986972,0.1554857,0.14372991,0.20006649,0.2638811,-0.15773499,-0.30329078,0.29989555,-0.36990836,0.02965124,-0.28516093,0.3950539,-0.49137974,0.3885663,0.4101266,-0.24421433,-0.13078888,0.19507855],[-0.103916995,-0.15023127,-0.45029518,-0.45012578,0.060392328,0.384739,-0.21867804,-0.19238949,-0.52341616,-0.38061863,0.1262312,-0.3671702,-0.48049253,-0.27885464,0.47011477,0.10011669,0.27629715,0.40505585,-0.0121483095,0.17003869,0.03975648,0.34010336,-0.15243524,0.38812572,0.30548707,-0.39977488,0.380293,-0.3481347],[-0.4733451]],"_weights":[[[0.18038476,-0.24876824,0.46057487,-0.28897345,-0.42013317,0.46646407,-0.12524779,0.41436312,-0.39860076,-0.47945428,0.21976146,-0.05001779,-0.11020031,-0.17060454,-0.42238054,-0.27419397,0.4548466,0.005163489,0.48469812,0.424202,-0.075511836,-0.3455191,0.484089,0.28241736,0.14249632,-0.32732165,0.06270657,0.49244076,-0.34542233,-0.23366813,0.037967406,-0.42894116,-0.43740928,-0.30667812,-0.13828266,0.39828444,0.13584939,0.48479477,0.4557697,-0.22398905,0.096720785,0.20623204,0.13731624,0.40824643,0.27794236,-0.23244803,-0.3449346,0.024506737,-0.21371856,0.17549875,0.33515862,0.09478158,0.39605436,-0.23220615,0.27952728,0.01,-0.26,-0.34,0.05,0.39,-0.11,-0.13,0.24,0.33,-0.02,0.14,-0.12,-0.3,0.46,-0.32,0.09,0.46,0.04,0.21,-0.17,0.22,0.01,-0.42,-0.49,-0.13,-0.48,-0.46,0.2,-0.02,-0.08,0.43,-0.33,0.29,-0.09,0.34,0.14,-0.04,-0.07,-0.44,0.37,-0.28,0.45,0.3,-0.08,-0.38,0.37,0.45,0.05,-0.4,-0.42,0.36,-0.45,-0.33,0.43,-0.45,0.49,-0.34,-0.35,-0.33,0.37,-0.15,0.17,-0.24,-0.1,0.05,-0.03,0.09,0.28,-0.38,0.03,-0.38,0.03,-0.02,0.33,-0.4,0.26,0.21,0.16,0.38,0,-0.44,-0.02,0.1,-0.1,0.05,0.38,0.49,0.35,-0.14,0.34,-0.02,-0.19,-0.25,-0.31,0.02,0.05,0.19,-0.11,0.37,0.15,-0.23,-0.34,-0.08,0.06,0.45,-0.17,0.07,-0.17,0.32,-0.22,-0.22,0,-0.24,0.17,0.3,0.36,-0.44,0.36,0.35,0.16,-0.03,0.23,-0.08,-0.23,-0.45,0.31,-0.23,-0.21,-0.19,0.05,-0.44,-0.18,0.29,-0.27,-0.28,0.4,-0.44,-0.47,-0.06,-0.28,-0.19,0.15,-0.47,-0.43,0.06,0.48,-0.46,0.08,-0.12,0.15,-0.02,0.33,0.04,-0.3,-0.33,0.04,0.23,-0.36,0.01,-0.36,-0.45,-0.23,-0.48,-0.24,-0.28,0.45,0.2,-0.47,-0.05,0.4,0.3,-0.47,-0.09,0.12,-0.15,0.32,0.2,-0.15,0.21,-0.44,0.26,0.19,0.4,0.15,-0.43,-0.27,0.28,0.08,-0.45,0.18,-0.34,0.41,0.01,-0.21,-0.33,-0.47,0.13,0.26,0.35,0.11,-0.23,-0.49,-0.37,-0.02,0.35,-0.05,-0.09,0.41,0.34,-0.16,0.33,-0.12,-0.07,-0.06,-0.12,-0.15,-0.13,-0.14,-0.31,0.48,-0.33,-0.38,0.47,0.26,0.23,0.38,0.01,-0.39,-0.06,-0.18,-0.31,0.44,0,-0.41,0.29,0.24,0.06,-0.09,0.29,0.12,0.31,0.36,0.24,0.2,0.35,0.28,-0.03,-0.44,0.41,0.32,0.15,-0.24,0.06,0.36,-0.07,-0.35,-0.47,-0.14,0.25,0.47,0.43,-0.2,-0.04,0.01,-0.35,0.38,0.37,-0.17,0.15,0.13,0.29,0.46,0.06,0.07,-0.33,-0.19,-0.13,-0.24,0.41,0.44,-0.09,-0.06,-0.3,0.12,0.17,0.42,-0.13,0.13,0.16,0.14,0.2,-0.31,0.16,0.32,0.18,0.01,-0.11,-0.27,0.05,0.46,0.4,-0.37,-0.09,-0.23,-0.48,0.19,0.19,0.49,0.18,-0.38,0.27,0.27,-0.06,0.3,0.06,-0.01,-0.41,0.33,0.33,-0.28,0,-0.26,0.17,-0.49,0.42,0.09,-0.2,0.24,0.38,0.16,0.41,-0.36,0.21,0.45,-0.47,-0.23,-0.48,0.42,0.09,0.48,-0.27,-0.12,0.45,0.04,0.36,0.43,0.24,0.35,-0.24,-0.31,-0.09,0.05,-0.11,-0.18,-0.04,0.16,-0.04,-0.1,-0.15,-0.07,-0.11,0.45,-0.4,-0.48,-0.3,0.13,-0.45,-0.01,0.26,-0.22,-0.04,-0.33,-0.27,0.35,0.49,-0.38,-0.21,-0.37,-0.35,0.49,0.34,-0.06,-0.03,0.19,-0.26,-0.15,0.24,-0.12,-0.01,-0.13,0.3,0.12,0.07,-0.34,0.09,-0.23,-0.23,0.42,-0.17,-0.28,0.37,-0.25,-0.42,0.47,0.22,-0.26,-0.19,0.03,-0.17,-0.17,-0.13,-0.17,-0.26,-0.14,0.08,0.44,-0.03,-0.09,0.27,0.35,0.39,0.17,-0.5,-0.11,-0.03,0.33,0.1,-0.43,-0.24,0.21,0.34,-0.14,0.29,0.42,-0.39,0.09,-0.14,0,0.47,-0.5,-0.47,-0.3,-0.45,-0.35,0.49,-0.03,-0.13,-0.3,0.07,0.14,0.3,0.36,-0.36,-0.03,-0.17,-0.3,-0.26,0.18,-0.01,0.38,0.14,-0.26,-0.23,0.11,-0.01,-0.49,0.03,-0.18,-0.26,0.49,0.07,0.47,-0.07,0.27,0.31,0.18,0.12,0.35,-0.1,-0.5,-0.04,-0.11,-0.01,0.11,0.41,0.48,-0.29,-0.19,0.09,0.41,-0.16,0.17,-0.5,-0.42,-0.15,0.28,0.42,-0.07,0.16,0.48,0.43,-0.45,0.45,0.07,-0.43,0.32,-0.08,-0.13,0.16,0.14,0.07,-0.11,-0.22,-0.01,-0.08,-0.25,0.24,0.16,0.2,0.01,0.29,-0.29,0.22,-0.17,0.14,0.39,0.46,-0.15,-0.09,-0.48,0.25,-0.32,-0.31,-0.09,-0.44,-0.1,-0.07,0.42,0.04,-0.42,0.05,0.34,0.15,0.45,-0.17,0.45,-0.11,0.01,0.15,-0.4,-0.46,-0.24,0.23,-0.35,-0.32,0.21,-0.17,0.12,0.42,-0.33,0.36,-0.43,0.45,0.13,0.38,-0.11,-0.31,0.36,-0.08,-0.48,0.31,0.32,-0.38,0.11,0.45,0.45,0.06,0.27,-0.5,0.19,0,-0.06,0.2,-0.19,0.48,-0.01,-0.05,-0.46,-0.28,-0.16,-0.44,0.31,0.49,-0.13,-0.28,-0.02,0.38,-0.48,-0.44,0.44,0.25,0.02,-0.41,0.13,-0.21,-0.29,-0.36,-0.38,-0.31,-0.27,-0.35,0.06,0.12,-0.27,0.16,-0.09,-0.13,0.14,0.14,-0.11,0.44,-0.35,0.14,-0.43,0.45,-0.5,0.33,0.25,-0.11,-0.03,-0.44,0.03,0.2,-0.45,0.43,0.47,-0.15,-0.44,-0.49,0.27,-0.16,-0.18,0.34,0.49,-0.31,0,-0.32,0.25,0.2,0.3,-0.39,-0.26,-0.13,0.16,-0.5,0.1,0.38,-0.48,0.17,-0.22,-0.13,-0.11,0.22,0.22,-0.34,0.11,0.35,0.06,-0.2,0.19,-0.44,-0.2,0.12,0.37,-0.46,0.11,-0.19,0.14,0.37,-0.06,0.31,-0.42,-0.45,0.08,-0.15,0.32,-0.35,-0.46,-0.45,-0.17,-0.41,-0.17,-0.11,0.23,-0.11,0.45,0.09,-0.39,0.32,0.07,0.15,0.12,-0.06,-0.5,0.23,0.31,0.11,0,0.11,-0.11,-0.22,-0.27,-0.36,-0.28,-0.04,-0.21,-0.16,-0.36,-0.13,-0.16,-0.05,0.3,0.01,0.47,0.09,0.23,0.4,0.39,-0.03],[-0.4100772,-0.49008048,-0.31007835,0.31992027,-0.20006949,0.2899381,-0.3100552,0.13995256,-0.4600418,0.3399613,0.039970074,-0.30003583,0.14997096,-0.08002791,0.15997934,-0.46001938,0.3499838,-0.3200173,-0.3400163,-0.24000818,-0.4000143,0.10999137,-0.050007474,0.23999946,-0.030001381,-0.39000773,0.3399921,-0.40000707,-0.0400097,-0.09001577,-0.5000161,0.39995927,0.21995805,-0.48005152,0.019958844,-0.1300277,-0.41002423,-0.090014756,0.33997607,-0.070019,-0.23002174,0.14997979,-0.20002426,-0.21002786,0.31996796,-0.37003034,0.29997918,-0.13001265,0.34997448,0.42997757,0.23998463,0.039985344,0.23998128,0.11997518,-0.13003111,-0.02,0.05,-0.06,-0.16,-0.32,0.45,-0.42,-0.33,0.12,0.34,0.13,-0.02,0.12,0.4,-0.22,0.44,-0.06,-0.16,0.23,0.49,-0.05,-0.19,-0.34,0.41,-0.17,-0.19,-0.04,-0.25,0.03,0.16,-0.05,-0.34,-0.41,0.14,-0.46,0.32,0.14,-0.44,0.15,-0.02,-0.32,-0.03,0.17,-0.06,-0.31,0.15,-0.32,-0.04,0.06,0.48,-0.21,-0.3,-0.49,0.13,0.42,-0.34,-0.12,0.03,-0.5,0.37,-0.02,0.32,0.13,0.46,-0.12,-0.03,-0.12,0.47,0.36,-0.05,-0.2,-0.13,0.19,-0.25,0.3,0.47,0.13,0.21,0.22,0.18,-0.38,0.49,0.19,0.04,-0.13,-0.25,-0.35,-0.05,0.22,0.37,-0.07,-0.39,-0.45,0.27,0.49,-0.14,0.33,0.21,-0.44,0.21,-0.24,-0.3,0.1,-0.4,0.18,0.41,0,0.25,0.33,0.45,0.02,0.16,0.3,-0.18,0.24,-0.01,-0.37,-0.41,0.08,-0.38,-0.18,0.43,-0.25,0.49,-0.48,-0.32,-0.18,0.41,-0.25,-0.06,-0.37,0.42,0.15,-0.5,-0.09,0.42,-0.11,0.08,0.36,-0.05,0.24,-0.11,0.12,0.27,-0.16,0.26,-0.19,0.23,-0.47,0,-0.28,0.24,-0.38,0.43,-0.11,-0.17,0.45,0.1,-0.42,-0.01,0.09,0.09,-0.01,-0.11,0.31,0.1,-0.5,0.29,0.41,0.32,-0.41,0.04,-0.28,-0.37,-0.13,0.43,-0.19,-0.03,0.15,-0.25,0.37,0.09,0.38,0.25,-0.29,-0.12,0.3,0.22,0.11,-0.43,0.46,0.28,0,-0.14,0.35,-0.35,0.39,-0.28,0.45,0.24,0.26,0.01,0.31,-0.3,-0.1,0.18,0.02,0.49,0.05,-0.04,-0.48,-0.03,0.45,0.33,0.12,-0.5,0.21,0.24,-0.32,-0.07,0.29,-0.22,-0.32,0.34,0.35,-0.2,-0.46,0.36,-0.23,-0.28,-0.47,-0.42,0.02,0.41,-0.01,-0.14,0.27,0.17,-0.16,0.03,0.36,0.31,-0.33,-0.35,-0.46,-0.01,0.33,0.16,0.24,0.35,-0.06,-0.36,-0.46,0.01,0.44,-0.03,-0.18,0.47,-0.15,-0.4,0.13,0.16,0.21,-0.18,-0.08,0.44,0.44,-0.46,-0.17,-0.25,-0.28,-0.46,-0.1,0.15,0.07,0.48,-0.4,-0.48,0.29,-0.15,-0.04,-0.13,-0.39,-0.08,0.28,0.38,-0.46,-0.49,0.46,-0.49,-0.47,0.3,-0.19,-0.26,0.4,-0.3,-0.41,0.34,0.22,-0.4,0.04,0.29,-0.17,-0.02,0.12,-0.11,0.24,-0.11,0.44,0.46,-0.13,-0.2,-0.33,0.49,0.13,-0.25,0.04,-0.21,0.04,0.03,0.4,0.43,-0.43,-0.18,-0.28,-0.08,0.22,-0.35,0.24,-0.13,0.38,-0.24,-0.2,0.19,0.3,0.17,-0.46,0.13,0.29,-0.12,-0.36,0.14,-0.43,0.49,0.14,0.23,0.13,-0.19,0.11,0.14,0.15,0.3,-0.21,-0.31,-0.31,0.11,0.21,-0.5,-0.25,-0.3,0.17,0.09,0.14,0.06,-0.42,-0.39,0.49,-0.02,-0.32,0.45,-0.3,0.4,-0.01,-0.34,-0.11,-0.25,0.36,-0.42,0.18,-0.01,0.29,-0.1,0.04,-0.4,0.21,-0.43,0.46,-0.4,-0.01,-0.31,0.45,-0.47,-0.13,0.09,0.2,0.05,-0.5,0,0.41,0.02,0.23,-0.35,-0.38,0.15,-0.06,0.25,-0.19,-0.37,0.3,0.44,0.25,0.13,-0.18,0.26,-0.09,-0.23,-0.46,0.04,0.35,-0.5,-0.35,0.39,0.48,0.49,-0.5,-0.34,0.02,0.39,-0.05,0.34,-0.25,-0.14,-0.34,-0.35,0.25,0.13,-0.23,0.39,0.15,0.45,0.25,0.32,-0.2,0.05,-0.07,-0.19,0.21,0.11,-0.32,-0.07,0,-0.04,0.14,0.4,-0.13,0.34,-0.34,-0.37,0.15,-0.23,-0.28,-0.08,0.18,0.46,0.19,-0.11,-0.03,-0.33,-0.5,0.27,0.49,-0.35,0.38,0.39,-0.25,-0.18,0.08,-0.07,0.05,0.18,-0.05,0.41,0.21,-0.49,-0.17,0.29,0.21,-0.25,0.27,0.41,-0.03,-0.36,-0.27,-0.12,0.23,-0.17,-0.36,-0.16,0.35,-0.46,0.34,0.04,0.1,-0.09,-0.07,-0.16,0.07,0.25,0.15,-0.46,-0.25,0.22,0.07,0.46,0.31,-0.19,0.2,0.16,0.12,0.39,0.17,-0.29,-0.11,-0.41,-0.2,0.35,0.41,0,-0.34,0.41,-0.32,-0.26,0.07,0.01,0.33,0.41,-0.19,-0.21,0.07,0.49,-0.29,0.45,0.1,0.23,0.15,0.24,0.06,-0.23,0.06,-0.09,0.12,-0.03,0.22,0.46,-0.14,0.13,-0.36,0,-0.39,0.08,-0.08,-0.43,0.08,0.24,0.36,-0.49,-0.35,-0.44,-0.37,0.4,-0.5,-0.1,-0.42,0.13,0.18,0.21,0.11,0.16,-0.07,0.05,-0.22,0.14,0.44,0.24,-0.22,0.2,0.02,0.11,-0.36,-0.3,0.26,0.3,-0.32,0.49,0.06,-0.36,-0.13,0.35,0.36,0.14,0.09,0,-0.37,0.15,-0.09,-0.29,-0.11,-0.42,-0.22,0.14,-0.48,-0.02,-0.43,0.05,-0.21,0.28,-0.37,0.33,-0.04,-0.35,-0.02,0.03,0.41,0.43,-0.37,-0.31,-0.28,-0.42,-0.44,0.03,-0.16,0.25,0.29,0.28,0.46,0.27,0,-0.22,-0.17,-0.44,-0.19,-0.07,-0.17,-0.01,-0.32,-0.23,0.23,0.13,0.19,0.28,-0.49,0.03,-0.11,0.2,-0.34,-0.45,0.08,-0.3,0.01,-0.29,0.49,-0.2,-0.48,0.24,-0.2,-0.24,0.19,-0.22,0.08,0.02,-0.23,0.35,0,-0.11,0.34,-0.45,-0.3,-0.08,0.25,0.36,-0.04,0.08,-0.11,-0.22,0.02,0.31,-0.15,-0.42,0.12,0.41,-0.31,-0.21,0.26,-0.39,-0.44,-0.5,-0.09,0.08,-0.31,0.41,0.08,-0.06,-0.46,-0.33,0,-0.34,-0.48,-0.5,0.36,-0.4,0.34,-0.34,-0.05,0.15,0.25,-0.09,0.41,0.23,-0.28,-0.02,0.41,0.1,0.15,0.17,-0.18,0.48,-0.42,-0.11,-0.17],[0.33052847,0.14012206,0.110403046,-0.27027452,0.33004564,-0.22863781,-0.48832855,0.041774962,-0.28703213,0.28325117,-0.13725013,0.29229304,-0.14751686,-0.27732876,0.01393972,-0.43544254,-0.47487995,0.33538967,-0.39399612,-0.14343591,0.15632632,-0.40346235,0.17668958,-0.13233633,0.20764044,-0.49207142,0.48801222,0.28817305,-0.13313729,0.34549123,0.024530666,-0.42613727,0.12369545,0.16410883,-0.47488007,-0.032883767,-0.26168534,0.42903346,0.12889318,-0.110935055,0.23870674,0.3791235,0.1987917,0.45893002,0.36889973,0.19906625,0.05953323,-0.12093807,-0.36200917,0.11848356,-0.19196036,-0.35187235,0.48777634,-0.4629413,0.17631988,0.24,0.46,-0.25,0.02,0.33,-0.21,-0.27,-0.33,-0.14,-0.25,-0.22,-0.34,0.18,-0.3,-0.45,0.33,-0.41,-0.29,0.21,0.11,0.27,-0.11,0.22,0,-0.49,-0.06,0.1,0.14,0.25,0.04,-0.13,-0.41,0.09,0.48,-0.23,0,0.47,-0.1,0.28,-0.41,0,0.2,-0.17,0.19,0.07,0.02,0.36,-0.33,-0.42,0.27,-0.3,0.43,-0.24,-0.09,0.4,-0.16,-0.26,0.25,0,-0.12,0.19,0.08,-0.09,0.32,0.37,-0.31,0.07,0.19,0.42,0.05,0.35,0.19,-0.08,0.12,-0.39,-0.43,-0.44,-0.48,0.42,-0.01,0.07,-0.08,0.06,0.47,-0.16,-0.06,0.32,-0.33,-0.42,0.42,-0.25,-0.28,0.39,-0.11,-0.11,0.42,-0.22,0,0.32,-0.13,0.45,-0.34,-0.26,0.03,0.42,0,0,0.13,-0.2,0.32,-0.22,-0.29,0.32,-0.49,0.3,-0.24,-0.48,-0.07,-0.03,-0.08,-0.13,-0.1,0.1,0.49,-0.21,0.13,0.29,-0.48,-0.28,-0.31,0.28,0.05,-0.3,0.04,0.04,-0.1,-0.32,-0.48,-0.45,0.33,0.44,-0.32,0.36,-0.24,0.14,-0.47,-0.11,0.38,0.08,-0.37,0.39,0.35,-0.47,-0.11,-0.5,0.05,0.05,-0.25,-0.26,-0.22,0.21,-0.03,-0.09,-0.39,-0.47,0.22,-0.49,-0.22,-0.03,-0.11,-0.42,0.49,-0.13,0.14,-0.02,-0.32,0.03,-0.16,-0.16,-0.25,-0.27,0.4,-0.07,-0.42,-0.21,0.43,0.02,0.3,0.03,0.48,0.34,0.42,0.28,0.26,-0.38,-0.03,0.27,0.25,-0.27,0.41,-0.48,-0.39,-0.09,-0.32,-0.45,0.39,-0.03,-0.12,0.41,0.32,-0.49,-0.29,0.4,0.49,-0.45,0.3,-0.47,-0.18,0.31,-0.41,-0.3,-0.29,0.24,-0.02,0.04,-0.35,-0.29,0.1,0.02,-0.5,-0.09,0.27,-0.39,-0.07,-0.27,-0.39,-0.01,-0.25,-0.47,-0.11,-0.04,-0.37,0.38,0.21,0.47,0.13,-0.48,0.29,0.21,-0.19,-0.07,-0.05,0.44,-0.37,0.21,0.3,-0.13,0.42,0.13,0.4,0.18,0.36,0.36,0.4,-0.09,-0.26,-0.41,-0.03,0.25,0.43,-0.2,0.28,-0.22,-0.09,0.13,-0.44,-0.18,-0.48,0.01,0.41,-0.38,-0.08,0.39,-0.3,0.06,0.45,0.32,0.48,0.22,-0.08,0.24,0.06,0.11,-0.38,0.21,0.09,-0.23,0.48,-0.2,0.22,0.03,0.05,-0.47,0.28,-0.5,0.15,-0.34,0.03,-0.01,0.14,-0.02,-0.16,-0.09,0.22,0.27,-0.25,0.47,0.16,-0.16,-0.05,-0.09,-0.39,0.24,-0.17,-0.32,0.24,-0.33,-0.34,0.19,-0.46,0.29,-0.16,0.22,0.28,-0.13,0.07,-0.12,-0.4,-0.31,0.41,0.28,-0.21,-0.02,-0.43,0.44,-0.11,-0.35,0.38,-0.16,-0.05,0.12,0.1,0.14,0.34,-0.19,-0.09,0.3,0.19,0.09,-0.24,-0.02,-0.5,0.33,-0.05,0.34,-0.37,0.12,0.13,-0.16,-0.3,0.37,0.36,-0.04,-0.08,0.16,-0.39,0.12,0.17,-0.11,0.28,0.09,-0.22,0.31,-0.27,-0.09,-0.31,0.2,0.37,-0.04,0.45,0.26,0.19,0.01,0.42,-0.08,0.28,-0.05,-0.47,-0.27,0.3,0.27,0.01,0.03,-0.37,0.08,0.25,-0.36,-0.29,-0.33,-0.31,0.29,-0.37,-0.2,0.3,0.17,-0.31,-0.32,0.09,-0.47,0.15,-0.07,0.24,-0.34,-0.12,-0.06,-0.33,-0.16,0.04,0.49,0.37,0.16,0.09,-0.06,0.08,-0.49,-0.43,0.24,0.18,0.15,0.16,-0.46,-0.02,0.19,-0.23,-0.34,0.13,-0.12,0.2,-0.26,-0.27,0.1,0.35,0.49,0.07,-0.14,-0.47,-0.15,-0.35,0.19,-0.1,-0.1,0.09,-0.29,-0.2,0.03,-0.31,0.18,0.21,0.29,0.1,-0.05,0,0.44,-0.13,0.1,0.45,-0.46,0.39,-0.28,0.3,0.29,0.14,-0.21,0.26,-0.23,0.3,0.09,0.36,-0.28,0.47,0.22,0.09,0.48,-0.26,-0.25,-0.05,-0.23,-0.11,0.23,0.47,0.44,0.16,0.41,0.14,0.28,-0.4,0.41,0.12,0.46,-0.09,0.48,-0.04,0.43,0.39,0.11,0.26,-0.2,-0.06,-0.48,0.23,0.1,0.32,-0.01,0.31,0.38,0.35,0.01,0.2,-0.38,-0.35,0.17,0.15,-0.35,-0.25,0.35,-0.38,0.23,0.14,0.48,-0.34,0.38,0.47,0.39,0.31,0.49,-0.24,0.16,-0.41,0.13,-0.02,-0.36,0.32,-0.14,-0.5,-0.13,-0.38,-0.33,-0.41,0.26,0.42,0.09,-0.3,0,0.31,0.23,-0.17,-0.2,0.18,-0.47,-0.02,-0.47,0.15,-0.04,0.36,0.34,0.13,0.42,0.17,0.32,0.12,-0.31,-0.08,-0.43,0.13,-0.5,0.35,-0.22,-0.35,0.37,0.23,0.44,0.13,0.38,-0.44,0.07,0.17,-0.04,-0.42,-0.43,0.16,0.45,0.48,-0.45,-0.36,-0.06,-0.02,-0.14,0,-0.35,0.23,-0.3,0,-0.23,-0.37,0.23,-0.34,-0.37,0.36,0.3,0.37,-0.45,-0.35,0.3,-0.2,0.03,-0.11,0.26,-0.11,-0.22,-0.34,-0.34,0.33,0.09,-0.34,0.16,-0.3,-0.14,0.42,-0.32,0.01,-0.02,0.27,0.49,-0.37,0.03,-0.06,-0.14,0.24,-0.17,-0.09,0.04,0.1,-0.23,-0.3,0.11,0.3,-0.32,0.25,0.1,-0.45,0.22,0.46,-0.28,0.48,0.07,-0.14,0.4,-0.4,-0.04,0.02,0.29,-0.3,0.17,-0.22,-0.12,-0.23,-0.35,0.16,0.26,-0.41,-0.48,-0.49,-0.44,0.37,0.12,0.06,0.06,-0.11,0.04,0.36,-0.48,0.11,-0.18,-0.37,0.29,0.02,0.05,-0.5,0.06,-0.33,0.04,-0.25,-0.23,0.3,0.11,-0.17,0.42,0.49,0.31,-0.17,0.14,0.02,0.48,0.01,-0.48,0.2,0.39,-0.16,-0.14,-0.49,0.29,0,0.06,0.09,-0.01,-0.33,0.38,0.03,-0.01],[0.36002612,0.2200342,-0.35997328,-0.40997246,0.090029806,0.04002474,0.2600167,0.24002211,-0.23998286,-0.23998448,-0.21998595,0.1300143,0.07001228,0.08001165,-0.2899957,-0.27999842,4.6169534E-06,0.13000624,0.2999999,-0.3900011,-0.41000095,0.12000327,-0.30000162,0.14000149,0.040000685,-0.1299977,-0.47000405,0.1900019,0.17000544,-0.19999191,-0.06999096,-0.059984475,-0.11998215,-0.009979874,0.4400127,0.100011654,-0.009991809,-0.07999413,-0.119992584,0.47000358,-0.24999538,0.46000394,0.13001205,-0.4199926,-0.4299932,-0.1199899,-0.2799984,0.41000083,-0.15999007,-0.12999143,0.49000183,0.040006466,-0.41999638,-0.07998983,-0.10998688,-0.26,0.02,0,0.05,-0.28,0,-0.43,-0.44,0.45,0.32,0.34,-0.26,-0.43,0.14,0.11,0.22,-0.42,-0.26,0.33,0.35,-0.37,0.48,-0.39,0.06,-0.34,-0.36,-0.39,-0.15,-0.2,-0.19,0.39,-0.15,0.45,-0.4,0.2,-0.42,0.49,0.36,-0.35,-0.04,-0.32,0.4,0.18,-0.24,-0.27,-0.37,-0.35,-0.23,0.23,0.14,0.41,-0.21,-0.25,0.07,-0.25,-0.25,-0.1,0.43,-0.11,-0.42,-0.12,0.21,0.25,0.14,0.43,-0.02,-0.22,0.46,0.44,0.02,0.22,-0.29,-0.41,-0.14,0.17,-0.27,-0.2,0.35,-0.17,-0.48,0.49,0.34,0.12,0.15,-0.11,0.09,-0.4,-0.12,0.34,-0.06,0.18,-0.44,-0.03,-0.43,-0.43,-0.04,-0.36,-0.46,-0.18,0.24,0.34,-0.32,-0.17,-0.3,0.42,0.2,-0.3,0.38,0.39,-0.48,0.45,0.04,0.09,-0.14,-0.42,0.04,-0.41,-0.41,-0.26,-0.17,-0.13,0.39,-0.38,0,0.33,0.16,0.23,-0.49,-0.21,-0.3,-0.42,-0.25,0.03,0.09,-0.33,0.3,0,-0.09,0.23,0.19,-0.12,-0.28,-0.02,0.32,-0.02,-0.36,-0.03,-0.39,0.48,0.02,-0.13,-0.46,0.29,0.48,-0.14,0.44,-0.44,0.33,-0.14,-0.25,0.47,-0.31,0.09,0.19,0.43,0.19,-0.49,0.49,-0.32,-0.22,-0.47,0.18,-0.14,0.04,0.45,-0.35,-0.1,-0.21,-0.49,0.19,-0.32,0.12,-0.48,0.26,0.33,-0.46,-0.05,0.04,-0.28,-0.28,0.23,0.17,-0.46,-0.03,0.22,-0.31,0.13,0.29,0.38,0.28,-0.37,-0.03,0.42,0.2,-0.02,0.18,0.18,-0.25,-0.47,-0.3,0.03,0.26,0.31,0.17,-0.43,-0.15,-0.34,0.32,0.36,0.39,-0.27,-0.04,0.26,0.45,0.04,-0.14,0.14,0.38,0.32,0.25,0.02,0.11,-0.09,-0.28,0.06,0.2,0.19,-0.19,-0.23,-0.36,-0.15,-0.3,0,-0.48,0.19,0.46,0.35,-0.14,-0.1,-0.13,-0.48,0.3,0.43,0.48,0.05,0.16,0.21,0.46,-0.35,-0.38,-0.46,0.29,-0.07,-0.22,0.18,0.42,-0.15,0.08,-0.4,-0.14,0.15,0.34,0.04,0.21,0.03,-0.48,0.46,0.24,-0.24,0.07,0,-0.23,-0.02,-0.06,0.22,0.21,0.17,-0.08,0.17,0.4,0.49,0.23,-0.35,-0.35,-0.4,0.06,0.27,-0.29,-0.17,0.26,0.11,-0.24,-0.24,-0.47,0.22,-0.33,-0.24,-0.28,-0.05,0.02,0.19,0.46,0.19,0.08,0.11,0.26,-0.2,0.48,0.05,0.46,-0.26,0.42,0.41,-0.3,-0.13,0.42,0.19,-0.12,0.1,0.47,-0.25,0.24,-0.09,0,0.45,-0.27,-0.49,-0.05,0.22,0.04,-0.05,-0.05,0.47,-0.35,-0.3,-0.47,-0.47,0.07,0.04,-0.17,-0.25,0.29,0.16,-0.13,0.02,0.18,-0.15,-0.44,0.16,0.3,-0.02,0.37,0.11,-0.02,-0.24,0.45,0.05,-0.31,0.12,-0.13,0.25,0.35,-0.24,-0.49,0,0.28,0.45,0.25,0.49,-0.17,0.38,-0.39,0.34,-0.23,0.21,-0.04,-0.42,-0.47,0.48,-0.24,0.38,0.44,0.29,0.42,-0.44,0.07,0.34,-0.01,0.38,-0.25,-0.02,0.34,0.45,-0.34,0.07,-0.1,0.03,0.15,0.36,0.23,0.23,0.1,-0.44,-0.18,0.42,-0.13,-0.48,-0.17,0.26,0.3,0.36,0.01,-0.3,-0.15,-0.01,0.3,-0.44,-0.17,0.44,0.43,0.44,-0.04,0.36,0.24,0.35,-0.47,-0.34,0.18,0.19,-0.19,0.43,-0.07,-0.33,-0.25,0.03,-0.22,0.38,-0.03,-0.5,0.18,0.04,0,0.22,-0.42,-0.12,0.46,0.14,0.09,0.16,0.26,-0.16,-0.31,0.2,0.43,0.29,-0.23,0.23,-0.18,-0.04,0.38,-0.3,-0.16,0.14,-0.05,0.37,-0.07,-0.16,0.45,0.32,-0.29,0.42,0.08,-0.17,-0.24,-0.12,-0.07,0.23,0.28,-0.15,0.39,-0.11,0.06,-0.49,0.42,0.47,0.23,0.23,-0.27,-0.04,-0.25,0.04,0.06,-0.49,-0.39,-0.02,-0.3,0.36,-0.23,-0.3,0.45,0.12,0.18,0.27,-0.05,0.34,0.25,0.35,-0.06,0.05,-0.15,0.04,0.44,0.46,0.06,-0.01,0.13,-0.17,0.21,-0.02,-0.37,0.2,-0.4,-0.01,0.06,0.16,-0.14,0.07,-0.28,0.27,-0.33,0.07,-0.05,0.07,-0.1,-0.23,0.2,0.29,0.06,-0.42,-0.28,0.38,-0.22,0.18,-0.4,0.21,0.1,0.09,-0.06,0.11,0.34,0.37,-0.36,0.29,-0.43,-0.26,0.01,-0.32,-0.3,0.29,-0.02,-0.33,0.13,0.16,-0.13,0.27,-0.42,-0.13,0.06,-0.21,0.28,0.34,0.26,0.13,-0.24,-0.25,-0.09,-0.09,-0.12,0.35,-0.44,0.26,-0.37,0.1,0.43,-0.2,-0.07,0.16,0,-0.35,0.25,0.02,0.08,0.27,0.09,-0.46,-0.26,0.12,-0.19,-0.18,0.13,-0.28,-0.47,-0.36,0.33,-0.5,-0.4,0,0.03,0.32,0.33,-0.4,0.29,-0.15,0.22,0.21,-0.47,-0.47,0.22,-0.44,-0.16,-0.09,0.36,-0.1,0.04,-0.24,-0.25,0.49,-0.47,-0.29,-0.5,0.28,-0.41,-0.44,-0.29,0.33,0.22,0.49,0.27,0.43,-0.3,0.42,-0.37,0.18,-0.18,0.15,0.22,-0.27,-0.46,0.38,-0.49,-0.29,0.4,-0.25,0.48,-0.29,-0.15,0.13,0.09,0.06,0.24,-0.4,-0.04,-0.19,0.31,-0.46,-0.5,0.23,-0.37,0.39,0.48,-0.47,-0.24,0.29,0.36,-0.08,-0.22,-0.32,-0.42,0.39,0.04,-0.49,0.45,-0.35,-0.3,0.29,0.38,0.34,-0.43,-0.5,-0.03,-0.41,-0.1,-0.3,-0.32,-0.41,-0.05,0.31,0.36,-0.23,0.14,0.48,-0.41,-0.35,0.39,0.47,0.45,-0.4,-0.12,0.06,0.42,-0.33,0.05,0.2,-0.49,0.22,-0.36,-0.19,-0.39,-0.49],[-0.32494214,-0.33421543,0.16510491,-0.35476345,-0.075579874,0.40164357,0.14043808,-0.4400342,0.10757584,0.26689795,0.4663268,-0.023567848,-0.18366943,0.30597395,-0.25545758,0.053392913,0.4226532,0.30259722,-0.2376252,-0.2780152,0.34206215,0.27207676,-0.047990903,0.010762727,-0.42919162,-0.19900861,0.040966135,0.19060901,-0.30771112,-0.04644491,0.4447414,-0.35258096,0.19887412,0.34964138,-0.38137147,-0.00392731,-0.17581582,0.4633551,0.23406518,0.4941978,-0.16518867,0.40445808,0.005264516,0.12598774,0.09565526,-0.044736218,0.3533118,0.24292189,-0.045681488,-0.036268033,0.30348623,-0.15674451,-0.4558001,0.39534947,-0.32330003,-0.12,0.19,-0.36,-0.45,-0.39,-0.16,0.44,0.36,-0.35,0.31,0.31,0.27,-0.04,0.19,0.24,-0.28,0.45,-0.44,-0.24,0.39,0.43,-0.23,0.33,0.41,0.12,-0.06,0.3,-0.27,0.23,0.14,0.1,-0.41,0.3,0.17,0.22,0.29,-0.32,0.41,0.12,0.14,-0.11,-0.46,-0.15,0.31,0.28,0.17,-0.12,-0.46,0.21,-0.27,0.34,-0.23,0.28,-0.5,-0.27,-0.4,0.36,-0.28,-0.07,0.16,0.04,0.2,-0.37,0,-0.3,0.22,0.47,0.29,0.46,0.45,-0.46,-0.46,-0.06,0.11,-0.01,0.39,0.42,-0.49,-0.37,0.44,-0.44,0.25,0.02,-0.01,0.3,-0.18,-0.19,0.3,-0.07,0.11,0.42,0.46,-0.02,0.45,-0.4,0.19,0.41,0.34,0.1,-0.44,0.2,0.08,-0.43,0.25,-0.32,0.3,0.33,-0.34,0,-0.16,-0.32,0.35,-0.41,-0.02,0.1,0.28,-0.33,0.13,0.2,0.38,-0.1,-0.33,-0.14,-0.15,-0.48,-0.43,0.06,-0.02,0.01,0.3,0.48,-0.43,-0.09,-0.43,-0.27,-0.03,0.18,0.27,-0.19,0.49,-0.01,-0.36,-0.21,-0.41,-0.07,-0.43,0.37,0.49,-0.15,-0.19,0.01,-0.23,-0.36,0.22,0.15,0.03,-0.28,0.22,0.23,-0.4,-0.27,-0.16,0.14,0.2,-0.15,-0.39,-0.07,-0.49,-0.26,-0.38,-0.4,-0.1,-0.19,0.2,-0.12,-0.24,0.37,-0.23,0.42,0.44,-0.3,0.06,-0.38,-0.3,-0.22,0.2,0.42,0.19,-0.08,0.2,-0.26,0.45,-0.47,-0.3,0.26,-0.35,-0.01,0.08,0.24,-0.19,0.13,0.35,0.24,-0.27,-0.3,-0.39,0.45,-0.06,-0.17,-0.11,0.15,0.45,0.3,0.28,0.4,0.16,-0.29,-0.06,-0.08,0.14,-0.32,0.24,0.09,0.04,0.37,-0.36,-0.14,-0.39,0.44,-0.27,0.26,-0.22,0.03,0.1,-0.2,-0.15,0.32,0.39,0.49,-0.34,0.25,-0.02,-0.15,-0.47,-0.45,-0.21,-0.35,-0.25,-0.2,-0.41,0.43,-0.45,-0.34,-0.41,-0.37,0.39,-0.25,-0.3,-0.15,-0.44,0.25,0.34,0,-0.4,0.12,-0.14,-0.09,-0.3,-0.03,0.04,0.34,-0.19,-0.05,-0.25,0.39,0.2,-0.11,0.06,-0.02,0.07,0.49,-0.4,0.31,0.34,-0.21,0.21,-0.38,-0.07,-0.03,-0.09,-0.41,0.11,0.04,0.43,-0.09,0.4,0.47,-0.26,-0.1,0.18,0.37,0.45,0.28,0.25,-0.26,0.12,0.09,0.4,-0.3,-0.08,-0.01,0.19,0.21,0.27,-0.44,0.14,-0.48,0.15,0.31,0.41,-0.27,0.48,0.22,-0.45,-0.05,-0.28,0.27,0.02,0.34,0.48,0.23,-0.35,-0.35,0.29,0.2,-0.46,-0.18,-0.44,0.09,0.17,-0.39,-0.29,-0.28,-0.45,0.42,-0.11,0.39,0.26,0.36,0.26,0.38,-0.19,-0.07,-0.02,-0.06,0.39,-0.28,0.22,-0.2,-0.48,0.34,-0.43,-0.44,-0.28,0.19,-0.16,0.03,0.41,-0.43,-0.48,-0.19,0.46,-0.44,-0.36,0.3,-0.48,0.25,0.17,-0.37,-0.45,-0.17,-0.5,0.15,-0.43,-0.41,-0.09,0.22,0.17,-0.15,0.3,0.31,0.1,0.25,0.07,0.32,-0.47,-0.35,0.49,-0.15,0.07,0.36,0.47,0.19,0.33,-0.06,0.41,-0.25,-0.22,0.17,-0.08,-0.37,0.04,0.09,-0.25,0.18,0.34,-0.09,0.48,-0.38,-0.23,0.12,0.36,0.06,-0.24,-0.29,0.21,-0.3,-0.02,-0.18,0.26,0.36,0.25,-0.19,0.05,-0.32,-0.15,-0.2,0.32,0.12,-0.33,-0.34,-0.07,0.49,0.42,0.17,-0.24,-0.5,-0.01,0.38,0.47,0.12,-0.33,0.37,-0.42,0.45,-0.5,-0.1,-0.07,0.12,0.22,0.21,0.26,0.46,0.41,0.06,-0.13,-0.27,-0.47,-0.44,-0.18,0.03,0.09,-0.15,0.45,-0.39,-0.31,0.36,0.14,0.09,0.44,0.21,0.21,0.09,-0.16,-0.36,0.18,0.38,-0.27,0.1,-0.32,0.44,0.37,-0.3,0.39,-0.04,-0.11,-0.04,-0.42,-0.15,-0.2,-0.47,0.47,-0.07,0.06,-0.06,-0.47,0.32,0.42,0.46,0.26,-0.37,0.26,0.33,0.17,-0.49,0.49,-0.34,0.12,0.26,0.37,-0.02,0.49,-0.07,0.38,-0.13,0.15,-0.12,-0.05,-0.02,0.22,0.22,0.28,-0.22,-0.21,0.41,0.23,-0.22,-0.47,0.4,-0.39,0.36,0.46,-0.24,0.34,-0.45,-0.32,-0.47,0.02,0.38,-0.04,-0.28,0.34,-0.19,-0.03,0.31,-0.47,0.04,0.04,-0.32,0.28,0.14,-0.14,-0.07,-0.26,-0.47,-0.16,-0.03,0.04,0.25,-0.22,0.21,-0.37,0.21,0.15,-0.49,0.01,0.22,0.09,0.33,-0.31,0.11,0.36,0.07,-0.49,-0.01,0.38,-0.04,0.3,-0.03,0.38,-0.31,0.23,0.35,-0.38,-0.04,0,0.02,-0.48,0.3,0.2,0.21,-0.01,0.27,0.09,0.24,-0.41,-0.38,0.16,-0.04,-0.21,-0.2,0.45,0.21,0.48,-0.34,0.28,0.28,-0.08,0.25,-0.35,0.38,0.16,-0.43,0.37,-0.41,0.48,-0.23,0.09,-0.32,0.01,0.49,0.2,0.28,-0.38,-0.02,-0.38,-0.42,0.47,-0.24,-0.1,0.25,0.3,-0.16,-0.32,0.07,-0.27,-0.49,0.36,0.45,0.18,0.21,-0.4,-0.24,0.15,0.32,-0.46,-0.08,0.39,0,0.26,0.31,0.03,-0.03,0.45,-0.2,0.09,-0.34,0.09,0,-0.47,0.19,0.31,-0.34,-0.16,-0.11,-0.43,-0.18,0.39,-0.21,0.35,0.47,-0.1,0.13,-0.01,0.29,0.39,-0.06,-0.37,-0.2,-0.07,0.2,-0.31,-0.03,0,0.08,-0.28,-0.17,-0.12,0.37,0.47,-0.44,-0.08,-0.14,0.42,0.49,0.4,0.44,0.41,-0.25,0.24,0.21,0.03,0.1,0.14,0.28,-0.1,0.39,0.47,-0.35,-0.09,-0.35,-0.47,-0.22,-0.44,-0.17,0,-0.17,0.15,0.26],[-0.3299369,0.24005395,0.43002564,-0.48997888,-0.18996294,0.2800558,0.0400802,-0.45989916,0.21011491,0.00012393708,0.3901379,0.45014432,0.020143652,0.37015122,0.060196783,0.220182,-0.329837,0.08016183,0.3201615,0.21016027,-0.31984898,-0.17988412,-0.14989872,-0.26989698,-0.03991444,0.32007718,-0.46993187,-0.3599285,-0.1999386,0.09006124,-0.009939323,0.06005089,-0.21995611,-0.34996292,-0.4199562,-0.49994043,0.2800619,0.0100712525,-0.21992144,0.36007607,-0.26992252,-0.13992733,-0.31993285,-0.029936207,-0.24994266,-0.049914587,0.13016292,-0.33982575,0.22016272,-0.15983257,-0.34982455,0.41017523,0.010167642,0.44016138,0.080147006,0.34,-0.11,0.2,0.04,-0.01,0.25,-0.1,0.23,-0.38,-0.5,-0.17,0.16,-0.14,0.28,0.06,0.43,0.15,-0.21,0.45,-0.03,0.31,-0.36,0.37,0.47,-0.5,-0.32,0.36,-0.09,0.45,-0.07,0.08,-0.45,-0.16,0.07,-0.27,0.1,-0.42,0.47,0.29,-0.39,0.33,0.12,-0.44,-0.03,0.42,0.29,-0.23,-0.13,-0.34,-0.1,0,0.11,0.05,-0.04,0.26,0.2,0.01,0.22,0.03,-0.2,0.38,0.48,0.28,0.19,-0.08,-0.22,-0.18,0.28,0.05,0.45,0.35,0.17,0,0.34,0.14,-0.32,-0.42,-0.1,-0.46,-0.29,0.41,-0.01,-0.25,0.04,0.42,0.46,-0.01,0.37,0.31,0.03,-0.41,-0.15,-0.06,-0.02,-0.28,0.34,0.34,-0.13,-0.45,0.14,-0.04,-0.01,0.32,-0.3,0.05,0.32,-0.4,0.2,0.32,0.07,0.12,-0.39,0.18,-0.19,-0.11,-0.11,0.23,-0.27,0.26,-0.05,0.28,-0.05,0.47,-0.49,0.36,-0.01,-0.27,-0.49,0.12,0.3,-0.16,0.21,-0.16,-0.1,0.25,-0.09,0.17,-0.45,0.49,-0.41,0.35,0.29,-0.46,-0.27,0.41,0.47,0.17,-0.38,-0.41,0.33,-0.39,0.11,0.1,0.09,0.35,-0.49,0.02,0.3,-0.16,-0.45,0.09,-0.41,-0.42,-0.48,-0.27,0.41,0.26,-0.23,0.06,0.47,0.21,0.17,-0.27,0.16,0.09,0.49,-0.1,0.23,-0.4,0.39,0.32,-0.4,0.42,0.28,0.19,0.23,-0.4,0.25,0.05,0.23,0.39,0.36,0.2,0.43,0,0.26,0.2,-0.48,0.49,-0.5,-0.3,-0.11,0.05,-0.39,-0.39,-0.07,-0.13,0.43,0.49,0.35,0.1,0.28,0.2,-0.05,-0.28,-0.02,-0.34,-0.21,-0.17,0,0.3,-0.49,0.22,0.32,-0.42,0.35,0.47,-0.2,-0.34,0.33,-0.22,-0.13,0.24,-0.4,0.18,-0.07,0.05,0.31,0.16,-0.24,-0.15,-0.34,0.25,0.19,-0.38,-0.4,-0.34,-0.25,0.21,-0.49,0.1,-0.09,0.19,-0.01,-0.31,-0.32,0.17,0.22,-0.48,-0.24,-0.05,-0.43,0.27,-0.34,0.07,-0.27,-0.46,0.1,0.26,0.29,0.43,-0.16,0.12,-0.44,-0.36,0.13,-0.25,-0.48,0.2,0.47,0.19,0.21,0.08,-0.36,-0.28,0.37,0.18,-0.26,0.41,-0.01,0.25,0.32,0.28,-0.1,0.3,-0.22,-0.11,0.08,-0.38,0.39,-0.44,0.06,-0.02,0.41,-0.42,-0.25,0.28,0.12,-0.16,0.05,0.42,0.14,-0.48,-0.45,0.07,0.23,-0.02,0.12,0.44,0.19,0.05,0.29,0.18,-0.24,-0.47,-0.39,0.05,-0.28,-0.24,0.36,-0.26,0.17,0.4,0.3,0.41,-0.37,-0.27,0.17,-0.44,0.46,-0.41,-0.45,0.4,-0.15,0.07,-0.39,0.29,0.23,0.33,-0.44,0.29,0.27,0.14,-0.07,-0.16,-0.24,0.37,-0.28,0.38,0.47,0.19,0.05,-0.14,-0.02,-0.2,-0.25,0.24,-0.28,-0.36,-0.06,0,0.31,0.05,0.47,0.09,-0.01,0.39,-0.17,0.19,0.41,-0.19,0.32,-0.11,-0.3,-0.44,-0.03,-0.48,-0.03,-0.05,0.14,-0.24,-0.5,0.28,-0.41,-0.24,0.04,0.19,-0.08,-0.45,-0.19,-0.13,0.07,0.09,-0.11,0.05,0.48,-0.29,0.17,0.33,0.35,-0.13,0.03,0.02,0.46,0.15,0.37,-0.34,-0.34,-0.09,0.33,-0.27,-0.24,0.26,0,-0.33,-0.01,-0.48,-0.04,0.2,-0.45,0.3,-0.03,-0.22,-0.12,0.04,0.24,-0.27,-0.5,0.14,-0.42,-0.24,-0.15,0.13,0.1,-0.24,0.22,-0.02,0.32,-0.06,-0.11,-0.13,0.02,-0.5,-0.29,-0.43,-0.4,0.3,-0.41,-0.29,-0.45,0.46,0.24,0.46,0.28,-0.46,0.4,-0.25,-0.36,-0.08,0.4,0.14,-0.34,0.01,-0.17,0.07,0.38,0.13,-0.35,-0.27,-0.05,-0.49,-0.31,-0.48,-0.19,0.17,-0.23,-0.04,-0.44,-0.2,-0.07,0.43,-0.36,0.28,0.08,-0.38,0.01,-0.12,0.35,0.06,-0.14,-0.04,-0.16,-0.1,0.03,0.25,-0.29,-0.5,0.17,0.14,-0.31,-0.03,0.14,0.35,0.25,-0.46,0.26,0.22,0.14,-0.4,0.26,-0.06,-0.31,0.33,0.48,0.47,-0.01,-0.13,0.43,-0.29,-0.45,-0.01,0.27,0.09,0.36,0.49,0.17,0.29,-0.01,0.06,-0.04,-0.24,0.28,-0.09,-0.39,0.45,-0.21,-0.22,-0.47,0.04,-0.14,0.29,0.24,0.25,0.29,0.42,-0.23,0,-0.08,0.06,-0.25,0.34,-0.43,-0.04,0.09,0.19,0.2,-0.45,0.48,0.26,-0.14,0.46,-0.28,-0.42,0.13,-0.01,0.15,0.27,0.21,-0.48,0.18,-0.29,-0.17,-0.12,0.35,-0.25,0.25,-0.48,0.29,0.44,0.22,-0.34,-0.13,0.43,-0.2,0.12,-0.31,-0.18,0.32,-0.09,-0.25,-0.26,-0.21,-0.23,-0.33,-0.11,0.06,0.15,-0.39,-0.2,-0.24,0,0.28,-0.11,0.37,-0.46,0,0.18,0.11,-0.17,0.44,0.18,-0.25,-0.46,-0.47,-0.3,0.09,-0.21,0.27,-0.49,-0.2,-0.18,0.44,-0.2,0.27,-0.06,0.41,-0.44,-0.29,-0.05,0.18,-0.41,0.4,-0.01,0.17,-0.29,-0.13,0.47,-0.45,-0.24,-0.39,0,0.21,-0.02,-0.04,0.07,0.48,-0.25,-0.27,0.47,0.3,-0.24,0.37,-0.41,-0.5,0.44,0.05,-0.02,0.12,-0.07,-0.38,-0.06,-0.03,-0.35,0.15,0.35,0.27,0.25,-0.14,0.32,0.32,0.11,-0.26,0.01,0.4,0.29,0.11,-0.05,0.33,-0.31,-0.05,0.15,0.32,-0.27,0.15,-0.09,-0.29,0.31,-0.01,0.23,0.16,0.38,-0.15,0.11,-0.37,0.17,-0.47,0.06,0.33,0.11,0.3,-0.27,0.39,-0.09,-0.36,-0.32,-0.48,-0.14,-0.31,-0.3,-0.18,-0.41,0.15,-0.07,0.48,-0.04,0.11,-0.27,-0.01,-0.27],[0.12553795,0.44559342,-0.24438956,0.125769,-0.35419065,0.42569837,-0.24452439,0.12553473,-0.13434066,-0.28393707,0.24612108,-0.45372579,0.11616573,-0.29370612,-0.11377512,-0.28432465,0.25562185,-0.09441188,-0.41455865,-0.044708796,-0.114829026,0.33504492,0.11474749,-0.21550794,-0.1054044,0.054585688,-0.27561626,0.4142047,0.11448843,0.15485671,-0.444891,0.29517594,-0.44486204,0.09497303,0.47474518,0.33436075,0.45420033,-0.24579069,-0.2556093,-0.2955501,0.4144953,-0.115515985,0.48457006,0.45465076,-0.06543645,-0.23515813,-0.035093017,-0.07520748,-0.4751742,0.25479135,0.1947586,-0.30520517,-0.365137,-0.48523998,0.3247294,0.28,-0.17,0.47,-0.28,0.09,0.19,-0.17,-0.5,0.2,-0.34,0.45,0.48,-0.49,-0.27,0.04,-0.25,0,-0.35,0.37,0.04,-0.5,0.35,0.15,0.34,-0.37,-0.42,0.29,0.38,0.35,0.46,0.35,0.16,-0.47,0.26,-0.31,0.01,0.49,-0.47,0.16,0.01,0.09,-0.12,-0.22,0.3,-0.01,-0.22,-0.04,-0.3,-0.01,0.01,-0.31,-0.45,-0.24,-0.02,0.33,0.42,0.18,-0.38,-0.41,0,0.4,-0.05,-0.36,0.23,-0.2,-0.21,0.44,-0.26,-0.47,-0.47,-0.25,-0.03,-0.02,-0.15,0.45,0.12,0.06,0.34,-0.15,0.34,0.12,0.09,-0.12,-0.16,0.27,0.3,-0.11,0.05,0.43,-0.23,0.32,0.37,0.44,-0.34,0.11,-0.37,-0.27,0.05,-0.01,-0.31,-0.16,-0.29,-0.33,-0.04,-0.24,0.22,0.06,0.4,0.03,-0.29,-0.15,0.33,0.27,-0.25,0.37,-0.19,-0.44,0.3,0.45,0,0.39,-0.11,-0.19,0.26,-0.3,-0.12,0.02,-0.18,0.24,0.31,-0.11,-0.49,-0.16,-0.35,0,-0.09,-0.09,0.42,-0.42,-0.45,-0.26,-0.02,-0.48,0.22,0.41,0.48,-0.41,0.19,-0.21,-0.2,-0.43,-0.08,0.09,0.49,-0.21,0.44,0.39,-0.09,-0.24,0.37,-0.31,-0.26,-0.34,0.21,0.32,-0.16,-0.02,0.11,0.25,-0.05,0.39,-0.36,0.21,0.4,-0.24,-0.09,-0.13,0.09,0.34,-0.29,-0.22,0.33,-0.47,-0.06,0.23,0.46,-0.08,-0.15,0.35,0.05,0.02,-0.5,0.15,-0.3,0.36,-0.5,-0.18,-0.2,0.4,0.07,-0.01,-0.02,0.44,0.33,-0.09,0.43,0.21,0.18,0.23,0.38,0.07,-0.21,0.06,-0.46,0.09,-0.15,-0.3,0.21,0.48,0.35,0.41,-0.37,0.25,-0.31,0.43,0.38,-0.02,0,-0.46,-0.24,-0.42,-0.43,0.19,-0.23,0.21,0.3,0.39,-0.3,-0.48,0.3,-0.25,0.23,0.12,0.47,0.48,-0.28,-0.06,0.11,0.11,0,0.29,0.11,-0.18,-0.46,0.15,-0.14,0.22,0.24,0.39,0.03,-0.06,-0.3,0.14,-0.03,0.3,-0.01,0.1,-0.22,-0.17,0.29,-0.04,-0.5,0.18,-0.33,0.1,-0.32,0.01,0.28,-0.29,0.21,-0.07,0.37,0.39,0.04,-0.04,-0.03,0.25,0.15,0.12,-0.15,-0.43,-0.36,-0.2,-0.01,-0.15,-0.45,-0.41,-0.35,-0.34,-0.02,0.12,-0.34,-0.22,0.31,-0.47,0.28,0.42,-0.36,-0.07,-0.03,0.35,0.44,0.03,-0.33,-0.41,0.07,-0.2,-0.4,-0.5,-0.17,0.24,0.44,0.16,0.47,0.22,-0.19,0.19,-0.31,0.31,0.05,-0.41,-0.15,0.11,0.22,-0.41,-0.24,0.09,-0.43,0,0.18,0.04,0.1,-0.29,-0.36,-0.01,-0.37,0.11,-0.38,-0.11,0.28,0.24,0.48,-0.36,0.33,0.24,0.17,0,-0.2,-0.41,0.21,-0.42,0.23,-0.17,0.38,-0.12,-0.01,-0.18,0.31,-0.42,0.33,0.48,-0.28,0.09,-0.18,0.28,-0.37,0.23,0.01,-0.02,0.09,0.2,0.07,0.29,-0.47,0.3,-0.4,-0.29,0.28,0.47,-0.09,0.26,-0.22,0.48,0.28,0.09,0.31,-0.23,-0.17,0.26,-0.5,0.3,0.3,-0.47,0.06,0.29,0.02,-0.12,0.32,-0.46,0.1,0.44,0.49,0.32,0,-0.49,0.01,0.44,-0.2,-0.43,-0.23,-0.22,0.04,0.33,0.17,-0.44,0.19,-0.26,0.31,0.22,0.46,0.36,-0.1,0.24,-0.03,0.28,0.4,0.03,-0.28,-0.27,-0.22,0.21,-0.12,0.23,-0.13,-0.03,0.27,-0.04,-0.03,0.27,-0.42,0.37,0.46,-0.25,-0.02,0.22,-0.25,0.46,-0.14,0,-0.4,-0.22,0.07,-0.41,-0.42,0.23,0.04,-0.26,-0.16,0.21,-0.39,0.48,0.21,-0.43,0.29,0.06,0.39,0.3,-0.05,-0.3,-0.21,-0.28,0.26,-0.47,0.14,-0.41,0.4,-0.35,-0.24,0.25,0.02,0.43,-0.34,0.21,-0.37,-0.5,-0.37,-0.22,0.15,0.14,0.42,0.02,-0.38,0.25,0.15,-0.41,-0.35,0.39,-0.05,0.42,0.32,-0.05,0.01,-0.34,-0.3,0.37,0.01,0.03,-0.05,0.49,0.33,-0.11,0.48,0.08,-0.31,-0.32,0.31,-0.5,0.44,0.29,-0.08,0.1,-0.35,0.31,-0.23,0.27,-0.4,-0.5,-0.12,0.04,0.43,-0.5,0.19,-0.17,0.42,-0.43,-0.08,-0.5,0.01,-0.25,-0.02,0.1,0.33,0.16,0.3,0.03,0.03,0.03,0.06,-0.03,-0.23,-0.35,0.45,0.16,0,-0.29,-0.21,0.19,0.38,-0.07,0.27,0.01,-0.35,0.4,-0.45,0.33,0.19,0.14,0.15,-0.39,0.26,0.31,-0.02,0.18,-0.19,0.31,0.27,-0.01,-0.49,0.23,-0.27,0.06,-0.06,0.41,-0.23,0.27,-0.46,-0.47,0.33,0.21,0.28,0.22,-0.39,-0.43,-0.02,0.47,-0.05,0.42,0.1,0.47,0.33,0.38,0.38,-0.06,0.21,-0.04,0.16,-0.23,-0.15,0.18,-0.06,0.29,0.18,-0.36,-0.31,-0.29,-0.43,-0.26,0.13,-0.23,0.28,0.16,0.31,0.44,-0.17,-0.47,0.2,-0.1,-0.3,-0.16,-0.14,0.34,0.38,-0.47,0.4,-0.16,0.17,0.49,-0.31,0.3,-0.39,0.27,0.17,-0.35,-0.24,0.48,-0.46,0.46,0.38,-0.24,0.39,-0.3,-0.21,-0.17,-0.31,-0.34,-0.43,0.43,-0.39,0.18,0.25,-0.25,-0.44,-0.49,-0.19,0.09,0.41,0.14,-0.26,0.34,0.03,-0.43,-0.46,0.32,-0.34,-0.5,0.48,0.16,0.17,-0.15,0.48,0.23,0.02,0.43,-0.06,-0.35,0.05,0.05,0.34,0.23,-0.23,0.24,0.37,0.01,-0.45,0.35,0.21,0.16,0.33,0.16,-0.44,-0.1,0.22,-0.47,0.22,0.32,-0.34,-0.04,-0.33,-0.31,-0.33,-0.1,-0.25,0.26,0.19,-0.48,0.23,-0.38,0.06,-0.35],[-0.46014014,-0.1401524,0.28985074,0.009855355,0.06985825,0.2898483,-0.31015977,0.019844137,0.2698473,-0.20009017,-0.22006038,-0.18007255,0.31991723,-0.49005848,-0.22006029,0.06989184,-0.49009642,-0.0101220915,-0.3001532,0.11984348,0.48983824,-0.4201685,-0.12016335,0.14983048,0.049817752,0.35979018,-0.020208174,-0.39019462,0.30984744,-0.4801109,-0.3801166,0.07988398,-0.40011844,0.17988217,0.11984533,0.19981213,0.09981812,-0.2902002,-0.04020088,0.42979196,0.11979403,0.1397873,0.18978503,0.35978484,0.39978454,0.34978098,0.07978243,-0.260223,-0.020218715,-0.3802216,-0.5002145,-0.27021122,0.40979233,0.43979362,-0.34020242,0.46,0.47,-0.36,0.45,0.2,-0.19,-0.42,0.2,0.24,-0.32,0.2,-0.28,-0.37,-0.12,0.07,0.46,0.3,-0.47,-0.23,0.49,-0.16,-0.11,0.02,0.24,0.19,-0.22,-0.27,0.13,0.19,-0.48,0.38,0.17,-0.35,0.02,0.15,0.23,-0.05,-0.25,0.25,0.11,0.03,0.43,0.44,0.17,-0.3,0.13,-0.06,0.35,0.4,-0.35,-0.3,-0.3,0.14,0.45,0.31,0.07,-0.05,-0.1,-0.25,-0.08,-0.43,-0.05,-0.5,0.22,-0.2,-0.48,-0.44,0.11,0.23,0.34,0.01,0.04,-0.23,0.15,-0.04,-0.1,-0.06,0.34,0.04,-0.45,0.33,-0.13,0.22,0.04,0.32,0.17,-0.47,-0.3,0.21,-0.42,-0.23,-0.45,0.49,-0.17,0.03,-0.42,0.43,-0.28,-0.13,-0.33,0.06,0.33,-0.38,-0.44,0.14,0.15,0.43,0.48,-0.02,-0.1,-0.38,0.11,0.36,-0.3,0.08,0.2,0.23,-0.04,0.4,0.12,0.49,0.36,0.4,0.14,0.06,-0.05,0.05,0.43,-0.39,-0.12,-0.03,-0.29,-0.03,-0.14,-0.02,0.49,-0.26,0.15,0.4,-0.34,0.24,-0.46,0.21,-0.2,0.45,0.16,-0.31,0.29,0.24,0.33,-0.16,-0.04,-0.18,0.24,-0.33,0.2,0.43,-0.02,-0.01,-0.32,-0.4,0.49,0.36,-0.4,0.42,0.41,-0.37,-0.01,0.21,0.08,-0.05,-0.43,0.06,0.23,0.37,0.45,-0.35,0.09,0.18,0.4,-0.24,0.25,-0.31,-0.22,-0.47,-0.49,0.39,0.22,-0.31,0.28,-0.44,0.26,-0.34,0.21,-0.44,0.25,-0.32,0.1,-0.12,-0.46,0.02,0.19,-0.42,-0.35,-0.12,-0.24,0.4,0.08,0.36,-0.28,0.04,-0.17,0.29,0.08,0.41,-0.16,0.3,0.08,-0.44,0.41,-0.49,-0.09,-0.2,0.42,0.02,0.18,0.41,0.34,0.16,-0.38,0.27,0.04,-0.29,0.14,-0.12,0.06,0.16,-0.47,0.4,0.26,-0.39,-0.2,0.35,0.46,-0.27,0.23,0.47,0.07,0.3,0.21,0.45,0.09,0.03,-0.04,-0.48,-0.39,-0.11,-0.35,0.13,0.19,-0.15,-0.45,0.42,0.24,-0.05,0.49,-0.39,-0.36,-0.3,-0.16,0.17,0.26,0.18,-0.2,0.3,0.2,0.06,-0.17,0.18,0.28,0.21,-0.16,-0.46,0.44,-0.33,-0.33,-0.49,0.24,0.11,-0.23,-0.33,0.01,-0.11,-0.29,-0.09,-0.45,-0.12,-0.39,0.01,-0.26,0.11,0.32,-0.14,-0.05,-0.46,-0.32,0.41,-0.27,0.16,-0.18,0.04,-0.45,-0.03,0.35,0.47,-0.5,-0.49,0.47,0.06,-0.23,0.48,-0.14,0.03,0.43,-0.33,-0.34,-0.14,-0.03,0.38,0.24,-0.19,-0.06,0.31,-0.06,-0.34,0.39,0.48,0.09,0.4,0.48,-0.25,0.27,-0.42,-0.21,0.22,-0.38,-0.46,0.04,-0.27,-0.09,-0.46,-0.09,0.04,-0.27,-0.25,-0.25,-0.21,-0.08,-0.22,0.37,0.32,-0.06,-0.15,0.42,-0.5,-0.4,-0.27,-0.48,0.18,-0.42,-0.48,-0.08,-0.44,0.07,-0.48,-0.29,-0.22,-0.26,-0.29,-0.45,-0.38,0.31,-0.27,-0.03,0.19,0.4,0.39,0.08,-0.31,0.41,0.09,0.05,-0.2,-0.47,-0.34,0.31,-0.08,-0.35,-0.22,0.11,0.38,-0.49,0.36,-0.35,-0.11,0.12,-0.15,0.47,-0.29,-0.46,0.46,-0.45,-0.3,-0.27,0.24,-0.5,-0.3,0.37,-0.28,-0.4,-0.3,0.15,0.32,0.26,-0.02,-0.04,-0.39,-0.47,-0.1,-0.3,0.28,-0.38,0.45,0.09,-0.34,-0.4,0.45,-0.42,-0.42,-0.43,0.05,0.42,-0.14,-0.35,0.45,0.04,-0.15,-0.43,-0.22,-0.34,0.1,0.04,0.43,-0.32,-0.09,-0.28,-0.31,-0.41,0.16,0.42,0.01,-0.18,0.06,-0.5,-0.25,0.34,-0.41,0.1,-0.44,0.14,-0.46,-0.38,0.29,-0.35,0.04,-0.22,-0.21,0.17,0.31,0.44,-0.39,-0.47,0.24,-0.26,0.1,-0.26,-0.31,0.27,-0.32,0.43,0.41,0.35,-0.09,-0.35,0.06,-0.27,-0.15,-0.14,0.39,-0.39,-0.06,0.24,-0.49,0.14,-0.39,-0.03,0.24,0.28,0.13,-0.37,0.43,0.01,-0.22,0.22,0.31,-0.03,0.07,-0.18,-0.11,-0.49,0.14,-0.18,-0.08,-0.38,0.22,-0.31,0.21,0.14,0.08,-0.19,0.42,0.43,0.27,0.2,-0.01,-0.14,-0.48,-0.4,-0.37,-0.38,-0.01,-0.1,-0.37,-0.45,-0.5,-0.11,0.07,0.19,-0.17,-0.42,0.15,-0.47,0.46,0.38,-0.04,-0.39,-0.19,0.38,0.41,0.41,0.26,-0.4,-0.31,-0.19,-0.3,-0.5,0.24,0.07,-0.28,-0.05,-0.05,-0.03,-0.31,-0.23,0.02,-0.26,-0.31,-0.13,-0.38,-0.18,0.12,-0.49,-0.19,0,0.16,0.38,0.46,0.38,-0.26,-0.12,-0.45,-0.37,-0.32,-0.29,-0.15,-0.11,-0.29,0.32,0.34,0.49,0.15,0.49,-0.04,0.38,0.13,-0.32,0.34,0.18,-0.14,-0.29,0.42,0.44,0.26,0.08,-0.21,0.25,0.28,0.18,0.15,-0.18,-0.47,0.35,-0.17,0.34,-0.11,-0.19,-0.21,0.47,0.41,-0.37,-0.48,-0.13,0.03,-0.38,0.17,0.12,0.04,-0.07,0.37,-0.03,-0.46,-0.22,0.02,-0.48,-0.05,-0.4,-0.13,0.09,0.41,0.1,0.1,0.02,-0.34,0.02,0.46,0.29,0.16,0.12,-0.02,-0.19,0.39,0.36,0.27,-0.27,-0.31,0.05,-0.09,0.14,0.41,0.17,-0.3,-0.15,0.31,-0.33,-0.23,0.25,-0.18,-0.2,-0.12,-0.22,0.44,0.19,-0.44,-0.2,0.02,-0.01,-0.3,-0.5,-0.34,0.38,0.46,0.41,0.44,0.06,0.08,-0.33,0,-0.21,0.32,0.4,0.19,0.22,0.18,-0.27,-0.1,-0.26,0.21,0.48,-0.26,-0.3,-0.04,-0.15,-0.26,-0.31,-0.14,-0.31,0.29,-0.03,0.2,0.19,-0.16,-0.1,-0.02,-0.47,0.2,-0.22,-0.1,-0.25,0.08],[-0.40982103,-0.24980979,-0.4698164,-0.01981189,-0.029825268,0.0901346,-0.2898864,-0.48989296,0.3200621,0.39004287,-0.22998103,0.2800083,-0.2899983,0.25999716,0.44998243,-0.090030454,0.10995945,0.16995862,0.2499583,-0.31003907,-0.11003,-0.12002177,-0.4700246,0.08995665,-0.3700419,0.059962153,-0.21003418,-0.2600315,0.14998816,0.030004939,-0.37997675,0.34006253,-0.04991619,-0.10989954,-0.35993037,0.4499952,-0.07004277,0.36994857,0.269962,0.09997834,-0.35000542,-0.32001284,0.4599993,0.07002574,-0.079994164,0.410008,-0.38002253,0.12995914,0.019980727,0.10996426,-0.41001788,0.10999089,0.1500008,-0.43996844,-0.3099327,0.21,-0.28,-0.06,-0.16,0.41,-0.21,0.47,-0.14,-0.21,0.27,-0.07,-0.18,0.31,0.11,0.49,0.48,0.24,0.39,-0.35,-0.46,-0.3,-0.09,-0.05,-0.34,-0.29,-0.07,0.15,0.21,-0.47,-0.07,0,-0.32,-0.11,-0.3,-0.08,0.23,0.48,0.02,0.36,-0.2,-0.33,0.31,0.16,0.3,0.49,0.08,-0.19,-0.48,0.03,0.13,-0.16,0.21,0,-0.48,0.48,-0.2,0.26,-0.22,-0.38,-0.02,0.14,-0.25,-0.18,0.36,-0.24,-0.26,0.42,0.11,-0.32,-0.24,0.49,-0.28,-0.47,0.35,0.36,-0.11,0.24,0.15,-0.34,0.12,-0.39,0.13,-0.32,-0.11,-0.42,0.29,0.18,-0.13,-0.29,-0.38,0.46,0.2,-0.11,-0.13,0.15,0.42,-0.01,0.3,0.03,0.25,0.16,0.19,0.33,-0.23,0.13,-0.38,0.17,0.15,-0.35,0.09,0.06,-0.39,-0.39,-0.01,-0.14,-0.49,-0.44,0.43,0.27,-0.04,0.05,0.04,-0.1,-0.44,-0.21,-0.21,0.32,0.15,-0.31,0.43,0.4,0.43,-0.39,-0.09,0.46,-0.08,0.29,0.41,0.25,0.45,-0.39,-0.47,-0.29,0.11,0.06,0.35,0.09,0.39,-0.49,0.14,0.35,0.05,-0.47,-0.44,-0.31,-0.39,-0.21,0.27,0.47,-0.16,-0.2,-0.48,-0.05,-0.28,0.19,0.12,-0.5,0.19,0.03,0.44,-0.29,-0.35,-0.33,0.31,-0.15,0.01,-0.18,0.28,0,-0.06,0.19,0.43,0.14,0.05,-0.43,-0.16,0.39,-0.46,-0.28,0.35,-0.38,-0.48,0.43,-0.1,0.15,-0.41,0.08,0.49,0.42,0.43,0.34,0.39,-0.14,-0.43,-0.08,0.2,-0.12,-0.28,0.21,0.17,0.28,0.01,-0.24,0.03,0.15,-0.13,-0.12,0.4,-0.36,-0.15,0.23,0.46,-0.03,0.18,0.31,-0.31,-0.28,0.26,-0.35,-0.24,0.43,-0.17,0.36,0.07,0.09,0.3,0.06,0.06,-0.38,-0.13,0.45,0.17,-0.18,0.04,-0.44,0.11,0.25,-0.11,0.25,-0.22,0.21,0.17,0.34,0.06,-0.3,0.38,-0.08,0.17,-0.25,-0.27,-0.02,0.12,-0.44,-0.05,0.24,-0.05,0.14,0.19,0.44,0.34,0.3,0.31,0.27,0.27,-0.1,-0.45,0.13,0.42,0.11,-0.3,-0.07,0.32,-0.5,0.36,0.05,-0.25,-0.02,-0.21,-0.13,0.21,-0.12,0.38,-0.19,0.39,0.39,-0.18,0.1,0.37,0.3,0.11,0.46,-0.44,-0.05,0.41,-0.02,0.39,0.39,-0.43,-0.34,-0.36,-0.25,-0.01,-0.44,-0.46,0.3,0.16,0.12,-0.31,0.39,-0.02,0.46,-0.15,-0.18,-0.27,-0.04,0.41,0,0.38,0.38,-0.43,-0.05,0.25,-0.38,-0.5,-0.26,-0.14,-0.14,-0.42,-0.12,0.15,-0.14,-0.09,-0.37,-0.28,-0.05,0.39,0.32,-0.24,-0.41,-0.27,0.2,-0.1,0.47,-0.19,0.14,0.11,0.24,-0.28,-0.06,0.06,-0.11,-0.49,-0.31,-0.42,0.19,-0.01,-0.14,-0.45,0.3,-0.07,-0.21,0.03,0.31,-0.26,-0.38,0.05,-0.29,-0.41,0.27,0.07,-0.42,-0.27,0.29,0.15,-0.13,-0.46,0.27,0.31,-0.14,0.13,0.12,-0.36,0.13,0.31,-0.24,-0.15,-0.29,-0.45,0.03,0.45,0.02,0.27,-0.04,0.15,0.43,-0.34,0.09,0.23,-0.31,-0.42,-0.11,0.14,-0.05,0.37,-0.02,-0.35,-0.29,0.04,0.2,0.14,0.22,0.04,0.19,-0.34,0.3,-0.35,0.39,0.49,0.47,0.27,-0.17,-0.34,0.05,0.31,-0.46,-0.2,0.27,-0.37,0.21,-0.29,-0.05,-0.47,0.11,-0.23,-0.27,0.47,0.18,0.26,-0.17,-0.4,-0.37,0.17,-0.16,0.39,-0.27,0.47,-0.42,-0.21,0.34,0.28,-0.24,0.1,0.26,-0.08,0.25,-0.27,-0.42,0.13,0.33,-0.33,-0.12,-0.42,0.32,-0.01,-0.31,0.18,0.43,-0.08,0.43,0.32,-0.04,-0.37,0.16,0.36,0.13,0.16,0.32,0.16,0.08,-0.44,-0.28,-0.03,-0.22,0.43,0.44,0.34,-0.23,-0.31,0.02,-0.5,0.39,-0.45,0.42,-0.35,0.22,-0.45,0.35,0.34,0.19,0.04,-0.46,0.16,-0.14,-0.49,-0.18,-0.37,0.44,0.39,0.28,-0.42,-0.09,-0.09,-0.45,0.27,0.45,0.4,0.29,0.39,0.05,-0.16,-0.09,0.23,0.4,0.43,0.43,-0.1,-0.3,0,-0.36,0.08,0.3,0.47,0.46,-0.47,-0.49,0.06,-0.39,-0.24,0.11,0.3,0.4,-0.12,-0.1,-0.07,0.08,-0.03,0.49,-0.35,-0.3,0.32,-0.25,0.46,-0.22,-0.15,-0.38,-0.2,0.26,-0.07,-0.42,0.41,0.42,-0.07,0.24,-0.3,-0.22,-0.07,-0.05,-0.49,0.25,-0.12,0.28,0.02,-0.23,0.24,-0.07,-0.47,-0.17,-0.03,-0.16,-0.04,-0.09,-0.46,-0.21,-0.18,-0.18,0.34,0.19,0.11,0.4,0.2,0.3,0.18,-0.32,0.2,0.38,-0.03,0.13,-0.3,-0.36,-0.35,-0.48,0.48,-0.1,0.31,-0.47,0.23,0.18,0.03,0.41,-0.41,0.47,-0.21,-0.41,0.11,-0.01,0.37,-0.37,-0.08,0.37,-0.07,0.24,0.33,-0.4,-0.46,0.08,-0.41,-0.17,0.07,0.36,0.46,-0.11,-0.38,-0.18,-0.32,-0.06,-0.08,0.14,-0.03,-0.22,0.09,-0.35,-0.35,0.2,0.31,0.23,0.01,0.09,0.06,-0.3,-0.5,-0.17,-0.3,-0.17,0.21,-0.09,-0.31,0.37,-0.14,-0.27,0.44,-0.11,-0.39,0.17,0.45,0.2,0.35,0.46,0.4,-0.33,-0.44,-0.27,0.15,-0.36,-0.23,-0.23,0.08,-0.37,-0.21,-0.19,-0.43,0,0.26,-0.14,0.36,0.12,-0.32,0.29,0.1,0.26,-0.26,0.05,-0.22,-0.26,-0.16,-0.31,-0.46,-0.02,0.25,-0.4,0.37,0.04,0.18,-0.12,-0.37,0.26,0.17,-0.44,-0.45,-0.07,0.32,-0.44,0.08,-0.46,-0.34,-0.07,0.12,0.24,0.3,-0.18],[0.007161451,-0.45298883,-0.14295861,-0.36300096,0.41672796,0.0062715067,0.44611412,-0.09367955,0.2962399,-0.42309803,-0.2731834,-0.40330875,-0.13340713,-0.32370496,-0.07379474,0.015650196,0.30539846,-0.12429391,-0.2741092,-0.4043626,0.44535303,-0.38464114,0.22493841,-0.33545452,0.4243161,-0.32558262,0.46440664,-0.27544537,-0.42561167,0.39438197,0.06418229,-0.20589566,0.16438489,-0.08538924,0.084428966,0.30421397,-0.32593653,0.034213223,-0.045844488,0.113952026,0.30397403,-0.24586932,-0.25577727,0.46421897,-0.3059939,0.21373396,0.17349245,-0.11671018,0.10322385,0.12322573,0.11325624,-0.2667962,-0.006755856,0.19328721,-0.1466238,-0.11,-0.18,-0.32,-0.3,0.23,0.04,0.21,-0.17,0.4,0,0.42,-0.08,0.45,0.09,0.11,-0.16,-0.24,0.42,0.11,-0.21,0.19,0.36,0.26,0.47,-0.29,0,0.07,0.12,-0.05,-0.22,-0.18,0.29,0.47,-0.44,-0.31,-0.01,0.49,-0.16,0.22,-0.43,-0.41,0.43,-0.15,-0.04,-0.23,-0.21,0.23,0.3,-0.5,-0.22,-0.15,-0.18,0.39,-0.09,0.17,0.03,0.05,-0.29,0.48,-0.27,0.46,-0.41,0.37,0.11,-0.33,-0.37,-0.05,0.38,-0.11,-0.39,-0.15,0.42,-0.31,0.03,-0.31,0.26,0,-0.21,0.19,0.42,0.27,0.27,0.11,-0.34,0.43,-0.5,0.4,0.06,-0.12,0.16,0.44,0.27,-0.15,-0.01,-0.39,0.49,-0.45,0.24,-0.22,-0.36,0.33,0.34,-0.1,0.38,0.43,-0.08,-0.38,-0.15,-0.29,0.41,-0.48,-0.25,0.02,-0.44,-0.05,-0.31,-0.03,0.21,0.18,-0.33,-0.27,0.39,0,0.23,-0.33,0.07,0.07,0.2,-0.08,-0.31,0.21,0.26,-0.49,0.04,-0.42,0.43,-0.14,0.23,-0.27,0,0.37,0.04,-0.16,-0.04,0.13,0.18,-0.25,-0.22,-0.47,0.41,0.02,-0.17,-0.45,-0.39,0.41,0.44,-0.17,0.17,0.21,-0.15,0.35,-0.09,0.43,-0.48,-0.3,-0.24,-0.26,0.47,0.48,0.01,0.32,0.24,-0.03,-0.33,-0.21,0.18,0.05,-0.47,-0.41,-0.02,-0.19,-0.22,0.17,0,0.17,-0.13,0.2,0.39,0.13,-0.36,0.1,0.19,-0.49,0.37,0.15,-0.04,0.11,-0.18,-0.24,-0.13,-0.07,-0.22,-0.2,0.01,-0.41,0.27,0.36,0.38,0.31,-0.28,-0.11,-0.21,0.07,-0.28,-0.46,0.07,0.24,-0.08,-0.16,0.33,0.05,-0.16,-0.17,0.34,0.41,-0.38,0.23,0.1,0.02,0.33,-0.43,-0.27,0.27,0.22,-0.45,-0.47,0.48,-0.35,-0.09,0.4,0,0.32,-0.42,-0.09,0.25,-0.2,-0.38,0.29,0.33,-0.42,0.22,-0.32,0.47,-0.07,0.31,-0.42,0.44,-0.05,0.1,0.47,-0.46,-0.25,-0.15,0.48,-0.36,-0.35,0.02,0.35,-0.33,-0.49,0.08,0.08,-0.49,-0.06,-0.18,0.23,-0.24,0.42,-0.41,0.11,0.49,0.43,0.27,-0.07,-0.4,0.39,-0.25,-0.17,0.4,0.46,-0.42,0.02,0.05,-0.07,0.35,-0.25,-0.04,-0.41,-0.24,0.09,0.27,-0.23,0.11,0.31,-0.01,-0.37,-0.34,0.02,-0.39,-0.42,0.31,-0.48,-0.14,0.48,0.47,-0.4,-0.02,0.41,0.38,-0.25,0.4,-0.31,0.44,-0.3,0.43,-0.44,-0.47,0.07,0.09,-0.43,-0.24,-0.33,0.15,0,0.34,0.22,-0.19,0.45,0.44,0.46,0.22,0.22,-0.28,0.31,-0.36,-0.45,-0.35,0.07,-0.04,0.25,0.26,0.04,-0.29,-0.49,0.18,0.07,-0.18,-0.09,0.38,-0.08,-0.4,0.08,0.43,-0.47,0.32,0.14,-0.13,0.36,-0.37,-0.25,0.28,0.03,0.47,0.41,0.02,-0.33,0.46,-0.37,-0.45,0.37,0.41,-0.05,-0.39,0.33,-0.19,0.21,0.45,0.13,0.31,-0.24,-0.11,0.4,-0.44,0.02,0.36,-0.37,0.29,-0.32,0.49,0,0.17,-0.22,-0.07,-0.29,0.46,-0.28,0.07,-0.2,-0.01,0.01,0.11,-0.31,-0.14,-0.49,0.01,0.14,-0.03,-0.41,0.22,-0.4,0.18,0.23,-0.45,0.36,0.35,0.38,-0.03,-0.05,-0.46,-0.12,-0.12,0.28,-0.37,0.05,-0.31,0.12,-0.48,0.4,0.37,-0.42,-0.36,0.15,-0.36,-0.2,0.15,-0.3,0.04,-0.45,-0.5,-0.29,0.16,0.19,-0.05,0.39,0.31,0.43,-0.27,0.06,-0.14,-0.42,0.24,-0.38,-0.25,-0.4,-0.38,0.32,-0.45,0.3,0.31,0.38,0.12,0.07,-0.28,0.13,0.45,-0.48,0.09,0.25,-0.3,0.14,-0.17,-0.08,-0.06,0.33,0.22,0.19,-0.18,-0.26,0.23,-0.25,-0.11,-0.05,0.04,0.28,-0.16,-0.48,-0.1,-0.47,-0.33,0.32,-0.35,0.23,-0.27,-0.38,0.09,-0.41,-0.04,0.31,0.43,0.28,-0.16,-0.02,-0.15,0.21,0.25,-0.18,0.17,-0.08,-0.12,-0.08,0,0.3,-0.44,0.05,-0.01,-0.34,-0.48,-0.06,-0.21,0.42,0.12,0.06,0.07,-0.13,-0.02,0.1,-0.32,-0.19,-0.27,0.12,-0.27,0,-0.19,0.45,0.41,0.4,-0.41,0.32,-0.47,-0.49,-0.16,0.47,0.14,0.24,-0.18,-0.15,0.16,0.18,0.13,-0.07,-0.44,-0.49,0.01,-0.5,-0.35,0.27,0.41,0.47,-0.28,-0.36,-0.37,-0.15,-0.32,0.25,-0.31,-0.5,-0.01,-0.39,0.13,0.08,-0.44,-0.31,-0.09,-0.22,0.08,0.14,0.41,0.32,-0.45,-0.37,0.43,0,0.18,0.3,0.06,-0.29,0.48,-0.2,0.29,-0.37,0.49,-0.39,0.1,0.38,0.38,0.48,0.28,0.39,0.05,-0.19,0.35,0.05,-0.46,-0.46,-0.14,0.36,0.1,-0.27,-0.08,0,0.36,-0.42,0.42,-0.42,-0.29,0.12,0.17,-0.12,-0.31,0.47,-0.48,-0.31,-0.19,-0.01,0.08,0.44,0.09,0.03,-0.1,0.09,0.36,-0.49,-0.23,0.24,-0.22,-0.13,-0.04,0.13,-0.06,0.19,0.11,0.24,0.37,-0.22,-0.23,0.41,-0.31,0.01,0.16,-0.25,-0.19,-0.1,0.2,0.07,-0.21,0.16,-0.27,0.04,-0.04,-0.09,-0.23,-0.44,0.33,0.33,0.14,0.34,0.31,-0.33,0.3,0.34,-0.34,-0.47,0.44,-0.01,-0.15,-0.23,-0.19,-0.47,-0.28,0.17,0.25,-0.42,0.36,-0.36,-0.23,-0.05,-0.19,0.19,-0.06,0.11,-0.37,0.42,-0.33,-0.48,-0.08,0.04,0.41,-0.47,0.13,-0.07,-0.41,-0.49,0.2,0.31,-0.42,-0.22,-0.05,-0.3,-0.29,-0.48,-0.16,-0.3,-0.18,0.29,0.16,-0.32,-0.3,0.18,0.06],[-0.31015176,0.01984018,-0.38015375,0.22984298,-0.31014782,0.19988075,-0.26010415,0.35989863,0.41992328,-0.43006983,0.29993707,-0.14006414,-0.22006235,-0.110059716,0.28995532,0.06996982,0.2299779,-0.13002455,-0.4500227,-0.44001848,0.48998162,-0.5000295,-0.39001513,-0.03000225,-0.08000279,-0.24000432,0.4299955,0.08999655,-0.13001992,-0.1400334,-0.2700468,-0.16007444,-0.28008965,-0.03009802,-0.0600872,0.39994073,0.4699602,-0.22003128,0.009960233,-0.39004046,0.32995293,-0.090043865,0.029947365,-0.3800597,-0.100056894,0.15994804,-0.4400316,0.29997241,0.029957209,-0.29003602,0.42996675,0.3099697,-0.35004047,0.11994697,0.059932876,-0.32,-0.1,0.14,-0.19,0.42,0.27,0.14,-0.02,0.05,0.34,-0.05,-0.37,0.3,0.45,0.38,0.09,-0.06,0.36,0.43,-0.28,0.07,-0.04,0.49,-0.44,0.26,-0.3,-0.38,-0.44,-0.35,-0.08,-0.08,-0.31,0.1,0.41,-0.25,-0.01,-0.17,0.47,0.09,-0.17,-0.31,0.43,0.47,-0.23,0.45,0.02,-0.24,0.35,0.14,0.12,-0.02,0.45,-0.29,-0.1,0.49,0.22,-0.09,0.07,0.04,0.21,0.14,0.07,-0.18,-0.38,-0.08,-0.24,0.03,0.39,0.19,-0.12,-0.24,-0.04,-0.24,0.1,-0.47,0.14,-0.02,0.21,-0.39,-0.27,0.44,-0.23,-0.08,0.03,0.44,-0.03,0.48,-0.3,0.41,0.03,-0.42,0.25,-0.08,0.37,0.19,0.11,0.11,0.34,0.35,0.19,0.48,-0.14,-0.34,-0.24,-0.14,-0.48,0.18,0.11,-0.13,-0.15,-0.27,0.19,-0.05,-0.2,0.27,-0.13,-0.35,0.28,-0.32,0.45,-0.23,-0.17,0.47,-0.35,-0.21,0,-0.47,-0.11,0.4,-0.09,-0.48,0.13,0.35,-0.08,-0.25,0.07,-0.4,-0.35,-0.33,0.41,0.28,-0.13,0.33,0.06,-0.2,-0.12,-0.21,-0.38,-0.4,-0.19,-0.05,0.32,0.15,0.4,-0.09,0.14,-0.11,-0.5,0.46,0.35,0.48,-0.21,0.2,0.45,-0.18,0.09,0.34,-0.47,-0.45,-0.3,-0.24,-0.5,0.11,-0.23,-0.34,0.39,0,-0.1,0.35,0.41,-0.3,0.41,-0.22,0.09,0.45,-0.3,0.47,0.45,-0.5,0.1,-0.32,-0.41,-0.32,-0.19,0.43,-0.01,0.17,0.37,-0.26,0.2,0.04,-0.24,-0.44,0.4,-0.46,-0.05,-0.3,-0.12,0.24,0.02,-0.37,0.48,-0.35,-0.45,0.15,-0.44,-0.5,-0.39,0.49,-0.39,0.11,0.39,-0.48,-0.06,-0.49,-0.33,0.31,-0.21,-0.17,0.17,-0.28,0.13,-0.35,-0.36,-0.14,0.43,0.35,-0.12,0.04,0,0.49,0.09,-0.29,-0.02,-0.04,-0.31,0.44,-0.37,0.16,0.36,-0.02,0.06,0.38,-0.37,-0.41,0.15,-0.26,0.12,0.38,0.37,0.14,0.41,-0.46,-0.44,-0.2,0,0.32,-0.5,0.18,0.21,-0.29,0.11,0.07,-0.02,-0.39,-0.48,0.17,0.03,0.47,0.32,-0.28,0.17,0.13,-0.03,-0.32,0.16,0.25,-0.48,-0.45,0.21,0.19,-0.28,0,0.16,0.36,-0.42,0.04,-0.36,-0.32,0.46,-0.14,0.44,-0.06,0.44,0.14,0.37,0.48,-0.11,-0.49,-0.44,0.47,0.2,0.14,-0.44,0.14,0.46,-0.23,0.07,0.38,0.14,0.25,0.3,0.44,0.47,-0.48,0.48,-0.4,0.4,0.12,-0.47,-0.02,0.03,-0.15,-0.49,-0.05,-0.22,-0.28,0.18,0.33,-0.19,0.17,-0.14,-0.5,0.49,0.23,0.48,0.08,-0.06,-0.48,0.4,0.31,0.46,-0.25,0.04,-0.3,0.06,0.49,-0.03,0.42,0.15,0.26,-0.42,0.26,0.48,0.08,-0.07,-0.15,0.13,0.11,-0.14,0.23,0.08,0.24,0.07,0.47,-0.11,0.29,0.45,-0.27,-0.47,-0.1,0.16,0.38,0.22,-0.29,0.01,-0.23,0.3,0.3,0.38,-0.22,0.25,0.26,-0.33,0.04,0.08,0.09,-0.48,-0.09,-0.2,0.12,0.44,0.33,0.15,-0.34,-0.28,-0.28,0.18,0.07,0.31,0.27,-0.46,-0.26,0.38,-0.26,-0.4,-0.3,-0.46,0.26,-0.44,-0.35,0.04,0.32,0.22,-0.43,0.48,0.32,0.06,-0.48,-0.12,0.29,0.26,0.03,0.43,-0.1,-0.05,0.32,-0.28,0.05,0.49,-0.22,0.09,-0.27,0.48,-0.39,-0.26,0,0.37,0.42,-0.06,-0.12,0.05,-0.25,-0.16,-0.36,-0.43,-0.38,-0.4,0.08,-0.32,-0.1,0.16,0.15,-0.32,-0.49,-0.5,0,-0.19,-0.02,0.29,-0.23,0.48,-0.02,0.27,0.27,0.06,-0.19,0.34,0.11,0.33,-0.03,0.44,0.13,0.08,-0.5,-0.26,0,-0.31,0.28,-0.18,-0.17,0.21,0.13,-0.13,0.09,0.12,0.43,-0.46,0.47,-0.4,0.23,-0.31,-0.11,-0.37,-0.34,-0.11,-0.44,-0.02,0.06,0.07,0.26,-0.23,-0.01,0.25,0.2,-0.05,-0.48,-0.44,-0.32,0.26,-0.01,-0.19,0.02,-0.35,-0.05,0.05,-0.16,-0.39,-0.33,-0.35,0.12,-0.23,0.36,0,-0.4,-0.22,0.05,-0.01,-0.08,0.1,-0.32,-0.48,0.13,-0.29,0.06,-0.45,-0.28,0.38,0.16,-0.37,0.1,0.37,0.36,-0.3,0.11,-0.09,0.17,-0.26,0.18,0.11,-0.45,0.44,-0.2,-0.1,0.45,-0.02,-0.09,0.49,0.15,-0.08,0.4,0.02,0.14,0.07,0.07,-0.03,0.18,-0.2,0.08,-0.11,-0.17,-0.04,-0.06,-0.46,0.05,0.25,-0.09,0.15,0.39,0.18,0.1,-0.19,0.31,0.3,0.05,-0.27,0.21,-0.28,-0.25,-0.43,0.14,-0.28,-0.28,-0.26,-0.27,-0.43,-0.28,-0.22,0.13,-0.36,0.23,-0.14,0.15,-0.22,-0.22,0.09,0,-0.24,0.35,-0.3,-0.43,0.25,-0.4,0.47,0.31,0.09,0.21,0.33,-0.48,-0.16,0.25,-0.05,-0.45,0.01,0.25,-0.4,-0.27,-0.31,0.3,-0.02,0.02,-0.38,-0.48,0.24,0.44,-0.26,0.15,0.02,0.02,0.46,0.23,-0.06,-0.14,-0.45,0.49,0.38,-0.38,-0.25,-0.08,0.14,-0.15,-0.11,-0.24,-0.22,-0.12,-0.22,-0.19,-0.37,0.03,-0.32,-0.15,-0.2,-0.05,-0.13,0.17,0.45,0.22,-0.15,-0.48,0.07,0.43,-0.31,-0.2,-0.44,0.11,-0.19,-0.41,0.49,0.01,0.36,0.47,0.47,0.27,-0.34,-0.38,-0.37,0.35,0.23,-0.14,0.16,0.42,0.01,0.48,-0.16,0.1,-0.08,0.48,0.49,-0.12,-0.46,-0.34,0.27,-0.27,0.34,0.21,-0.34,-0.42,-0.3,0.17,-0.44,-0.32,-0.18,0.12,0.17,-0.3,-0.13,0.03,-0.21,-0.26],[0.023601085,-0.4268247,0.4639371,0.46381408,-0.16561711,0.13648118,-0.10295751,-0.31258777,0.4489861,-0.06101843,-0.33091912,-0.19108877,-0.4210119,0.08932321,-0.03931677,0.19169661,-0.31755814,0.23244481,0.41268635,-0.057023816,0.45269006,-0.4673312,0.1427218,-0.44619197,-0.21622641,-0.03624667,0.09386436,0.38436905,-0.19682181,-0.36823267,-0.2790009,0.37963548,0.17906798,0.22917496,0.3202805,0.43216798,-0.33644107,0.27402392,0.36353013,-0.31691143,-0.20757383,0.45274648,-0.38802212,0.23151253,-0.017950889,0.23228626,-0.41635635,0.20387802,-0.3573469,0.45327657,-0.50650716,0.11378353,0.09313403,0.3323138,-0.2287992,-0.01,-0.07,0.42,0.18,0.38,-0.45,0.01,0.38,0.31,-0.28,-0.22,0.13,-0.15,0.27,0.02,0.03,-0.09,0.37,0.23,-0.35,0.49,0.42,0.4,0.06,0.05,-0.12,0.38,0.24,-0.15,-0.37,0.1,-0.21,0.34,-0.05,-0.16,0.01,-0.26,-0.41,0.48,-0.36,0.28,-0.42,-0.2,0.02,-0.3,-0.39,0.23,0.44,0.13,-0.07,0.09,0.25,0.36,0.19,-0.22,0.07,0.03,-0.15,-0.37,-0.01,-0.34,0.27,0.03,0.18,0.11,0.49,0.28,0.39,-0.07,-0.49,-0.22,-0.19,0.38,0.09,-0.14,0.41,0.11,-0.13,-0.14,-0.06,0.14,0.44,-0.4,0.41,0.04,0.34,-0.08,-0.35,-0.34,0.26,0.48,0.38,0.46,-0.01,0.47,-0.5,0.05,0.12,0.4,-0.3,-0.18,0.33,0.01,0.12,-0.35,-0.22,0.37,-0.23,-0.18,-0.13,0.45,-0.35,0.49,0.19,0.34,-0.29,0.16,0.11,-0.36,0.27,0.07,0.12,0.23,0.16,-0.47,-0.1,-0.16,-0.11,0.11,-0.14,-0.14,0.49,-0.03,-0.35,-0.39,0.3,-0.07,-0.02,0.26,-0.25,0.47,-0.35,0.33,0.29,0.3,0.32,0.39,-0.23,0.14,0.26,-0.17,0.43,-0.03,-0.37,0.13,0.2,-0.4,0.34,0.09,0.25,0.43,-0.03,0.15,0.45,-0.5,0.45,0.18,0.33,0.08,-0.46,0.28,-0.32,0.35,0.38,0.29,-0.09,0.28,0.43,0.35,-0.3,0,-0.43,0.24,0.35,-0.48,-0.07,0.02,-0.17,0.02,-0.09,0.2,0.08,0.39,-0.49,-0.18,-0.01,-0.01,0.37,0.28,0.34,-0.36,-0.45,0.18,0.1,0.48,-0.35,-0.42,0.09,-0.17,-0.29,0.41,-0.33,0.48,-0.12,-0.26,0.35,0.23,0.3,0.43,0.07,-0.07,-0.16,-0.2,-0.34,-0.16,-0.31,-0.22,0.33,0.06,-0.2,0.42,0.4,-0.35,-0.5,-0.45,-0.05,-0.12,-0.36,0.36,0.36,-0.15,0.42,0.49,-0.19,-0.01,0.02,0.1,0,0.27,-0.04,0.26,0.19,0.44,-0.29,-0.09,0.3,0.24,0.01,-0.24,0.29,0.37,-0.26,-0.48,-0.47,-0.21,-0.5,-0.48,0.48,-0.17,0.28,-0.03,0.08,0.43,-0.44,-0.28,0.01,-0.15,0.49,0.17,0.31,0.09,0.28,-0.44,-0.41,0.03,-0.28,0.46,0.43,0.09,-0.25,0.2,0.36,0.38,-0.43,0.49,-0.4,0.39,0.45,-0.48,-0.02,0,0.11,-0.33,0.48,0.49,-0.32,0.25,0.37,0.48,0.39,-0.06,0.25,0.34,-0.06,-0.31,-0.41,-0.33,0.43,-0.01,-0.44,-0.46,-0.42,-0.12,-0.42,-0.42,0.1,0.19,0.35,-0.43,-0.39,0.11,-0.11,0.47,-0.32,-0.2,0.47,0.1,-0.42,-0.4,-0.15,-0.04,-0.42,0.45,0.19,0.3,0.45,-0.48,-0.07,0.38,0.4,0.42,0.46,-0.05,0.45,-0.06,-0.08,-0.27,-0.42,0.4,-0.12,-0.02,0.4,0.3,0.36,-0.22,-0.45,0.27,0.16,-0.36,-0.28,-0.02,-0.41,0.32,-0.36,0.09,0.45,-0.37,0.18,-0.23,-0.38,0.08,-0.25,0.47,-0.33,-0.31,0.14,0.43,-0.48,0.23,0.38,0.23,0.02,-0.33,0.22,0.36,0.06,-0.22,-0.42,-0.09,0.24,-0.33,-0.15,-0.21,0.15,-0.08,0.32,-0.36,-0.19,-0.14,-0.01,-0.21,0.04,0.31,0.27,0.29,-0.27,0.42,0.13,0.17,0.13,-0.38,0.25,0.42,-0.25,-0.02,0.46,0.41,-0.41,-0.23,-0.48,0.17,-0.46,-0.23,0.02,0.45,-0.28,0.46,-0.18,0.25,-0.14,0,0.12,0.15,-0.26,0.09,-0.31,0.2,-0.1,0.42,0.13,0.13,0.14,-0.1,0.27,0.12,-0.08,-0.07,-0.47,-0.34,-0.05,0.4,-0.46,-0.47,-0.17,0.31,-0.26,-0.23,-0.22,0.32,0.07,-0.24,0.1,0.38,-0.19,-0.37,-0.01,-0.41,0.17,0.16,-0.21,-0.25,0.01,-0.33,0.14,-0.12,-0.48,0.14,0,0.39,0.02,0.28,0.42,-0.35,-0.21,-0.05,-0.05,0.08,-0.18,-0.07,-0.15,0.41,-0.08,0.08,-0.16,-0.14,-0.47,0.26,-0.41,0.13,-0.38,-0.18,0.26,-0.14,0.36,-0.3,-0.11,0.37,-0.12,0.44,0.29,0.09,0.26,-0.12,-0.21,0.28,-0.16,-0.06,0.09,0.35,0.18,0.41,0.26,-0.26,-0.19,-0.12,0.32,0.42,0.32,-0.23,-0.15,-0.25,0.05,0.37,0.26,-0.31,-0.48,0.05,-0.22,-0.42,-0.44,0.07,-0.31,-0.12,0.13,0.25,-0.36,-0.47,-0.21,0.06,-0.48,0.08,-0.33,-0.27,0.44,-0.29,0.05,0.01,-0.45,-0.02,-0.13,-0.03,-0.45,-0.39,0.08,0.03,-0.46,0.39,0.11,-0.41,0.25,0.28,-0.34,0,0.29,-0.39,0.21,-0.12,0.1,0.06,-0.27,0.29,0.13,-0.24,-0.25,0.27,-0.42,-0.19,0.42,0.05,0.13,0.01,0,0.3,0.2,0.09,0.02,-0.42,0.29,-0.4,0.2,-0.25,-0.08,-0.31,0.3,-0.26,-0.08,0.16,-0.07,0.33,0,-0.33,0.4,-0.02,-0.25,0.08,0.33,0.29,0.35,0.31,-0.06,0.22,0.47,-0.44,-0.04,-0.26,-0.23,-0.14,0.3,-0.3,0.08,0.12,0.09,0,0.35,0.48,-0.13,-0.07,-0.05,-0.5,-0.16,-0.09,0.38,-0.42,-0.46,-0.04,0.1,-0.49,0.04,-0.39,0.25,0.23,-0.28,0.47,0.15,0.48,-0.23,-0.15,0.23,0.05,0.46,-0.44,0.36,-0.27,-0.26,0.38,0.08,-0.1,0.12,-0.23,-0.29,-0.11,-0.17,0.35,-0.04,-0.48,0.34,0.38,-0.48,0.49,0.14,-0.25,0.31,0.18,-0.05,0.35,-0.11,0.11,0.34,0.37,0.2,-0.49,0.2,0.4,-0.46,-0.22,0.05,0.15,0.33,-0.34,0.38,-0.31,-0.11,-0.24,0.39,-0.15,-0.11,-0.13,0,0.12,-0.37,-0.11,-0.17,0.23,0.41,0.2,-0.26,-0.33,0.27,-0.11],[0.00078518235,0.48174113,0.08101384,0.2714098,0.09016812,-0.28359807,0.19441304,-0.056057278,0.31064314,-0.310309,-0.02116382,-0.30098894,-0.4511811,0.35838172,-0.38362315,-0.055560265,0.3633914,0.043806087,0.29349577,-0.40699175,-0.046628583,-0.4866333,-0.39710748,-0.28892872,0.24117675,-0.188744,0.18128508,0.47087353,0.49321514,-0.16470416,-0.46288073,-0.10923603,0.3825097,-0.04658702,0.1819251,0.41831073,0.1357068,0.13456021,0.19557449,0.19573532,0.16657558,0.4661546,0.06734745,-0.17162715,-0.34200722,0.44746873,-0.15518822,-0.025669178,0.12631308,-0.034588136,0.34509745,0.20476684,-0.113905415,0.18772824,0.4396159,-0.03,0.35,-0.15,-0.5,-0.24,0.01,0.21,-0.06,-0.03,-0.36,-0.41,-0.18,0.1,-0.32,-0.31,0.31,-0.28,0.34,-0.41,-0.07,-0.01,-0.06,0.28,-0.45,0.29,0.46,-0.3,-0.15,0.03,-0.01,-0.17,0.49,-0.31,0,-0.3,-0.45,-0.23,0.12,-0.07,-0.33,0.44,0.02,-0.41,-0.33,-0.44,0.12,0.24,-0.21,-0.08,0.14,0.11,0.35,-0.22,-0.26,-0.06,-0.48,-0.43,-0.21,-0.29,-0.21,-0.19,-0.14,0.41,0.48,0.31,-0.41,-0.38,-0.41,0.48,-0.37,0.04,0.09,-0.09,0.41,-0.02,0.46,-0.15,0.1,0.48,-0.33,-0.28,0.41,0.42,0.38,0.37,-0.02,0.21,0.44,-0.45,-0.32,0.48,0.48,-0.09,-0.36,0.36,0.08,0.11,-0.39,-0.14,0.47,-0.01,0.14,-0.2,-0.22,-0.4,-0.49,-0.07,-0.14,0.26,-0.03,0.16,-0.04,-0.2,-0.47,-0.44,-0.11,-0.07,-0.48,-0.4,-0.18,-0.12,-0.32,-0.46,0.3,-0.35,0.06,-0.33,-0.24,-0.45,0.4,-0.15,-0.26,-0.26,-0.49,0.18,0.08,0.1,0.14,0.28,0.36,-0.46,-0.16,-0.32,0.07,0.01,0.02,0.17,-0.12,-0.43,-0.04,-0.36,0.09,-0.49,-0.46,0.09,-0.2,0.1,0,-0.38,0.04,0.33,-0.33,-0.19,0.36,-0.38,-0.08,-0.28,-0.21,-0.15,-0.02,0.28,0.29,-0.27,-0.27,-0.22,-0.47,-0.5,-0.04,-0.22,0.13,0.38,0.29,-0.31,0.09,0.25,0.26,-0.28,-0.3,-0.08,-0.13,0.48,-0.4,0.01,-0.26,-0.48,0.37,-0.47,-0.18,-0.05,-0.42,-0.21,-0.13,-0.47,0.09,0.17,-0.15,-0.15,0.27,0.25,0.05,-0.2,-0.37,-0.29,-0.01,0.15,-0.46,0.47,0.21,-0.4,-0.14,-0.31,-0.49,0.37,0.47,0,0.18,-0.23,0.48,-0.3,-0.1,-0.5,0.18,-0.49,-0.3,-0.17,0.01,0.26,0.09,0.41,-0.1,-0.1,-0.05,-0.06,0.36,-0.43,0.34,0.38,-0.48,0.09,0.48,0.39,-0.19,-0.29,-0.42,0.38,-0.23,0,-0.45,-0.41,0.48,-0.42,-0.13,0.06,-0.15,0.05,0.12,-0.38,-0.49,-0.35,-0.36,-0.23,-0.12,0.3,0.2,0.45,0.24,0.07,-0.49,0.4,0.15,0.3,-0.25,-0.11,-0.28,0.01,0.19,-0.04,0.42,-0.18,-0.45,-0.5,0.2,0,0.42,-0.18,-0.47,0.38,-0.41,-0.19,-0.05,0.22,0.37,0.36,-0.05,0.2,0.01,0,0.01,-0.37,-0.37,0.2,-0.01,-0.35,-0.07,-0.32,0.32,0.47,-0.16,0.34,0.35,-0.35,-0.3,0.19,-0.41,-0.37,0.07,0.37,0.37,-0.12,0.42,0.35,-0.02,0.19,-0.05,0.43,0.43,-0.12,0.43,0.01,0.49,-0.32,0.45,0.29,-0.32,-0.15,0.01,0.04,-0.43,0.24,-0.01,-0.45,0.04,-0.26,-0.05,-0.21,0.02,-0.32,0.26,-0.18,-0.38,0.13,0.12,-0.38,-0.29,-0.22,-0.29,0.29,0.2,0,-0.25,-0.06,-0.46,0.33,0.34,0.17,-0.31,-0.09,0,0.24,0.11,-0.47,0.3,-0.37,0.39,0.36,-0.19,-0.27,-0.26,-0.35,-0.09,0.25,0.12,0.11,-0.12,-0.15,0.05,0.32,0.07,0.39,-0.36,0.21,0.33,0.07,-0.01,-0.45,-0.49,0.21,-0.1,0.27,-0.41,-0.4,0.17,-0.48,0.2,-0.41,0.33,-0.01,-0.27,-0.16,0.46,0.47,0.05,0.04,-0.42,0,0.31,-0.08,-0.06,-0.02,-0.38,-0.14,0.33,0.1,0.1,0.39,-0.31,-0.27,0.14,0.34,0.35,0.1,0.33,-0.04,-0.45,-0.2,-0.43,0.1,0.41,-0.21,0.02,-0.45,0.09,-0.27,0.43,-0.34,-0.34,-0.22,-0.02,0.49,-0.27,0.09,-0.24,0.42,0.15,0.22,-0.23,-0.44,-0.09,0.3,0.39,0.1,0.34,-0.11,-0.01,-0.14,-0.36,-0.42,-0.01,0.28,-0.08,-0.29,0,-0.35,0.46,-0.44,0.27,0.09,0.17,-0.07,0.23,0.4,0.24,0.15,0.1,-0.24,-0.17,0.41,0.3,-0.18,-0.48,-0.49,-0.32,-0.39,-0.11,0.42,-0.29,-0.3,0.24,0.06,-0.49,-0.43,0.29,0.2,0.06,-0.49,-0.42,-0.39,0.45,0.09,0.45,0.18,-0.12,0.48,-0.43,0.49,0.35,-0.31,0.28,-0.28,-0.47,-0.27,-0.22,-0.34,0.25,-0.1,-0.47,-0.11,0.26,-0.47,0.35,0.07,0.34,-0.39,-0.09,0.15,-0.39,-0.46,-0.42,0.08,-0.32,-0.29,0.45,-0.29,-0.13,-0.16,0.12,-0.3,-0.47,-0.1,-0.43,-0.49,-0.09,0.01,0.02,0.28,0.29,0.13,0.45,-0.34,0.48,0.18,-0.16,0.42,0.24,-0.12,0.33,-0.23,0.06,-0.09,0.37,0.3,-0.4,-0.3,-0.46,0.31,-0.23,-0.44,0.29,-0.09,0.28,0.33,-0.15,-0.14,0.46,0.33,-0.34,-0.17,0.08,0.13,0.36,-0.03,-0.41,0.42,0.09,-0.01,0.36,-0.47,-0.03,0.48,0,-0.15,0.13,0.12,0.02,-0.24,0.4,-0.3,-0.04,0.2,0,0.23,0.34,0.03,-0.13,-0.35,-0.18,0.48,0.45,0.4,-0.28,0,0.18,0.43,0.05,-0.11,0.21,-0.32,0.1,0.05,0.44,-0.26,0.08,0.3,0.4,-0.08,-0.31,0.23,0.34,0.2,0.42,0.45,0.36,0.38,-0.38,-0.38,0.13,0.05,0.04,-0.06,-0.33,0.38,-0.43,0.06,0.26,-0.5,0.17,0.2,-0.43,-0.38,0.04,0.22,0.1,0.41,0.25,-0.24,-0.36,-0.47,0.13,0.45,0.46,0.08,-0.36,-0.25,0.48,-0.24,0.13,0.29,0.3,-0.08,0.26,-0.34,0.13,-0.34,-0.13,-0.44,-0.33,-0.48,-0.47,0.39,0.24,-0.02,0.16,0.22,-0.35,-0.31,-0.16,0.45,-0.38,0.36,0.48,0.1,0.41,0.09,-0.02,0.08,0.23,0.31,0.08,0,-0.13,0.37,0.39,0.14,-0.14,-0.12,-0.42,-0.06,0.04,0.19],[-0.4199961,-0.3799961,-0.49999565,0.23000753,-0.29998878,-0.029980328,0.4200287,-0.07997162,-0.40996888,0.28003863,0.4100436,0.18004477,0.1700475,0.44004208,-0.06995557,-0.3399566,-0.2599591,-0.45996124,0.18005042,0.28005117,-0.17994982,-0.14995179,-0.069957994,0.03004834,0.020046735,0.3600489,0.08004803,-0.48995155,-0.13995749,0.27003542,-0.38997257,0.40002197,-0.08997433,-0.069977604,0.27002478,0.3600337,0.090033285,-0.31997043,-0.11997155,-0.49997658,0.15001854,-0.18997136,0.22002979,0.29003552,0.08003282,0.1900199,-0.29998177,0.4500156,-0.29998684,-0.30998257,-0.36997795,-0.45997652,0.2600232,0.25002483,-0.13997535,0.22,0.18,-0.03,-0.3,-0.17,0.39,0.41,-0.44,-0.19,0.17,-0.49,-0.23,-0.26,-0.34,0.07,0.06,-0.45,0.16,0.17,-0.38,-0.49,0.13,0.14,0.45,0.33,0.16,0.13,0.3,-0.34,0.13,-0.43,-0.36,0.15,-0.44,-0.46,-0.33,-0.38,0.47,-0.46,-0.39,0.24,-0.26,-0.1,-0.38,0.06,-0.08,0.45,0.28,0.13,0.13,-0.43,-0.13,-0.42,0.12,-0.16,-0.41,-0.46,0.01,-0.13,0.17,-0.25,-0.4,0.4,0.18,0.1,0.37,0.11,-0.33,-0.39,-0.1,-0.07,-0.43,0.12,0.06,-0.12,0.27,-0.28,0.01,-0.12,-0.09,0.2,0.34,-0.33,0.02,0.05,0.19,-0.45,-0.47,0.22,0.45,-0.37,0.1,0.1,-0.13,0.35,0.13,-0.16,0.22,0.01,0.19,0.3,0.28,0.17,-0.27,-0.31,-0.5,0.25,0.01,-0.26,0.07,0.36,0.02,-0.37,0.46,0.46,-0.09,0.43,-0.13,-0.38,0.4,0.31,0.08,-0.05,-0.34,-0.24,0.32,-0.03,-0.26,0.21,0.24,-0.08,0,0.49,0.18,0.1,0.42,-0.33,0.43,-0.18,0.05,0.44,0.03,0.28,-0.35,-0.42,0.1,-0.03,0.14,-0.1,-0.07,0.19,0.46,0.1,0.11,0.37,-0.28,-0.18,0,0.46,-0.14,0.02,0,0.3,-0.01,-0.36,-0.14,0.03,-0.06,-0.14,-0.47,-0.26,-0.5,-0.45,0.06,0.46,-0.22,0.29,-0.2,-0.43,0.16,-0.15,0.33,0.34,-0.22,-0.46,-0.04,0.4,-0.12,0.3,-0.13,0.09,0.16,0.47,0.45,-0.47,-0.07,0.23,-0.22,-0.5,0.22,-0.43,-0.48,-0.23,-0.13,-0.32,0.19,0.4,-0.46,0.14,0.09,-0.07,-0.48,-0.08,-0.21,-0.49,0.19,0.16,0.02,-0.05,0.18,-0.04,-0.36,0.13,0.49,-0.07,0.08,-0.48,-0.41,0.02,0.03,0.04,0,-0.21,-0.15,0.09,-0.17,0.05,-0.04,-0.41,-0.16,0.05,0.36,0.24,-0.29,0.43,0.06,-0.27,0.18,0.44,-0.16,0.27,-0.29,0.33,-0.18,-0.25,0.42,-0.12,-0.22,0.43,0.1,0.17,0.31,0.01,-0.39,-0.45,0.43,0.23,-0.43,0.2,0.17,-0.37,-0.31,-0.07,-0.4,-0.38,0.1,-0.1,-0.08,-0.45,0.36,-0.16,-0.16,-0.35,-0.32,0.25,-0.17,0.16,0.47,-0.41,0.16,0.45,-0.23,0.03,-0.02,0.17,0.24,-0.16,0.12,-0.34,0.49,0.33,-0.34,0.48,-0.23,-0.29,0.07,0.27,0.22,-0.31,0.15,0.02,0.45,-0.28,-0.44,-0.24,-0.18,0.15,-0.18,-0.15,0.21,-0.23,0.25,0.47,-0.47,0.21,0.35,0.15,0.45,-0.07,-0.12,-0.25,0.27,-0.24,-0.44,-0.47,-0.32,-0.14,0.38,0.47,-0.32,0.05,0.43,0.28,-0.06,-0.37,0.49,-0.46,-0.04,-0.29,-0.16,-0.42,-0.48,-0.23,-0.06,0.22,-0.42,-0.31,0.44,0.05,-0.15,0.42,0.32,-0.21,0.3,-0.1,0.25,0.19,-0.34,-0.47,-0.42,0.46,0.27,-0.16,-0.33,-0.35,-0.17,0.46,0.02,0.39,0.21,0.31,-0.32,0.23,-0.41,-0.21,-0.28,-0.01,0.31,-0.17,0.44,0.49,-0.09,-0.18,0.12,-0.24,0.22,0.14,0.48,-0.47,-0.12,-0.2,0.38,-0.07,-0.37,-0.13,-0.19,0.17,-0.4,-0.21,-0.11,-0.39,0.16,-0.45,0.33,0.03,0.23,-0.41,-0.3,0,-0.33,-0.24,0.37,0.32,-0.42,-0.41,0.04,-0.06,0.22,0.41,-0.08,0.19,0.48,-0.01,0,-0.09,0.42,0.25,0.09,0.21,0.48,0.04,-0.12,0.02,0.44,0.33,-0.18,-0.14,-0.01,-0.42,0.02,0.13,-0.07,-0.03,0.36,-0.38,-0.07,-0.45,-0.15,-0.46,0.33,0.36,0.45,-0.31,0.36,0.19,-0.38,-0.33,0.04,-0.08,0.11,0.48,0,-0.01,0.02,0.12,0.37,-0.15,0.37,-0.25,0.26,-0.32,0.45,0.13,-0.12,0.29,-0.25,0.01,0.12,-0.12,0.47,0.37,-0.1,0.04,0.37,-0.39,0.09,-0.31,0.15,-0.26,0.2,-0.35,0.32,-0.44,-0.03,0.04,-0.38,0.44,0.45,-0.27,-0.25,-0.43,-0.33,-0.41,-0.22,0.15,0.41,-0.19,0.31,-0.43,-0.06,0.11,0.04,-0.35,-0.06,0.23,0.07,0.45,0.11,-0.1,-0.47,0.17,0.19,0.12,0.05,0.1,-0.15,0.38,-0.34,0.33,0.16,-0.2,0.05,-0.11,-0.37,0.4,0.19,-0.2,-0.24,-0.28,-0.3,-0.23,-0.12,0.08,0.3,-0.42,0.11,0.16,0.12,0.23,0.46,-0.33,-0.17,0.05,-0.3,0.07,-0.13,0.04,0.04,0.17,-0.21,-0.47,-0.35,0.47,-0.1,-0.37,-0.45,-0.36,-0.48,0.04,-0.46,-0.23,0.19,-0.12,-0.31,0.25,-0.21,-0.39,0.32,-0.04,0.49,0.19,-0.24,-0.08,0.36,-0.01,0.47,-0.5,-0.31,0.05,0.02,-0.36,0.26,0.08,0.43,-0.33,-0.38,-0.09,-0.32,0.16,-0.48,-0.04,0.13,-0.42,0.18,0.19,-0.03,0.44,-0.15,-0.05,-0.22,-0.24,0.22,-0.43,0.18,0.09,0.26,0.22,-0.4,0.4,-0.34,-0.46,0.45,-0.03,-0.49,0.4,0.01,-0.39,-0.05,-0.48,0.12,0.38,0.43,-0.34,-0.07,0.03,-0.44,-0.32,0.24,-0.33,-0.48,-0.48,0.15,0.24,-0.23,-0.24,-0.09,0.18,0.39,-0.17,-0.1,-0.1,-0.2,-0.23,-0.01,0.47,0,-0.34,-0.44,0.28,-0.32,-0.15,-0.01,-0.17,0.32,-0.1,-0.18,0.06,0.14,-0.35,0.03,0.08,0.48,0.43,0.38,-0.37,-0.11,-0.29,-0.3,0.25,-0.02,0.32,-0.28,-0.39,0.11,-0.28,0.07,0.16,0.16,-0.05,-0.48,0.39,-0.39,0.45,0.48,0.16,0.03,-0.19,0.41,0.36,0.43,0.35,-0.47,0.24,0.3,0.31,-0.09,-0.14,-0.11,-0.14,0.08,-0.22,0.46,-0.2,-0.21,-0.15,-0.37,-0.13,0.21,0.1],[0.327559,0.16789842,0.40766963,-0.3121714,-0.3726016,0.13605319,-0.034670264,-0.47483918,0.4540602,-0.28626072,0.10340851,-0.416552,-0.1966343,-0.1667687,0.3225566,0.13181978,0.29146284,-0.02840049,-0.1884616,0.2913421,0.31131592,-0.29867166,-0.22883664,-0.19949308,0.37054992,0.24064225,0.43065846,0.31058756,0.16139507,0.1320099,0.032613922,-0.34604713,0.094677195,-0.18494086,-0.46542042,-0.23666087,0.45239353,0.3520241,0.122390635,-0.33752987,-0.15720099,-0.11737547,-0.08695268,-0.32659835,0.2531932,-0.0070080026,0.48200887,0.12181387,-0.027490946,0.16221958,0.06204786,0.15190539,-0.43763074,0.42294317,0.2936211,0.11,-0.11,0.09,-0.2,-0.12,0.2,0.15,-0.14,-0.18,0.18,-0.06,-0.02,0.49,-0.21,0.06,0.18,0.43,0.35,-0.36,-0.05,-0.08,0.29,-0.41,0.04,-0.13,0.25,-0.2,-0.16,-0.5,-0.44,0.37,-0.41,0.17,0.02,-0.09,0.36,-0.15,0.04,-0.27,-0.05,0.19,-0.48,-0.41,-0.01,-0.19,-0.49,0.49,-0.18,0.4,0.47,0.12,0.3,0.41,-0.04,-0.14,0.32,-0.2,-0.45,0.43,0.12,-0.11,-0.19,-0.15,-0.25,0.3,-0.15,0.3,-0.04,0.38,0.2,-0.18,-0.12,0.11,0.19,0.25,-0.11,0.19,0.09,-0.27,-0.14,0.26,0.47,-0.07,-0.48,-0.07,-0.43,-0.33,-0.3,-0.35,0.09,0.05,-0.21,0.11,0.11,-0.45,-0.12,0.17,0.33,0.18,0.46,-0.3,0.02,-0.06,-0.3,0.15,-0.26,-0.32,-0.28,0.2,0.47,-0.38,0.2,0.32,0.06,0.35,-0.08,0.37,-0.17,0.32,0.23,-0.33,0.09,-0.19,-0.21,-0.36,-0.48,0.26,-0.5,0.13,-0.13,0.22,0.36,0.41,-0.24,-0.35,-0.26,0.03,-0.28,-0.13,-0.31,0.38,0.45,0,-0.32,-0.04,0.35,-0.03,-0.46,0.26,0.13,0,-0.17,-0.49,0.45,0.29,0.11,-0.3,-0.35,-0.44,0.12,-0.03,-0.32,0.08,-0.17,-0.26,-0.24,0.29,0.05,-0.09,0.1,0.38,0.15,0.45,0.12,0.34,-0.29,-0.41,-0.37,0.32,-0.21,0.05,0.21,-0.27,0.49,0.37,-0.12,0.34,0.46,-0.03,0.04,-0.46,-0.13,-0.34,0.24,0.21,0.2,-0.14,-0.33,0.43,-0.31,-0.44,0.41,0.13,-0.35,0.24,0.35,-0.12,-0.11,-0.4,0.07,0.01,-0.43,-0.18,0.26,-0.44,0.25,0.44,0.09,-0.05,0.36,-0.08,0.32,-0.42,0.37,0.06,0.01,-0.02,-0.29,0.4,-0.36,0.34,0.42,-0.3,0.12,-0.28,0.14,-0.42,-0.43,-0.26,-0.48,-0.5,-0.05,0.36,0.39,-0.48,0.47,-0.45,-0.11,0.18,0.46,0.25,0.27,0.21,-0.43,0.27,-0.27,0.33,0.25,0.09,-0.27,-0.14,-0.33,-0.02,0.45,0.23,0.08,0.36,0.19,0.04,-0.08,0.16,0.36,-0.16,-0.07,0.35,0.46,0.46,-0.32,0.34,0.09,-0.05,-0.42,0.02,0.44,-0.11,-0.44,-0.29,-0.38,0.34,0.49,0.31,-0.18,-0.02,-0.49,0.15,0.33,0.47,0.4,-0.34,-0.07,-0.4,-0.15,0.35,-0.25,-0.21,0.38,-0.07,-0.22,-0.29,0.3,-0.24,0.14,0.4,-0.5,0.27,-0.22,0.14,0.03,0.05,0.16,-0.13,0.24,0.34,0.04,0.1,-0.16,-0.12,-0.18,0.27,-0.48,0.49,-0.45,-0.48,-0.1,-0.02,-0.4,-0.28,-0.24,0.15,0,0.12,0.42,0.41,-0.46,0.22,-0.34,-0.09,-0.03,-0.27,-0.13,-0.32,-0.07,-0.16,-0.01,-0.44,-0.14,0,-0.2,0.15,0.45,-0.01,-0.4,0,-0.31,0.31,-0.3,0.11,0,0.01,0.17,-0.45,-0.13,0.37,-0.45,-0.47,-0.06,0.32,0.3,0.32,-0.06,0.42,0.4,-0.41,-0.1,0.33,0.05,0.21,0.03,-0.16,-0.38,0.1,0.42,0.11,0.19,-0.5,0.02,-0.09,0.22,-0.28,0.01,0.04,0.41,0.46,0.06,-0.19,0.31,0.05,-0.21,-0.05,0.11,0.03,0.19,-0.02,-0.29,-0.47,0.09,-0.49,-0.4,-0.15,-0.25,-0.01,-0.42,-0.35,-0.12,-0.43,-0.37,0.25,-0.32,-0.46,0.01,-0.48,-0.4,0.08,-0.2,0.39,-0.5,0.44,0.03,-0.42,-0.48,0.49,-0.09,-0.42,0.23,0.09,0.4,-0.07,-0.1,0.16,-0.09,0.01,-0.19,-0.14,0.46,-0.48,-0.04,0.26,0.07,-0.02,-0.33,-0.45,-0.13,-0.25,0.43,0.08,-0.08,-0.39,-0.32,-0.19,-0.48,0.15,-0.03,-0.49,-0.17,-0.24,-0.42,-0.5,-0.08,0.29,-0.34,0.2,-0.15,0.01,0.12,-0.5,0.21,0.24,0.11,-0.22,-0.08,-0.26,-0.14,-0.46,0.4,0.46,0.11,-0.34,-0.36,-0.36,-0.33,0.29,-0.25,-0.42,0.14,0.26,-0.47,-0.2,-0.47,0.2,0.43,-0.05,-0.17,0.28,-0.18,-0.03,0.2,0.36,0.12,0.43,0.37,0.17,-0.01,0.4,0.39,0.28,-0.22,-0.07,-0.4,-0.14,0.14,0.42,0.36,-0.23,0.11,-0.14,-0.06,-0.24,0.37,0.36,0.46,-0.1,0.21,0.41,-0.16,0.47,0.4,0.07,0.22,-0.07,-0.24,0.24,0.03,-0.29,-0.23,-0.01,-0.21,-0.15,-0.31,0.35,-0.03,0.1,-0.31,0.16,-0.45,-0.49,0.09,-0.44,-0.33,0.45,-0.48,-0.07,0.49,0.25,0.46,-0.04,0.46,0.08,0.05,0.41,0.38,0.21,0.21,0.17,-0.4,0.39,-0.12,0.15,0.49,-0.38,-0.43,-0.41,-0.44,-0.49,-0.11,-0.14,-0.29,-0.45,0.35,-0.18,-0.13,0.33,-0.1,0.26,-0.1,0.32,0.25,0.28,-0.26,0.31,0.02,0.21,0.29,-0.23,0.47,0.26,0.39,0.02,0.05,-0.35,0.12,0.44,-0.44,-0.46,0.38,0.43,-0.13,0.47,-0.15,0.1,-0.25,0.41,0.22,-0.28,0.04,-0.46,-0.2,0.44,-0.23,-0.23,-0.36,0.1,-0.1,-0.32,0.09,-0.15,-0.2,0.28,-0.46,0.13,-0.04,0.18,-0.01,0.19,0.2,-0.07,0.27,-0.15,0.38,-0.04,-0.05,0.27,-0.08,0.14,0.06,0.11,0.48,0.06,0.23,0.42,-0.05,0.45,-0.25,-0.22,-0.49,-0.48,0.04,0.38,-0.05,0.02,0.13,0.08,0.43,0.22,-0.37,0.06,-0.08,-0.47,0.02,-0.4,-0.23,0.44,-0.44,0.3,0.32,-0.14,-0.32,0.25,0.12,0.48,-0.14,0.23,-0.45,-0.39,-0.33,0.01,-0.07,-0.29,0.18,0.17,0.39,0.39,0.4,-0.15,0.33,0.36,0.34,0.19,0.01,0.49,-0.32,0.45,-0.46,0.12,0.15,0,0.38,-0.06,-0.05,0.14],[0.3245682,0.274538,-0.24551925,-0.045621734,-0.3557138,0.3856055,0.026342707,0.30623922,0.03670623,0.106542125,-0.37385762,-0.2940429,-0.16407026,0.33605498,-0.29343516,-0.12269189,-0.47240648,0.19800723,0.45826575,0.45851842,0.018651688,-0.021327024,-0.2610561,0.1193395,0.28926602,-0.09079818,0.18927838,-0.08097486,-0.041381266,0.15802751,0.11732564,0.4760728,0.24523391,-0.47576138,0.3244485,-0.40482968,0.12559058,-0.06439453,-0.31455833,0.43513137,-0.17548601,-0.47507423,-0.35510746,0.38524312,0.3557448,0.46595705,0.09639275,-0.3141275,-0.10541564,-0.2352844,-0.03511973,-0.3350871,-0.025384914,-0.015284989,-0.38561735,-0.15,0.04,0.13,0.17,0.24,-0.31,-0.39,-0.15,0.37,0.49,-0.36,-0.05,-0.19,-0.5,-0.39,0.25,0.09,0.01,-0.48,0.13,-0.01,-0.17,-0.15,0.26,0.32,0.31,0,-0.49,-0.32,-0.31,-0.06,0,-0.24,0.41,-0.02,0.06,0.49,0.27,-0.05,0.24,-0.29,0.17,-0.23,0.4,0.21,0.01,-0.22,-0.32,-0.21,0.02,0.37,0.16,-0.05,0.36,0.13,-0.49,-0.32,0.37,0.34,0.43,0.19,-0.41,-0.34,0.17,0.04,0.14,-0.31,-0.1,0.02,0.04,0.25,0.32,-0.44,-0.23,-0.09,0.31,-0.45,-0.06,-0.46,-0.2,0.02,-0.19,0.21,0.16,-0.18,0.28,-0.46,-0.1,-0.23,-0.04,-0.13,-0.39,0.42,0.01,-0.46,-0.38,0.01,0.09,-0.14,-0.44,-0.18,0.38,0.16,0.25,0.26,-0.46,0.09,-0.33,-0.05,0.31,0.46,0.24,0.33,0.03,-0.09,-0.13,-0.12,-0.01,-0.15,0.25,0.1,0.28,-0.38,-0.45,-0.34,0.14,0.4,0.04,-0.27,-0.21,-0.21,-0.04,-0.42,0.47,0.48,0.13,0.15,0.45,0.4,-0.23,-0.32,0.36,0.45,-0.04,0,0.13,-0.22,-0.12,-0.4,0.16,0.23,-0.49,-0.26,0.1,-0.04,0.03,0.26,0.1,0.08,-0.38,-0.36,-0.45,0.44,-0.34,0.01,0,0.15,0.35,0.05,0.27,0.22,-0.08,0.09,-0.42,0.07,0.23,0.33,0.16,0.05,0.03,-0.15,0.01,-0.06,0.06,0.05,-0.22,-0.28,-0.02,0,-0.06,0.37,-0.45,-0.14,0.27,-0.38,-0.37,0.41,0.29,0.44,-0.5,0.47,-0.07,0.33,-0.18,0.44,-0.19,-0.09,-0.35,-0.47,0.23,0.2,-0.41,-0.45,-0.45,0.27,0.13,0.11,-0.12,0.1,-0.27,-0.23,-0.33,-0.16,-0.39,0.4,0.16,-0.45,0.32,0.45,-0.06,0.31,-0.46,0.22,0.04,0.05,0.42,0.18,-0.39,0.11,-0.26,0.36,-0.44,-0.06,0.27,0.24,0.27,0.49,-0.19,-0.5,-0.01,0.02,0.03,-0.32,0.2,0.22,0.3,-0.42,0.21,-0.08,-0.23,-0.25,0.09,-0.31,0.09,0.41,0.15,-0.13,0,0,0.34,0.44,-0.01,0.27,-0.14,-0.13,-0.29,0.22,0.07,-0.14,-0.38,0.17,0.24,0.31,-0.04,0.41,-0.22,0.35,-0.49,0.32,0.25,0.33,0.46,0.19,-0.17,0.48,-0.24,0.36,0.35,0.35,-0.42,-0.1,-0.01,0.3,-0.35,0.05,-0.48,0.26,0.32,-0.17,0.01,-0.43,0.01,-0.15,-0.21,0.1,0.01,0.27,0.23,0.17,0.13,0.29,-0.15,0.18,0.25,-0.49,0.47,0.29,-0.07,-0.13,-0.4,-0.16,0.37,0.21,-0.23,0.22,-0.33,0.43,0.16,0.41,0.39,0.02,-0.47,0.18,-0.19,0.18,-0.19,0.11,-0.1,0.22,-0.03,-0.02,-0.38,-0.32,-0.29,-0.22,-0.46,0.31,-0.45,-0.36,0.07,-0.28,-0.18,-0.06,-0.28,-0.34,-0.31,0.29,-0.43,0.06,-0.07,0.07,-0.39,0.32,0.28,-0.39,0.26,0.17,-0.14,-0.43,0.19,-0.14,-0.11,0.21,0.39,0.11,-0.29,0.19,0,0.49,0.18,-0.14,0.37,0.01,-0.17,0.16,-0.3,0.08,-0.04,-0.36,-0.02,0.01,0.03,0.33,-0.21,0.4,-0.14,-0.2,-0.11,-0.4,0.02,-0.13,-0.06,0.48,-0.06,-0.3,0.33,0.1,0.05,0.1,0.44,0,-0.21,-0.42,0.38,-0.44,0.19,0.09,-0.02,-0.39,0.41,-0.33,-0.3,-0.28,0.08,-0.33,0.32,0.05,-0.08,0.49,-0.26,0.41,-0.21,-0.1,-0.04,-0.2,0.42,0.39,-0.43,-0.38,0.32,0.09,-0.47,0.35,-0.3,0.48,-0.28,-0.05,0.45,-0.28,-0.3,0.27,0.31,-0.22,-0.32,-0.15,-0.34,-0.28,-0.11,-0.24,-0.12,-0.22,-0.32,0.06,-0.15,-0.47,-0.3,0.39,0.12,0.07,-0.36,0.3,0.02,-0.14,-0.21,-0.18,-0.36,-0.15,-0.49,0.1,0.45,-0.13,0.1,-0.31,0.28,-0.03,-0.4,-0.49,-0.29,-0.39,-0.36,0.19,-0.01,0.31,0.24,0.04,-0.1,-0.03,0,-0.33,0.27,-0.17,0.33,-0.13,-0.43,-0.1,-0.26,-0.05,0.48,0.36,-0.29,0.31,-0.3,0.29,-0.2,-0.49,0.17,0.49,0.28,0.37,0.43,-0.31,0.17,0,-0.07,-0.06,-0.2,0.2,0.11,0.24,0.41,0.16,0.35,0.34,0.33,0.12,0.03,-0.28,-0.39,-0.13,-0.27,0.14,-0.48,-0.15,0.4,-0.18,-0.01,0.2,0,0.23,0.36,-0.09,0.18,0.12,-0.26,0.07,0.15,-0.18,0.43,0.13,-0.4,0.04,0.33,-0.26,0.44,0.04,0.46,-0.14,0.45,0.18,-0.03,-0.05,0.37,-0.1,0.14,-0.22,-0.33,-0.18,0.1,-0.4,0.45,0.1,-0.3,0.37,0.38,0,0.47,-0.28,0.1,-0.25,0.46,-0.29,-0.22,-0.02,-0.24,0.19,0.3,0.28,-0.1,-0.15,-0.14,-0.37,0.24,0.31,-0.24,-0.09,0.03,-0.22,0.47,0.45,-0.1,-0.17,0.21,0.32,0.18,0,-0.17,0.46,-0.15,-0.06,0.06,0.23,0.25,0.19,0.22,-0.24,-0.34,-0.11,-0.37,0.45,-0.03,-0.12,0.41,-0.26,0.24,0.31,0.35,-0.12,0.11,-0.03,0.46,0.19,-0.25,0.14,0.35,0.12,-0.01,-0.05,0.3,0.26,-0.15,0.34,-0.08,0.46,0.29,0.13,-0.13,-0.46,-0.41,0.49,-0.26,-0.37,-0.36,-0.48,-0.02,-0.49,-0.08,-0.04,-0.42,0.36,0.14,0.44,-0.16,0.38,-0.03,0.36,-0.02,-0.39,0.34,-0.41,0.26,0.2,0.09,-0.13,0.1,0.12,0.46,0.45,-0.06,-0.39,-0.06,0.3,-0.21,0.11,-0.28,0.32,0.05,-0.27,-0.35,0.33,-0.3,-0.48,-0.13,0.43,-0.38,-0.1,0,0.03,-0.02,0.43,-0.36,-0.25,-0.3,0.49,-0.28,0.03,0.04,0.26,-0.09,0.35],[-0.45109043,-0.031286832,-0.49146914,0.4584172,-0.09169822,0.32799962,0.14793763,0.21795288,0.1578151,0.13809453,-0.2019406,-0.25196648,0.4580995,-0.5019117,0.37793282,0.2377886,-0.17223147,0.14792039,-0.26198298,-0.31195998,-0.38194418,-0.082003646,-0.042161133,0.007576061,0.45746294,-0.32248044,0.09752775,-0.21254414,-0.11257393,0.18747038,-0.22262876,0.2774239,0.30753237,-0.21239755,0.2675878,0.22749801,-0.50252414,-0.10247805,0.0074922065,-0.22252953,0.2475493,0.2673524,0.36727834,0.32725236,0.12722771,0.387306,-0.2126197,-0.31242767,-0.3922792,-0.022286268,-0.30230552,0.37765792,0.017705826,-0.28223386,0.2277362,0.12,-0.5,0,0.49,-0.28,-0.27,-0.14,-0.17,0.47,-0.14,0.01,-0.06,0.16,-0.27,-0.35,0.23,0.42,-0.37,0.46,-0.06,-0.16,0.05,0.12,0.38,-0.43,0.39,-0.1,-0.32,0.4,-0.01,-0.11,-0.24,0.08,0.06,-0.36,0.22,-0.01,-0.1,-0.22,-0.45,-0.11,-0.06,0.39,-0.03,-0.39,-0.05,0.13,0.46,0.45,0.24,-0.23,0.24,0.05,0.28,-0.12,-0.43,-0.13,0.12,0.42,-0.17,0.32,-0.33,-0.08,-0.02,0.46,-0.26,0.35,-0.41,-0.42,-0.08,-0.26,0.02,0.35,0.41,-0.45,0.4,0.15,-0.35,0.26,0.12,-0.24,-0.06,-0.28,-0.34,-0.29,0.15,0.2,0.3,-0.32,-0.43,-0.16,0.37,-0.02,0.45,-0.28,-0.29,-0.49,-0.09,0,0.36,0.09,0.03,0.37,0.02,0,0.25,0.39,0.14,0.22,-0.03,-0.09,-0.28,0.35,-0.21,-0.43,-0.12,0.45,-0.24,-0.24,-0.19,0.04,-0.46,0.4,-0.5,-0.43,-0.14,-0.47,0.39,0.18,0.33,0.39,-0.26,0.15,0.4,-0.48,0.22,0.06,0.19,0.15,-0.04,0.25,-0.44,-0.43,0.2,0.16,-0.38,-0.49,-0.32,0.37,0.34,-0.24,0.25,-0.35,-0.32,-0.18,0.04,0.12,0.37,-0.05,-0.37,0.21,0.49,0.45,0.38,0.08,-0.33,0.06,0.45,-0.23,-0.15,0.31,-0.25,0.1,0.29,0.05,-0.03,0.47,-0.31,-0.17,0.44,-0.16,0.35,-0.48,0.34,0.07,-0.37,-0.42,-0.04,0.08,-0.02,-0.41,0.18,-0.26,0.02,0.25,0.25,-0.4,-0.32,-0.38,-0.01,0.05,-0.44,0.41,0.02,-0.48,-0.5,-0.36,-0.14,0.13,0.34,0.07,-0.08,0.03,0,0.29,0.35,0.47,-0.4,-0.19,-0.06,-0.42,-0.4,-0.13,0.29,-0.25,-0.38,-0.5,-0.42,-0.47,0.3,-0.13,0.28,-0.43,0.34,-0.12,-0.22,0.44,-0.01,0.32,0.06,0.49,0.22,0.33,0.23,0.4,0.16,-0.35,0.24,0.22,0.39,0.28,0.49,0.37,0.17,-0.1,-0.05,0.19,-0.38,-0.24,0.39,-0.5,-0.44,-0.18,0.32,-0.04,0.29,-0.15,0.19,-0.39,0.01,0.41,-0.02,-0.22,0.24,-0.05,-0.14,-0.23,0.13,0.38,0.09,0.47,-0.24,-0.15,-0.36,-0.48,-0.13,0.4,-0.1,-0.07,0.43,0.08,0.32,-0.28,0.42,0.06,0.43,-0.11,-0.5,-0.24,-0.4,-0.19,-0.05,0.12,-0.29,0.47,-0.21,0.21,-0.37,-0.29,-0.46,-0.33,-0.45,-0.27,0.17,0.42,0.23,0.2,-0.33,0.3,-0.42,0.39,0.45,-0.25,-0.33,0.42,-0.41,-0.25,-0.15,-0.33,0.02,0.46,-0.23,-0.14,0.27,-0.22,0.01,0.13,-0.37,-0.34,0.22,0.16,0.27,-0.32,-0.11,0.25,0.02,0.08,0.05,-0.5,0.32,-0.28,-0.29,-0.31,-0.32,-0.29,-0.14,-0.3,-0.05,-0.21,0.38,-0.46,-0.15,0.45,0.19,-0.43,0.4,0.19,-0.05,-0.12,-0.1,-0.4,0.06,-0.49,-0.42,-0.09,-0.39,0.26,0.36,-0.08,-0.11,0,0.19,-0.15,-0.15,-0.21,0.24,-0.43,-0.32,0.05,0.42,-0.19,-0.32,0.34,-0.23,0.17,-0.19,0.31,-0.02,-0.19,0.34,0.33,-0.37,-0.34,0.09,0.21,0.15,-0.3,-0.4,0.26,-0.41,0.09,-0.17,-0.47,0.39,-0.12,-0.16,-0.5,0.1,-0.11,-0.18,0.33,0,0.39,-0.04,-0.41,0.42,0.22,0.23,-0.1,-0.4,-0.2,-0.23,0.05,0.07,0.05,-0.13,0.02,0.25,0.13,0.13,0.04,0.47,-0.08,-0.05,-0.18,0.47,-0.35,0.44,0.39,-0.17,-0.19,-0.29,-0.41,0.48,-0.49,-0.17,-0.27,0.2,0,0.29,0.43,-0.03,0.19,0.15,0.29,-0.19,0.28,-0.05,-0.16,-0.49,0.31,-0.26,0.46,0.25,0.28,0.36,-0.42,-0.07,-0.37,-0.39,0.27,0.27,0.33,-0.43,0.29,-0.42,-0.32,0.06,0.05,-0.28,-0.37,0.32,-0.25,0.33,0.2,-0.44,-0.23,0.26,0.16,-0.49,-0.31,0.19,0.1,0.38,0.01,-0.44,-0.26,-0.17,-0.3,-0.35,-0.25,0.29,0.06,-0.12,-0.49,-0.35,0.13,0.12,0.35,0.21,-0.38,-0.29,0.4,-0.39,0.37,0.48,0.49,-0.38,-0.45,0.21,0.08,-0.19,0.27,-0.38,0.41,-0.42,-0.33,0.44,0.05,0.23,0.34,0.35,-0.14,-0.11,0.47,-0.17,-0.24,0.36,0.32,0.04,-0.07,0.14,0.41,0.45,0.38,0.47,0.28,-0.01,-0.49,0.03,-0.44,-0.39,-0.22,-0.02,0.06,0.43,-0.48,-0.06,-0.04,0.43,0.48,0.18,-0.43,-0.38,0.36,-0.23,0.35,0,-0.36,0.03,0.22,-0.38,-0.2,0,-0.22,0.44,-0.1,0.32,-0.27,0.44,-0.21,0.18,0.43,-0.48,0.16,0.22,0.07,0.38,0.33,-0.47,-0.19,0.32,-0.11,0.38,0.06,0.24,0.07,0.28,-0.42,0.11,-0.38,-0.22,-0.15,-0.03,0.3,0.44,0.3,0.27,-0.31,0.12,0.03,-0.31,-0.3,0.02,0.13,-0.2,0.25,-0.46,-0.04,-0.36,0.19,0.47,0.16,-0.4,-0.28,0.4,0.22,-0.08,0.43,0.04,-0.14,0.11,0.24,0.12,0.31,-0.49,-0.17,-0.04,-0.29,0.21,0.41,0.29,0.18,-0.29,-0.01,-0.38,0.12,0.37,-0.26,-0.24,0.49,0.02,-0.18,0.43,0.41,-0.35,0.11,-0.26,-0.25,0.39,-0.29,-0.12,0.34,0.15,-0.25,0.42,-0.06,0.07,0.21,0.12,0.47,-0.22,0.32,0.24,-0.28,0.4,-0.22,-0.05,0.11,-0.41,-0.22,0.35,-0.33,0.17,0.05,0.34,-0.21,0.3,0.2,0.16,-0.11,-0.42,-0.29,-0.18,0,0.02,0.45,-0.47,0.45,0.07,0.17,-0.46,-0.34,0.11,-0.22,0.2,0.19,0.07,0.2,-0.49,0.36,-0.35,0.13,-0.35,0.11,-0.14,-0.29,-0.34,-0.4],[-0.09987934,0.120126724,0.13012314,0.37012342,-0.45988387,-0.2699067,0.38008127,-0.42992094,6.140166E-05,-0.25994605,0.20005085,0.4500496,-0.2499497,4.734558E-05,-0.45996594,-0.079976074,-0.2599839,0.19002013,0.05001821,-0.10998509,0.34001318,-0.3599867,0.21001302,-0.40999994,0.19000277,0.30000234,-0.26999766,-0.049997315,-0.44998556,0.20002735,-0.35996443,-0.18994005,0.28006962,0.43007597,0.04006915,0.44004565,-0.46996996,-0.3299766,-0.38997012,-0.11996746,-0.10996248,0.12003481,-0.3199597,-0.16995195,-0.49995667,-0.43996015,0.11002546,0.15002273,0.08003395,0.23002937,-0.13997278,0.16002515,0.1600329,0.27004045,-0.24994618,-0.24,0.4,0.04,-0.33,-0.27,0.49,-0.08,-0.49,0.29,-0.4,-0.12,-0.34,-0.19,0.45,-0.41,-0.12,-0.44,0.07,-0.34,0.49,-0.28,0.46,-0.12,-0.42,0.12,-0.31,0.08,0.36,-0.18,-0.17,-0.03,0.15,-0.49,0.18,-0.22,-0.47,-0.01,0.49,0.37,-0.11,0.46,0.1,-0.12,-0.27,0.12,0.39,-0.21,0.19,-0.01,-0.15,-0.2,-0.42,-0.01,0.28,-0.48,-0.2,0.02,-0.05,0.04,-0.46,-0.1,0.06,0.19,-0.04,0.12,0.23,-0.35,0.13,0.17,-0.44,0.38,-0.43,0.19,0.27,-0.48,0.11,0.07,-0.36,-0.04,0.23,0.4,0.38,-0.13,0.47,-0.47,-0.12,-0.34,-0.28,0.15,0.48,0,-0.46,-0.06,0.32,0.48,-0.1,0.4,0.42,0.1,0.38,0.24,0.15,-0.48,-0.07,-0.04,-0.28,-0.12,0.21,0.26,-0.09,0.22,-0.13,0.48,0.31,-0.36,0.02,-0.32,0.22,-0.08,-0.27,0.07,0.42,0.48,0.18,0.05,0.34,0.13,0.36,0.29,0.11,0.2,0.14,0.03,0.07,0.49,-0.26,0.36,0.43,0,0.31,-0.5,-0.06,-0.04,-0.26,-0.25,-0.37,-0.44,0.12,0.18,-0.04,-0.29,-0.32,0,-0.13,-0.19,0.31,0.17,-0.17,0.38,0.11,0.09,0.01,0.41,-0.36,0.2,-0.42,0.33,-0.1,0.32,0.4,0.15,-0.25,-0.29,0.1,-0.27,-0.38,-0.04,0.23,-0.07,-0.09,0.28,-0.5,-0.32,-0.17,-0.11,0.02,-0.37,-0.34,-0.24,-0.33,0.06,0.02,-0.45,0.38,-0.28,-0.02,0.02,-0.19,0.03,-0.34,-0.21,0.15,0.3,0.27,0.3,0.46,0.46,0.4,-0.37,-0.31,-0.15,0.43,0.4,-0.04,0.33,0.08,-0.17,0.08,0.25,-0.32,0.44,0.17,-0.36,0.15,-0.17,-0.37,-0.31,-0.17,-0.12,0.25,0.09,-0.36,-0.31,-0.24,-0.38,-0.38,-0.3,-0.1,0.03,-0.08,0.06,-0.27,-0.48,-0.43,0.32,0.13,0.11,0.09,-0.46,0.13,-0.35,0.44,0.06,-0.15,-0.28,0.12,0.01,-0.36,-0.06,0.16,0.27,0.13,0.01,-0.12,0.09,-0.3,0.24,0.14,-0.17,0.21,-0.12,0.42,-0.45,-0.18,0.12,0.21,0.14,-0.43,0.32,0.2,0.02,0.09,-0.22,0.25,0.1,0.15,0.08,0.33,-0.46,0,0.11,-0.45,0.46,0.36,0.15,0.42,0.21,0.14,-0.03,0.12,0.38,0.46,-0.25,-0.17,-0.26,-0.28,0.39,-0.26,0.23,0,0.47,-0.06,-0.18,0.24,-0.37,-0.33,-0.15,0.26,0.28,0.43,0.12,0.4,0.1,0.33,-0.41,-0.17,0.46,-0.32,0.16,0.19,0.49,-0.5,0.09,-0.3,0.31,0.05,-0.16,0.44,0,-0.13,0.26,-0.17,-0.4,0.03,0.02,-0.33,0.23,-0.29,0.23,-0.02,0.07,0.45,0.35,0.04,0.49,0.48,-0.14,-0.08,-0.27,0.41,-0.24,0.2,0.07,-0.46,0.01,0.47,0.34,-0.38,0.43,0.08,0.33,-0.1,-0.25,-0.09,-0.33,-0.22,0.3,-0.44,-0.2,0.42,0.1,0.24,-0.05,-0.32,-0.39,-0.47,-0.36,-0.45,-0.3,0.32,-0.31,0.41,0.2,0.09,-0.4,-0.45,0.25,-0.45,-0.48,0.05,-0.18,0.1,-0.22,-0.36,0.14,-0.34,0.19,-0.06,-0.13,0.2,-0.32,-0.21,-0.39,-0.19,-0.19,0.02,-0.25,-0.11,0.42,-0.03,0.32,0.29,0.41,-0.4,-0.11,0.41,0.2,0.16,-0.19,-0.39,0.03,0.24,-0.46,0.25,0.09,0.49,-0.05,-0.2,0.03,0.44,-0.16,0.2,0.18,-0.01,0.14,0.39,0.3,-0.12,-0.23,0.07,0.3,-0.14,-0.37,0.04,0.22,0.03,0.19,-0.32,0.25,0.23,-0.04,-0.47,-0.37,-0.25,-0.33,-0.06,-0.26,-0.14,0.21,-0.18,-0.43,0.44,0.35,0.47,-0.37,-0.38,-0.39,-0.09,-0.05,-0.01,-0.39,-0.19,-0.12,0.23,-0.19,-0.33,0.1,0,-0.48,-0.44,-0.21,-0.24,0.04,0.29,-0.02,-0.2,0.06,-0.08,-0.18,-0.3,0.14,-0.07,0.17,0.45,0,0.35,0,-0.35,-0.09,0.1,-0.09,-0.23,0.22,-0.25,0.12,-0.36,0.15,-0.11,0.44,-0.5,0.33,0.24,-0.16,0.14,-0.48,0.3,-0.11,-0.44,-0.01,0.32,0.05,0.18,-0.41,-0.25,0.35,0.17,0.14,-0.08,-0.27,-0.05,0.17,-0.05,-0.42,-0.09,0.14,-0.48,0.04,-0.21,-0.33,-0.17,0.15,-0.33,-0.03,-0.19,-0.14,0.4,-0.42,-0.48,0.43,0.2,-0.05,-0.07,0.16,0.08,-0.46,0.23,-0.32,-0.03,-0.1,0.44,0,-0.28,-0.34,-0.02,-0.17,-0.12,0.15,0.42,0.49,-0.5,-0.24,-0.4,0.38,-0.35,-0.33,-0.12,-0.3,0.27,0.39,0.45,0.08,0.11,-0.01,0.03,-0.5,-0.27,0.28,0,-0.13,0.41,0.34,-0.44,0.39,-0.28,0.32,-0.07,-0.49,0.49,0.48,0.48,-0.26,-0.34,-0.48,0.43,-0.07,-0.16,0.04,0.01,-0.09,0.16,0.02,-0.1,0.08,-0.05,-0.14,0.39,0.23,0.12,-0.02,-0.4,0.09,-0.35,0.05,-0.42,-0.35,-0.31,-0.29,0.16,-0.18,0.23,-0.13,-0.29,0.29,0.4,0.2,-0.08,0.08,0.05,-0.41,0.15,0.18,-0.23,-0.42,0.2,-0.11,-0.07,-0.02,-0.07,0.36,0.43,0.19,-0.12,0,0.38,-0.12,-0.41,0.1,0.44,0.27,-0.26,-0.37,0.38,-0.32,0.17,-0.21,-0.2,0.1,0.17,0.24,0.43,-0.2,-0.33,0.03,0.33,-0.08,-0.18,-0.44,0.35,0.18,0.21,0.2,0.27,0.3,-0.12,-0.47,0.48,0.21,0.41,0.02,0.11,0.32,0.14,0.28,0.34,0.02,0.29,-0.42,-0.09,-0.1,-0.42,0.33,0.31,0.19,0.42,0.13,0.02,0.34,0.17,-0.05,-0.44,-0.48,0.25,-0.25,-0.45,0.04,-0.15,-0.43,0.3,0.13],[-0.20010766,0.0898871,0.18989055,-0.3601114,-0.37010527,-0.3900849,0.1599255,-0.110071845,0.17994514,-0.2000499,0.1199552,-0.27004573,0.14995517,-0.060042232,0.09996818,0.37997824,0.37998363,-0.42001796,0.3699832,0.24998644,0.009986628,-0.36001354,-0.4700115,-0.05000163,-0.04000205,0.079996504,-0.4400037,-0.120002374,0.21998516,-0.2000242,-0.34003374,0.21994668,-0.22006391,0.26993054,-0.4000617,-0.020042289,-0.37002853,0.15997726,0.04997184,0.30997103,0.46996635,-0.38003126,-0.35003722,-0.14004275,0.3299597,0.31996262,-0.13002293,-0.19002007,0.14996955,-0.3400259,0.14997596,-0.2300221,-0.310029,-0.46003777,-0.39004758,-0.34,0.06,-0.27,0.18,0.04,-0.46,-0.23,0.16,-0.12,-0.36,0.4,0.44,0.38,-0.16,-0.39,0.24,-0.29,0.02,-0.44,0.27,-0.12,0.48,0.17,0.12,0.13,-0.29,0.25,0.23,0.06,0.14,0.38,0.02,-0.27,0.15,0.43,0.42,0.4,0.47,-0.49,0.26,0.19,-0.04,0.27,-0.29,0.42,0.37,-0.01,0.47,0.03,-0.09,-0.06,0.25,-0.37,-0.23,0.23,-0.33,0.38,0.11,-0.45,-0.17,-0.21,0.04,-0.4,0.24,-0.25,-0.12,0.21,-0.28,-0.1,-0.31,0.34,-0.26,0.01,-0.21,-0.43,0.42,-0.29,-0.05,0.19,0.25,0.22,0.28,-0.31,-0.36,-0.3,-0.37,-0.12,0.46,0.42,0.25,-0.47,-0.22,0.42,0.17,-0.03,-0.35,-0.15,-0.48,0.45,0.04,-0.34,-0.24,0.06,-0.16,0.06,-0.31,-0.26,0.34,-0.31,0.3,0.46,-0.07,0.41,-0.21,0.11,0,-0.16,0.46,0.03,-0.38,0.49,0.24,-0.2,0.14,-0.35,0.05,-0.19,0.33,0.31,0.42,0.07,-0.32,-0.01,-0.36,0.09,-0.05,-0.29,0.34,0.07,-0.5,0.39,0.04,0.27,-0.39,0.29,0.1,-0.13,0.12,-0.45,0.47,0.3,-0.11,-0.02,0.33,0.05,-0.08,0.45,0.42,-0.31,-0.49,0.38,-0.1,-0.48,-0.24,-0.27,0.27,0.43,0.27,0.2,-0.35,-0.22,0,-0.12,0.03,-0.27,-0.05,0.46,-0.32,0.34,0.05,-0.32,0.19,0.27,0.34,-0.39,-0.33,0.2,0.16,0.09,-0.33,-0.01,-0.21,0.15,0.06,-0.38,-0.02,0.01,0,0.38,-0.48,0.16,0.1,0.42,0.39,0.18,-0.2,-0.5,0.45,0.1,-0.41,-0.05,0.27,-0.43,0.14,0.32,-0.31,0.12,-0.32,-0.35,-0.45,-0.43,-0.23,-0.33,0.02,0.16,0.48,0.34,0.32,-0.09,0.24,0.43,-0.04,-0.2,0.32,0.38,0.08,0.26,0.37,-0.35,0.3,-0.33,0.24,-0.44,-0.01,0.22,0.22,-0.28,-0.49,0.23,0.43,0.36,-0.17,-0.15,0.32,0.44,-0.12,-0.08,-0.11,-0.27,0.2,-0.04,-0.33,0.03,0.35,-0.34,0.48,-0.04,-0.26,0.25,-0.26,-0.08,0.24,-0.48,-0.16,0.38,-0.18,-0.29,0.17,0.3,0.43,0.25,0.33,-0.41,-0.02,0.38,0.09,-0.39,-0.03,0.38,0,-0.35,-0.13,0.14,-0.05,-0.16,0.49,-0.3,-0.3,-0.17,0.23,-0.25,0.48,-0.25,-0.01,0,-0.39,-0.19,-0.5,0.43,0.12,-0.34,0.25,0.08,-0.2,0.44,0.12,-0.42,-0.45,0.47,0.06,0.37,0.48,-0.14,-0.25,-0.42,-0.45,-0.4,0.07,-0.5,0.39,-0.39,-0.49,-0.17,-0.43,0.17,0.27,0.07,0.1,0.47,0.26,-0.22,-0.39,0.04,-0.25,-0.17,-0.1,0.28,-0.17,0,0.22,0.4,-0.35,-0.27,0.26,0.36,-0.23,0.12,-0.5,-0.1,-0.05,-0.49,0.23,0.49,-0.47,0,-0.35,-0.09,0.01,0.12,-0.33,-0.46,-0.02,-0.43,-0.3,-0.22,0.26,-0.06,-0.4,0.41,0.18,-0.23,0.26,-0.44,-0.22,0.49,0.46,0.27,0.07,-0.3,-0.1,-0.35,0.07,-0.3,0.02,0.25,0.04,-0.39,0,0.25,-0.33,0.48,-0.24,0.2,-0.17,0.17,-0.09,-0.43,-0.47,-0.02,-0.4,0.32,0.01,-0.42,0.21,-0.32,-0.26,0.17,0.21,-0.46,0.03,-0.12,0.34,-0.19,-0.28,-0.48,-0.03,-0.22,0.05,-0.06,0.23,0.14,0.44,-0.16,0.24,0.19,-0.5,-0.45,0.22,0.1,0.07,0.38,0.24,-0.42,-0.4,0.08,0.13,-0.02,-0.02,-0.16,0.01,0.37,-0.1,-0.05,-0.29,0.29,-0.36,0.45,-0.02,-0.19,-0.31,-0.37,0.02,0.08,0.24,-0.05,0.37,-0.33,-0.16,-0.49,-0.33,-0.32,0.44,-0.4,-0.04,0.15,0.13,0.25,-0.3,0.14,-0.11,0.49,0.3,-0.29,0.42,0.36,-0.26,-0.02,-0.37,0.45,0.05,-0.45,0.07,-0.09,-0.09,-0.06,-0.14,-0.35,-0.17,0.14,0.2,-0.05,-0.37,-0.04,-0.34,-0.18,0.42,-0.21,0.49,0.06,-0.35,-0.12,0.24,0.33,0.42,-0.3,-0.18,-0.19,0.16,0.38,-0.29,-0.11,-0.46,-0.11,-0.04,-0.38,0.11,0.03,0.19,-0.49,-0.22,-0.02,-0.08,0.05,0.44,0.43,0.35,-0.17,-0.46,0.1,0.44,0.45,-0.01,0.06,0.3,-0.34,-0.2,0.23,-0.02,-0.3,-0.39,-0.45,-0.01,-0.05,-0.07,-0.19,-0.09,0.24,0.49,-0.46,0.21,-0.12,0.1,0.47,-0.22,0.16,0.46,-0.31,0.39,0.49,-0.15,0.49,-0.24,-0.45,0.44,-0.24,0.39,-0.03,0.09,-0.2,0.32,0.37,-0.46,-0.02,0.39,-0.27,0.49,0.46,-0.39,0.12,0.01,-0.39,-0.17,-0.5,0.38,0.05,-0.16,0.01,-0.22,-0.37,-0.31,-0.4,0.34,-0.01,0.35,-0.38,0.28,-0.07,0.01,-0.33,-0.09,0.44,-0.35,0.18,-0.29,0.34,-0.16,-0.39,-0.42,-0.45,0.17,0.49,-0.43,-0.24,-0.02,-0.26,0.15,-0.24,-0.33,-0.12,0.41,-0.12,-0.31,-0.05,-0.4,0.21,-0.47,0.05,0.13,0.27,-0.06,0.05,-0.05,0.44,-0.29,0.07,0.45,0.15,0.28,-0.47,-0.29,-0.27,-0.07,-0.27,-0.04,-0.3,-0.47,0.07,-0.49,0.11,-0.03,0.02,-0.25,-0.38,-0.24,-0.47,0.24,0.2,0.08,0,0.31,0.28,-0.03,-0.2,0.1,-0.39,0.04,-0.37,-0.45,0.4,-0.22,-0.5,-0.03,-0.37,-0.33,0.17,0.44,0.46,0.49,0.4,0.18,-0.05,0.04,-0.48,-0.2,0.41,-0.21,-0.17,0.17,-0.33,0.32,-0.25,-0.44,-0.22,-0.28,-0.08,0.26,-0.38,0.12,-0.16,0.16,0.39,0.02,-0.4,-0.18,-0.04,-0.45,-0.39,0.44,0.09,-0.42,0.28,0.21,0.17,0.31,-0.14,-0.26,-0.05,-0.5,0.19],[0.30988258,-0.30008063,-0.05005978,0.3699171,-0.42007047,-0.47016048,0.42974618,-0.32025462,0.4097393,0.23972179,0.39969847,0.31970254,-0.16029058,0.13970385,-0.2603043,0.2796951,0.4196982,-0.060294084,0.18971118,0.32970375,0.35970813,-0.32028344,-0.1202794,-0.4202831,-0.41027465,-0.46026942,0.039735895,-0.11026417,-0.040263183,0.35973227,-0.32022762,-0.19011952,-0.39013273,0.41989538,0.019931322,-0.050078053,-0.06008543,0.13991418,-0.4900854,-0.21010335,0.029870253,0.35986298,-0.30010003,-0.31011155,0.17986567,-0.24013296,-0.07014073,-0.44014153,-0.080128476,-0.4701345,-0.07013219,0.28986263,0.24986891,-0.33014017,0.32988507,0.13,0.32,-0.14,0.28,-0.47,-0.02,0.03,0.21,-0.45,0.06,0.09,0.2,-0.09,-0.38,0.29,-0.16,-0.23,-0.08,-0.1,-0.2,0.49,0.47,-0.32,-0.1,0.32,0.1,-0.02,0.46,-0.07,-0.08,-0.12,0.06,0.44,-0.41,0.38,0.12,-0.43,0.36,0.47,0.3,0.49,-0.35,-0.36,0.13,-0.42,0.06,-0.48,0.44,0.13,0.19,-0.35,-0.13,-0.15,0.36,0.34,0.16,0.14,0.46,0.46,-0.07,-0.5,0.06,-0.22,0.12,-0.33,-0.47,0.25,-0.19,-0.27,-0.34,-0.24,-0.09,-0.06,0.09,-0.19,0.33,0.32,0.04,-0.19,-0.24,0.07,0.03,-0.17,0.24,-0.23,-0.49,-0.29,-0.43,-0.25,-0.28,0.48,-0.39,0.4,0.04,0.3,-0.08,0.36,0.02,-0.04,-0.45,0.3,0.21,0.2,-0.04,-0.08,0.23,0.43,0.25,0.05,-0.5,0.33,-0.41,0.15,0.19,0.35,-0.04,-0.27,0.04,-0.16,-0.34,0.32,0.17,-0.45,-0.49,-0.32,-0.35,0,0.39,0.28,0.38,0.47,-0.2,-0.42,-0.25,-0.05,0.36,0.33,0.36,-0.19,0.03,-0.43,-0.05,0.02,-0.25,-0.12,0.38,-0.04,-0.3,0.18,-0.17,-0.31,-0.18,-0.33,-0.21,-0.27,-0.38,0.15,0.18,-0.22,-0.23,-0.28,-0.47,0.46,0.16,-0.48,0.03,-0.49,-0.11,-0.27,0.49,0.13,-0.14,-0.28,0.31,-0.42,-0.14,-0.35,0.3,0.12,-0.21,0.19,-0.2,-0.29,-0.05,0.19,0.14,-0.38,0.28,-0.48,-0.17,-0.3,-0.36,0.08,-0.47,-0.2,-0.47,-0.02,0.35,-0.28,0.35,0.37,-0.44,0.46,0.18,0.2,0.32,-0.41,-0.14,-0.29,0.36,0.47,0.35,-0.44,0.48,0.08,0.42,0.32,0.01,0.47,-0.12,-0.1,-0.28,-0.14,0.4,0.28,-0.02,0.27,-0.32,0,-0.45,0.38,-0.21,0.07,0.26,-0.08,0.12,-0.17,0.02,0.24,0.36,0.04,0.26,0.07,-0.35,-0.15,-0.15,-0.42,0.09,-0.05,-0.12,-0.29,0.46,0.37,0.34,-0.05,0.14,0.19,-0.44,0.4,-0.29,-0.46,0.41,0.35,-0.34,0.47,0.17,-0.22,-0.21,0.06,0.46,0.09,-0.2,0.26,-0.4,0.33,0.13,0.15,-0.29,0.04,-0.07,-0.1,-0.32,0.23,-0.38,0.33,0.42,-0.08,0.22,-0.19,0.27,0.42,-0.23,0.11,0.02,0.32,0.13,0.4,-0.09,-0.32,0.18,-0.43,0.28,-0.47,-0.01,0.28,0.41,-0.31,0.26,-0.5,0.31,0.49,-0.02,0.01,-0.03,0.31,0.36,-0.33,0.23,-0.18,-0.45,-0.25,0.05,0.48,0.29,-0.46,-0.18,0.18,-0.27,-0.22,-0.3,0.23,-0.26,-0.47,0.36,-0.15,0.11,-0.36,-0.26,-0.17,0.42,0.22,0.15,0.22,-0.01,0.28,-0.07,0.25,-0.36,0.21,0.45,-0.05,-0.33,-0.41,-0.38,-0.07,0.02,0.3,-0.26,-0.06,-0.04,-0.28,0.45,-0.02,0.3,-0.42,0.25,-0.05,0.15,-0.39,-0.31,0.21,0.43,-0.11,-0.11,-0.17,0.1,0.32,-0.02,-0.49,0.11,0.06,0.03,0.02,-0.17,0.24,0.05,-0.35,0.4,-0.08,0.33,0.31,0.4,0.29,0.37,0.19,0.26,-0.34,0.41,-0.09,-0.48,0.47,-0.4,-0.47,0.01,-0.27,0.01,0.28,0.19,0.28,0.33,0.19,-0.19,-0.27,0.33,0.39,0.19,-0.07,-0.36,-0.44,0.02,0.1,0.04,-0.28,-0.23,-0.13,0.31,-0.36,0.02,0.19,0.07,-0.07,0.41,-0.43,0.48,0.13,-0.04,-0.01,-0.5,-0.41,-0.28,0.27,-0.05,-0.38,0.09,-0.36,0,0.17,0.45,0.47,-0.5,-0.17,-0.48,0.34,0.38,-0.08,-0.08,0.37,0.25,-0.36,-0.08,-0.13,-0.24,-0.5,-0.29,-0.1,0.27,-0.27,-0.25,-0.3,-0.08,-0.31,-0.08,-0.45,0.33,0.25,-0.36,-0.08,0.12,-0.37,0.37,-0.37,-0.32,0.04,0.19,-0.26,-0.09,-0.44,-0.32,0.05,-0.3,0.09,0.23,0.36,0.16,0.35,0.01,-0.05,0.4,-0.31,-0.14,-0.24,-0.08,0.25,0.05,0.3,0.4,0.46,-0.49,-0.37,-0.22,-0.5,-0.26,0.12,-0.23,-0.21,-0.32,0.21,-0.2,0.47,0.48,0.21,-0.46,0.19,0.49,0.33,-0.05,0.06,-0.12,0.47,-0.27,0.19,0.02,-0.08,0.27,0.1,0.2,-0.07,0.49,0.38,-0.17,-0.06,-0.45,-0.45,-0.24,-0.3,-0.16,-0.39,0.09,-0.13,0.17,0.29,-0.36,0.43,-0.3,0.14,-0.28,0.22,0.26,0.21,-0.16,-0.16,0.08,-0.47,0.4,0.09,-0.03,0.31,0.34,0.16,0.08,0.24,0.22,-0.09,0.13,0.04,0.16,0.49,-0.07,0.28,-0.01,-0.16,0.46,-0.5,-0.21,-0.07,0.04,0.09,-0.28,-0.38,-0.12,0.48,0.17,-0.23,0.04,0.49,0.35,-0.49,-0.35,0.17,0.22,0.02,-0.23,0.42,0.29,0.43,-0.43,0.22,-0.21,0.16,0.48,-0.28,-0.21,0.47,-0.29,-0.5,-0.13,0.07,0.24,-0.04,-0.46,0.38,0.09,0.22,-0.22,0.09,-0.43,-0.06,0.37,0.13,0.18,0.15,0.34,0.25,-0.45,0.47,-0.44,-0.47,-0.29,-0.14,-0.14,0.31,-0.21,0.06,-0.37,-0.35,0.18,0.19,-0.44,0.04,0.12,-0.22,-0.23,0.18,0.13,0.34,0.42,0.05,0.14,-0.31,0.35,0.12,0.35,0.15,0.47,-0.17,-0.12,0.04,0.42,-0.26,0.43,-0.17,-0.14,-0.13,-0.41,-0.28,0.09,-0.47,0.08,-0.38,0.4,-0.13,-0.12,-0.17,-0.49,-0.1,-0.13,-0.35,-0.38,-0.29,-0.45,0.01,-0.11,-0.49,0,0.23,0.46,0.14,0.08,0.3,0.27,-0.36,0.27,0.31,0.1,-0.22,0.42,0.39,0.08,-0.1,-0.25,0.38,0.47,0.01,-0.22,-0.02,-0.26,0.02,0.13,0.06,0.45,-0.27,-0.09,0.2,-0.31,-0.08,0.43,-0.16,0.36,-0.14],[-0.23738798,0.4525628,-0.057419345,0.27254245,-0.14738412,0.26271775,0.10280748,0.06289361,0.22295871,0.22305073,-0.016932702,-0.01690398,0.06312087,0.22310324,0.463198,-0.33679572,0.043197613,0.3831888,0.23314601,-0.47691387,-0.006974305,-0.0670445,-0.49707648,-0.4869249,0.34317335,0.043243263,0.22321416,-0.4369495,0.12261059,-0.31746602,-0.14741352,0.07219081,-0.46801174,-0.27802545,-0.36800802,-0.20761384,-0.06732216,-0.3071548,-0.34710744,0.02298307,0.37306228,0.17318203,0.2930652,0.4030716,-0.4171202,-0.026897144,0.16344304,0.19350992,0.24338616,-0.4766245,0.37355468,-0.44642094,0.11354683,0.33342224,0.36319345,0.33,0.44,-0.07,0.43,0.31,-0.47,0.03,0.44,0.04,-0.13,0.4,-0.06,-0.17,0.08,0.16,0.22,-0.15,0.22,-0.3,-0.36,0.32,0.14,-0.41,0.42,-0.14,0.37,-0.47,-0.18,0.09,-0.2,-0.21,0.46,-0.31,-0.14,-0.2,-0.15,-0.5,-0.25,-0.16,-0.02,-0.16,0.23,-0.26,0.02,-0.32,-0.48,-0.18,-0.39,-0.42,-0.2,0.02,-0.18,-0.1,0.18,-0.47,-0.31,0.34,0,0.06,0.43,-0.5,-0.29,-0.16,-0.26,-0.43,0.43,-0.25,0.46,-0.22,-0.19,0.21,-0.41,-0.12,0.21,0.3,-0.41,-0.11,0.06,0.24,-0.17,0.04,0.42,-0.27,-0.21,0.27,0.47,0.06,0,-0.17,-0.4,0,0,0.18,-0.1,-0.02,-0.38,-0.12,-0.5,-0.05,-0.26,0.27,-0.15,0.32,0.27,0.08,-0.08,0.43,0.18,0.38,0.44,0.29,-0.22,0.25,-0.27,-0.12,-0.42,0.47,-0.45,-0.04,-0.4,-0.13,0.24,0.13,-0.33,0.3,-0.29,-0.09,0.47,-0.27,0.18,0.2,-0.11,-0.39,-0.01,0.06,-0.32,-0.41,-0.04,0.2,-0.15,-0.47,0.38,0.12,-0.12,-0.19,-0.28,0.24,-0.05,-0.49,-0.1,-0.36,-0.17,0.03,-0.16,0.37,-0.47,0.22,0.14,0.46,-0.13,-0.49,0.46,-0.06,-0.31,-0.26,-0.1,-0.34,-0.25,0.17,-0.3,0.48,0,-0.16,-0.39,-0.44,-0.02,-0.38,-0.25,0.36,0.08,-0.04,0.45,0.46,0.33,0.03,-0.14,0.35,0.26,0.12,0.03,-0.04,-0.05,0,-0.17,-0.17,-0.43,-0.07,-0.08,-0.36,0.4,-0.45,-0.01,0.28,0.31,-0.09,0.14,0.48,-0.08,-0.22,-0.12,0.4,-0.04,0.27,-0.12,0.4,-0.45,-0.5,0.11,0.16,0.37,0.04,-0.11,0.13,-0.36,0.23,0.03,-0.5,-0.49,0.27,0.49,-0.45,0.19,-0.4,0.46,0.02,0.47,-0.33,-0.36,-0.09,0.39,-0.13,-0.07,-0.02,-0.27,0.12,0.49,0.17,-0.38,-0.08,-0.22,-0.43,0.32,0.25,-0.23,-0.15,0.15,0.35,0.14,-0.43,0.38,0.13,0.47,0.15,-0.22,-0.17,-0.3,-0.14,0.31,0.35,0.43,0.38,0.35,-0.31,0.27,-0.01,-0.39,0.4,-0.1,0.01,0.23,0.35,0.38,0.09,-0.01,0.42,-0.27,0.43,0.33,0.1,0.36,-0.39,0.03,-0.43,0.03,-0.25,-0.1,0.28,-0.3,0.4,-0.09,0.13,0.36,-0.23,-0.02,-0.11,-0.28,0.12,0.48,0.27,-0.26,0.25,-0.05,-0.38,-0.17,-0.48,0.25,-0.13,-0.34,-0.14,-0.4,-0.24,0.02,-0.29,0.48,0.32,-0.15,0.28,0.16,0.01,-0.42,-0.17,0.2,-0.01,-0.4,-0.4,0.49,0.11,-0.39,-0.41,0.19,0.11,0.45,-0.45,-0.14,-0.39,0.15,-0.1,0.23,0,0,-0.47,0.12,0.33,0.3,-0.36,-0.4,0.14,-0.22,0.16,-0.46,-0.07,0.45,-0.04,0.18,0.4,-0.46,0.45,-0.48,-0.27,-0.47,-0.36,-0.24,-0.44,0.16,-0.02,-0.19,-0.04,0.35,0.36,-0.34,0.44,-0.45,-0.35,-0.49,-0.45,0.21,0.36,0.19,0.45,0.49,-0.16,-0.18,-0.05,-0.46,-0.25,0.15,-0.02,-0.13,-0.05,-0.44,0.2,-0.12,-0.01,-0.03,-0.15,0.27,0.05,-0.34,-0.19,0.33,0.13,0.29,-0.09,-0.01,-0.4,-0.12,0.29,-0.05,0.13,-0.31,-0.33,-0.25,-0.44,-0.26,0.18,0.31,0.31,-0.48,-0.1,0.33,0.32,-0.41,-0.11,0.29,-0.04,0.05,0.05,0.18,0.15,-0.22,-0.35,0.19,-0.12,-0.38,-0.15,0.05,0.4,0.45,0.44,0.37,0.35,-0.47,0.23,-0.25,0.39,-0.06,-0.18,-0.25,0.29,0.04,0.45,0.02,0.26,-0.03,-0.5,0.04,-0.11,0.12,-0.47,0.04,0.33,-0.39,0.29,-0.16,-0.47,-0.03,0.37,0.43,0.38,-0.37,0.4,0.35,-0.42,0.03,0.48,0.28,-0.15,-0.37,0.4,-0.49,-0.27,-0.2,0.39,-0.39,-0.18,0.13,0.43,0.41,-0.39,0.31,-0.35,-0.22,0.41,-0.1,-0.46,0.23,-0.26,-0.11,-0.28,-0.09,0.06,-0.12,-0.14,0.16,0.13,-0.4,-0.06,-0.28,-0.01,-0.29,-0.32,-0.25,0.21,-0.49,-0.2,0.02,-0.28,0.18,-0.49,-0.1,0.04,0.46,0.31,-0.44,0.47,0.12,0.44,0.18,-0.01,-0.26,0.04,0.46,0.41,-0.01,-0.05,0.34,0.44,-0.27,-0.03,-0.28,-0.32,0.21,-0.09,0.39,0.13,0.39,0.07,0.39,-0.41,0.01,0.01,0.06,-0.13,0.32,0.37,0.1,0.07,-0.21,0.18,-0.49,-0.34,0.26,0.22,-0.26,0.17,-0.29,-0.16,-0.29,0.06,-0.05,0.08,0.49,-0.3,0.29,-0.29,0.32,0.04,0.41,-0.07,-0.43,-0.46,-0.46,0.08,0.47,0.23,0.48,0.09,-0.41,0.12,0.34,-0.23,0.14,0.04,-0.04,-0.44,-0.08,0.48,-0.34,-0.28,-0.09,0.05,-0.14,-0.17,0.13,0.43,0.01,-0.15,0.07,0.1,-0.46,-0.44,0.15,0.36,0.1,0.46,-0.39,-0.33,0.24,0.01,0.19,0.12,-0.25,0.08,0.22,-0.32,0.43,-0.05,0.23,0.23,0.29,0.33,-0.13,0.19,-0.49,0.02,0.18,0.21,0.44,-0.46,-0.29,0.12,-0.49,-0.02,0.08,0.27,0.12,0.28,0.43,-0.01,0.44,-0.26,-0.27,0.14,0.03,0.29,-0.21,0.27,0.1,-0.05,-0.5,-0.44,0.11,0.34,0.31,-0.3,0.18,0.46,0.34,-0.42,-0.22,-0.1,-0.28,0.2,-0.2,-0.44,0.11,0.26,-0.5,0.44,0.05,-0.36,0.01,-0.27,0.28,0.04,0.1,0.22,-0.35,-0.28,-0.28,0.41,-0.4,-0.01,-0.47,-0.36,-0.5,-0.34,0.17,-0.13,-0.42,0.16,0.44,0.35,-0.29,0.04,-0.48,0.02,-0.16,-0.04,-0.33,0.03,0.26,0.16,0.4,0.35,0.05,-0.12,-0.44,-0.23],[0.09967303,0.4596103,0.29953846,0.119204395,0.34940952,-0.14041448,-0.20022628,0.22983043,0.16990893,-0.34036815,-0.45029485,-0.050364885,-0.4204726,0.12948905,0.34985435,0.3903858,-0.29964623,0.1601672,-0.47994894,-0.25988963,0.02005906,-0.4300667,-0.119814426,0.1905449,-0.45961225,0.19051953,-0.3592676,-0.0690662,0.08059723,-0.32976878,0.09019829,0.11996053,-0.41031805,-0.1001961,0.26022458,-0.37928468,0.35116893,-0.17853591,0.4914537,0.34125715,-0.25905353,-0.21914719,0.35056293,-0.31968492,-0.099418856,0.2206309,-0.058873188,-0.3686093,0.3012876,-0.49849847,0.15175924,0.38188186,-0.14823173,0.3216862,0.25166392,0.03,0.07,-0.39,0.07,-0.34,-0.28,0.36,-0.36,-0.01,0.06,-0.07,-0.15,0.18,0.36,0.22,-0.47,0.38,0.16,-0.33,0.49,-0.27,-0.29,-0.3,-0.22,-0.18,-0.26,-0.5,0.13,0.08,0.02,0.2,-0.24,-0.23,0.14,-0.27,0.04,0.24,0.24,0.33,0.12,-0.13,-0.37,-0.14,0.11,0.47,-0.13,0.25,-0.23,-0.43,0.46,0.27,-0.28,-0.32,0.32,0.01,-0.19,-0.13,0.33,-0.25,0.42,-0.29,-0.27,0.06,0.46,0.35,-0.34,-0.43,-0.47,0.13,-0.32,-0.22,-0.37,0.33,0.05,0.12,-0.4,0.35,0.08,-0.2,0.44,-0.02,0.23,0.05,0.11,