{"_layers":[784,28,28,1],"_neurons":[[0.54901963,0.49803922,0.5254902,0.54901963,0.5686275,0.5803922,0.6039216,0.6156863,0.6156863,0.62352943,0.627451,0.6313726,0.62352943,0.61960787,0.6117647,0.59607846,0.58431375,0.5686275,0.56078434,0.5411765,0.5176471,0.49411765,0.47058824,0.44313726,0.41960785,0.38431373,0.34117648,0.4117647,0.42745098,0.4392157,0.45490196,0.46666667,0.48235294,0.49411765,0.50980395,0.52156866,0.5411765,0.5529412,0.5647059,0.5803922,0.5921569,0.60784316,0.61960787,0.6313726,0.6784314,0.5921569,0.20784314,0.2509804,0.44313726,0.47843137,0.37254903,0.2784314,0.49019608,0.40784314,0.43529412,0,0,0,0,0,0,0,0,0,0,0,0,0,0,0,0,0,0,0,0,0,0,0,0,0,0,0,0,0,0,0,0,0,0,0,0,0,0,0,0,0,0,0,0,0,0,0,0,0,0,0,0,0,0,0,0,0,0,0,0,0,0,0,0,0,0,0,0,0,0,0,0,0,0,0,0,0,0,0,0,0,0,0,0,0,0,0,0,0,0,0,0,0,0,0,0,0,0,0,0,0,0,0,0,0,0,0,0,0,0,0,0,0,0,0,0,0,0,0,0,0,0,0,0,0,0,0,0,0,0,0,0,0,0,0,0,0,0,0,0,0,0,0,0,0,0,0,0,0,0,0,0,0,0,0,0,0,0,0,0,0,0,0,0,0,0,0,0,0,0,0,0,0,0,0,0,0,0,0,0,0,0,0,0,0,0,0,0,0,0,0,0,0,0,0,0,0,0,0,0,0,0,0,0,0,0,0,0,0,0,0,0,0,0,0,0,0,0,0,0,0,0,0,0,0,0,0,0,0,0,0,0,0,0,0,0,0,0,0,0,0,0,0,0,0,0,0,0,0,0,0,0,0,0,0,0,0,0,0,0,0,0,0,0,0,0,0,0,0,0,0,0,0,0,0,0,0,0,0,0,0,0,0,0,0,0,0,0,0,0,0,0,0,0,0,0,0,0,0,0,0,0,0,0,0,0,0,0,0,0,0,0,0,0,0,0,0,0,0,0,0,0,0,0,0,0,0,0,0,0,0,0,0,0,0,0,0,0,0,0,0,0,0,0,0,0,0,0,0,0,0,0,0,0,0,0,0,0,0,0,0,0,0,0,0,0,0,0,0,0,0,0,0,0,0,0,0,0,0,0,0,0,0,0,0,0,0,0,0,0,0,0,0,0,0,0,0,0,0,0,0,0,0,0,0,0,0,0,0,0,0,0,0,0,0,0,0,0,0,0,0,0,0,0,0,0,0,0,0,0,0,0,0,0,0,0,0,0,0,0,0,0,0,0,0,0,0,0,0,0,0,0,0,0,0,0,0,0,0,0,0,0,0,0,0,0,0,0,0,0,0,0,0,0,0,0,0,0,0,0,0,0,0,0,0,0,0,0,0,0,0,0,0,0,0,0,0,0,0,0,0,0,0,0,0,0,0,0,0,0,0,0,0,0,0,0,0,0,0,0,0,0,0,0,0,0,0,0,0,0,0,0,0,0,0,0,0,0,0,0,0,0,0,0,0,0,0,0,0,0,0,0,0,0,0,0,0,0,0,0,0,0,0,0,0,0,0,0,0,0,0,0,0,0,0,0,0,0,0,0,0,0,0,0,0,0,0,0,0,0,0,0,0,0,0,0,0,0,0,0,0,0,0,0,0,0,0,0,0,0,0,0,0,0,0,0,0,0,0,0,0,0,0,0,0,0,0,0,0,0,0,0,0,0,0,0,0,0,0,0,0,0,0,0,0,0,0,0,0,0,0,0,0,0,0,0,0,0,0,0,0,0,0,0,0,0,0,0,0,0,0,0,0,0,0,0,0,0,0,0,0,0,0,0,0,0,0,0,0,0,0,0,0,0,0,0,0,0,0,0,0,0,0,0,0,0,0,0,0,0,0,0,0,0,0,0,0,0,0,0,0,0,0,0,0,0,0,0,0],[-0.018314347,-0.011005887,-0.0057344884,0.16151848,-0.021216411,-0.00820595,-0.0067709396,0.36459687,-0.01729814,-0.026914692,2.2521143,-0.008587952,0.71948636,-0.018524984,-0.0063213133,-0.00055829703,-0.025545089,-0.007039403,0.5743025,-0.01850671,-0.0028742573,0.070751026,0.5457,0.17314883,-0.016062753,1.1383365,0.3296491,0.46202797],[1.1562804,1.2300749,-0.016573451,-0.0013259575,-0.008924011,0.23478255,-0.005057978,-0.0022908396,2.1415868,-0.0030835022,-0.005750424,-0.0018986714,1.270333,0.17254686,-0.014086003,1.397639,0.49668646,-0.008859108,0.16810018,1.2428763,-0.0005714333,1.6150595,1.826359,0.60650444,-0.0028619266,0.2940703,-0.005306908,1.4431481],[-0.002415548]],"_biases":[[0.17013718,0.47006807,-0.2936989,-0.4579917,-0.16026144,-0.3998712,-0.46856692,0.036106844,-0.030230394,-0.5001127,0.024565076,0.29074654,-0.16735664,-0.11019104,-0.16929701,0.2804689,-0.099945396,-0.49121517,-0.09950768,-0.009939605,0.10328632,-0.1277123,0.18399261,0.33507246,-0.11990339,-0.31232917,-0.15830675,-0.13951175],[-0.44073644,-0.19041333,-0.19927098,-0.35528916,0.16963258,-0.3056923,-0.15049757,0.06869029,0.16722532,-0.024808658,-0.03152188,-0.27887705,0.07460876,0.14106622,-0.17907602,0.0658824,-0.48037145,-0.28951737,-0.13078876,0.09067728,0.33647826,-0.38265264,0.3744519,-0.2962369,0.025411906,-0.40095273,-0.46553794,-0.14949048],[-0.43332216]],"_weights":[[[-0.11998912,0.15000291,-0.31999087,0.2800147,0.18001592,-0.08997444,-0.26996484,0.20004463,-0.12993714,-0.37993783,-0.3399396,-0.45994708,0.2500599,-0.37993884,0.4000644,0.02007023,-0.3099357,0.48005593,0.48004848,-0.45994782,-0.40994525,0.31006268,-0.3299188,0.19010106,0.25010446,-0.019899732,0.37009266,-0.10990162,-0.3699056,0.13009079,0.06008395,-0.36992478,-0.44993374,-0.23993295,-0.2299235,0.34008497,-0.20991218,-0.059915375,0.33007455,-0.29992494,-0.40993103,0.3600545,0.14003578,-0.41997036,-0.19996765,0.02003678,-0.39996207,-0.39995655,0.43004176,0.1400467,-0.18995093,-0.37994874,-0.42995605,-0.2599633,-0.27996463,0.07,-0.03,-0.01,-0.48,-0.31,0.04,0.33,0.06,0.23,0.06,-0.47,0.48,-0.01,0.35,-0.45,-0.28,0.25,-0.35,0.27,0.45,-0.28,-0.34,-0.42,-0.12,-0.28,-0.12,0.27,-0.04,-0.01,-0.18,-0.07,-0.44,0.3,-0.46,0.2,-0.14,0.3,-0.09,0.14,0.16,-0.25,-0.2,0.4,0.02,-0.23,0.03,0.11,-0.26,0.37,-0.09,0.06,0.47,-0.21,-0.21,0.49,-0.1,-0.12,-0.4,0.29,0.3,0.26,-0.13,-0.44,-0.09,-0.38,0.46,-0.33,-0.05,-0.35,0.18,-0.08,-0.17,0.01,-0.39,0.2,0.41,-0.25,0.06,-0.4,0.19,0.26,0.02,0.08,-0.43,0.26,-0.04,0.26,0.01,-0.46,-0.21,0.47,0.19,0.11,0.33,0.39,0.37,-0.27,-0.01,-0.1,-0.19,-0.15,-0.35,-0.41,-0.32,0.49,-0.28,-0.05,-0.32,0.08,-0.42,-0.35,0.32,-0.5,-0.4,-0.47,-0.26,0.28,0.49,0.15,0.15,-0.31,0.16,-0.09,0.35,0.2,0.22,0.21,0.18,-0.29,0.32,0.17,0.26,-0.35,0.29,-0.17,0.11,-0.08,-0.11,-0.42,0.03,-0.49,0.08,0.43,0.46,-0.36,-0.35,0.19,0.01,0.29,0.15,-0.42,-0.26,0.33,0.24,-0.39,0.19,0.24,-0.26,-0.02,-0.24,0.01,0.27,0.46,0.25,-0.1,-0.12,0.16,-0.3,0.27,-0.08,0.31,-0.11,0.4,-0.39,0.14,0.11,0.23,-0.06,0.21,0.05,-0.47,-0.3,0.38,0.05,0.24,-0.07,0.42,-0.09,0.18,0.13,0.36,-0.32,0.41,0.32,-0.48,-0.27,0.12,-0.33,0.05,0.25,-0.02,-0.02,0.23,-0.14,0.34,0.19,-0.16,0.22,-0.41,0,0.46,-0.2,0.02,0.42,-0.28,-0.2,0.38,-0.1,-0.49,0.47,-0.04,-0.25,0.02,-0.37,0.06,0.12,-0.03,-0.43,-0.41,-0.09,0.48,0.05,0.39,0.46,-0.43,0.04,-0.03,0.02,0.21,-0.46,-0.42,-0.3,-0.19,-0.32,0.17,0.06,0.16,0.49,0.09,0.21,-0.16,-0.29,-0.34,0.08,-0.22,-0.28,0.46,0.09,0.29,-0.29,-0.28,-0.24,0.12,0.18,0.01,-0.09,-0.1,0.05,0.35,0.17,0.33,-0.14,0.18,0.46,0.38,-0.25,0.43,-0.16,-0.04,-0.5,0.46,-0.02,-0.03,-0.13,-0.44,0.26,-0.12,-0.2,0.17,0.34,0.08,0.37,0.22,-0.01,0.32,0.32,0.07,0.13,0.16,-0.25,-0.35,-0.4,-0.37,0.42,0.38,0.48,0.02,-0.31,0.19,-0.47,-0.21,0.11,-0.38,0.29,-0.25,0.23,0.28,-0.26,0.12,0.24,-0.48,-0.4,0.38,-0.5,-0.42,0.46,0.14,-0.32,-0.36,-0.44,0.17,-0.2,0.17,-0.3,0.35,0.35,-0.16,0.05,-0.01,-0.43,-0.26,-0.31,0.11,0.14,0.05,0.46,0.24,0.42,-0.26,-0.42,-0.47,-0.18,-0.5,0.42,-0.27,-0.46,-0.28,-0.37,0.33,0.41,-0.17,-0.16,-0.46,0.13,-0.15,0.48,0.44,0.41,0.44,-0.1,-0.11,-0.27,0.25,0.04,0,0.32,-0.01,-0.27,-0.05,-0.39,-0.29,0.21,0.44,-0.44,-0.47,-0.15,-0.21,0.24,0.47,0.3,0.13,-0.29,0.21,0.07,0.23,0.4,-0.36,0.47,-0.21,0.06,-0.48,0.32,0.48,0.34,0.18,0.3,0.07,-0.04,-0.08,-0.1,0.05,0.48,0.18,0.21,0.2,0.12,-0.11,0.47,0.09,-0.5,0.19,-0.31,0.44,-0.37,0.27,-0.32,0.01,-0.33,0.3,0.1,0.17,0.01,0.44,0.38,-0.41,-0.11,0.22,-0.4,-0.12,-0.27,0.27,0.33,-0.18,0.06,-0.26,0.14,0.02,-0.5,0.37,-0.39,0,-0.34,-0.12,-0.21,0.37,0.32,0.37,0.34,-0.43,0,-0.22,-0.1,0.15,0.31,0.22,-0.46,-0.47,0.3,0.11,-0.2,0.39,-0.21,0.09,-0.14,-0.28,0.36,0.37,-0.12,0.39,-0.38,0.15,0,-0.21,0.18,-0.41,0.01,-0.37,0.15,-0.5,-0.23,0.01,0.38,-0.47,0.38,0.44,-0.13,-0.33,0,0.33,-0.3,0.1,0.22,-0.12,0.07,-0.28,-0.29,0.07,-0.49,-0.44,-0.49,0.44,-0.01,0.45,0.44,0.34,0.27,-0.4,0.47,0.22,-0.29,0.41,-0.12,0.29,-0.16,0.29,-0.49,-0.25,0.21,-0.08,0.35,0.18,-0.14,0.04,0.18,0.01,0.43,-0.39,0.22,-0.04,0.38,0.43,-0.39,0.08,0.48,-0.18,-0.49,0.42,-0.42,-0.47,-0.34,-0.24,-0.3,0.28,0.12,-0.22,-0.28,0.43,-0.46,0.27,-0.3,0.45,0.35,0.09,-0.29,-0.18,0.07,0.45,-0.24,-0.07,0.41,0.16,-0.12,0,0.33,-0.23,0.29,0.29,0.3,-0.49,0.28,-0.41,-0.33,0.17,-0.25,0.08,-0.02,0.08,0.42,-0.1,-0.21,0.49,-0.43,0.45,-0.25,0.42,-0.42,0.02,-0.13,0.16,0.24,-0.45,0.15,0.15,-0.38,0,0.38,0.19,0.44,-0.16,-0.02,-0.08,-0.38,-0.48,0.48,-0.39,0.28,-0.32,-0.17,0.12,0.33,0.49,-0.47,0.36,-0.37,0.41,0.08,-0.08,-0.26,0.41,-0.31,-0.23,-0.09,-0.36,-0.23,0.22,-0.07,0.01,0.04,0.25,0.19,0.29,0.14,0.08,0.41,0.37,0.37,-0.46,0.46,-0.36,-0.37,0.4,-0.32,0.25,0.32,0.25,-0.48,0.28,0.01,-0.29,0.41,-0.04,-0.05,-0.48,-0.36,-0.3,-0.5,0.48,0.25,-0.24,0.17,-0.24,0.13,0.08,0.43,-0.46,-0.16,-0.06,0.45,-0.24,-0.46,0.04,-0.04,-0.4,0.27,-0.21,-0.41,0.16,-0.19,0.01,0.19,0.15,0.49,-0.17,0.33,-0.27,-0.17,0.11,-0.07,0.2,0.36,0.38,-0.22,0.2,-0.04,0.37,-0.24,0.09,0.32,0.28,-0.1,0.07,0.33,-0.25,-0.33,-0.13,0.49,-0.16,-0.25,0.35,-0.39,-0.17,0.17,-0.26,0.06,-0.48,-0.23,-0.2,0.25,0.19],[0.20000571,0.22000198,-0.48999456,-0.25999162,-0.109992296,-0.34998646,-0.24998288,0.26002297,0.14003113,0.4000309,-0.46997,2.4949317E-05,0.34002993,0.030029025,-0.39996803,-0.3899643,0.32003206,0.24002704,-0.3499754,-0.049975343,-0.2699725,0.49003115,-0.13996069,0.07004908,0.09005023,0.030048698,-0.28995413,-0.45995077,-0.36995333,-0.05995579,0.09004088,0.4600375,0.34003288,-0.3799659,-0.42996138,0.18004121,0.060042754,0.080041215,0.35003707,-0.4899625,-0.37996545,-0.26997274,0.200018,-0.15998556,0.32001734,0.10001796,-0.01998228,-0.36997792,-0.36997905,-0.04997716,-0.30997482,0.020024193,-0.3599779,-0.20998217,-0.049983308,0.21,-0.14,-0.07,0.15,0.36,0.44,-0.29,0.13,-0.3,-0.2,-0.44,0.16,0.22,-0.05,-0.08,0.05,-0.26,0.39,-0.37,-0.17,-0.5,-0.22,-0.49,0.25,0.48,-0.46,-0.43,0.4,0.17,-0.26,-0.43,0.31,0.04,0.17,-0.14,-0.19,-0.38,0.43,0.48,-0.43,0.41,0.1,0,-0.46,0.25,0.44,0.26,0.18,0.21,0.39,0.45,0.13,-0.5,0.46,-0.05,-0.08,-0.15,0.18,0.16,0.32,0.36,-0.2,0.45,0.45,-0.27,-0.25,-0.39,-0.45,-0.42,-0.4,-0.08,-0.2,0.4,-0.45,-0.08,-0.1,0.28,0.46,-0.5,-0.46,-0.22,-0.11,-0.32,0.28,-0.22,-0.07,0.3,0.07,-0.29,0.44,0.46,-0.06,-0.24,-0.34,-0.29,0.1,0.15,0.04,0.31,-0.01,0.32,0.21,0.09,0.1,-0.03,0.14,0.23,0.45,0.04,-0.46,0.14,-0.12,0.17,0.12,0.03,-0.03,-0.38,-0.33,0.17,0.29,-0.05,0.04,0.33,-0.36,-0.36,0.48,-0.46,0.23,0.34,0.31,0.25,-0.27,-0.35,0,-0.29,0.07,0.29,0.08,-0.2,0.13,0.2,0.35,-0.47,-0.34,-0.21,0.07,0.26,0.14,0.12,0.24,-0.02,-0.03,0.36,-0.49,-0.46,-0.22,0.37,-0.06,-0.05,-0.02,0.1,0.49,-0.4,0.22,-0.21,-0.1,-0.28,-0.33,-0.1,0.46,0.17,0.03,0.36,-0.46,-0.41,0.09,0,0.16,0.34,0.06,-0.29,-0.11,-0.4,-0.4,-0.17,-0.23,-0.13,-0.37,-0.04,0.42,0.19,-0.16,-0.38,0.32,-0.48,0.2,0.24,-0.2,0.37,0.39,-0.15,0.09,-0.27,0.16,-0.44,0.44,0.11,0.32,0.42,-0.06,0.27,-0.29,0.09,0.39,-0.24,-0.3,0.39,-0.5,-0.11,-0.48,-0.47,-0.41,0.2,-0.03,-0.23,-0.17,-0.09,-0.46,-0.49,-0.12,0.35,-0.3,0.29,0.45,-0.29,0.12,-0.34,-0.06,-0.47,-0.12,0.15,0.04,-0.3,-0.49,-0.35,-0.03,0.24,-0.28,0.05,0.31,0.31,0.24,0.41,0.34,0.36,-0.25,0.38,0.25,-0.12,0.23,0.03,0.07,0.3,0.04,0.09,0.07,-0.08,0.14,0.17,0.14,-0.46,-0.06,0.46,-0.5,-0.14,-0.02,0.38,0.18,-0.18,0.29,0.08,-0.32,-0.02,-0.31,0.07,-0.4,-0.21,0.44,-0.42,0.45,0.23,-0.1,-0.45,-0.2,0.35,-0.42,0.23,0.16,-0.08,0.08,-0.45,-0.41,0.05,0.4,0.26,-0.14,0.28,0.4,-0.03,-0.12,-0.14,-0.3,-0.07,0.08,-0.36,-0.16,-0.42,0.11,0.46,-0.02,-0.23,-0.03,0.06,0.21,0.41,0.14,-0.12,0.15,-0.36,-0.22,0.24,-0.29,-0.24,0.24,0.24,-0.02,0.13,0.08,-0.07,-0.3,-0.18,-0.12,-0.04,0.2,0.08,0.03,0.47,-0.03,-0.34,0.01,-0.5,-0.38,0.2,0.43,-0.2,0.07,0.03,0.33,0.48,-0.38,0.47,-0.38,0.26,-0.31,0.13,-0.35,0.43,0.19,0.34,0.15,0.2,0,-0.32,0.25,-0.34,0.39,-0.5,0.36,-0.37,-0.12,0.17,0.41,-0.02,0.12,-0.22,0.12,0.01,-0.18,-0.07,-0.34,0.45,0.3,0.09,-0.2,-0.27,-0.31,0.11,-0.23,-0.44,-0.07,0.09,-0.23,0.12,0,0.3,-0.01,0.44,0.44,0.27,-0.09,0.06,0.17,0.2,0.1,-0.06,-0.44,0.13,-0.37,0.41,-0.49,0.13,0.11,-0.25,0.17,0.2,0.4,0.4,0.37,0.02,0.46,-0.23,0.23,0.29,0.19,0.28,-0.11,-0.22,0.48,0.31,0.28,0.17,0.07,0.05,-0.49,0.09,-0.22,-0.4,0.49,0.35,-0.34,0.06,-0.03,-0.15,-0.45,0.3,0.48,-0.48,0.44,0.3,0.4,0.09,-0.44,-0.08,0.31,-0.36,0.33,0.37,-0.5,0.31,-0.45,0.27,0.15,-0.18,-0.37,-0.17,-0.44,-0.44,-0.26,-0.42,-0.08,0.29,0.41,-0.49,-0.14,-0.1,0.29,-0.12,0.24,0.38,0.3,-0.13,-0.17,-0.32,0.41,-0.32,0.1,-0.36,0.23,0.37,0.26,-0.1,-0.41,-0.33,0.3,-0.12,0.4,-0.35,-0.28,0.21,0.24,0.42,0.27,0.36,-0.13,-0.4,0.18,-0.45,-0.44,-0.1,-0.15,-0.05,-0.37,-0.38,-0.49,0.17,-0.06,-0.03,-0.1,0.44,0.22,0.41,-0.18,-0.14,-0.19,-0.48,0.2,0.23,-0.3,0.47,-0.01,0.13,-0.35,-0.48,-0.36,0.37,0.09,-0.04,0.3,0.3,0,0.05,-0.42,-0.17,0.01,-0.19,-0.24,0.47,-0.34,-0.37,0.44,-0.07,0.25,-0.23,0.49,0.32,0.1,-0.09,0.05,-0.15,-0.1,0.44,0.34,-0.42,0.4,0.22,-0.21,-0.39,0.47,-0.37,-0.43,0.47,0.16,0.09,-0.07,-0.33,0.32,0.48,0.35,-0.5,0.25,0.23,0.07,-0.43,-0.48,-0.44,0.38,0.37,-0.48,-0.19,-0.23,-0.32,0.41,-0.05,-0.1,0.06,0.2,0.49,-0.08,0.29,-0.48,-0.35,0.49,-0.47,-0.45,0.47,0.26,-0.35,0.34,0.32,-0.5,0.11,0.05,0.05,0.1,0.17,-0.14,0.27,-0.44,0.34,0.34,-0.09,-0.42,0.16,0.35,0.39,-0.45,-0.29,-0.31,0.37,-0.04,0.32,0.06,-0.45,0.47,0.09,0.23,0.04,-0.48,-0.45,-0.2,0.22,-0.47,-0.3,-0.19,0.16,0.12,-0.14,0.34,0.23,-0.31,0.43,0.43,0.08,0.45,0.1,-0.43,-0.17,-0.33,-0.34,0.42,0.04,0.45,0.46,-0.14,-0.33,-0.45,0,0.07,-0.5,0.43,0.32,0.25,-0.5,0.04,-0.39,-0.13,0.38,-0.15,-0.31,-0.24,0.18,-0.14,-0.04,0.17,0.02,0.38,0.48,-0.41,-0.13,0.02,-0.1,-0.14,0.35,-0.37,0.25,0.26,-0.44,0.34,-0.37,0.11,-0.39,0.29,0.33,0.29,-0.13,-0.32,0.43,-0.46,0.34,-0.28,-0.31,0.48,0.48,0.39,-0.27,-0.33,-0.01,-0.21,0.33],[-0.22591305,-0.44558674,-0.09588889,-0.31613123,-0.026677547,0.022836393,-0.057234123,0.3823631,0.36133027,0.27184108,-0.16763517,-0.19695178,-0.4673557,-0.2975469,0.07197001,-0.3684737,0.38181812,0.02204001,0.15159257,-0.21867035,-0.1689196,0.44037968,0.4296838,-0.26002273,-0.37009105,-0.17985502,-0.089701265,-0.13037951,0.43901294,0.3887419,0.059107777,-0.2506236,0.2596443,-0.5106295,0.3292679,0.029112766,0.18903819,0.07919894,-0.16014577,-0.24986112,0.40061983,-0.22876245,-0.45819992,-0.258311,-0.018553054,0.40130106,-0.36924765,0.25025937,-0.12039292,0.23922963,-0.18083,0.12889218,0.31896943,0.47893867,-0.020971574,-0.17,-0.38,-0.34,-0.45,-0.35,-0.4,-0.44,0.43,0.47,-0.29,-0.43,0.03,-0.47,-0.14,-0.46,-0.07,-0.21,-0.33,-0.11,-0.13,-0.45,0.4,0.18,0.25,-0.28,-0.32,0.15,0.48,-0.3,0.06,0.42,-0.07,0.27,0.01,0.01,-0.09,0.04,0.04,-0.31,-0.35,0.35,-0.15,-0.43,-0.46,-0.08,-0.13,-0.39,-0.1,-0.15,-0.19,-0.47,-0.04,-0.07,0.11,-0.07,-0.08,-0.06,-0.1,0.32,0.47,-0.05,-0.43,0.22,-0.1,-0.22,0.14,0.26,0.02,0.35,0.13,0.39,0.25,0.48,-0.26,0.02,0.19,0.32,0.14,-0.17,0.34,-0.44,-0.25,0.13,0.39,0.02,-0.05,-0.5,-0.35,-0.43,-0.42,0.47,-0.37,0.21,-0.29,0.2,0.27,0.12,0.17,0.25,0.28,0.11,0.09,0.04,0.22,-0.08,-0.22,-0.02,-0.32,-0.41,0.23,0.1,0.29,-0.43,0.47,0.4,-0.31,-0.06,0.33,0.38,0.32,0.14,0.11,-0.06,0.26,0.15,0.25,-0.47,0.26,0.04,0.25,-0.43,-0.35,0.39,0.05,-0.27,-0.03,0.2,0.41,-0.03,-0.26,0.47,0.31,-0.44,-0.16,-0.02,-0.33,-0.44,0.24,-0.19,0,-0.18,0.28,0.28,0.42,-0.36,0.49,-0.36,0.28,-0.44,0.16,-0.26,0.21,0.14,-0.17,0.16,-0.05,0.4,0.02,0.23,-0.07,-0.01,0.02,-0.14,0.13,0.35,0.32,0.04,-0.4,-0.22,-0.03,0.19,-0.21,-0.05,-0.46,-0.08,-0.22,-0.14,0.46,-0.09,-0.26,-0.18,0.42,0.34,0.3,-0.5,-0.25,-0.34,0.22,0.17,-0.48,-0.23,0.03,-0.5,0.38,-0.5,0.29,-0.09,-0.35,-0.43,-0.19,-0.06,-0.46,0,0.08,0.46,0.44,-0.24,0.1,0.4,-0.13,-0.42,0.43,-0.39,-0.01,-0.4,0.07,0.18,0.06,0.13,0.09,0.16,0.32,-0.08,-0.25,-0.3,-0.34,-0.21,0.07,-0.47,0.13,0.37,-0.29,0.39,-0.41,0.29,-0.22,-0.09,-0.24,0.34,-0.44,0.49,0.06,0.32,-0.2,0.43,-0.16,-0.08,0,0.27,-0.07,-0.39,0.35,0.02,-0.03,0.14,0.12,0.12,-0.26,-0.12,0.3,0.14,0.19,0.06,-0.23,0,0.37,-0.47,-0.49,0.2,0.32,-0.35,-0.09,0.22,0.06,0.1,-0.41,0.49,-0.39,-0.19,0.35,0.23,0.29,0.29,0.1,0.01,-0.49,0.18,-0.09,-0.06,-0.34,0.16,-0.34,0.38,-0.47,-0.09,-0.21,-0.5,0.05,0.3,-0.44,-0.2,-0.1,0.3,0.45,-0.23,0.2,-0.37,0.45,0.37,0.05,0.13,0,0.43,0.02,-0.44,0.35,0.4,0.45,0.26,-0.02,-0.31,0.11,0.06,0.04,-0.34,0.48,0.03,0.18,-0.36,-0.2,-0.41,-0.06,-0.19,-0.25,0.04,-0.17,0.48,0.33,-0.18,0.31,0.38,0.23,0.04,0.39,0.02,-0.35,-0.27,-0.15,0.47,0.06,-0.11,-0.46,0.29,-0.18,0.36,0.18,0.34,-0.25,0.29,-0.21,-0.34,-0.05,0.3,0.06,-0.05,-0.31,-0.32,0.17,0.47,0.23,0.36,-0.44,0.12,0.44,0.09,-0.05,-0.43,0.16,-0.49,-0.5,0.24,-0.32,0.2,0.08,0.41,-0.46,0.15,0.49,-0.12,0.36,-0.01,0.22,-0.46,-0.47,0.14,-0.07,0.42,0.47,-0.07,-0.17,0.47,0.06,-0.13,-0.26,0.19,-0.17,-0.09,0.34,0.22,-0.1,0.1,-0.33,-0.26,0.28,0.04,0.48,0.24,-0.28,0.15,-0.09,0.03,-0.31,-0.22,-0.39,-0.27,-0.37,-0.49,0.09,-0.2,-0.34,0.03,-0.4,-0.28,0.17,-0.47,-0.32,0.3,-0.04,0.38,0.07,0.13,0.31,-0.24,0.47,-0.25,-0.19,-0.02,-0.25,-0.01,0.16,0.18,0.19,-0.19,-0.48,0.29,0.27,-0.23,-0.24,-0.5,0.06,-0.19,0.32,0.03,0.06,0.37,0,0.44,0.06,0.25,-0.15,-0.32,-0.23,-0.16,-0.42,0.28,0.22,0.42,-0.19,0.36,0.42,0.15,0.25,-0.41,0.13,-0.03,0.33,0.29,-0.3,0.37,-0.25,0.41,0.03,-0.04,-0.19,-0.24,0.3,-0.23,0.2,-0.4,0.24,-0.13,0.41,-0.01,-0.37,-0.02,-0.09,-0.15,-0.27,-0.26,-0.43,0.35,0.46,-0.11,-0.42,0.41,0.05,0.22,0.4,-0.41,-0.47,0.2,0.24,0.19,0,-0.06,0.14,0.31,-0.48,0.31,0.47,-0.05,-0.28,-0.3,-0.39,0.04,0.23,-0.25,0.45,-0.35,-0.44,-0.03,0.06,0.45,0.3,-0.1,0.45,-0.36,-0.13,-0.1,0.2,-0.43,-0.14,0.1,-0.44,-0.47,0.12,-0.28,0.49,0.19,0.34,0.09,-0.17,-0.09,-0.23,0.11,0.12,0.25,-0.23,0.03,-0.33,-0.21,0.26,0.24,-0.48,0.06,-0.36,0.29,0.38,-0.4,-0.01,-0.01,-0.06,0.11,-0.39,0.39,-0.41,0.11,-0.36,-0.43,0.41,0.01,-0.24,-0.24,-0.19,-0.03,-0.37,-0.36,0.18,-0.31,0.27,-0.31,0.36,0.34,-0.27,-0.1,-0.2,0.12,0.08,0,0.39,0.33,-0.17,0.38,-0.3,-0.16,-0.35,0.22,-0.21,-0.13,0.02,-0.5,0.11,-0.3,0.11,0.16,-0.47,0,-0.07,0.05,-0.08,-0.5,-0.39,0.19,-0.18,-0.21,0.13,0.1,-0.12,0.21,0.08,-0.03,-0.47,0.13,-0.32,-0.43,-0.32,-0.13,-0.44,0.46,-0.18,-0.09,0.35,-0.2,0.17,0.27,0.08,0.16,-0.28,0.07,-0.13,0.3,-0.32,-0.48,-0.42,0.39,0.22,0.14,0.05,0.4,0.21,0.04,-0.16,0.08,0.28,-0.45,0.46,0.47,-0.49,0.03,-0.03,0.15,-0.07,-0.03,-0.27,-0.5,-0.36,0.3,-0.48,0.05,0.2,0.47,-0.12,0.31,-0.16,0.28,-0.22,-0.49,0.04,-0.21,-0.15,0.03,0.31,-0.35,-0.25,0.27,-0.43,-0.24,0.01,0.12,0.3,0.1,0.14,0.18,-0.41,0.21,-0.14,0.21,0.29,-0.43],[0.23858973,0.41839954,0.118375294,-0.5016059,-0.3115625,0.22862403,-0.34124765,0.028996073,-0.27064073,-0.5005729,0.2595005,0.44954786,-0.08033352,0.20968537,-0.32021847,0.42982772,0.3296964,-0.23049031,-0.29056013,-0.040523313,0.42952344,0.369654,-0.220174,-0.099900484,0.24014275,-0.40988538,-0.18006448,0.19008878,0.21014059,0.120065026,-0.09011298,0.06976166,-0.28032368,-0.030251328,0.050000068,-0.07982332,0.4102111,0.31013426,0.45998213,0.009985704,0.09975024,0.03957771,-0.47070238,0.009153965,0.3492739,0.34927502,-0.32082263,0.41921005,-0.010929205,-0.35080963,0.3791828,-0.4108512,-0.011006654,-0.18119939,-0.36120945,0.36,0.13,-0.29,-0.24,-0.41,-0.09,-0.03,0.31,0.11,0.09,-0.32,0.23,0.45,-0.34,0.25,-0.49,-0.48,-0.19,0.19,0.35,-0.11,0.34,0.27,0.04,0.39,0.41,-0.11,-0.3,0.06,0.24,-0.18,-0.43,0.39,-0.18,0.19,0.29,0.2,0.04,0.36,-0.4,-0.37,0.22,-0.08,0.41,0.16,-0.38,-0.28,0.26,0.23,-0.37,0.36,0.27,0.29,-0.03,0.24,-0.49,0.35,0.17,-0.13,-0.33,-0.49,-0.24,-0.26,0.37,-0.24,-0.4,0.33,0.12,-0.04,0.46,-0.19,-0.03,-0.06,0.09,0.22,0.16,-0.08,0.35,0.37,0.26,0.19,0.12,-0.04,-0.07,0.37,0.04,-0.22,-0.08,0.07,0.17,0.43,-0.48,-0.33,0.18,-0.41,0.36,-0.02,0.05,0.14,0.05,-0.22,0.09,-0.21,0.27,0.31,-0.11,-0.18,-0.3,0.24,-0.42,0.08,0.49,0.29,0.1,-0.02,-0.12,0.29,0.31,0.49,0.22,0.32,-0.09,-0.46,0.28,-0.48,-0.21,-0.21,0.25,-0.01,0.35,-0.32,0.37,-0.3,-0.18,-0.02,-0.41,-0.17,0.19,0.11,-0.02,-0.29,-0.43,0.17,-0.01,-0.41,0.44,-0.27,0.07,-0.3,0.2,-0.44,0.16,0.05,0.42,0.23,0.36,0.04,0,0.24,0.01,-0.4,0.07,0.2,0.38,0.39,0.21,0.28,-0.03,-0.39,-0.11,-0.45,-0.4,-0.31,0.01,0,0.25,0.24,0.05,0.19,-0.42,-0.44,0.21,0.05,0.29,0.29,0.01,-0.19,-0.22,0.08,0.12,0.04,0.32,0.45,-0.41,-0.12,0.14,-0.14,0.28,0.09,-0.13,-0.35,0.25,-0.05,0.31,0.15,0.46,-0.03,-0.46,-0.08,0.47,-0.38,0.49,0.31,0.15,-0.05,-0.12,-0.49,0.41,-0.41,-0.13,-0.11,0,0.38,-0.01,0.34,-0.28,-0.36,-0.41,-0.38,0.35,-0.12,0.45,0.45,-0.19,0.43,-0.2,-0.25,0.24,-0.37,0.32,-0.46,-0.23,0.35,0.11,-0.01,0.05,-0.49,-0.21,0.14,-0.5,0.13,-0.06,0.19,-0.28,0.48,0.14,0.37,0.46,0.46,-0.08,0.32,-0.13,0.41,0.06,0.09,-0.33,-0.47,-0.01,0.22,-0.35,-0.38,-0.23,0.27,-0.23,-0.18,-0.39,0.14,-0.23,0.49,-0.22,-0.29,0.34,-0.05,-0.38,-0.28,0.43,-0.25,0.23,-0.17,-0.22,-0.07,-0.21,0.27,0.21,-0.5,0.17,-0.15,-0.21,-0.49,-0.18,0.01,0.02,0.07,-0.01,0.37,-0.15,0.17,-0.08,0.39,0.36,-0.5,0.09,0.46,0.17,-0.29,0.47,0.42,0.28,-0.17,0.15,0.41,-0.2,-0.35,-0.06,0.21,0.32,-0.01,-0.44,-0.24,0.15,0.26,-0.15,-0.25,0.17,0.27,0.19,-0.23,0.46,-0.25,0.36,-0.24,0.33,0.33,-0.04,-0.22,0.33,-0.17,-0.41,0,-0.47,0.25,0.07,0.45,-0.15,-0.1,-0.3,-0.14,-0.37,0.27,-0.45,0.36,0.1,-0.35,-0.27,-0.4,0.14,-0.16,-0.22,0.4,0.01,0.19,0.46,0.03,-0.03,-0.11,-0.43,-0.04,0.19,-0.35,0.37,-0.01,-0.1,0.06,-0.27,0.4,-0.32,-0.1,0.39,-0.23,0.06,-0.18,-0.36,-0.32,-0.31,-0.5,0.16,0.18,0.1,-0.14,0.13,-0.01,-0.46,-0.32,0.48,-0.17,0.29,-0.47,-0.02,0.46,-0.18,0.23,0.17,0.47,0.39,0.05,-0.05,-0.47,0.42,-0.17,0.41,-0.26,-0.06,-0.49,-0.17,-0.31,0.05,0.27,-0.17,-0.04,0.22,-0.11,0.36,-0.17,0.01,-0.12,-0.06,-0.29,0.08,0.4,-0.39,-0.35,0.41,0.42,0.44,0.32,0.15,-0.34,-0.22,0.14,0.04,0.12,0.25,-0.24,-0.06,-0.11,-0.46,-0.47,0.35,0.28,0.27,-0.49,0.2,-0.49,-0.27,0.43,0.37,-0.16,-0.05,0.01,-0.4,-0.26,-0.05,-0.48,-0.28,0.26,-0.18,0.01,-0.43,0,0.03,-0.11,-0.01,0.19,0.42,-0.4,0.13,0.1,0.38,-0.38,-0.17,-0.09,-0.15,0.29,-0.38,-0.41,-0.06,0.4,0.18,-0.5,0.45,-0.19,0.2,0.26,0.03,-0.2,-0.33,0.23,-0.47,0.18,-0.44,0.03,0.46,-0.16,-0.25,-0.13,0.02,-0.49,-0.41,-0.37,-0.21,-0.23,-0.05,-0.18,-0.32,0.19,0.38,0.15,0.39,-0.38,-0.19,-0.09,0.32,-0.44,0.05,-0.28,0.18,0.22,-0.35,0.12,0.42,0.39,0.06,-0.3,-0.44,0.3,-0.05,-0.49,0.04,0.24,0.07,-0.07,0.31,0.05,0.2,0.18,0.35,-0.13,0.08,0.34,-0.09,0.02,0.34,0.4,-0.14,0.14,0.2,0.39,0.29,-0.47,0.19,0.29,0.35,-0.04,-0.29,-0.1,0.2,-0.25,-0.24,-0.12,-0.27,0.37,-0.39,-0.36,0.05,0.38,0.1,-0.23,-0.15,0.36,-0.14,-0.2,-0.37,-0.2,-0.3,-0.1,-0.45,0.15,0.34,-0.09,-0.41,0.06,-0.28,0.01,-0.45,0.28,0.07,-0.16,-0.17,-0.2,0.47,0.1,-0.39,-0.3,0.11,0.04,-0.09,0.19,-0.15,-0.03,-0.46,-0.08,0.04,0.42,0.16,-0.12,0.15,0.04,-0.24,0.31,-0.16,-0.45,-0.1,0.34,-0.22,0.17,0.15,0.1,-0.41,0.27,-0.19,-0.25,0.44,-0.46,0.39,0.25,-0.31,0.43,0.19,0.16,0.48,-0.14,-0.21,-0.14,-0.13,0.16,-0.49,-0.21,0.34,0.17,-0.38,-0.48,-0.42,0.02,0.46,0.41,-0.31,-0.24,0.41,0.43,0.38,0.3,0.1,0.08,-0.34,0.28,-0.02,-0.01,-0.48,0.4,-0.32,0.22,0.35,0.09,0.32,0.48,0.26,-0.47,-0.03,0.11,0.15,-0.15,0.25,-0.08,0.14,-0.22,-0.33,-0.09,-0.42,0.47,0.06,0.42,-0.49,0.25,0.27,-0.32,0.25,0.2,-0.3,0.08,-0.32,0.02,-0.24,0.43,-0.02,-0.1,-0.33,-0.02,0.19,0.47,-0.35,-0.35,0.29,-0.2,-0.22,0.03,-0.45,-0.32,0.44,0.37],[0.10998759,-0.44000283,-0.090009555,-0.46001583,-0.16001926,-0.24003011,0.19995926,-0.41005197,0.3199268,0.13992746,-0.28006917,-0.450061,0.32993072,0.37992957,-0.07007522,-0.38008228,-0.42007452,0.31993553,0.42994475,-0.2700594,-0.39006278,0.17992699,0.21990615,-0.40011704,0.31987965,-0.10011664,-0.38010558,0.20988525,-0.030109746,-0.26010612,-0.37009722,0.06991373,0.25992504,-0.17007907,0.46991122,-0.39009723,-0.39010212,-0.28009832,0.08991448,-0.29008538,0.19992004,-0.42006165,0.15995754,-0.45003232,0.24996156,-0.4000423,-0.18004324,0.40995178,0.3599536,-0.35005394,-0.060057342,-0.2800571,-0.260049,0.19995816,0.25996056,0.42,-0.16,-0.2,-0.28,0.43,-0.37,0.49,0.12,0.08,0.01,0.15,-0.22,-0.01,0.4,-0.18,-0.49,0.36,-0.27,0.22,0.03,-0.48,-0.48,0.16,-0.16,0.21,-0.42,-0.29,0.34,-0.19,0.29,0.4,-0.17,-0.45,0.07,-0.45,0.26,0.3,0.49,0.15,-0.42,0.2,-0.04,-0.42,0.03,-0.4,0.31,0.32,-0.49,0.04,-0.37,0.08,0.49,0.02,-0.33,0.23,0.4,0.17,0.45,0,0.34,0.41,-0.36,-0.2,0.28,0.1,-0.18,-0.27,0.42,0.34,0.05,-0.29,0.37,0.07,0.13,0.32,0.06,0.43,-0.37,-0.26,0.4,-0.25,-0.3,-0.2,-0.33,-0.3,0.41,0.3,0.37,0.33,-0.35,-0.41,0.34,-0.02,0.3,-0.34,0.06,-0.35,-0.21,0.42,0.27,0.08,0.4,-0.34,0.48,0.42,0.21,-0.09,0.38,-0.15,-0.34,0.46,0.04,0.2,0.1,0.09,0.21,0.34,-0.38,0.08,0.19,0.01,-0.15,-0.42,0.19,-0.04,-0.14,-0.12,0.27,-0.03,-0.24,-0.1,0.13,-0.3,-0.03,-0.19,-0.16,-0.47,-0.18,-0.25,-0.01,-0.01,0.42,0.02,0.16,-0.32,0.04,-0.37,0.37,-0.29,-0.06,0.22,-0.48,0.21,-0.27,-0.24,-0.27,0.31,-0.04,0.01,0.05,-0.18,0.14,-0.09,-0.41,0.25,-0.18,-0.16,-0.27,-0.22,-0.26,0.17,0.01,0.37,-0.41,-0.31,0.09,0.32,-0.09,0.01,0.41,-0.27,0,0.06,-0.48,0.03,-0.12,0.42,0.47,-0.3,-0.42,0.02,0.07,0.3,0.19,-0.34,0.35,0.01,-0.07,0.4,0.35,-0.3,0.39,0.09,0.46,0.27,-0.3,-0.35,0.12,-0.47,0.17,-0.1,-0.1,0.45,0.1,-0.18,0.31,-0.42,-0.12,0.05,-0.13,-0.1,-0.13,-0.47,-0.31,0.21,-0.4,0.21,-0.33,0.42,-0.17,-0.43,-0.11,0,0.15,0.2,-0.17,0.41,0.09,-0.25,-0.17,-0.28,-0.2,0.43,0.03,0.18,-0.38,0.11,-0.31,-0.13,-0.15,0.27,-0.38,0.38,0.03,-0.05,0.33,0.36,-0.11,-0.25,0.16,-0.01,0.47,0.2,0.19,0.09,-0.49,0.39,-0.2,0.39,0.48,0.39,-0.02,-0.37,-0.28,-0.36,-0.41,-0.07,0,0.01,0.08,-0.02,0.01,0.3,0.07,0.06,0.45,0.01,0.47,-0.31,0.37,-0.03,0.02,-0.16,0.08,0.34,-0.25,0.1,-0.27,0.43,0.17,-0.27,-0.19,-0.2,-0.11,-0.05,-0.21,0.48,0.16,-0.12,-0.15,-0.1,-0.14,0.37,0.16,-0.32,0.47,-0.34,-0.37,-0.37,0.13,0,0.41,-0.4,-0.48,0,-0.13,-0.36,0.05,-0.13,0.39,-0.01,-0.31,0.06,0.34,-0.15,-0.33,-0.29,-0.1,-0.39,-0.24,0.47,0.34,0.09,0.33,-0.04,-0.39,0.14,0.18,-0.1,0.36,-0.42,-0.03,-0.4,-0.21,-0.33,-0.19,-0.3,-0.23,0.38,-0.43,-0.36,-0.07,-0.22,-0.01,0.35,-0.3,0.29,-0.47,-0.2,-0.5,0.26,0.25,-0.49,0.36,0.16,0.15,-0.18,-0.23,0.05,-0.11,0.23,-0.04,-0.35,0.01,0.3,-0.48,-0.41,-0.23,0.17,-0.47,0.47,0.43,0.02,-0.46,-0.38,0.04,0.06,-0.4,0.47,-0.24,-0.19,0.1,-0.13,-0.11,-0.4,-0.18,-0.04,-0.27,0.12,0.01,0.49,0.43,0.22,-0.01,-0.16,0.18,-0.23,0.27,0.18,0.33,-0.39,0.02,-0.14,-0.23,-0.48,0.33,-0.27,0.46,0.24,-0.38,-0.42,-0.28,-0.21,-0.21,-0.43,-0.38,-0.42,0.25,-0.1,-0.03,0.06,0.35,0.14,-0.35,-0.47,-0.46,-0.3,-0.48,0.2,-0.07,-0.24,0.29,-0.09,-0.36,-0.36,0.29,-0.26,-0.41,-0.14,-0.24,-0.41,-0.01,-0.01,-0.01,-0.07,0.27,0.13,-0.08,-0.09,-0.29,0.09,0.01,-0.14,-0.29,-0.24,-0.25,0.37,-0.29,-0.27,0.48,0.12,-0.3,-0.24,-0.2,0.36,-0.21,0.3,-0.36,-0.35,-0.22,0.38,0.49,-0.12,-0.37,-0.12,-0.43,-0.14,-0.36,0.22,-0.24,-0.1,0.28,0.11,-0.02,0.33,0.24,-0.08,-0.31,0.37,0.38,0.41,-0.48,0.36,-0.12,0.14,0.38,-0.27,-0.32,0.13,-0.37,0.46,-0.01,-0.23,-0.37,-0.17,0.1,-0.38,-0.28,0.33,-0.31,0.39,0.23,-0.01,0.47,0.07,0.34,0.09,0.28,-0.04,-0.38,0.36,0.11,-0.24,-0.24,-0.13,0.35,-0.38,-0.5,-0.01,0,0.34,-0.32,0.01,0.08,-0.21,0.41,0,-0.02,-0.36,-0.27,0.11,-0.3,-0.14,0.18,0.49,-0.33,0.03,0.38,0.31,0.3,-0.22,-0.05,0.21,0.01,-0.23,-0.15,-0.28,-0.5,0.26,-0.03,-0.03,-0.38,0.23,-0.18,-0.15,0.21,-0.28,0.41,0.18,0.15,-0.17,-0.39,0.13,-0.27,0,0.15,-0.26,0.08,-0.23,-0.31,-0.18,-0.26,-0.32,0.18,-0.29,-0.12,-0.03,0.49,-0.19,0.43,0.19,-0.01,0.22,0.17,0.25,-0.02,-0.03,-0.47,-0.18,-0.22,0.45,0.12,-0.3,-0.35,-0.03,-0.34,0.31,-0.03,-0.5,0.11,-0.4,0.14,0.23,0.06,-0.36,-0.27,0.43,-0.46,-0.4,0.46,-0.27,-0.28,0.09,0.24,0.46,0.33,-0.11,0.45,-0.02,-0.49,-0.32,-0.3,-0.25,0.49,-0.27,0.2,-0.46,-0.47,-0.29,-0.45,0.07,0.49,0.49,0.19,0.33,-0.45,0.26,-0.35,0.02,0.02,0.04,-0.07,0.42,-0.14,-0.46,0.23,-0.48,-0.04,-0.32,0.13,0.27,0.36,0.49,0.48,-0.07,0.4,-0.12,0.24,-0.17,-0.07,-0.31,0.4,0.32,-0.45,-0.11,-0.26,-0.27,0.4,0.41,0.41,-0.43,-0.26,-0.08,0.46,-0.04,0.25,-0.23,0.39,0.45,-0.01,0.18,0.08,0.35,0.08,-0.22,0.2,-0.5,-0.5,-0.24,0.42,0.16,-0.48,0.31,-0.41,-0.18,0.14,0.1,0.37,0.46],[0.29000792,1.5974443E-06,-0.3799935,0.040007975,-0.23999126,0.050014414,0.020019464,-0.069974154,-0.46996236,0.020035017,0.17003374,0.12002987,-0.009965961,0.28003636,0.33003813,0.25004196,0.110036686,-0.44996688,-0.2699716,0.27003086,0.18003042,-0.25996307,-0.27995333,0.13005717,0.48006037,-0.24994338,-0.44994664,-0.07994426,-0.16994691,0.13005157,0.3100493,-0.35995632,-0.099963054,0.42003995,-0.34995478,0.49004927,0.06004989,-0.46995035,0.08004167,-0.47995657,0.25004002,-0.23997019,0.46002212,-0.029983988,0.08001847,-0.19997951,-0.3299775,-0.26997417,0.47002494,-0.16997379,0.21002762,0.09002834,-0.1399762,-0.3999784,-0.2299807,0.05,-0.23,-0.02,0.06,-0.49,0,-0.41,-0.4,-0.1,0.2,0.03,-0.28,0.06,0.13,0.34,-0.31,0.07,-0.04,-0.29,-0.49,-0.08,-0.23,0.24,-0.46,0.17,-0.43,0.31,-0.05,0.49,0.41,-0.28,0.27,-0.2,0.15,0.09,0.21,-0.43,-0.04,0.06,0.01,0.16,-0.34,0.06,0.27,-0.46,-0.42,0.11,0.1,-0.37,-0.36,-0.37,-0.38,-0.35,-0.42,0.35,-0.22,0.02,-0.06,0.38,0.44,0.18,0.14,-0.4,-0.02,-0.03,0.26,0.41,0.41,-0.47,-0.38,-0.39,-0.39,0.4,0.19,-0.15,-0.25,0.2,0.47,0.49,0.09,-0.04,-0.29,-0.19,0.34,0.28,-0.41,0.11,-0.29,0.29,-0.19,-0.31,0.13,0.08,0.12,0.33,-0.49,-0.45,-0.42,-0.21,-0.22,-0.34,0.2,0.07,-0.5,-0.47,-0.48,-0.28,-0.04,0.23,0.09,0.07,0.05,-0.06,-0.22,-0.03,-0.03,-0.18,-0.24,0.2,-0.12,-0.36,0.2,-0.39,0.21,0.43,-0.02,0.02,-0.23,0.36,-0.17,-0.3,0.12,0.17,0.21,-0.08,0.26,0.14,-0.19,0.31,0.25,0.37,-0.35,-0.03,-0.31,0.23,0.13,-0.32,-0.21,-0.36,-0.15,0.18,0.29,-0.12,0.41,-0.37,-0.04,0.08,0.35,-0.44,0.04,-0.01,0.44,0.09,-0.11,-0.11,0.45,0.38,0.23,0.35,0.21,0.32,-0.49,-0.06,0.44,0,0.49,-0.28,0.41,0.47,-0.2,-0.2,-0.28,-0.37,0,0.14,-0.09,-0.26,0.25,0.07,0.46,-0.33,0.29,-0.26,-0.23,-0.25,0.43,0.05,-0.43,0.3,0.28,0.25,-0.06,-0.06,-0.07,0.03,0.17,-0.16,-0.07,-0.1,-0.36,-0.27,0.16,0.37,0.26,-0.26,-0.23,0.31,-0.41,0.25,0.47,0.21,-0.38,-0.35,0.38,0.03,-0.47,0.26,-0.33,0.18,0.07,-0.07,-0.36,-0.39,-0.31,0.05,0.35,0.28,0.19,0.47,0.46,-0.44,0.3,-0.16,-0.07,0.23,0.01,0.41,-0.02,-0.47,0.48,-0.39,-0.04,-0.18,0.33,-0.44,0.12,-0.21,0.05,0.4,-0.01,0.41,-0.33,0.24,0.32,0.21,-0.41,0.05,0.17,-0.3,-0.12,-0.02,-0.39,-0.38,0.28,0.41,0.41,0.27,0.22,-0.35,-0.49,-0.39,-0.23,-0.36,0.2,-0.05,0.46,0.32,-0.22,-0.37,0.42,0.05,-0.27,0.29,-0.03,-0.45,0.38,-0.45,0.02,0.22,0.14,0.46,-0.26,-0.23,0.14,-0.01,-0.5,-0.17,0.03,0.42,-0.35,0.34,0.07,-0.11,0.38,-0.12,0.13,-0.47,-0.46,-0.14,0.24,-0.24,-0.24,0.04,-0.22,0.33,-0.25,-0.18,0.15,0.23,-0.48,0.35,-0.25,-0.5,0.01,-0.45,0.37,0.49,0,-0.3,-0.05,0.13,-0.22,-0.14,0.47,-0.42,0.48,0.34,0.41,-0.41,-0.09,0.35,-0.5,-0.35,0.47,-0.13,0.19,0.19,0.49,0.3,-0.26,0.18,0.18,0.3,0.39,-0.2,0.08,0.07,0.37,0.32,0,0.13,0.03,0.34,0.41,-0.39,0.48,0.4,0.07,-0.31,0.34,-0.1,-0.1,0.06,-0.19,-0.34,0.34,-0.4,-0.48,-0.36,-0.14,-0.33,-0.5,0.19,0.45,0.27,0.44,-0.03,-0.04,0.16,-0.01,-0.09,0.46,-0.42,0.08,0.27,-0.19,-0.34,-0.26,0.36,-0.12,0.28,-0.38,0.3,0.46,0.34,-0.23,-0.38,-0.01,0.23,-0.05,-0.02,0.04,0.23,-0.04,-0.17,0.13,0.34,0.38,-0.36,-0.34,0.01,-0.06,0.4,0.19,-0.08,-0.06,-0.19,0.47,0.03,0.34,0.17,0.36,-0.35,0.25,0.07,-0.46,-0.31,0.22,-0.39,-0.01,0.32,0.48,0.22,-0.29,-0.49,0.36,-0.28,0.12,-0.26,-0.37,-0.03,-0.22,-0.41,0.19,0.37,-0.16,-0.28,-0.4,0.03,-0.11,0.45,-0.36,0.45,0.38,0.28,0.12,-0.11,0.47,0.39,-0.21,-0.07,-0.39,0.26,0.14,-0.16,0.02,0.21,0.19,0.18,0.06,-0.29,0.19,0.23,-0.11,-0.13,-0.11,0.26,-0.05,0.38,-0.28,0.32,-0.41,-0.32,0.22,0.03,0.17,-0.48,0.34,-0.07,-0.11,-0.03,-0.25,0.22,0.45,0.2,-0.15,0.01,-0.06,-0.15,-0.16,0.12,0.03,-0.09,0.47,-0.32,-0.25,-0.09,0.05,0,-0.11,0.35,0.43,-0.41,0.16,-0.04,-0.16,0.43,-0.46,-0.39,0.16,-0.01,0.36,-0.24,-0.21,-0.42,0.46,0.47,0.27,0.19,-0.48,0.37,-0.19,-0.4,0.03,0.09,-0.22,0.17,-0.29,0.03,-0.23,-0.24,-0.03,-0.17,-0.46,0.03,0.04,-0.35,-0.44,-0.02,-0.15,-0.08,-0.03,-0.17,0.18,0.34,0.26,-0.23,-0.38,0.38,-0.28,-0.22,0.13,0.36,-0.02,0.01,0.04,0.32,0.05,-0.44,-0.32,0.16,0.21,0,0.33,-0.1,-0.48,0.03,-0.28,0.25,0.04,0.3,0.4,-0.21,-0.17,0.1,-0.11,0.47,-0.09,0.18,0.33,-0.49,0.05,-0.17,-0.19,0.48,0.12,0.11,0.35,0.02,0.49,0.21,0.09,0.49,-0.2,0.19,0.2,0.46,-0.01,-0.22,0.32,-0.28,-0.45,-0.13,-0.17,-0.09,-0.13,-0.16,0.02,0.38,-0.39,0.06,-0.09,0.37,-0.28,-0.34,-0.4,-0.12,-0.31,0.35,0.28,-0.09,0.18,0.19,0.26,0.33,-0.3,0.41,0.49,0.13,0.39,-0.07,-0.02,-0.37,0.36,0.1,0.46,-0.32,0.49,0.39,0.1,-0.22,-0.42,0.46,-0.1,-0.08,-0.21,0.22,0.26,-0.36,0.09,-0.18,0.26,0.14,0,-0.1,0.04,-0.15,0.1,0,-0.3,-0.04,-0.15,0.38,0.49,0.18,-0.42,-0.22,-0.5,0.11,-0.31,0.42,-0.11,-0.21,-0.26,-0.01,-0.18,0.21,-0.21,-0.17,0.03,-0.02,-0.35,0.34,-0.46,0.07,0.16,0.33,0.12,-0.05,-0.44,0.11,0.07,-0.02,0.19,-0.36,0.42,-0.3,0.47,0.21],[-0.15950964,-0.48934492,0.21076626,-0.3591206,0.44093654,0.16091512,0.4209241,-0.029089624,-0.109214924,-0.49947363,-0.41939166,0.32067108,-0.44929996,-0.2292197,0.47083682,0.22092281,-0.1890405,0.0009777657,0.33090338,-0.0893225,-0.48937115,-0.25935087,0.15094846,0.051197786,0.051250156,0.08121213,-0.14880009,0.40122378,0.10120824,-0.39879546,0.061248805,-0.37875277,0.24123973,0.08123504,0.48123968,0.011240322,0.27123114,-0.49880362,0.40117505,-0.11882477,0.14112844,-0.3089284,-0.058984425,0.1210028,-0.12897603,-0.26896742,0.06103603,-0.2089527,0.011128662,0.46117312,0.32116073,-0.07884565,-0.13885881,0.051125173,0.19112721,-0.4,-0.15,-0.34,0.08,-0.14,-0.19,-0.48,0.36,-0.22,-0.07,0.45,-0.42,-0.03,-0.22,-0.05,0.45,-0.2,0.09,-0.05,0.27,0.32,0.29,-0.47,-0.33,-0.18,-0.48,-0.45,-0.12,0.13,-0.23,-0.36,0.25,-0.32,0.38,0.38,-0.34,0.1,-0.09,0.04,-0.43,0.11,-0.17,-0.35,-0.32,-0.09,-0.36,-0.42,-0.49,-0.44,-0.49,0.01,0.32,0.41,0.28,0.37,-0.2,-0.18,0.48,-0.24,-0.16,-0.25,0.14,-0.28,-0.5,-0.21,-0.3,0.4,0.09,-0.11,-0.21,-0.16,0.39,-0.45,-0.12,-0.35,-0.01,0.14,0.35,0.26,-0.33,0.43,-0.46,-0.18,0.12,0.26,-0.19,0.34,-0.11,-0.5,0.08,0.33,0.12,-0.36,-0.3,0.31,0.47,-0.4,-0.36,0.39,-0.29,-0.26,-0.01,0.11,0.27,0.17,0.12,0.27,0.03,0.13,-0.12,0.15,-0.03,-0.28,-0.41,-0.1,-0.29,-0.18,0.1,-0.26,0.47,-0.15,0,0.08,0.31,-0.05,0.21,0.24,0.34,0.07,-0.32,-0.12,0,0.45,0.04,0.43,-0.06,-0.08,0.04,0.45,-0.37,0.03,-0.19,0.26,0.11,0.43,-0.14,-0.1,-0.45,0.29,0.09,0.15,0,0.39,0.41,0.35,0.23,0.4,0.3,-0.19,0.45,0.38,0.42,0.45,-0.06,-0.5,-0.35,0.01,0.17,-0.34,0.46,0.29,0.27,0.15,-0.39,-0.07,-0.46,0.24,0.47,0.38,-0.42,-0.19,0.19,-0.46,0.47,0.02,0.37,0.1,-0.47,0.19,-0.31,0.03,0.12,-0.28,0.49,-0.25,0.11,-0.15,-0.19,0.11,0.27,0.35,0.23,0.39,0.33,0.29,0.37,0.35,0.28,-0.02,0.3,0.48,0.43,0.42,-0.27,0.13,-0.32,0.37,0.48,0.41,-0.38,0.05,-0.03,0.47,0.46,-0.08,-0.33,0.04,0.15,0.35,0.32,0.19,-0.08,-0.15,-0.4,-0.27,0.08,0.29,-0.29,-0.32,0.15,-0.48,0.31,0.05,0.38,-0.3,0.1,0.19,0.49,-0.15,-0.44,0.23,-0.13,-0.11,-0.01,-0.28,-0.13,0.25,0.42,-0.09,0.12,-0.17,-0.31,0.43,0.15,-0.39,0.06,0.08,0.31,0.49,-0.45,-0.11,0.16,0.29,-0.24,-0.41,0.23,0.41,-0.41,0.25,0.31,-0.03,0.05,-0.21,0.28,-0.41,-0.18,-0.48,0.35,0.38,0.35,0.33,0.37,0.29,0.05,-0.19,0.32,0.38,0.4,0.26,0.14,-0.48,0.37,0.49,-0.2,0.17,-0.44,0.07,-0.38,-0.1,-0.02,-0.05,0.15,-0.33,0.09,-0.36,0.28,0.39,-0.36,0.05,0.29,0.03,0.22,0.43,-0.37,-0.29,0.02,0.37,-0.27,0.44,-0.24,0.35,-0.49,-0.18,-0.4,0.29,0.09,0.05,0.49,-0.4,-0.47,0.24,0.39,-0.05,-0.1,-0.1,-0.33,0.19,-0.3,-0.09,0.03,0.43,0.23,-0.16,0.47,-0.39,-0.2,0.44,0.35,-0.42,-0.35,-0.31,-0.17,-0.32,-0.37,0.12,-0.07,-0.18,-0.44,0.3,0.05,-0.28,0.4,-0.46,0.02,-0.45,0.13,-0.23,0.03,0.23,-0.46,0.32,0.16,0.32,-0.1,-0.17,-0.38,0.17,-0.15,0.49,-0.02,0.14,0.19,0.41,0.45,0.33,-0.1,0.21,-0.19,0.27,0.46,0.35,0.12,-0.11,0.36,-0.19,-0.48,0.19,0.31,0.42,-0.03,-0.47,-0.09,-0.38,-0.46,-0.17,0.02,0.01,0.27,0.3,0,0.26,0.46,-0.43,-0.19,0.4,0.02,0.48,-0.42,0.19,0.14,0.41,0.45,0.25,0.27,-0.32,-0.3,-0.23,0.46,-0.41,-0.2,-0.07,0.35,-0.07,0.01,-0.05,-0.27,0.07,0.36,0.12,-0.19,0.39,0.44,0.01,-0.23,-0.31,0.38,0.04,-0.43,0.45,0.28,-0.47,0.1,-0.38,-0.23,0.06,-0.43,0.16,-0.16,0.35,-0.38,-0.26,0.04,0.17,-0.01,-0.44,0.4,0.02,0.06,0.35,0.16,0.45,-0.39,-0.04,-0.13,0.24,0.47,-0.07,-0.02,0.07,-0.21,0.15,-0.3,-0.5,-0.19,-0.24,0.33,0.23,-0.34,0.45,-0.12,0.06,-0.28,-0.49,-0.01,-0.44,-0.15,-0.24,-0.49,-0.3,-0.21,-0.15,0.48,-0.29,-0.22,0.33,0.41,-0.37,0.24,0.03,0.08,0.13,-0.32,0.27,0.05,-0.03,-0.46,0.04,-0.14,-0.27,-0.27,-0.33,-0.14,0.1,-0.03,-0.4,0.22,-0.4,0.47,-0.2,-0.11,0.2,-0.08,-0.23,-0.22,0.43,0.16,0.48,0.21,-0.03,-0.16,0.2,0.48,0.12,-0.14,0.24,-0.12,-0.05,-0.05,-0.49,-0.48,0.31,0.39,0.28,0.47,-0.39,0.49,-0.12,0.24,-0.32,-0.39,0.31,-0.35,-0.06,-0.36,0.37,-0.29,0.41,-0.01,0.12,0.31,-0.44,0.32,0.39,0.38,0.03,-0.32,0.24,-0.27,0.23,0.21,-0.23,0.15,0.46,-0.22,0.08,0.3,0.13,-0.21,-0.34,0.44,-0.23,-0.26,0.02,-0.14,0.03,0.04,0.04,-0.02,-0.02,0.02,-0.03,0.45,0.33,-0.31,0.45,0.48,-0.5,0.4,-0.06,0.43,-0.25,-0.36,-0.5,-0.03,0.34,-0.35,-0.31,-0.35,0.05,-0.43,0.08,0.11,-0.17,0.17,0.03,0.32,-0.21,0.02,-0.16,0.48,0.14,-0.25,0.24,-0.3,-0.27,-0.19,0.32,0.26,-0.17,0.09,0.3,0.22,0.35,-0.27,0.19,-0.37,-0.27,-0.46,0.02,-0.13,-0.16,-0.11,0.42,-0.09,0.44,0.36,0.12,-0.35,0.15,-0.37,0.18,-0.02,0.05,-0.05,-0.21,0.49,-0.11,0.3,-0.26,0.03,-0.17,-0.08,0.32,0.46,-0.24,0.35,0.25,-0.41,0.47,-0.1,0.08,-0.25,-0.5,0.47,0.14,-0.26,-0.18,-0.17,-0.24,-0.13,0.18,0.16,-0.4,-0.31,0.41,-0.18,-0.33,-0.1,0.44,0.19,0.23,-0.07,0.3,0.49,-0.46,0.42,0.07,0.46,-0.36,-0.42,-0.4,0.02,-0.33,-0.26,0.04,-0.07,-0.03,0.08,0.31],[-0.46618545,0.15291424,-0.44650608,0.024325427,0.36464337,0.33554423,0.15625024,-0.1826873,0.119108535,-0.46126947,0.43843558,0.17764108,-0.15144964,-0.3512465,-0.23086052,0.16991416,-0.35067883,-0.06159751,-0.5020459,0.41843736,0.20878622,0.16958466,-0.14869563,-0.3167814,-0.31642094,-0.23660699,-0.34732956,-0.0063954387,0.3536697,0.14331703,-0.027290842,0.3426319,0.08208932,0.08306876,0.3941031,-0.4650327,0.17558753,0.39513466,0.43387622,-0.3562131,-0.12670226,0.09198516,0.44046977,0.4095896,-0.30018222,-0.10973794,0.24032399,-0.13903837,0.3908495,0.07160686,-0.108273566,0.49157438,-0.029525595,0.14943574,-0.41056898,-0.14,-0.2,0.38,-0.15,0.1,0.19,-0.33,-0.04,0.48,0.07,-0.4,-0.4,0.26,-0.24,-0.26,-0.5,-0.25,0,0.35,0.04,-0.39,0.23,-0.06,0.47,0.28,0.01,0.28,0.09,-0.22,-0.25,-0.02,-0.14,0.42,-0.01,0.02,0.22,0.28,0.03,-0.17,-0.05,-0.3,-0.37,0.46,-0.16,-0.41,-0.21,0.47,-0.4,0.14,0.07,-0.37,-0.02,0.11,-0.4,0.47,0.13,0.36,0.4,0.07,-0.42,0.41,0.07,-0.33,0.22,-0.41,0.23,-0.33,-0.23,0.23,0.02,-0.29,0.21,-0.33,-0.1,-0.16,0.48,0.27,-0.41,0.37,-0.02,0.04,0.17,0.44,0.2,-0.39,0.49,0.25,0.31,0.02,0.39,0.35,0.38,0.46,-0.26,0.04,0.12,0.46,-0.27,-0.25,-0.14,-0.38,0.2,-0.13,-0.38,-0.14,-0.09,-0.19,-0.3,0.26,0.49,0.36,0.26,-0.48,-0.42,0.04,-0.27,0.12,-0.04,0.1,-0.41,0.48,-0.15,0.25,0.33,0.17,-0.18,0.25,0.42,0.36,0.21,-0.49,0.03,0.34,0.01,-0.14,0.33,-0.2,0.32,-0.16,0.2,0.17,0.04,-0.45,0.03,-0.47,-0.42,0.36,0.38,0.2,-0.2,-0.5,-0.01,0.12,-0.35,-0.12,0.26,0.45,0.03,-0.06,-0.47,0.16,-0.11,-0.16,-0.45,0.47,-0.18,0.42,0,0.21,0.2,0.43,0.29,-0.39,0.4,-0.08,-0.07,-0.2,-0.28,0.3,0.08,-0.05,0.36,-0.29,0.05,0.21,0.02,0.4,0.18,-0.37,0.09,0.38,0.26,-0.13,-0.19,-0.46,-0.23,-0.3,0.49,0.05,0.2,-0.35,-0.14,-0.33,0.49,-0.13,-0.3,-0.13,0.22,0.23,0.44,-0.04,0.23,0.23,0.36,0.07,0.3,-0.32,0.28,-0.16,-0.06,-0.09,-0.27,-0.13,-0.39,0.32,-0.34,-0.08,0.3,0.35,-0.36,-0.28,-0.2,0.16,-0.4,-0.08,-0.41,0.19,-0.29,-0.33,0,-0.35,-0.32,0.45,-0.32,-0.37,-0.36,-0.47,0.01,0.23,-0.26,-0.41,-0.09,0.15,-0.39,-0.22,0.42,0.48,-0.45,-0.33,-0.3,0.28,0.06,0.36,0.08,0.22,-0.35,-0.43,0.13,-0.07,-0.02,-0.39,0.46,0.1,0.33,-0.21,-0.27,-0.22,-0.32,0.48,0.17,-0.37,0.4,-0.43,0.11,-0.46,0.3,0.15,0.04,0.31,0,-0.4,0.13,-0.46,0.47,0.22,0.08,-0.19,-0.14,-0.04,0.47,-0.43,-0.1,-0.43,-0.25,-0.37,-0.37,0.31,0.32,0.32,-0.46,0.13,0.3,-0.43,-0.01,-0.43,0.37,-0.02,-0.26,0.03,0.41,0,0.02,0.31,0.43,-0.13,-0.03,0.41,0.13,-0.4,0.2,0.41,0.41,0.22,-0.5,0.1,0.23,0.32,0.32,-0.02,0.41,0.49,0.32,0.22,0.26,0.36,-0.2,0.05,0.05,0.39,0.35,-0.4,-0.43,0.32,0.04,-0.04,0.05,0.08,-0.36,0.37,0.15,-0.28,-0.33,0.21,-0.39,-0.37,0.22,-0.42,-0.43,0.39,-0.16,-0.45,0.16,0.26,0.12,0.41,0.18,0.29,-0.46,-0.44,-0.44,0.41,-0.15,0.23,-0.25,0.09,0.34,-0.42,-0.33,0.03,-0.46,-0.36,0.17,0.44,0.33,0.19,0.32,-0.4,0.1,0.13,-0.36,-0.28,-0.02,0.16,0.05,0.29,-0.06,-0.2,-0.3,0.13,0.28,0.26,0.04,-0.42,0.31,0.23,0.36,-0.07,-0.04,0.01,-0.22,0.13,0.4,0.03,0.34,-0.31,-0.13,0.21,0.43,0.42,-0.41,0.07,-0.32,-0.1,0.41,0.34,-0.07,0.19,-0.33,-0.05,-0.35,0.03,0.37,0.03,0.24,-0.22,0.09,0.09,-0.37,-0.41,0.33,-0.12,0.14,-0.42,-0.15,0.01,-0.19,0.44,0.32,-0.14,-0.08,0.22,-0.13,-0.22,0.03,-0.29,0.07,-0.36,-0.34,0.47,-0.2,-0.33,-0.24,-0.49,-0.14,0.24,0.25,-0.14,0.28,0.05,0.1,0.27,0.08,0.33,-0.41,0.21,0.42,-0.41,-0.46,-0.1,0.02,-0.02,0.37,0.31,-0.48,-0.07,-0.34,0.09,-0.5,0.03,0.21,-0.05,-0.08,-0.34,0.29,0.15,-0.38,0.13,0.22,0.1,0.25,0.44,-0.35,-0.24,0.26,0.15,-0.36,0.03,-0.31,0.32,-0.22,-0.03,-0.41,0.26,-0.06,0.31,-0.2,-0.06,0.48,0.42,0.08,-0.35,-0.14,-0.25,0.34,-0.36,-0.16,-0.09,-0.46,-0.07,0.09,-0.21,-0.14,-0.06,0.14,0.07,-0.18,0.1,-0.45,-0.13,-0.21,0.12,-0.1,-0.33,-0.26,-0.27,-0.15,0.16,0.21,0.47,-0.15,0.17,0.15,0.3,-0.48,0.1,0.08,0.4,-0.09,0.11,-0.2,0.22,-0.01,0.25,-0.27,0.49,-0.4,0.15,-0.38,0.36,-0.02,0.19,-0.12,0.1,0.13,0.46,0.25,-0.32,-0.49,0.11,0.29,0.18,0.2,-0.44,-0.43,0.41,0.14,0.06,-0.08,-0.46,0.49,-0.08,-0.31,-0.06,-0.43,0.07,-0.37,0.14,0.44,-0.25,-0.38,0.2,0.04,0.34,-0.02,0.16,-0.21,-0.46,-0.34,-0.44,0.34,-0.11,0.39,0.29,0.31,0.11,-0.48,-0.08,0.18,-0.19,-0.16,0.04,-0.27,-0.42,0.37,-0.44,-0.01,0.43,0.03,-0.44,0.32,-0.4,-0.27,0.25,-0.01,-0.42,-0.36,0.35,0.08,-0.09,0.12,0.1,-0.11,-0.15,-0.31,0.09,0.03,-0.11,0.12,-0.05,0.04,0.21,0.46,0.13,0.4,0.08,-0.03,-0.04,0.46,-0.08,-0.34,-0.15,0,-0.4,-0.27,0.24,-0.34,-0.37,-0.2,0.23,-0.03,-0.34,0.34,-0.24,0.19,0.24,-0.36,0.37,0.38,-0.22,0.02,-0.41,-0.19,-0.42,0.01,-0.39,-0.37,0.1,0.34,0.4,0.1,0.18,0.38,-0.35,-0.26,-0.24,-0.4,-0.22,-0.38,-0.05,-0.07,-0.11,-0.41,0.39,0.47,-0.13,0.37,0.2,0.43,-0.34,-0.07,0.1,0.07,0.18,0.39,-0.44,-0.46,-0.09,0.09,-0.39],[0.09998908,0.049996722,-0.22000834,-0.11001446,-0.3800177,0.2899724,-0.22003525,0.17995347,-0.4900666,-0.08006346,0.13993849,0.3499446,0.23993844,-0.07006266,0.34993196,-0.3700746,-0.5000704,-0.0900574,-0.39005104,-0.37005413,-0.2600574,-0.070063934,0.15991755,0.17989595,-0.0301068,-0.5001075,-0.4000956,-0.30010238,-0.24009697,-0.32009545,-0.28008762,0.17992362,0.18993318,-0.49007073,0.33991975,0.36991256,-0.40009168,0.18991289,0.25992298,-0.33007726,-0.41007137,-0.32005644,0.1799633,0.009970814,0.009966417,0.06996215,0.3499612,-0.3700445,0.31995693,0.25995028,-0.45005208,0.119948775,-0.20004344,-0.05003656,0.35996297,-0.34,0.39,0.1,0.42,-0.39,0.18,-0.42,-0.08,0.33,-0.31,0.45,-0.35,0.23,0.08,0.47,-0.48,-0.19,0.14,0.43,-0.46,-0.45,0.25,-0.35,-0.34,0.39,-0.36,0.47,-0.13,-0.01,-0.38,0.1,-0.12,-0.26,-0.36,0.18,0.48,0,0.27,0.15,-0.02,-0.5,0.26,0.35,-0.19,0.05,-0.08,-0.38,0.04,0.34,0.23,0.24,0.47,-0.14,-0.09,0.3,-0.1,0.23,-0.07,-0.48,0.46,0.21,0.21,0.42,0.2,0.09,0.07,0.41,0.08,0.4,0.49,0.01,0.03,0.49,-0.05,-0.47,-0.21,0.4,0.33,0.11,-0.03,-0.48,-0.08,0.02,0.25,-0.12,0.12,-0.49,0.32,-0.17,-0.23,-0.26,-0.43,0.24,0.18,0.26,-0.21,0.33,-0.36,0.21,0.48,0,0.03,0.13,0.35,-0.28,-0.3,0.47,0.41,-0.12,0.01,0,0.4,0.32,0.05,0.44,-0.21,-0.32,-0.34,-0.18,0.47,0.05,-0.41,-0.25,0.13,0.24,-0.06,0.29,-0.19,0.18,0.23,-0.05,0.26,-0.39,0.12,0.47,-0.02,0.28,0.16,0.03,-0.33,0.14,-0.4,-0.06,0.32,0.26,-0.16,-0.25,-0.31,0.23,-0.03,-0.39,0.16,0.32,0.24,-0.08,-0.09,-0.22,-0.5,-0.39,0.28,-0.09,0.16,-0.28,0.14,-0.45,0.24,0.29,-0.31,0.08,-0.05,0,0.01,0.13,-0.36,-0.18,-0.06,0.14,-0.07,0.36,-0.1,-0.32,0.09,0.07,-0.29,0.12,0.28,0.43,-0.14,-0.31,0.05,-0.3,0.28,0.05,0.24,0.26,0.48,0.38,0.29,0.26,-0.48,0.05,-0.45,0.11,-0.22,0.46,0.09,-0.47,0.18,-0.08,0.48,0.26,0.35,-0.37,0.21,0.09,0.31,-0.42,-0.49,-0.48,-0.24,0.3,-0.08,0.49,-0.48,-0.25,0.22,0.46,0.38,-0.13,-0.16,0.06,0.35,0.16,0.34,0.35,-0.38,0.48,-0.21,-0.26,-0.48,0.25,-0.25,0.43,-0.29,0.29,-0.15,0.15,0.34,-0.35,0.44,0.39,0.36,0.26,0,-0.29,-0.38,-0.44,0.09,-0.48,-0.27,0.12,-0.36,-0.2,-0.42,-0.09,0.4,-0.31,-0.22,0.36,-0.04,0.33,0.29,0.26,-0.5,0,0.05,-0.02,0.27,-0.28,0.39,-0.43,-0.38,0.23,-0.07,-0.06,0.2,-0.41,-0.35,0.13,0.22,-0.44,-0.12,-0.24,-0.5,-0.1,0.1,0.45,0.35,0.3,0.38,-0.34,-0.14,0.48,0.18,-0.4,-0.4,-0.41,0.26,0.49,0.15,0.13,-0.22,-0.14,-0.37,-0.34,0,-0.09,0.36,0.14,0.21,0.31,-0.47,0.15,-0.37,-0.1,-0.06,0.02,0.25,0.1,0.39,0.1,0.13,0.47,-0.17,0.23,0.21,-0.36,-0.46,-0.18,-0.16,0.1,-0.18,-0.35,0.47,-0.42,0.28,-0.48,-0.37,0.34,0.39,-0.31,-0.42,-0.29,-0.41,-0.43,-0.38,0.2,0.34,-0.23,0.16,0.07,-0.16,-0.35,-0.41,-0.45,-0.5,-0.19,-0.48,-0.1,-0.05,-0.15,-0.14,0.04,-0.21,-0.39,-0.02,0.38,0.18,-0.46,0.12,-0.08,-0.11,0.41,0.2,0.2,0.02,-0.08,0.38,-0.24,0.1,-0.5,-0.21,0.27,0.16,0.27,-0.25,-0.33,-0.45,0.41,-0.42,-0.03,0.49,0.23,-0.12,0.04,0.32,0.03,0.41,0.47,0.08,-0.26,-0.48,0.29,0.15,-0.27,-0.33,-0.08,-0.05,-0.11,0.02,0.07,-0.08,0.26,0.29,-0.05,-0.45,0.09,0.37,0.02,0.35,-0.19,0.32,0.26,0.46,-0.35,-0.08,0.16,0.02,-0.34,0.37,0.48,0,0.4,0.17,-0.14,0.48,0,-0.39,-0.08,0.09,0.32,0.21,0.16,-0.12,0,-0.46,-0.28,0.43,0.43,-0.02,-0.27,0.16,-0.11,-0.38,-0.23,-0.08,-0.25,0.33,0,0.3,0.01,0.4,-0.21,0.02,0.04,-0.44,0.02,-0.42,-0.07,-0.04,0.05,-0.03,-0.06,0.42,-0.48,0.09,-0.34,-0.13,-0.05,-0.39,-0.31,0.22,0.08,0.17,0.13,-0.18,-0.39,0.28,-0.1,0.43,0.22,0.16,0.11,0.11,-0.42,0.42,-0.08,-0.36,0.34,-0.06,0.02,-0.36,0,-0.04,0.42,0.25,-0.29,-0.04,-0.41,0.17,-0.25,0.37,-0.12,-0.11,0.11,0.28,-0.19,0.11,0.38,-0.29,0.45,0.24,0.18,-0.01,0.23,0.39,0.36,0.33,0.34,-0.41,-0.33,-0.48,0.03,-0.49,0.09,-0.45,-0.29,-0.38,0.24,0.37,-0.39,0.14,0.18,0.23,0.17,0.35,-0.22,-0.28,-0.5,-0.21,0.11,0.3,-0.24,0.12,-0.02,0.27,-0.04,-0.49,0.22,-0.47,0.39,-0.12,0.12,-0.5,-0.01,-0.27,-0.16,-0.14,0.3,0.05,0.07,-0.31,0.36,-0.5,-0.4,-0.2,-0.44,0.44,0.31,0.38,0.11,0.13,0.32,0.05,-0.02,-0.13,0.26,0.4,0.02,0.31,0.09,-0.3,-0.11,0.21,0.48,0.23,-0.48,0.17,-0.27,-0.06,0,0.41,-0.08,-0.05,0.22,-0.08,0.43,-0.25,0.02,-0.33,0.21,0.01,-0.3,0.34,-0.08,-0.24,0.05,-0.44,0.01,-0.38,-0.03,-0.06,0.34,0.48,0.46,-0.14,0.29,-0.35,-0.49,-0.14,-0.22,-0.12,0.2,-0.13,-0.12,0.19,-0.29,-0.13,0.33,-0.44,-0.07,0,-0.13,-0.16,-0.41,-0.43,0.49,0.05,-0.21,0.22,-0.33,0.45,-0.34,-0.39,0.46,-0.45,-0.43,-0.07,-0.01,-0.15,0.12,0.28,-0.27,-0.35,0.39,-0.17,0.31,0.33,-0.05,0.22,-0.45,-0.32,-0.27,-0.06,0.18,0.47,-0.43,-0.01,0.39,0.38,-0.14,-0.26,0.35,-0.21,-0.31,-0.17,-0.29,0.09,-0.1,-0.18,0.12,0.27,0.38,-0.02,-0.06,0.15,-0.24,-0.29,-0.05,0.25,-0.24,-0.34,-0.41,0.06,0.17,0.49,0.21,0.21,-0.07,0.48,0.48,0.07,0.04,0.1,0.48,-0.13,0.42,0.44,0.46],[0.04999262,-0.3900011,-0.2800042,-0.080009736,-0.37000984,-0.40001616,-0.2300238,-0.2000294,0.24995954,-0.50003606,-0.4700365,0.20996703,0.34996393,-0.4700371,-0.37003955,0.11995522,-0.3000399,-0.350035,-0.21002926,0.1199683,-0.30003557,0.109957665,-5.428149E-05,-0.34006733,-0.08007056,-0.1700684,-0.45006064,-0.27006534,-0.23006444,-0.010062105,-0.43005586,0.21994928,-0.19004449,-0.2500445,0.39994922,0.13994278,-0.4600418,0.23997751,0.45998684,-0.040015306,-0.11001135,0.17999858,0.46001166,0.2000151,-0.109987475,-0.2399906,-0.3799885,0.030006357,-0.0999925,0.48000428,0.2800031,-0.28999743,0.13000588,-0.18998916,0.2600126,0.44,0.11,-0.45,0.49,0.29,-0.45,-0.46,-0.47,-0.25,0.43,-0.2,-0.11,0.1,-0.37,-0.01,0.07,-0.05,-0.31,0.32,-0.27,0.01,0.15,0.29,0.26,-0.35,-0.29,0.01,0.32,-0.21,0.21,0.35,-0.41,-0.5,-0.02,0.45,-0.48,0.48,0.24,-0.34,-0.09,-0.15,0.15,0.2,0.27,-0.41,0.37,0.02,-0.1,0.41,-0.1,-0.18,-0.48,0.3,-0.43,-0.26,-0.22,0.31,-0.21,0.34,0.08,0.03,-0.29,0.23,0.04,-0.42,-0.29,-0.12,-0.39,-0.33,-0.04,0.09,0.21,-0.48,-0.09,0.38,0.36,0.44,-0.48,0.17,-0.22,0.18,-0.39,0.4,0.38,-0.12,0.32,-0.21,0.42,-0.26,0.17,-0.3,0.18,0.4,0.08,0.37,-0.37,0.41,-0.35,0.19,0.38,-0.02,-0.1,-0.28,-0.05,0.31,0.11,0.49,-0.12,-0.31,-0.13,-0.16,0.29,0.12,0.05,0.39,-0.08,-0.2,0.35,-0.34,-0.25,0.42,-0.04,0.37,0,-0.25,0.4,0.31,-0.06,0.04,0.25,0.44,0.29,-0.18,0.29,0.3,-0.22,0.39,-0.05,-0.44,0.27,0.32,0.4,0.23,0.36,-0.18,-0.1,-0.44,-0.16,0.18,-0.05,0.32,-0.44,0.49,-0.07,0.46,-0.48,0.02,0.21,-0.31,0.41,0.3,0.05,0.34,-0.06,-0.07,0.04,-0.04,0.33,0.25,0.1,0.03,0.34,0.28,-0.11,-0.07,-0.49,0.23,-0.49,-0.33,0.34,0.33,-0.04,0.26,-0.42,0.42,0.38,0.3,0.39,0.32,0.28,0.25,-0.33,-0.24,-0.35,0.46,-0.23,-0.45,-0.22,-0.07,0.27,0.43,-0.28,0.08,-0.43,0.41,0.47,-0.23,0.1,0.49,0.44,-0.22,0.01,0.03,-0.16,-0.43,-0.17,0.29,0.25,0.01,0.04,0.24,0.07,-0.5,0.47,0.34,-0.14,0.08,0.12,-0.08,-0.35,0.46,-0.06,0.07,-0.11,0.4,0.11,0.37,0.18,-0.33,0.45,0.1,-0.31,0.4,0.38,-0.01,-0.26,0.13,0.42,-0.42,0.13,-0.02,-0.21,0.26,0.39,-0.48,-0.14,-0.28,0.11,-0.27,0.05,-0.11,0.15,-0.33,0.33,0.47,0.34,0.43,-0.37,-0.07,-0.04,-0.05,-0.4,0.08,0.06,0.43,0.04,0.16,-0.39,-0.03,0.1,0.22,0.16,0.04,0.29,0.17,0.17,0.17,0.18,-0.14,0.04,-0.11,-0.24,-0.05,0.11,0.06,0.45,-0.48,-0.44,0.41,0.15,-0.2,-0.01,-0.02,0.12,-0.33,-0.13,0.2,-0.3,0.45,-0.02,0.2,-0.4,-0.37,0.12,0.33,0.22,-0.4,-0.12,-0.34,-0.2,-0.34,-0.26,0.26,0.39,-0.43,-0.31,0.15,0.47,0.49,0.48,0.02,0.1,-0.3,0.32,-0.21,-0.28,-0.33,0.42,0.11,-0.21,0.46,-0.03,0.23,0.38,0.34,-0.22,-0.38,0.32,0.28,0.33,0.34,0.13,0.4,0.1,-0.02,-0.44,0.22,0.09,0.05,0.47,0.22,0.23,-0.3,0.47,0.45,-0.41,0.39,-0.2,-0.17,0.1,0.05,-0.32,0.26,0.36,-0.17,0.19,0.01,0.37,-0.45,0.28,-0.43,0.33,-0.32,-0.34,-0.37,0.39,0.2,0.09,-0.16,-0.27,-0.01,0.08,-0.13,0.14,0.07,-0.27,-0.24,0.26,0.43,0.24,-0.11,0.31,-0.01,-0.33,-0.22,0.15,0.36,-0.47,-0.23,0.29,0.04,0.34,0.03,0.26,0.39,0.38,0.04,-0.46,0.33,-0.45,-0.11,-0.21,0.46,-0.41,-0.39,0.46,0.31,-0.38,-0.22,-0.4,-0.08,0.24,0.44,-0.19,-0.11,-0.25,-0.17,-0.49,0.37,-0.03,-0.48,0.16,-0.18,0.05,0.18,0.14,-0.46,0.1,0.24,0.18,0.18,-0.28,0.43,0.37,-0.16,-0.41,0.35,-0.11,-0.44,-0.18,0.34,0.24,0.24,-0.33,-0.14,0.3,0.4,-0.28,-0.13,0.14,0.05,0.03,-0.34,-0.15,-0.47,0.22,0.47,-0.09,-0.09,-0.04,0.41,-0.29,-0.13,0.1,-0.09,-0.3,0.31,-0.44,0.46,-0.2,-0.1,0.44,0.44,0.05,0.13,-0.22,0.42,-0.36,-0.32,0.38,0.24,0.32,-0.28,-0.4,-0.37,-0.35,-0.45,0.07,0.34,0.11,-0.39,-0.06,0.47,0.1,-0.1,0.13,-0.14,-0.36,0.26,-0.34,0.48,0.34,-0.24,-0.43,-0.27,0.1,0.08,0.11,0.21,0.25,0.3,0.32,-0.27,0.03,0.22,-0.42,0.48,-0.24,-0.04,-0.25,-0.36,-0.27,-0.29,-0.16,-0.32,0.46,0.46,-0.16,-0.35,-0.5,0.41,0.27,-0.12,-0.49,0.39,0.39,0.06,-0.35,0.36,0.03,0.07,-0.06,0.35,-0.41,0.31,-0.22,-0.3,-0.06,0.37,-0.19,0.14,-0.4,0.18,0,-0.48,0.24,0.12,0.41,0.38,-0.23,0.13,-0.27,-0.05,0.21,0.34,-0.47,-0.06,-0.29,0.13,0.32,0.02,0.33,-0.11,0.43,0.18,0.2,-0.12,-0.38,0.03,0.4,0.25,0.02,-0.03,0.33,-0.14,0.3,-0.41,0.38,0.49,-0.35,-0.23,0.14,-0.24,0.09,0.39,-0.17,0.48,-0.36,-0.25,0.28,0.34,0.49,0.3,-0.45,0.28,0.31,0.2,0.24,0.31,-0.19,-0.14,0,-0.12,0.47,0.02,-0.4,0.26,0.12,-0.15,-0.47,0.43,0.05,-0.28,-0.02,0.05,0.37,0.06,0.3,-0.46,-0.15,0.21,-0.27,0.36,0.25,-0.44,0.26,0.22,-0.09,-0.46,0.05,-0.4,-0.16,-0.43,0.17,0.28,0.26,-0.24,-0.22,-0.43,0.28,0.06,-0.14,0.29,-0.28,0.34,-0.22,0.26,-0.18,-0.01,0.41,-0.26,0.39,0.2,-0.04,0.1,-0.38,0.13,0.13,0.41,0.25,-0.12,-0.16,0.07,0.3,0.42,0.09,-0.02,0.05,0.19,0.29,0.11,-0.23,0.22,-0.25,0.28,-0.15,-0.06,0.14,0.4,0.28,0.49,-0.11,0.42,-0.37,-0.2,-0.29,0.13,0.1,-0.43,0.16,-0.38,0.13,-0.13,-0.19,-0.11,-0.28,0.28,0.49,-0.2],[-0.24854106,0.29101628,-0.28868017,0.12168726,0.2018143,-0.2076019,0.46294537,-0.33639073,-0.045288008,0.17459221,-0.25551105,0.18406667,0.49452907,0.22457291,-0.3652029,0.26522708,0.48485768,-0.07568736,-0.0561687,-0.005992983,0.21419694,0.454666,0.37578267,-0.012875222,-0.46270874,0.16709219,0.4765454,0.40695998,-0.08330803,0.36649334,0.06601256,0.07540352,-0.045119517,-0.16494611,0.1556738,0.48611215,0.28634182,0.27612573,-0.28456944,0.3354548,-0.15492989,-0.45586783,-0.3169127,0.43258664,0.32282725,0.47307378,-0.37693727,0.40341237,-0.25671697,0.053682864,-0.096152365,0.2939033,-0.166549,-0.0069828657,0.09297551,-0.21,0.41,0.23,0.09,-0.47,-0.18,-0.45,0.25,0.08,-0.4,0.17,-0.27,0.15,-0.43,-0.36,0.47,-0.29,-0.3,0.11,-0.35,0.16,0.26,0.44,0.15,-0.45,0.03,-0.43,0.16,0.35,-0.05,0.26,-0.27,0.45,0.24,-0.15,-0.43,-0.45,-0.33,-0.33,0.01,-0.22,-0.21,0.09,0.32,-0.35,0.23,-0.04,0.33,-0.41,0.07,-0.31,0.09,0.22,-0.17,0.42,0.03,0.47,-0.43,0.03,0,-0.26,-0.11,0.39,-0.37,-0.16,-0.07,-0.22,0.41,0.21,-0.43,0.42,-0.47,-0.48,-0.41,0.37,-0.13,-0.34,-0.39,0,-0.18,-0.44,-0.27,0.06,-0.22,-0.24,-0.33,0.01,0.11,0.32,0.32,-0.41,0.47,0.14,0.17,-0.24,0.38,-0.11,-0.04,-0.02,0.22,-0.05,0.05,-0.38,-0.48,0.14,-0.35,0.06,0.12,-0.04,0.05,-0.14,0.35,0.07,-0.29,-0.07,-0.49,0.32,0.1,0.37,-0.34,0.41,0.16,-0.42,0.39,0.47,0.45,-0.11,-0.16,0.33,0.48,0.47,0.2,0.13,0.28,0.36,0,-0.39,0.04,0.13,-0.39,0.11,0.39,-0.36,-0.23,-0.05,-0.26,-0.1,-0.07,-0.26,-0.25,-0.44,0.28,0.08,-0.19,0.3,0.29,-0.04,-0.28,-0.46,0.19,0.25,-0.29,0.28,-0.02,0.07,0.15,-0.28,0.28,-0.16,0.42,0.39,-0.23,0.47,0.26,0.05,-0.48,0.01,0.31,-0.07,0.23,0.04,0.46,-0.4,0.08,0.41,-0.32,-0.39,-0.19,0.47,-0.43,-0.47,0.39,-0.01,0.44,-0.15,-0.11,-0.4,0.16,0.19,0.29,-0.49,0.11,-0.42,-0.18,-0.15,0.28,0.31,0.32,0.26,0.28,-0.23,0.15,0.28,-0.19,-0.36,0.29,-0.39,-0.3,0.06,-0.12,0.03,0.41,0.31,-0.23,0.38,-0.5,0.28,-0.48,-0.09,-0.34,0.41,0.34,-0.39,0.14,0.21,0.43,0.37,0.28,-0.28,-0.37,-0.13,-0.21,0.05,-0.31,0.29,-0.12,-0.4,-0.33,0.29,0.05,-0.23,0.39,-0.4,-0.19,-0.25,-0.4,0.3,0.31,-0.07,-0.15,-0.5,0.28,-0.09,0.09,0.36,-0.08,0.03,-0.36,0.09,-0.29,0.42,-0.17,0.48,-0.08,-0.49,-0.26,-0.15,0.11,-0.03,-0.01,0.39,0.1,-0.27,0.35,0.38,-0.49,0.24,0.3,-0.12,0.11,-0.38,-0.44,-0.16,0.37,-0.37,0.08,0.37,0.45,-0.17,-0.14,0.35,0.46,0.08,0.07,0.13,0.44,0.41,0.17,-0.2,-0.49,0.24,-0.31,-0.17,0.43,-0.05,-0.11,0.05,0.05,0.21,0.34,0.18,0.23,0.26,0.48,-0.41,0.36,0.49,-0.39,-0.21,-0.07,-0.14,-0.1,-0.22,-0.4,0.14,0.43,-0.48,0.15,-0.28,0.44,-0.4,-0.44,-0.01,-0.13,0.37,0.43,0.22,-0.1,-0.09,0.23,-0.48,-0.18,-0.26,-0.02,0.18,-0.39,-0.3,0.1,-0.02,0.26,0.44,0.3,-0.12,0.37,0.14,-0.17,0.41,-0.27,-0.21,0.02,-0.13,0.39,-0.18,0.26,0.24,0.12,-0.27,-0.11,-0.4,-0.35,-0.36,0.08,0.19,0.05,-0.1,-0.46,-0.34,0.29,-0.08,0.02,0.22,-0.09,-0.33,-0.04,0.49,-0.21,0.17,0.12,0.22,0.03,-0.48,-0.01,-0.39,0.39,-0.14,-0.37,0.49,-0.03,0.24,-0.45,0.38,0.31,-0.01,-0.18,0.12,-0.14,-0.39,0.32,-0.03,0.09,-0.33,-0.39,0.3,0.26,0.29,0.45,0.21,0.36,0.26,-0.05,0.44,0.11,0.16,0.07,-0.37,0.14,-0.04,0.29,-0.31,-0.24,-0.46,0.18,-0.45,-0.14,0.14,0.41,0.42,0.34,0.33,0.13,-0.32,0.35,-0.35,-0.38,-0.14,0.4,0.18,-0.15,-0.4,-0.1,-0.09,-0.38,0.21,-0.21,-0.39,-0.23,-0.36,0.42,-0.31,0.47,0.39,-0.19,0.13,-0.3,0.04,-0.01,-0.45,-0.07,-0.39,0.37,-0.47,0.37,-0.47,-0.37,-0.23,-0.41,-0.05,0.03,-0.29,-0.28,0.46,-0.39,0.18,0.29,0.34,0.41,0.46,0.26,-0.25,-0.13,0.26,0.49,0.15,0.35,0.23,0.36,-0.28,0.44,0.07,0.36,0.34,-0.26,-0.26,-0.27,-0.14,0.04,-0.41,0.08,-0.48,-0.48,0.31,0.11,0.21,0.46,-0.49,0.28,0.13,0.33,-0.15,0.12,0.02,-0.21,-0.32,0.23,-0.4,-0.47,-0.29,-0.33,-0.11,-0.1,0.36,0.01,0.45,-0.16,-0.12,0.21,0.37,-0.05,-0.08,-0.2,0.32,-0.12,0.24,-0.28,0.06,-0.35,-0.22,0.19,0.34,0.45,-0.28,-0.12,0.08,0.44,-0.16,0.05,-0.44,0,-0.38,-0.18,-0.18,0.41,-0.32,0.11,-0.35,-0.21,0.15,-0.14,0.08,-0.21,0.4,-0.33,-0.1,-0.45,0.3,-0.37,0.04,0.45,-0.33,0.45,0.25,0.02,-0.17,-0.07,-0.32,-0.02,0.42,-0.5,0.49,0.32,0.15,-0.14,-0.17,-0.4,0.47,0.4,-0.31,-0.37,-0.43,-0.23,-0.01,0.41,-0.39,0.04,-0.46,-0.45,0.48,0.03,-0.36,-0.3,-0.5,-0.4,-0.17,-0.33,0.07,0.3,0.08,0.24,-0.07,0.17,-0.14,0.14,-0.14,0.25,0.14,0.03,0.34,-0.2,-0.43,0.4,0.43,-0.09,0.38,0.4,-0.05,0.33,-0.09,0.29,-0.12,-0.38,0,-0.11,0.36,0.29,0.32,0.04,-0.47,-0.35,0.02,-0.33,-0.19,-0.06,0.2,-0.11,0.4,0.35,0.05,-0.15,0.39,0.01,-0.3,0.17,-0.05,-0.26,-0.23,0.08,-0.28,-0.07,0.22,0.24,-0.11,0.29,-0.14,-0.2,-0.33,0.47,0.28,0.07,0.43,-0.4,-0.01,0.18,0.28,0.39,0.08,-0.02,0.21,-0.01,0.49,0.09,-0.23,-0.45,0.39,0.37,0.41,0.32,0.43,0.12,0.02,-0.27,-0.18,0.1,-0.07,0.27,0.28,0.02,-0.42,-0.11,-0.29,0.43,-0.43,0.47,-0.08,0.29,-0.49,0.01,0.39,0.05,0.15],[0.28047076,0.3703922,0.22046426,-0.06950456,-0.37956962,-0.03960671,-0.16957699,0.39042154,-0.01958302,-0.119594686,-0.1496438,-0.46971956,-0.34971815,-0.44970798,0.19031526,0.28035188,0.39017665,-0.24989724,-0.49987128,-0.38986278,-0.4498423,-0.09969182,-0.18957436,-0.22962078,-0.43955234,0.020419205,-0.19962199,0.12045938,-0.39948,0.36065736,-0.109327555,0.43068278,-0.12932359,0.46066597,0.23066731,-0.14933568,0.09065069,-0.33939424,-0.189431,-0.19942562,-0.059418738,0.12059272,0.09056844,-0.48944384,0.36056384,0.4005971,0.41059625,0.42060092,0.22060016,-0.48940736,-0.38940763,-0.23940247,0.39059561,-0.059410498,0.090580285,-0.12,0.06,-0.05,-0.13,0.09,-0.34,0.2,0.29,0.12,0.48,-0.09,0.15,-0.31,-0.19,-0.16,-0.32,0.22,0.43,0.19,0.16,-0.07,0.3,-0.21,-0.1,-0.35,0.11,-0.13,0.39,-0.42,0.24,-0.37,-0.46,0.43,-0.14,-0.15,0.28,-0.37,0.29,0.22,-0.36,0.23,0.32,0.47,-0.48,-0.06,-0.26,0.21,0.1,-0.12,0.32,-0.11,-0.17,-0.31,0.27,-0.34,0.08,-0.23,-0.45,-0.29,0.48,0.29,0.3,0.21,0.38,0.35,-0.13,0.22,0.32,0.45,0.05,-0.45,0.43,-0.29,0.05,0.43,0.1,0.32,-0.24,0.45,0.41,0.39,0.26,0,-0.24,-0.15,0.3,0.34,-0.35,-0.31,0.27,0.01,-0.42,0.07,0.23,-0.15,0.42,-0.39,-0.41,-0.33,-0.43,0.01,0.39,0.14,0.33,0.26,-0.05,-0.39,0.14,0.34,0.06,0.25,-0.5,-0.41,-0.21,-0.42,-0.48,-0.2,-0.06,0.02,-0.45,0.03,0.06,0.13,-0.32,-0.47,0.47,-0.15,-0.03,-0.3,-0.5,-0.02,0.23,-0.41,0.38,-0.11,-0.5,-0.39,0.17,-0.01,0.39,0.18,-0.3,-0.19,0.13,-0.49,0.01,0.48,-0.23,0.15,-0.18,0.12,0.16,0.06,-0.38,0.03,0.45,-0.25,-0.04,0.3,0.29,-0.41,0.13,-0.07,0.34,-0.43,-0.48,0.41,-0.29,0.4,-0.42,0.4,0.12,0.45,0.13,-0.14,-0.18,-0.25,0.49,-0.34,0.02,0.48,-0.42,0.32,0.37,-0.13,0.31,-0.34,0.47,-0.16,-0.06,0.24,0.15,0.37,0.19,0.3,-0.46,0.26,-0.03,0.05,0.49,0.1,0.26,-0.13,0.07,-0.08,0.49,0.21,0.43,0.25,-0.29,0.2,-0.24,-0.21,-0.22,0.3,-0.49,0.31,0.06,-0.04,-0.25,0.35,0.44,0.37,-0.05,-0.17,-0.26,0.25,-0.25,0.33,-0.19,0.05,0.27,-0.07,-0.34,0.41,-0.29,0.21,-0.25,-0.05,-0.13,-0.4,-0.27,-0.29,-0.37,0.24,-0.02,-0.15,0.08,0.38,0.28,-0.27,-0.3,-0.5,-0.2,-0.36,0.16,0.39,0.41,-0.27,-0.33,-0.26,-0.04,-0.4,-0.07,0.15,0.42,0.32,-0.37,-0.14,0.08,-0.21,0.06,-0.39,-0.41,-0.35,0.11,0.22,0.23,0.21,0.35,0.39,-0.33,-0.14,-0.46,-0.42,-0.16,0.27,-0.37,-0.49,-0.25,-0.18,0.29,-0.49,-0.23,-0.37,0.14,-0.38,0.27,-0.03,0.31,0.16,-0.28,-0.28,-0.21,-0.02,0.16,-0.41,0.41,-0.36,0.03,0.43,-0.35,-0.31,-0.12,-0.22,-0.43,-0.41,-0.44,-0.15,-0.19,-0.35,0.18,-0.39,-0.39,-0.24,0,0.05,0.33,0.45,0.01,-0.02,0.44,-0.24,0.4,-0.31,0.16,0.44,-0.43,0.05,-0.09,-0.26,0.35,0.49,-0.02,-0.19,-0.34,0.1,0.12,0.49,-0.44,0.05,-0.44,-0.08,-0.34,0.16,0.47,-0.4,-0.4,-0.48,0.48,-0.39,-0.24,0.45,0.13,-0.46,0.48,0.39,-0.22,-0.31,0.11,-0.38,-0.49,0.01,0.43,-0.44,-0.21,0.19,0.12,0.29,-0.4,0.39,0.42,0.34,0.39,0.46,-0.08,0.02,-0.4,-0.26,-0.29,0.06,0.33,-0.46,0.06,-0.21,0.48,0.4,-0.15,-0.06,-0.18,-0.24,-0.19,-0.07,-0.13,0.43,0.03,0.05,-0.02,-0.4,-0.14,-0.22,-0.02,-0.19,0.42,-0.41,-0.31,-0.09,-0.45,0.17,0.12,-0.04,0.29,-0.46,0.47,-0.45,-0.22,0.47,0.44,0.13,-0.43,-0.11,-0.17,-0.33,-0.03,0.33,0.07,-0.02,-0.04,0.45,-0.08,0.36,-0.47,-0.5,0.38,0.43,-0.43,0.02,-0.39,-0.04,-0.4,0.06,0.34,0.18,0.32,0.36,-0.03,-0.24,-0.04,-0.18,0.15,0.05,0.1,0.34,-0.48,0.46,0.44,-0.2,0.33,-0.42,0.01,0.2,0.44,-0.41,-0.26,0.25,-0.08,0.29,-0.34,-0.46,0.47,0.25,0.35,-0.03,0.03,0,0.05,0.15,-0.15,0.11,-0.14,-0.2,-0.48,-0.36,-0.2,0.36,-0.25,-0.31,0.47,0.41,0.48,0.26,0.18,-0.47,0.45,-0.11,0.12,0.24,-0.07,-0.44,-0.07,0.18,-0.4,-0.09,-0.16,0.39,0.2,-0.38,-0.19,0.01,-0.1,-0.21,0.44,-0.28,0.22,-0.3,0.18,0.3,0.29,-0.13,0,-0.27,0.31,-0.26,-0.44,-0.3,-0.43,0.32,0.02,-0.37,0.38,0.31,-0.29,-0.21,-0.33,0.17,-0.3,0.11,0.3,-0.09,-0.34,-0.38,0.37,-0.04,0.01,0.18,0.32,-0.05,-0.2,0.24,0.21,0.31,0.45,-0.45,0.06,-0.3,0.36,0.35,-0.15,-0.37,0.32,0.37,0.1,-0.33,0.12,0.09,-0.43,0.15,-0.46,-0.46,-0.5,-0.43,-0.5,-0.13,-0.29,-0.13,-0.15,-0.15,0.23,-0.13,-0.12,0.11,0.01,0.27,-0.08,-0.44,0.36,-0.34,0.22,0.47,0.3,-0.16,-0.25,0.16,0.09,-0.22,0.02,0.2,0.33,0.41,0.11,-0.34,-0.1,-0.24,0.24,0.13,0.31,0.07,0.34,-0.31,0.34,0.01,-0.38,0.47,0.25,-0.3,-0.14,0.32,0.25,0.05,0.23,0.41,0.42,-0.43,-0.27,0.15,0.31,-0.17,0.28,0.42,0.34,0.15,0.01,0.31,0.26,-0.29,-0.3,-0.26,-0.48,0.28,-0.26,-0.22,-0.19,0.03,-0.37,-0.22,-0.29,-0.22,0.41,-0.12,0.42,0.19,0.44,-0.23,-0.32,0.19,-0.26,-0.17,-0.48,-0.41,0.32,-0.02,0.28,0.42,-0.16,-0.31,-0.5,-0.19,-0.29,0.03,-0.5,-0.39,0.3,0.46,-0.19,-0.06,0.1,-0.11,0.44,0.44,-0.07,0.03,-0.08,-0.1,-0.5,-0.35,0.2,-0.26,0.12,-0.44,0.47,0.36,-0.28,0.43,0.46,0.26,-0.01,-0.11,-0.32,0.44,-0.22,0.4,-0.44,-0.12,-0.13,0.3,0.39,0.48,0.46,0.24,-0.41,0.34,-0.11,-0.43,0.15,-0.22,-0.45,-0.12,0.41,-0.31],[-0.020093448,0.26016253,0.17998049,-0.3602191,0.049755275,-0.3705611,0.3891425,0.3587605,0.48811328,0.038207937,0.438315,-0.3014288,-0.3016865,0.48828217,0.15815336,0.017934248,-0.041831408,-0.4615271,-0.48126754,-0.3013898,-0.2514915,0.21824516,-0.23236823,0.36690935,0.46681702,-0.38306248,-0.03274502,-0.3629814,-0.23285665,0.1672363,0.19749434,-0.39217615,-0.031923857,0.48795778,-0.052354485,0.017429786,-0.28268364,0.4174381,0.31781498,-0.27218702,0.39800274,-0.4814832,0.47911674,-0.08063682,0.29916593,0.37902325,0.1390556,-0.11111094,-0.091032796,-0.37126523,0.3186505,-0.4913672,-0.14113219,0.20908396,0.42911306,0.25,-0.02,0.3,-0.34,-0.08,0.16,0.24,0.09,-0.18,0.33,0.32,0.23,-0.29,0.04,-0.37,-0.2,0.03,-0.29,0.28,-0.21,-0.27,0.24,0.35,-0.43,-0.41,-0.02,-0.43,0.23,-0.36,0.35,0.19,0.25,0.25,-0.45,0.2,-0.46,-0.09,0.26,-0.11,0.06,-0.35,-0.07,0.15,0.08,0.47,-0.36,-0.07,0.35,-0.22,0.32,-0.22,0.29,0.07,-0.08,0.2,-0.49,0.13,0.23,-0.43,0.44,0.09,-0.49,-0.05,-0.03,-0.37,-0.43,0.48,-0.35,0.34,-0.41,0.39,0.27,0.32,-0.29,-0.37,0.29,-0.42,-0.24,-0.4,0.44,-0.46,-0.28,-0.06,-0.18,0.06,0.4,-0.33,-0.17,-0.16,0.18,-0.09,0.17,0.18,-0.06,0.47,-0.36,0.48,-0.32,-0.06,0.39,-0.34,-0.23,-0.49,-0.32,0.42,0,0.47,-0.15,-0.22,0.4,0.43,-0.14,0.13,-0.37,0.4,-0.13,0.06,-0.38,0.4,-0.27,0.39,0.15,0.31,-0.35,0.18,-0.29,-0.41,-0.13,-0.26,0.49,0.31,0.39,0.32,-0.3,0.27,0.27,-0.3,-0.24,-0.11,-0.45,0.42,0.32,-0.46,-0.07,0.24,-0.46,-0.46,0.05,0.04,0.1,0.07,0.35,-0.22,-0.3,0.49,0.01,-0.05,0.35,0,0.21,-0.09,0.09,-0.39,-0.21,-0.41,-0.46,0.04,-0.08,-0.15,-0.37,-0.34,-0.2,0.23,0.34,-0.2,-0.43,0.1,-0.12,-0.1,0.13,-0.34,0.03,0.32,0.13,-0.09,0.46,0.1,0.11,-0.3,-0.25,-0.19,-0.15,0.25,0.18,0.14,-0.17,0.2,0.24,-0.16,0.2,0,0.12,-0.3,-0.09,-0.07,-0.24,-0.39,-0.07,0.4,0.42,0.4,-0.43,-0.06,0.37,0.04,0.38,0.26,-0.02,0.37,-0.38,-0.07,0.43,-0.28,-0.41,0.32,0.31,0.05,-0.45,-0.3,0.47,-0.13,0.36,-0.47,0.19,-0.38,0.04,-0.17,-0.09,-0.31,-0.35,0.35,-0.34,0.21,-0.22,-0.15,-0.27,0.4,0.37,-0.37,0.26,0.06,-0.28,0.37,-0.28,-0.23,0.07,-0.11,-0.4,0.09,0.12,0.21,-0.45,-0.27,0.42,0.05,-0.46,-0.46,0.24,0.25,-0.5,0.04,-0.16,-0.22,0.22,-0.24,-0.24,-0.28,0.44,0.24,0.08,0.41,0.17,0.42,-0.06,-0.1,-0.36,0.49,0.31,-0.08,0.04,-0.36,-0.28,0.32,0.07,-0.07,0.29,0.43,0.28,0.22,-0.2,-0.31,-0.35,-0.38,-0.37,-0.29,-0.29,0.44,-0.36,0.45,-0.49,-0.15,-0.05,-0.14,-0.5,0.2,-0.47,-0.37,0.29,0.01,-0.1,-0.45,-0.28,-0.18,-0.3,0.35,-0.18,0.02,0.2,-0.22,-0.04,-0.17,-0.07,-0.29,-0.07,-0.11,0.26,0.05,0.28,-0.28,-0.32,-0.3,0.34,0.36,-0.09,-0.31,0.19,0.35,0.31,0.36,-0.1,0.16,-0.37,-0.24,-0.18,-0.25,0.46,0.32,0.41,-0.22,0.39,0.19,-0.27,0.36,-0.02,0.17,0.42,-0.27,0.43,0.1,0.44,-0.03,-0.16,0.06,-0.18,-0.3,-0.29,-0.14,0.41,-0.49,-0.34,-0.04,0.2,0.34,0.37,0.3,-0.31,-0.34,0.39,-0.33,-0.07,0.43,0.13,0,-0.17,-0.01,0.46,0.47,-0.13,0.23,-0.23,-0.05,0.42,-0.29,0.41,0.42,-0.19,0.06,0.43,-0.39,-0.46,0.09,0.41,0.4,-0.38,-0.07,0.48,-0.11,0.48,0.17,-0.02,0.25,-0.16,0.25,-0.33,-0.49,0.34,0.34,-0.27,0.33,-0.27,-0.27,0.49,-0.33,0.24,0.2,0.03,-0.01,0.42,0.45,-0.01,0.12,-0.28,0.27,-0.37,0.33,-0.49,0.23,-0.12,0.39,0.01,0.07,0.48,0.19,-0.26,0.01,-0.39,-0.33,-0.46,0.4,-0.42,-0.03,-0.18,-0.4,0.38,0.3,0.1,0.24,-0.34,-0.09,0.39,-0.01,-0.04,-0.47,-0.32,0.36,0.02,0.06,0.11,-0.16,0.49,-0.39,-0.05,-0.16,-0.19,0.15,-0.26,-0.21,0.42,-0.28,0.09,-0.14,-0.05,-0.49,0.37,-0.49,-0.21,-0.39,0.39,-0.18,-0.28,-0.23,0.06,0.46,0.49,-0.49,-0.39,0.45,0.01,-0.12,0.49,0.04,0.05,0.2,0.41,0.47,-0.49,0.48,0.29,-0.28,0.05,-0.19,0.31,0.43,0.32,0.03,-0.46,-0.06,-0.34,-0.34,0.06,-0.1,0.16,-0.22,-0.39,0.21,0.04,-0.02,-0.16,-0.21,0.04,-0.21,0.28,0.03,-0.27,-0.46,0.3,0.24,-0.4,0.4,-0.5,-0.2,-0.18,0.16,0.27,0.4,-0.04,0.13,-0.36,-0.04,0.47,0.16,0.29,-0.16,0.32,0.08,0.38,-0.24,0.08,-0.31,-0.08,0.02,0.14,-0.01,0.18,-0.24,0.03,-0.22,0.19,0.27,0.22,-0.21,-0.16,-0.25,-0.34,-0.25,-0.43,-0.5,0.01,-0.3,-0.25,0.4,-0.16,0.38,-0.18,0.37,-0.01,-0.07,0.21,0.15,-0.34,0.04,-0.34,0.4,-0.03,-0.03,0.15,0.33,0.48,0.01,-0.13,-0.33,0.43,-0.14,0.23,0.18,-0.18,0.03,-0.32,0.06,0,0.38,0.24,-0.13,0.44,0.02,-0.32,0.26,-0.34,0.31,0.26,-0.41,0.06,-0.46,0.11,-0.32,-0.38,-0.07,0.28,0.18,0.09,-0.26,-0.49,-0.5,0.32,-0.43,0.47,0.47,-0.36,0.13,0.04,0.46,-0.25,-0.36,-0.36,-0.22,0.29,0.28,0.46,0.45,-0.21,0.39,0.16,-0.33,0.24,-0.22,0.1,0.38,0.25,0.04,0.05,0.39,0.24,-0.01,0.46,-0.24,0.36,0.24,0.04,0.36,0.04,-0.29,0.12,0.02,-0.24,0.29,0.33,-0.08,0.39,-0.18,-0.11,-0.16,-0.04,0.33,-0.11,0.2,0.07,0.34,-0.25,0.04,-0.04,-0.42,-0.28,0.1,-0.42,0.15,-0.29,0.26,-0.33,0.38,-0.08,-0.46,-0.27,-0.41,-0.1,-0.43,-0.23,-0.36,0.4,0.44,-0.05,-0.32,0.48,-0.08,-0.35,-0.29,-0.08,0.41,-0.41,-0.25],[0.18998834,-0.4900029,-0.01000919,-0.5000201,-0.11001809,-0.050028242,0.48996225,-0.49004707,-0.06006589,0.099935584,0.07993771,-0.43005326,-0.260061,-0.4900619,0.39993382,-0.16007264,-0.40006644,-0.14005838,-0.07004808,-0.19005166,-0.07006027,-0.07006928,0.43991157,-0.20011193,-0.4101149,-0.2201109,-0.41010055,0.28989172,-0.06010454,0.3598992,-0.27009255,-0.20008174,0.15992808,0.40992576,-0.3100845,-0.10009342,0.04992974,-0.27003554,0.19997606,0.43997577,-0.42001796,-0.25000182,0.19001728,-0.20997418,-0.13997869,-0.12998334,0.4300173,0.47001085,0.010012618,0.3000056,-0.38999665,-0.4499973,-0.019989688,0.28001884,0.32001925,-0.25,-0.43,-0.32,0.41,-0.39,-0.15,-0.31,0.07,0.07,-0.13,-0.22,-0.1,-0.18,0.31,-0.01,0.29,0.36,0.16,-0.02,-0.28,-0.32,0.23,0.14,0.43,0.21,-0.16,-0.38,-0.23,0.14,0.25,-0.33,0.31,0.38,-0.41,0.43,-0.17,-0.14,-0.18,0.08,0.08,0.39,0.17,-0.38,0.42,-0.42,0.47,0.1,-0.34,-0.49,-0.49,-0.26,-0.12,0.49,0.05,0.13,0.02,-0.07,-0.26,-0.31,0.26,-0.27,0.41,0.43,0.31,-0.31,-0.04,0.02,-0.27,0.38,-0.34,-0.08,0.04,-0.42,0.39,-0.17,0,0.11,0.21,0.35,0.24,0.24,0.46,-0.25,0.12,0.01,0.29,0.31,-0.18,-0.04,-0.09,0.4,-0.39,-0.38,0.31,-0.16,0.47,0.24,-0.2,0.22,0.11,-0.06,-0.13,-0.22,0.35,0.08,0.2,-0.2,-0.4,-0.28,-0.38,0.4,0.21,-0.11,-0.05,-0.48,-0.23,0.15,-0.2,-0.2,-0.1,0.14,-0.3,0.26,-0.04,-0.24,-0.2,-0.09,-0.24,0.04,-0.15,0.26,-0.19,0.49,-0.26,-0.21,-0.14,0.18,-0.1,-0.47,0.3,-0.02,0.21,-0.4,-0.17,0,-0.32,0.22,0.16,0.28,-0.43,-0.19,-0.07,0.49,-0.19,0.46,-0.26,0.1,0.31,0.08,-0.23,-0.22,-0.47,0.05,0.36,-0.14,0.09,0.21,-0.36,-0.34,0.16,0.09,-0.25,-0.24,0,0.42,0.42,-0.41,-0.07,0.45,-0.43,0.08,0.24,-0.03,-0.03,-0.46,-0.18,-0.19,0.18,-0.23,-0.45,0.25,0.36,0.31,0.25,0.01,-0.06,-0.34,-0.26,0.46,0.41,-0.04,0.08,0,-0.38,-0.03,-0.44,-0.34,-0.01,-0.11,-0.46,-0.36,-0.33,0.35,0.01,0.19,0.04,0.05,-0.43,0.32,-0.46,-0.23,-0.47,0.37,-0.4,0.4,0.22,-0.07,0.01,0.48,-0.03,0.26,0.35,-0.04,-0.46,0.1,-0.5,-0.26,-0.15,-0.5,0.47,-0.35,0.32,-0.21,-0.27,0.4,0.07,-0.49,-0.2,-0.44,0.47,0.38,-0.41,-0.08,0.42,0.14,-0.07,0.2,-0.11,-0.28,0.24,0.12,0.15,0,0.41,-0.23,-0.21,0.21,0.31,0.4,0.19,-0.2,-0.3,-0.44,0.34,0.39,-0.06,0.24,0.13,-0.3,-0.18,0.21,-0.37,-0.05,-0.49,0.08,0.16,-0.07,0.03,-0.11,-0.33,-0.21,0.34,-0.38,-0.24,-0.16,-0.01,-0.18,-0.13,0.45,0.1,0.36,-0.3,-0.11,-0.14,0.17,0.17,-0.48,0.07,-0.47,-0.3,0.18,-0.43,-0.32,0.39,-0.48,-0.01,-0.3,-0.02,-0.17,0.1,0.36,-0.33,-0.09,0.23,-0.1,-0.05,-0.42,0.3,-0.01,-0.11,-0.39,-0.13,0.18,0.1,-0.04,0.01,0.23,-0.42,-0.16,0.4,0.14,0.35,0,-0.31,-0.02,-0.28,0.15,-0.27,-0.27,0.35,-0.22,0.33,-0.46,-0.16,0.23,0.18,0.28,0.16,0.46,-0.29,0.09,-0.29,-0.43,0.13,-0.42,-0.19,-0.11,0.08,-0.07,0,0.25,-0.39,-0.36,-0.08,0.46,-0.5,0.17,-0.29,-0.26,-0.32,0.3,0.34,0.07,0.14,-0.39,-0.23,-0.18,-0.17,0.36,0.27,0.23,-0.43,-0.38,-0.37,-0.2,-0.07,0.28,0.37,-0.39,-0.34,0.33,-0.44,0.3,0.22,-0.4,-0.34,0.19,0.11,-0.12,0.23,-0.49,0.07,-0.09,0.27,-0.1,0.25,0.14,-0.07,0.02,0.3,0.49,-0.45,0.21,0.15,0.27,0.17,0.49,-0.5,-0.39,0.02,-0.28,0.29,-0.41,-0.43,-0.15,0.23,-0.46,0.34,0.03,0.44,0.08,0.2,0.44,-0.37,0.26,-0.35,0.16,-0.16,0.22,0.05,0.29,-0.15,-0.15,-0.19,-0.33,0.27,-0.16,-0.35,0.44,-0.08,-0.33,0.19,-0.01,0.35,0,-0.29,-0.03,-0.17,-0.08,0.17,0.21,0.29,0.39,0.08,-0.28,-0.22,-0.39,0.08,0.38,0.11,-0.49,0.14,-0.22,0.06,0.23,0.37,-0.06,0.28,0.39,0.07,-0.12,0.39,0.4,-0.39,0.26,0.39,-0.3,-0.42,0.12,0.04,0.18,-0.18,0.42,-0.45,0.34,0.49,-0.05,0.26,-0.41,0.39,0.15,0.26,-0.24,-0.18,-0.09,0.03,-0.1,0.43,-0.38,0.13,0.26,0.18,-0.07,0.34,-0.22,0.31,0.39,0.28,0.31,-0.17,-0.43,-0.48,0.45,-0.16,0.43,0.19,0.22,-0.27,0.22,0.23,-0.09,0.17,0.19,-0.5,0.42,0.12,0.13,0.07,0.19,-0.27,-0.02,-0.23,0.46,0.49,0.27,0.49,0.38,-0.43,0.26,-0.48,-0.4,0.17,0.45,0.25,0.32,0.13,0.3,0.41,-0.11,0.22,0.3,-0.33,-0.3,-0.12,-0.29,-0.41,0.49,-0.07,0.42,0.16,-0.32,-0.19,-0.42,0.08,0.34,0.29,-0.45,0.46,0.06,0.43,0.3,0.15,-0.03,0.2,0.13,0.24,0.22,0.43,-0.32,-0.22,0.31,0.21,-0.32,0.47,-0.08,-0.2,-0.43,0.08,0.27,0.18,-0.5,-0.06,-0.36,-0.41,0.33,0.29,0.09,-0.14,0.4,-0.48,0.07,0.34,-0.15,-0.05,0.41,-0.35,0.2,0,0.25,-0.03,-0.14,-0.45,-0.25,0.14,0.35,-0.03,-0.37,-0.4,-0.34,0.04,0.22,-0.03,-0.32,0.37,0.43,-0.14,0,-0.13,0.37,0.33,-0.36,-0.15,-0.48,-0.35,0.21,0.47,-0.15,0.22,-0.44,-0.24,0.1,0.06,0.33,-0.2,-0.18,0.44,-0.31,0,-0.26,-0.15,0.15,-0.01,-0.3,-0.14,-0.21,-0.4,0.16,-0.02,0.02,0.05,0.15,-0.18,0.12,0.41,-0.18,-0.5,-0.47,-0.41,0.42,0.38,-0.38,-0.09,-0.47,0.39,0.43,-0.35,0.13,0.37,0.05,0.48,-0.34,-0.5,-0.37,0.02,-0.32,0.15,-0.35,0.15,0.35,0.1,-0.19,0.37,-0.31,0.01,0.11,-0.23,0.43,0.42,0.48,-0.19,0.41,-0.41,0.07,-0.14,-0.28,-0.27,-0.05,-0.2,-0.07],[-0.35947856,-0.03949213,0.2805193,0.42052767,0.030303167,-0.11975054,0.14032343,-0.3096496,-0.39962322,0.2204017,0.16034745,0.35009712,-0.12993932,-0.26993838,-0.18993399,0.0700731,-0.24993335,-0.28994167,0.020047642,-0.21994637,0.15012199,-0.28977096,0.21028365,0.39049998,-0.2694452,-0.42951152,-0.42938688,-0.07937825,0.27061647,-0.2093859,0.440605,-0.29940578,0.34058434,-0.27941313,0.21059743,-0.3593947,0.020582894,0.44054806,0.15053672,-0.37946314,0.4605303,-0.41948614,0.33049506,-0.30951366,-0.18950845,-0.03950357,0.030495936,0.35050163,-0.24950078,0.28050685,0.47050902,-0.47949013,0.4205016,-0.47950613,0.27049345,0.42,0.24,0.38,0.18,-0.04,-0.19,-0.28,-0.08,0.3,0.27,-0.04,-0.5,-0.36,0.01,-0.33,-0.46,-0.2,0.05,-0.11,-0.19,0.07,-0.12,0.02,0.08,0.27,0.03,-0.29,-0.34,0.48,-0.18,0.42,-0.22,0.31,-0.05,0.29,-0.11,0.14,-0.25,-0.32,0.31,0.24,0.16,-0.48,-0.09,0.35,-0.05,-0.11,-0.17,-0.42,0.24,0.16,-0.04,0.02,0.2,-0.31,0.03,-0.28,-0.21,0.41,0.43,-0.41,-0.45,-0.07,-0.02,0.35,-0.33,-0.31,0.19,0.22,0.27,-0.1,-0.46,-0.14,0.08,0.07,0.41,-0.14,-0.4,0.23,-0.18,-0.36,0.37,-0.42,-0.26,0.15,-0.04,0.25,-0.39,-0.25,-0.24,-0.33,-0.16,-0.16,-0.25,0.21,0.18,-0.28,0.03,0.05,0.17,-0.24,0.19,0.11,-0.2,-0.16,0.12,-0.41,0.44,-0.38,-0.22,-0.33,-0.39,0.06,0.09,0.29,-0.28,0.46,-0.31,0.32,-0.11,-0.08,-0.42,-0.07,-0.04,0.1,-0.45,0.19,-0.39,0.36,0.39,0.18,0.32,0.04,-0.44,-0.45,-0.06,-0.25,0.27,0.4,-0.47,-0.13,0.31,0.48,0.47,-0.42,-0.45,0.28,0.25,-0.05,-0.01,0.21,-0.47,0.21,-0.34,-0.26,-0.32,-0.25,-0.35,0.2,-0.22,0.42,0.47,-0.42,-0.27,0.09,-0.15,0.07,-0.01,0.03,-0.15,0.46,-0.31,-0.21,0.28,-0.48,0.11,-0.41,-0.04,-0.13,0.05,-0.23,0.44,0.16,-0.14,-0.33,0.15,-0.39,-0.13,0.31,0.37,-0.32,-0.4,-0.43,0.11,-0.39,-0.11,0.22,0.24,-0.13,0.23,-0.02,-0.22,-0.28,-0.4,0.03,0.02,0.24,0.42,-0.36,0.13,-0.42,0.29,0.27,-0.35,-0.5,0.47,-0.19,0.21,-0.44,0.44,-0.26,-0.31,0.18,0.15,-0.34,0.36,-0.39,0.17,0.17,0.12,0.38,-0.16,-0.42,0.14,-0.44,0.49,0.22,0.05,0.33,0.14,0.4,-0.32,-0.27,-0.33,0.29,-0.11,-0.18,0.42,0.11,-0.37,-0.43,-0.5,0.18,-0.07,-0.01,-0.21,0.1,0.06,0.44,0.16,-0.09,-0.44,-0.26,0.01,0.25,0.23,0.2,-0.37,-0.42,-0.49,-0.25,0.26,0.38,-0.09,-0.47,-0.45,0.45,0,0.35,0.26,0.03,-0.31,-0.44,0.04,0.04,0.37,0.16,0.15,-0.35,0.27,-0.11,-0.35,0.11,-0.34,-0.27,0.34,0.44,0.21,-0.08,-0.44,0.19,-0.31,0.33,0.1,0.37,-0.19,-0.38,-0.23,-0.11,-0.07,-0.17,-0.41,0.21,-0.33,-0.37,-0.29,-0.5,0.2,0.47,0.38,-0.43,-0.45,0.47,-0.2,0.11,-0.4,-0.36,0.21,-0.32,-0.31,-0.39,-0.26,-0.43,0.29,-0.43,-0.16,-0.15,-0.04,0.16,-0.27,0.24,-0.11,-0.25,0.21,-0.06,-0.21,-0.07,-0.07,-0.47,-0.49,0.34,-0.27,0.24,0.04,0.48,0.13,-0.29,0.03,0.48,0.26,-0.34,-0.1,-0.42,-0.3,-0.18,-0.41,-0.49,0.41,-0.4,0.29,0.36,0.03,-0.46,0.24,-0.37,0.18,0.3,-0.24,0.36,-0.19,0.16,0.21,0.18,-0.34,-0.15,0.37,-0.01,0.03,0.3,-0.07,-0.38,0.32,-0.02,0.39,-0.44,-0.17,-0.2,-0.46,-0.12,-0.15,-0.23,0.02,-0.18,-0.27,-0.35,-0.2,-0.31,-0.5,-0.09,-0.2,0.33,0.45,0.16,0.16,-0.41,-0.05,0.22,0.41,0.35,-0.05,0.09,-0.02,-0.39,0.16,0.16,-0.47,-0.45,-0.36,0.17,0.29,-0.13,0.25,0.37,0.01,-0.47,-0.36,-0.12,-0.06,-0.49,-0.46,0.18,-0.01,-0.38,-0.01,0.1,-0.34,-0.35,0.31,0.29,0.1,0.11,-0.12,-0.31,0.43,0.26,0.29,-0.09,0.16,0.06,-0.39,-0.25,-0.46,-0.18,0.11,0.43,-0.43,-0.42,-0.35,0.12,0.45,-0.44,-0.23,0.4,0.31,0.27,-0.41,-0.14,0.11,-0.45,0,0.37,-0.27,-0.15,-0.43,-0.33,0.49,0.06,0.43,0.25,-0.26,0.23,0.22,0.37,0.39,0.28,0.13,-0.34,0,0.06,0.03,-0.42,-0.5,-0.32,0.34,0.04,-0.16,-0.02,-0.13,-0.34,0.16,-0.07,0.29,0.1,-0.44,-0.26,-0.49,0.19,-0.25,-0.06,0.44,0,-0.36,-0.1,-0.12,-0.29,-0.16,-0.11,-0.5,-0.48,-0.37,0.43,0.35,-0.46,0.02,-0.09,0.37,-0.45,0,0.03,0.32,0,-0.31,0.27,-0.42,0.31,0.43,-0.39,0.31,0.15,0.26,0.43,0.41,-0.44,0.12,-0.48,0.44,0.09,0.3,0.12,-0.31,0.45,-0.02,-0.16,-0.48,0.23,0.07,0.25,-0.42,0.15,-0.14,0.46,-0.32,0.22,0.11,-0.07,-0.19,-0.14,-0.19,0.07,-0.22,-0.27,0.08,-0.16,-0.25,-0.31,-0.49,0.29,-0.08,0,-0.03,-0.22,-0.25,0.38,-0.17,0.37,-0.48,0.34,0.25,-0.15,-0.27,-0.32,-0.47,-0.35,-0.21,0.3,0.24,-0.32,-0.06,-0.32,0.2,0.07,-0.23,-0.27,-0.17,0.45,-0.13,-0.37,-0.42,0.32,0.21,0.28,-0.18,0.08,-0.32,-0.43,0.2,-0.2,-0.12,0.24,-0.09,-0.03,0.11,0.46,-0.17,-0.4,-0.3,-0.08,-0.45,-0.05,-0.06,0.32,-0.16,-0.27,0.29,0.39,-0.49,-0.48,0.04,-0.12,-0.01,0.38,0.25,0.42,0.14,-0.05,0.35,-0.06,0.47,-0.29,-0.41,-0.06,0.3,0.19,0.27,-0.27,0.46,-0.19,0.39,-0.27,0.25,0.44,-0.43,0.13,-0.13,0.38,-0.07,-0.41,0.28,-0.22,-0.44,0.18,0.26,-0.5,-0.25,0.02,0.21,0.18,-0.18,0.37,-0.25,0.25,-0.05,0.34,-0.15,-0.5,-0.48,0.15,-0.04,0.05,0.43,0.2,-0.38,-0.19,0.12,0.04,0.31,-0.39,0.04,0.25,-0.48,0.25,0.16,0.18,-0.36,-0.09,0.18,0.29,-0.06,-0.26,0.01,-0.23,0.48,-0.48,0.47,0.49,-0.01,-0.27,-0.22,-0.13],[0.36033988,0.2803425,0.13035011,-0.26963934,-0.14963116,-0.13961661,0.06039856,-0.0595863,-0.12957248,0.20041491,0.21040943,0.10040965,-0.3595787,0.06042361,0.3504172,-0.009599601,-0.40961733,0.2703631,0.19031101,0.44024605,-0.17978857,-0.2797921,-0.2997837,-0.28974536,-0.459757,0.15020545,0.21018921,-0.39975333,-0.16976215,0.12023582,-0.44977427,0.070211545,0.33020937,-0.32980967,0.38021693,-0.2597791,-0.3798264,-0.06985621,-0.17987318,0.2701267,0.34013185,-0.26988676,-0.07990113,0.24008828,0.030102488,0.41010338,-0.36989388,-0.0798793,-0.32986325,-0.029864369,0.40012282,0.22011887,0.030117666,-0.15988955,-0.4598699,0.14,0.07,-0.09,-0.32,0.19,0.15,-0.04,-0.4,0.25,0.15,-0.37,0.26,0.46,0.18,0.1,-0.13,0.16,-0.06,0.42,-0.41,-0.41,0.3,-0.04,0.17,-0.38,0.02,-0.21,0.42,0.35,0.22,-0.17,-0.46,-0.01,-0.38,-0.26,0.16,0.2,-0.26,0.12,-0.38,-0.12,-0.38,0.16,-0.41,-0.11,-0.36,-0.34,0.24,0.06,-0.4,-0.26,-0.23,0.11,-0.26,0.45,0.33,-0.39,0.24,-0.45,-0.33,-0.14,0.03,-0.25,-0.48,-0.19,-0.41,-0.23,0.34,-0.07,0.44,0.16,-0.08,0.32,0.29,0.2,0.46,-0.37,-0.14,-0.23,0.47,-0.14,0.05,-0.14,0.25,-0.02,-0.45,-0.07,-0.26,-0.33,-0.1,0.04,0.46,-0.32,-0.05,0.26,0.35,0.37,0.14,0.27,-0.2,0.37,-0.18,-0.2,0.12,-0.06,0.32,-0.05,0.32,0.04,0.48,0.2,0.24,-0.04,-0.42,0.3,0.3,-0.33,-0.01,0.04,-0.24,0.15,-0.48,0.16,-0.48,-0.11,0.2,-0.27,-0.14,-0.48,0.34,-0.41,-0.01,0.09,0.46,-0.4,-0.46,-0.26,0.23,-0.19,0.16,0.1,0.11,0.2,-0.32,0.2,0.3,0,-0.4,0.14,0.45,0.18,-0.13,-0.41,0.01,0.15,0.35,0.15,-0.23,-0.27,0.23,0.08,-0.42,0.29,0.19,0.38,-0.29,-0.35,-0.01,0.48,0.26,0.06,-0.07,-0.32,0.38,0.15,-0.46,-0.18,-0.02,-0.18,0.09,-0.31,-0.37,0.21,-0.44,-0.34,0.22,-0.1,-0.42,-0.19,-0.26,-0.12,0.47,0,0.07,-0.43,0.01,0.31,-0.5,-0.21,-0.02,0.14,-0.49,-0.38,0.38,-0.11,-0.25,-0.32,-0.3,0.35,0.1,0.03,-0.34,0.44,0.14,0.04,-0.06,-0.13,0.22,0.03,-0.34,0.31,-0.44,-0.33,0.23,-0.12,0.09,0.43,0.11,0.3,-0.36,-0.27,-0.19,-0.32,0.33,0.44,-0.32,-0.49,0.33,0.17,0.41,0.04,-0.31,-0.28,0.21,0.21,-0.29,-0.48,0.35,-0.48,0.13,-0.37,-0.41,-0.03,-0.37,0.17,0.07,0.33,-0.12,0,0.3,-0.19,0.06,-0.11,0.21,-0.13,-0.29,0.48,-0.4,0.2,-0.15,-0.07,0.04,-0.45,0.11,0.12,0.11,0.34,-0.05,-0.49,-0.34,0.06,-0.43,0.08,-0.33,-0.5,-0.37,0.34,-0.45,-0.34,-0.14,-0.16,0.12,-0.17,0.37,0.09,0.47,0.3,0.01,-0.16,0,-0.27,0.41,-0.35,0.17,-0.31,0.09,-0.46,0.35,0.01,-0.44,0.23,-0.12,-0.13,-0.17,-0.27,-0.26,0.47,-0.29,0.21,-0.27,-0.13,0.43,0.44,-0.17,-0.49,0.3,-0.3,-0.33,-0.48,0.14,0.31,-0.18,-0.4,0.01,0.42,0.15,0.41,0.41,0.47,-0.1,-0.41,0.48,0.03,-0.4,0.12,0.46,-0.25,0.49,0.13,-0.15,0.49,0.08,0.3,-0.39,-0.38,-0.2,0.47,0.32,0.16,-0.11,-0.12,0.36,0.33,0.36,-0.26,-0.1,-0.23,0.35,-0.09,0.08,-0.18,-0.44,-0.27,-0.2,-0.37,-0.11,-0.11,0.34,0.2,-0.46,0.05,-0.29,0.04,0.16,0.14,-0.28,0.02,0.49,-0.11,0.12,0.18,-0.41,-0.25,0.08,-0.49,-0.27,-0.36,0.16,0.35,-0.28,0.19,-0.1,0.08,-0.45,-0.47,0.43,-0.16,-0.01,0.47,0.23,0.41,-0.38,-0.39,0.11,0.33,-0.33,-0.18,-0.34,-0.28,-0.49,0.38,-0.23,-0.04,0.29,0.39,-0.28,0.3,0.14,-0.21,0.4,-0.26,0.22,0.48,-0.02,-0.15,-0.35,0.13,-0.02,0.13,0.21,0.38,-0.48,-0.48,0.15,0.2,0.05,0.47,0.13,0.25,0.34,0.41,0.47,-0.06,0.33,-0.17,-0.09,0.44,0.29,-0.35,0.3,-0.38,0.19,-0.3,-0.44,-0.02,-0.32,-0.36,0.13,-0.25,0.18,0.04,0.33,0.03,0,-0.37,0.35,-0.25,0.3,-0.42,-0.16,-0.26,-0.34,0.39,-0.06,0.49,-0.24,-0.22,-0.36,-0.36,0.44,-0.3,0.34,-0.17,0.33,0.08,-0.32,0.32,0.45,-0.34,0.02,-0.1,-0.16,-0.12,-0.44,-0.2,-0.43,-0.06,0.43,0.19,-0.02,-0.34,-0.37,0.21,0.3,0.05,0.45,0.3,0.25,-0.44,-0.28,0.4,0.49,-0.02,-0.19,-0.03,0.19,0,0.19,0.41,0.45,-0.47,-0.21,0.13,0.05,0.43,0.4,0.28,0.33,-0.36,0.41,0.32,-0.16,-0.05,0.16,0.28,-0.43,-0.38,0.02,-0.23,0.13,-0.13,-0.44,0.39,0.44,0.11,-0.09,0.35,-0.44,0.08,0.1,0.07,0.24,-0.48,0.24,-0.06,0.36,-0.01,-0.35,0.37,0.14,-0.33,0.46,0.1,-0.36,-0.1,0.06,0.04,0.32,0.03,-0.1,0.06,0.48,-0.08,-0.22,0.07,0.46,-0.1,0.19,0.43,0.02,-0.46,0.22,-0.26,0.04,-0.16,-0.43,-0.19,0.21,-0.29,0.41,0.07,0.47,0.15,0.13,-0.04,-0.09,-0.04,0.24,0.04,-0.45,0.37,-0.47,0.03,-0.32,-0.47,0.09,-0.18,0.23,-0.34,-0.02,-0.04,0.3,-0.29,-0.16,0.1,-0.06,0.22,-0.45,0.3,-0.18,-0.26,0.33,0.1,0.12,0.33,0.09,-0.17,0.28,0.32,-0.34,0,0.15,-0.35,0.38,0.15,-0.49,-0.32,-0.44,0.01,0.25,0.24,0.07,0.04,0.23,-0.06,0.26,0.25,-0.2,-0.47,-0.49,0.18,-0.1,0.44,-0.29,0.3,-0.46,-0.07,0.4,-0.15,-0.07,-0.24,0.03,0.41,0.49,0.47,0.31,0.15,-0.17,0.19,0.08,-0.25,0.16,0.04,-0.45,0.08,0.16,-0.22,0.36,-0.33,-0.44,0.33,-0.48,0.25,0.3,-0.03,-0.4,0.21,0.44,-0.43,0.11,0.08,-0.22,0.2,-0.42,-0.02,-0.29,0.16,0.05,0.26,0.12,-0.39,-0.08,0.11,-0.06,0.25,-0.48,0.36,0.38,0.13,-0.37,0.26,0.06,0.22,-0.22,0.1,-0.27,0.27,-0.4,0.01],[0.36999846,-0.41000336,0.21000265,-0.24999644,-0.42000005,-0.49999708,0.4700045,0.45000756,-0.039984565,0.060014956,-0.13998486,-0.49999046,0.22001518,-0.3999889,0.050015684,0.4500137,-0.099984184,-0.08998629,-0.18998773,-0.44999132,-0.049986776,-0.2599886,0.32001564,-0.18997481,0.44002146,0.35002044,-0.48998168,0.050023805,-0.07997696,-0.029977812,-0.25998345,-0.06998182,0.05001576,-0.4699873,0.38001505,0.03002035,-0.09997851,-0.3299831,0.030017793,-0.0699819,0.2700128,-0.42999116,-0.09999111,-0.17999259,-0.23999137,-0.3799951,-0.4699949,-0.049989823,-0.32999408,-0.16998805,-0.30999184,0.32000825,-0.039989732,-0.44999513,-0.43999553,0.13,-0.23,-0.1,-0.2,-0.27,0.48,-0.08,0.03,0.48,-0.18,0.43,-0.05,0.18,-0.29,-0.49,0.04,-0.28,0.38,0.37,-0.23,-0.13,0.34,0,-0.46,0.31,0.31,0.05,-0.13,-0.42,-0.22,-0.09,0.47,-0.01,0.47,-0.25,-0.25,-0.5,0.37,-0.2,-0.05,-0.15,0.04,-0.08,0.49,-0.18,0.16,-0.16,-0.27,-0.35,0.28,0.46,0.44,0.08,0.27,0.18,0.29,0.26,-0.15,-0.01,-0.09,-0.08,-0.45,-0.06,0.19,0.4,0.46,0.46,0.21,0.46,0.26,0.04,-0.15,0.07,-0.08,0.42,0.33,-0.09,0,0.22,-0.36,-0.04,-0.18,-0.29,-0.2,-0.19,-0.03,-0.12,0.21,-0.21,-0.04,-0.02,0.15,-0.13,0.38,-0.48,-0.21,-0.4,0.22,-0.41,-0.15,0.2,0.13,-0.23,-0.11,-0.27,0.1,-0.14,-0.35,0.35,0.34,-0.13,-0.24,0.12,-0.16,0.44,-0.4,0.33,-0.36,-0.13,-0.07,0.08,-0.26,-0.08,-0.01,-0.23,0.39,0.47,0.19,-0.1,0.13,0.23,0.19,-0.1,-0.14,-0.07,0.33,-0.46,0.31,-0.44,0.2,-0.4,-0.28,0.36,-0.06,-0.41,-0.28,-0.48,-0.47,0.44,0.41,-0.05,0.46,-0.16,0.16,0.27,-0.05,-0.3,0.27,-0.38,-0.16,0.13,0.17,0.25,-0.28,-0.39,0.17,0.35,-0.24,0.4,-0.39,-0.44,-0.48,-0.43,0.17,-0.18,-0.15,-0.12,0.48,-0.1,-0.46,0.37,0.44,0.25,-0.01,-0.33,0.27,-0.16,0.24,0.09,0.47,0.12,-0.23,0.19,0.22,-0.43,-0.08,-0.04,0.14,-0.17,-0.09,-0.13,0.26,-0.38,0.33,0.34,-0.07,0.38,0.17,-0.17,-0.09,-0.43,-0.28,-0.14,-0.43,-0.04,0.19,0.42,-0.24,-0.46,-0.17,-0.18,-0.39,0.17,0.42,-0.02,0.29,-0.17,-0.15,0.09,0.4,0.38,0.23,0.14,0.49,0.17,-0.4,0.31,0.42,0.14,0.23,0.39,0.17,-0.1,-0.33,0.4,-0.1,0.4,0.11,-0.25,-0.12,-0.01,-0.3,0.09,0.49,-0.42,-0.25,-0.41,-0.3,-0.16,-0.45,-0.4,0.03,-0.43,-0.07,0.02,-0.16,0.07,-0.13,-0.1,-0.15,0.37,-0.5,0.11,-0.19,-0.06,0.15,0.21,-0.01,-0.48,-0.42,0.38,0.22,-0.41,-0.29,-0.1,0.17,-0.36,0.14,0.4,-0.09,-0.49,0.1,0.07,0.08,0.13,-0.14,0.09,0.46,0.14,0.06,0.32,0.02,-0.3,0.39,0,-0.02,0.09,-0.22,0.05,-0.07,0.04,0.09,-0.33,-0.24,-0.34,-0.12,-0.07,0.36,-0.48,0.34,-0.3,0.43,-0.03,0.48,-0.16,-0.24,-0.07,-0.47,0.17,-0.42,-0.44,0.24,0.35,-0.04,-0.24,-0.14,0.01,-0.3,0.2,0.41,-0.42,0.35,-0.42,-0.03,0.37,-0.08,-0.07,-0.2,-0.09,-0.25,0.42,0.22,0.44,0.29,-0.15,0.38,-0.45,-0.28,0.05,-0.26,-0.45,0.05,0.1,-0.03,-0.13,0.3,0.24,0.21,-0.5,0.3,0.36,-0.27,-0.34,-0.4,0.25,-0.16,0.34,0.49,-0.39,0.42,0.33,-0.37,0.11,-0.08,-0.35,-0.17,0.3,-0.45,-0.4,-0.13,-0.2,-0.21,0.14,-0.04,0.36,0.03,-0.25,0.11,-0.4,-0.43,0.17,0.21,-0.21,0.11,-0.12,0.19,0.06,0.33,-0.47,-0.49,-0.46,-0.45,-0.39,0.13,-0.1,0.42,0.44,-0.33,-0.18,-0.47,-0.5,0.18,0.1,0.13,-0.01,0.07,0.08,0.2,-0.27,-0.28,-0.41,-0.27,0.39,-0.47,-0.26,-0.39,0.33,-0.5,-0.46,-0.05,0.27,0.46,-0.48,-0.41,-0.18,-0.25,-0.32,-0.49,-0.45,0.44,0.08,-0.43,-0.22,-0.44,-0.43,0.49,-0.4,0.16,-0.39,0.3,-0.4,0.36,0.09,0.3,0.42,0.31,-0.35,-0.43,-0.12,-0.22,-0.41,0.43,-0.37,0.36,-0.24,-0.47,0.16,0.01,-0.19,-0.26,-0.11,0.06,0.14,-0.21,0.13,-0.49,0.44,0.33,0.46,-0.25,-0.49,-0.34,0.38,-0.26,-0.16,0.4,-0.14,-0.29,-0.33,0.01,-0.41,-0.4,0.12,0.27,0.35,0.15,0.44,-0.09,0.29,-0.47,-0.17,0.08,-0.15,0.37,-0.09,0.03,-0.28,-0.2,-0.34,0.4,0.36,-0.18,-0.39,-0.37,-0.23,0.42,-0.46,0.39,0.01,-0.14,0.17,-0.06,-0.16,0.3,-0.36,-0.21,0.44,0.36,-0.07,0.48,-0.43,0.03,-0.46,0.42,0.41,-0.08,0.31,-0.49,0.33,0.3,0.18,-0.44,-0.46,-0.24,0.14,0.27,0.49,-0.01,0,0.43,0.1,-0.45,0.39,-0.07,-0.14,0.38,-0.26,0.05,0.22,-0.39,0.09,-0.15,0.36,-0.32,0.32,-0.17,-0.22,-0.31,-0.29,0.35,-0.4,-0.48,-0.44,0.2,0.17,0.11,-0.11,-0.43,-0.35,-0.14,-0.2,-0.06,-0.14,0,-0.12,-0.49,0.13,0.1,0.05,-0.48,-0.33,-0.24,-0.21,0.21,-0.29,-0.17,-0.31,0.36,-0.07,-0.19,-0.01,0.29,-0.23,0.14,0.32,0.07,0.49,-0.32,0.26,0.25,-0.01,-0.34,-0.11,-0.15,0.31,-0.36,0.48,-0.15,0.3,0.3,0.2,0.17,0.13,-0.32,0.17,0.34,0.23,-0.16,-0.01,-0.17,-0.09,0.03,0.14,0.34,0.37,0,-0.33,0.21,0.18,0.3,-0.48,-0.06,0.34,0.3,0.03,-0.49,0.36,0.43,0.39,-0.44,-0.16,0.33,-0.44,0.13,0.1,0.31,-0.34,-0.42,0.47,0.48,0.33,0.14,0.18,-0.08,-0.16,0.45,0.02,0.05,-0.03,-0.19,0.47,-0.24,0.17,0.49,0.28,-0.25,0.33,0.32,0.15,0.15,0.47,0.29,-0.05,-0.07,0.49,0.07,-0.03,-0.5,-0.27,-0.45,-0.17,-0.42,0.24,0.19,0.46,-0.12,0.25,-0.08,-0.04,0.07,-0.01,-0.19,-0.05,0.07,-0.42,-0.42,-0.34,-0.44,0.34,-0.16,0.48,-0.17,-0.07,-0.18,-0.49,-0.46,-0.32,-0.25,-0.07],[0.2664362,-0.013476358,0.016676145,-0.18299596,-0.07316988,0.48711997,0.3873591,0.027453465,0.48750433,-0.47306558,-0.0932257,0.00630807,-0.093839906,-0.13405555,-0.4238437,-0.33350098,0.15658304,-0.16324751,0.37649047,-0.1537502,0.4063709,-0.08366593,-0.09306147,-0.3325145,0.38748723,-0.4326707,0.49747455,0.15755269,-0.07274137,0.18738283,0.42733732,-0.30342424,0.0063613853,0.49624205,0.1963301,-0.41389194,0.4760485,-0.49434546,-0.46509555,0.09517593,-0.29506087,0.06459449,-0.31558293,-0.4555722,-0.05510163,0.34528887,0.085446,0.47550324,-0.14434353,-0.3442971,-0.14407255,0.20627147,-0.18380074,0.4063937,0.026267825,-0.15,-0.42,-0.15,-0.08,-0.15,0.48,-0.27,-0.4,-0.21,-0.4,-0.29,-0.5,-0.09,0.17,0.49,-0.32,0.15,-0.2,-0.22,-0.36,-0.16,-0.28,-0.15,0.21,-0.46,-0.02,-0.48,-0.2,-0.24,-0.18,-0.29,0.37,0.09,-0.04,-0.16,-0.5,0.12,0.07,0.17,0.1,0.46,-0.05,0.38,0.44,-0.27,0.33,-0.33,-0.2,-0.14,0.47,0.2,-0.1,-0.48,0.25,-0.33,-0.38,0.22,0.13,-0.12,0.37,0.46,0.42,0.34,0.47,0.38,-0.17,-0.1,0.44,-0.17,0.49,0.05,-0.42,0.12,0.17,-0.32,0.38,-0.16,-0.09,-0.02,-0.3,-0.19,0.22,0.44,-0.22,0.11,0.3,0.35,0.34,-0.21,-0.29,-0.23,0.49,-0.31,0.29,0.14,-0.46,0.11,0.4,-0.45,0.4,-0.08,-0.28,0.46,-0.14,-0.08,0.12,0.28,-0.15,0.07,-0.21,0.27,-0.2,-0.35,-0.33,0.06,-0.26,0.48,0.05,-0.14,-0.43,-0.02,0.06,0.15,-0.39,0.21,0.06,0.39,0.32,-0.47,-0.37,-0.23,-0.06,-0.15,0.08,0.27,-0.42,0.25,0.07,0.36,0.49,-0.48,0,-0.23,-0.5,-0.07,0.46,0.33,-0.49,-0.27,-0.11,-0.45,-0.45,0.04,0.48,-0.09,0.36,0.07,0.35,0.15,0.35,0.23,0.45,-0.19,-0.07,-0.49,-0.17,0.45,0.07,-0.11,-0.03,-0.02,-0.09,0.19,-0.14,-0.46,0.47,-0.21,0.15,0.18,0.25,0.22,0.37,0.09,0.13,-0.42,-0.29,0.39,-0.13,-0.34,0.41,0,0.39,0.42,-0.5,-0.24,-0.43,-0.32,0.33,0.48,-0.41,-0.49,-0.24,0.12,0.25,0.4,0.14,-0.15,-0.33,0.43,-0.06,0.07,0.42,-0.33,0.39,-0.37,0.35,-0.14,0.17,-0.15,0.29,-0.06,0.07,-0.1,-0.02,0.47,0.09,-0.01,0.19,-0.4,0.47,0.29,-0.05,0.16,0.08,0.23,-0.04,-0.25,0.33,0.22,-0.07,0.36,0.21,-0.06,0.22,-0.16,0.08,0.22,-0.48,0.37,-0.1,0.2,0,-0.02,-0.32,0.15,-0.07,0.35,-0.37,0.28,-0.19,-0.35,0.16,-0.43,0.45,0.14,-0.39,-0.25,0.09,-0.34,0.17,0.1,0.03,0.45,0.41,0.43,0.22,-0.37,0.18,-0.37,-0.12,0.36,-0.04,0.32,0.19,-0.23,-0.22,0.47,-0.02,0.42,-0.2,0.1,-0.39,-0.46,-0.1,-0.22,-0.31,0.14,-0.02,-0.43,-0.27,-0.18,-0.37,0.36,-0.3,0.3,-0.33,0.05,0.07,-0.26,0.43,-0.2,-0.33,-0.5,-0.11,-0.05,0.18,0.34,-0.13,0.18,-0.14,-0.36,0.27,0.16,0.35,-0.44,-0.02,-0.02,0.04,0.12,0.24,-0.43,0.15,0.11,0.4,-0.44,0.23,0.1,0.12,0.39,-0.4,0.22,-0.11,-0.27,0.49,-0.5,-0.08,-0.39,0.15,0.45,0.1,-0.15,-0.24,0.3,0.2,-0.41,0.05,-0.04,-0.5,-0.37,-0.18,0.18,-0.49,0.44,0,0.35,0.14,0.06,-0.41,-0.17,0.21,-0.43,-0.29,-0.02,0.08,0.14,0.24,0.03,0.17,0.35,0.13,-0.13,0.33,0.08,-0.48,-0.12,0.3,0.35,0.4,0.31,0.01,-0.24,0.1,-0.02,0.07,-0.09,0.21,-0.05,0.23,-0.37,-0.15,0.36,-0.49,-0.18,-0.27,0.02,-0.37,0.28,-0.29,-0.44,-0.16,-0.49,0.29,-0.36,-0.01,0.44,0.35,-0.08,0.42,-0.39,-0.45,0.29,0.15,-0.23,0.31,-0.05,-0.04,0.23,0.41,-0.33,0.42,-0.21,0.3,0.04,0,0.26,-0.15,0,-0.16,-0.01,-0.26,-0.48,0.13,0.33,-0.04,-0.01,-0.03,-0.04,0.49,0.12,0.05,-0.22,0.02,0.11,-0.42,0.05,-0.29,0.23,0,0.28,-0.45,-0.1,0.36,-0.46,-0.37,-0.45,-0.29,-0.25,0.13,0.22,0.09,-0.16,-0.43,-0.08,0.37,-0.48,-0.34,0.31,0.31,-0.18,0.48,-0.5,0.23,-0.21,0.11,0.14,0.26,-0.32,-0.04,0.44,0.05,0.11,-0.5,0.06,-0.07,0.33,-0.34,0.08,0.19,-0.09,-0.23,-0.29,0.32,-0.24,-0.48,-0.3,-0.29,-0.41,0.24,-0.45,-0.11,-0.11,0.42,-0.33,0.29,-0.45,0.16,0.07,-0.07,-0.01,-0.21,-0.47,0.29,0.19,-0.33,0.48,-0.16,0.01,0.49,-0.47,0.36,0.07,-0.38,-0.1,-0.46,0.26,-0.32,-0.03,-0.24,-0.09,-0.07,0.16,-0.07,-0.1,0.04,-0.34,0.18,0.33,0.26,-0.12,-0.33,0.08,-0.35,-0.31,-0.39,-0.26,-0.08,-0.37,-0.41,-0.46,0.36,0.2,-0.4,0.21,-0.31,0.32,-0.23,0.02,-0.37,-0.47,0.37,-0.31,-0.2,-0.49,-0.44,0.12,0.09,-0.12,-0.36,-0.49,-0.21,0.01,0.24,0.11,0.35,-0.23,-0.09,0.42,-0.22,0.29,-0.17,-0.45,-0.12,-0.28,0.05,0.23,0.06,0.22,-0.3,0.22,0.38,-0.35,0.19,0.23,0,0.48,-0.23,-0.37,-0.37,-0.02,0.15,-0.47,0.48,-0.43,0.24,-0.16,0.45,-0.01,0.35,0.41,-0.1,-0.15,-0.26,-0.17,0.19,0.32,0.3,-0.42,-0.04,-0.17,-0.44,0.36,-0.32,-0.08,-0.38,-0.37,0.31,-0.49,-0.4,0.37,-0.5,-0.23,0.28,0.29,-0.36,-0.21,-0.44,-0.2,-0.03,-0.3,0.27,-0.44,0.37,-0.22,-0.19,0.03,0.41,-0.14,-0.47,0.18,-0.33,-0.32,0.17,0.29,-0.09,0.28,0.35,0.06,0.45,0.1,0.03,0.44,-0.12,0.47,0.41,-0.37,0.06,-0.06,-0.31,-0.11,0.25,0,0.11,-0.24,0.06,0.49,0.49,0.39,-0.4,0.09,-0.28,-0.05,0.47,-0.08,0.2,0.31,0.1,0.49,-0.13,-0.15,-0.06,-0.01,-0.15,0.36,0.16,0.32,0.18,0.39,-0.14,-0.32,0.46,-0.04,-0.33,0.14,0.42,0.16,0.07,-0.09,-0.27,-0.08,0.28,0.45,-0.04,-0.15,-0.12,-0.42,0.47,0.45,-0.24,-0.4],[0.019369356,0.06005463,-0.440419,0.329072,0.44890842,-0.25191975,-0.3527152,0.23630728,0.08470263,0.22485778,-0.19497512,-0.4143319,0.025028042,0.40494177,0.114610784,0.24405548,-0.23536004,-0.17459024,-0.0039329757,-0.47422907,-0.27448025,-0.3151667,0.2532581,0.4414291,0.051193647,-0.028491883,-0.4776932,0.48169744,-0.027964598,0.072257675,0.34290877,0.21377923,0.11459413,-0.2455953,0.1436117,-0.117031746,-0.10739396,-0.16711289,0.17387591,0.15385121,0.0043405127,0.31564423,0.30715904,-0.012164011,-0.4025526,0.1870662,-0.082913175,0.036598828,0.22674969,0.116174184,0.2959679,0.1259227,-0.053416435,-0.27280253,0.35729355,-0.17,0.3,-0.39,-0.24,-0.04,-0.28,-0.35,-0.24,-0.49,0.38,0.08,-0.03,-0.23,-0.25,-0.28,-0.15,0.43,0.14,0.33,0.01,-0.09,-0.13,-0.23,0.34,0.37,-0.45,-0.01,-0.25,0.35,0.27,-0.29,-0.23,-0.11,-0.11,-0.18,0.09,-0.21,-0.43,-0.28,-0.06,-0.15,0.05,0.3,0.11,0.02,-0.29,-0.35,-0.22,0,-0.23,0.37,0.49,0.11,0.21,-0.05,0.45,0.03,-0.24,-0.12,-0.1,0.22,0.4,-0.09,-0.27,0.16,-0.19,-0.43,0.37,0.43,0.13,-0.44,0.35,-0.08,-0.11,-0.35,0.35,0.07,0.15,-0.18,0.15,0.4,-0.3,0.25,0.08,0.4,-0.28,0.15,0.18,0.43,-0.14,-0.45,-0.48,0.18,0.31,0.21,-0.05,-0.36,0.06,0.44,-0.29,-0.36,-0.23,-0.16,0.37,-0.3,-0.49,0.06,-0.28,0.05,0.09,-0.12,0.37,0.43,0.22,0,0.01,-0.36,0.32,-0.17,-0.06,0.15,-0.12,0.43,0.06,0.07,-0.47,-0.33,0.11,0.18,0.2,0.21,-0.5,0.21,-0.39,0.01,0.12,0.36,0.38,-0.12,0.39,0.15,-0.07,-0.37,-0.16,0.48,-0.32,-0.41,0.46,-0.19,-0.31,-0.19,-0.19,-0.27,-0.01,0.05,0.25,-0.17,0.27,-0.21,-0.34,0.34,0.45,0.03,0.35,0.38,-0.13,-0.34,0.32,-0.29,0.37,0.15,-0.24,-0.06,-0.07,0.29,-0.28,-0.25,0.09,0.08,-0.11,0.44,-0.3,-0.2,-0.01,-0.11,-0.11,0.27,-0.29,0.05,0.25,-0.22,-0.42,0.08,-0.29,-0.45,0.19,0.39,-0.23,-0.05,0.11,-0.48,-0.23,0.24,-0.07,0.03,-0.46,0.36,0.3,0.19,-0.17,-0.01,0.24,-0.31,0.4,-0.28,0.13,0.15,-0.46,-0.04,-0.02,0.09,0.44,-0.24,-0.04,0.08,0.07,0.18,-0.27,-0.12,-0.4,-0.18,0.47,-0.37,0.46,-0.14,0.17,-0.04,0.36,0.45,-0.16,0.02,0.47,0.02,-0.28,-0.25,0.04,0.38,0.17,0.49,-0.08,-0.47,0.35,0.31,0.47,-0.49,-0.42,-0.5,-0.22,0.34,0.45,-0.15,0.13,-0.09,0.09,-0.5,0.01,0.1,-0.27,0.03,0.05,-0.34,0.29,-0.42,-0.39,0.45,0.12,-0.09,-0.47,-0.3,-0.46,0.19,-0.5,-0.27,0.46,-0.43,-0.04,-0.34,-0.34,0.44,-0.22,0.16,-0.32,-0.48,-0.5,0.48,0.39,0.05,0.42,-0.28,0.23,0.44,0.14,-0.37,-0.06,-0.25,-0.26,0.26,0.2,-0.49,-0.12,0.16,0.47,-0.43,0.3,-0.24,-0.16,-0.11,-0.05,0.02,0.03,-0.15,-0.07,-0.22,-0.25,0.38,0.48,0.26,-0.42,-0.38,-0.44,-0.43,-0.02,0.31,-0.04,-0.41,-0.46,0.37,0.29,0.2,0.32,0.19,-0.05,-0.35,0.06,0.12,0.18,-0.4,-0.29,0.23,0.13,-0.01,-0.41,-0.1,0.18,-0.12,0.01,-0.14,0.38,0.05,-0.23,-0.03,0.18,0.07,0.45,-0.19,-0.33,-0.34,0.11,0.2,-0.29,-0.03,0.09,0.24,0.19,0.33,0.39,-0.23,0.22,0.12,-0.3,0.38,0.05,-0.16,-0.02,0.06,0.47,-0.42,-0.38,-0.42,0.08,0.18,0.48,-0.26,-0.07,-0.15,-0.49,0.38,-0.3,-0.26,-0.05,0.02,-0.01,0.01,0.02,-0.34,0.39,-0.15,0.21,0.34,-0.02,-0.27,0.13,-0.25,-0.15,-0.12,0.42,-0.16,-0.42,-0.12,-0.17,-0.41,-0.47,0.02,-0.38,0.03,-0.02,-0.15,-0.19,-0.17,0.32,-0.49,-0.43,-0.03,-0.33,0.17,-0.11,-0.47,0.32,-0.18,0.16,0.12,-0.14,-0.22,0.09,-0.16,-0.46,0.22,0.39,-0.46,-0.07,0.17,0.29,0.32,0.41,-0.15,-0.01,0.46,-0.12,0.48,0.17,0.04,-0.46,-0.12,-0.48,-0.04,-0.34,-0.34,-0.42,0.17,0.49,0.38,0.01,0.26,0.21,0.21,0.22,0.25,0.42,0.28,-0.02,0.25,-0.04,-0.24,0.4,-0.35,-0.28,-0.25,0.06,0.31,-0.32,-0.08,0.15,0.33,0.15,-0.38,0.08,0.48,-0.24,-0.37,-0.33,0.38,0.14,-0.29,-0.46,0.04,-0.35,-0.48,-0.4,-0.31,0.13,0.23,-0.47,0.09,-0.01,0.41,-0.42,0.27,-0.03,0.36,-0.26,0.41,0.09,-0.24,-0.02,0.07,-0.28,0.18,-0.39,0.09,-0.37,0.24,-0.02,0.29,0.1,0.1,-0.39,-0.26,-0.29,-0.15,-0.5,-0.31,-0.36,-0.14,-0.32,-0.06,-0.11,-0.45,-0.17,0.23,-0.47,0.3,0,-0.11,0.39,-0.24,-0.22,-0.12,0.22,-0.03,-0.18,-0.04,0.41,0,-0.44,0.39,-0.25,-0.27,0.49,0.39,0.3,0.33,0.06,-0.38,0.36,-0.46,0.26,-0.28,-0.42,-0.46,-0.33,-0.33,-0.16,-0.13,0.05,-0.18,-0.27,-0.41,0.4,-0.17,-0.19,0.22,0.01,0.23,-0.47,0.03,-0.22,0.14,-0.2,-0.21,-0.31,-0.34,-0.44,-0.06,0.43,-0.31,-0.27,-0.12,0.02,0.34,0,-0.44,-0.2,0.18,-0.2,-0.35,-0.39,0.03,0.45,0.23,0.15,-0.35,-0.17,0.15,0.07,-0.43,-0.18,0.32,-0.42,-0.17,0.25,-0.38,0.42,0.28,0.34,-0.49,-0.4,0.4,-0.07,-0.15,-0.42,0.35,0.06,-0.45,0.33,-0.25,-0.08,0.33,-0.07,0.38,-0.09,0.24,0.18,0.06,0.13,-0.47,0.33,-0.1,0.36,0.36,0.37,-0.1,-0.21,-0.31,-0.41,-0.12,-0.36,0.01,0.33,-0.21,-0.46,-0.29,-0.4,0.09,0.14,0.3,0.09,-0.23,0.32,-0.18,0.14,-0.02,-0.11,-0.3,0.41,-0.49,-0.07,-0.15,-0.35,0.31,-0.32,0.2,-0.47,0.07,-0.02,0.17,0.05,-0.13,0.46,-0.06,-0.39,0.41,-0.5,-0.36,0.34,-0.3,0.14,-0.41,0.41,0.33,-0.06,0.05,0.07,0.04,-0.29,-0.11,-0.49,-0.41,-0.23,-0.43,0.44,0.28,-0.15,-0.48,-0.4,-0.17,-0.33,0.02,-0.39,0.46],[-0.26000002,-0.29000226,-0.1999969,-0.11999628,-0.2999984,0.23000771,-0.01999075,-0.24998686,-0.13998194,0.21001758,-0.13998295,-0.16998497,-0.059983954,-0.1799826,-0.13998167,0.12001914,-0.37998563,-0.01998496,-0.13998608,-0.409989,0.16001548,-0.039983362,-0.40998146,0.38002446,-0.009972058,-0.17997202,0.05002447,0.47002327,-0.46997786,2.4610308E-05,-0.46998027,-0.379983,0.4800148,0.44001502,0.08002062,-0.27998063,-0.2599792,-0.30998027,-0.15997928,-0.029980142,0.40001497,0.25001094,0.22001064,0.0600075,0.21000983,0.11000989,-0.1599892,-0.46999186,0.15001181,-0.019987386,-0.28998992,0.18001433,-0.34999168,-0.4899934,-0.19998975,0.28,-0.39,-0.08,0.38,0.37,-0.32,0,-0.28,0.36,0.18,-0.26,-0.15,-0.01,0.23,-0.36,-0.12,0.43,-0.36,0.38,-0.32,0.41,0.23,0.03,-0.33,0.38,0.48,0.01,-0.18,0.05,-0.22,-0.16,0.46,0.46,0.14,0.3,-0.4,0.32,-0.19,-0.04,-0.21,-0.1,0.03,0.36,0.38,-0.03,-0.24,0.35,-0.2,0.01,-0.41,-0.22,0.03,-0.23,0.33,-0.12,-0.46,0.08,-0.25,-0.5,0.39,0.16,-0.33,0.16,0.07,-0.17,-0.22,-0.12,0.34,0.42,-0.47,0.05,0.11,0.18,0.09,0.28,-0.13,0.37,0.15,0.2,0.12,-0.37,-0.3,0.31,-0.05,-0.5,0.31,0.18,-0.37,-0.25,0.26,0.02,0.06,-0.19,0.06,0.12,-0.28,0.36,-0.21,0.04,-0.31,0.37,-0.5,-0.13,-0.02,0.04,0.16,0.34,0.18,-0.45,-0.49,-0.33,0.42,0.05,-0.13,0.26,-0.05,-0.14,-0.29,0.06,0.01,0.09,-0.25,0.09,-0.34,0,0.49,-0.2,-0.38,0.46,0.06,0,0.07,-0.4,0.01,0.24,-0.38,0.33,-0.17,0.41,-0.16,0.46,-0.5,-0.42,-0.26,0.09,0.09,-0.49,0.43,0.3,-0.34,0.35,0.15,0.23,-0.47,0.09,0.12,-0.09,-0.29,0.47,0.04,-0.15,0.22,0.21,-0.02,0,0.09,0.32,-0.46,0.13,0.13,0.12,-0.47,-0.21,-0.29,0.05,0.08,-0.34,-0.16,0.07,0.41,0.47,-0.13,-0.18,0.29,0.2,0.35,0.34,-0.43,0.41,-0.39,0.21,0.12,-0.15,-0.14,0.49,-0.27,-0.22,0.09,0.24,0.49,0.27,0.47,-0.21,-0.34,0.04,0.31,-0.15,0.01,-0.03,-0.49,-0.04,-0.44,0.13,-0.45,0.07,0.47,-0.1,0.42,0.28,0.14,0.25,0.24,-0.37,0.02,0.42,-0.5,0.17,0.43,-0.28,-0.19,-0.21,0.07,0.1,0.07,-0.36,-0.5,-0.42,-0.35,-0.25,0.39,-0.01,-0.18,0.09,0.39,0.15,0.14,0.48,-0.2,0.29,-0.49,0.32,-0.14,0.31,-0.41,-0.26,-0.48,0.34,0.26,-0.27,0.03,-0.37,-0.08,-0.22,-0.35,0.21,0.38,-0.04,-0.44,0.41,0.07,0.39,-0.26,0.16,0.39,-0.35,-0.07,-0.35,-0.27,0.37,-0.23,-0.49,-0.13,-0.36,-0.29,-0.02,0.43,0.26,0,-0.17,-0.39,-0.34,-0.19,0.41,0.21,0.25,-0.44,-0.47,-0.07,-0.33,0.26,-0.33,0.42,-0.12,-0.28,-0.39,0.07,0.19,0.41,0.44,0.31,0.37,0.1,0.38,0.46,0.01,0.26,-0.22,-0.43,0.17,0.28,-0.39,0.46,0.22,0.3,-0.09,0.07,-0.17,0.45,-0.36,-0.42,-0.11,0.21,-0.44,-0.4,-0.4,-0.41,0.49,0.42,-0.41,0.4,-0.27,0.34,0.06,0.02,-0.26,0.05,-0.08,0.45,-0.31,0.48,0.28,0.46,0.26,-0.12,0.14,-0.29,-0.31,0.08,0.31,0.04,-0.26,0.24,0.27,0.35,-0.09,-0.34,0.04,0.27,0.36,-0.08,0.26,-0.14,0.47,0.26,0.05,-0.23,-0.1,-0.3,0.06,0.35,-0.36,-0.13,0.25,-0.35,-0.21,-0.07,0.44,0.17,-0.04,0.38,0.4,-0.09,-0.39,0.05,0.15,-0.01,-0.44,0.2,-0.4,-0.43,-0.5,0.14,-0.41,0.27,-0.28,-0.08,0.48,0.49,0.33,-0.13,0.3,0.48,-0.49,0.45,-0.11,0.36,0.49,0.12,0.06,0.48,-0.29,0.37,-0.19,0.47,0.01,-0.15,-0.25,-0.08,-0.4,-0.44,-0.3,0.2,-0.4,-0.02,0.34,-0.01,-0.22,0.47,0.43,0.37,-0.05,0.44,0.33,-0.42,-0.43,0.42,-0.11,-0.35,-0.35,0.29,0,-0.06,-0.36,-0.38,0.36,-0.37,-0.17,-0.38,-0.24,0.36,-0.33,0.05,0.39,0.27,-0.33,-0.4,0.38,0.03,-0.4,0.39,0.08,-0.49,0.19,0.18,0.03,-0.23,-0.47,-0.27,0.39,0.09,0.45,-0.41,-0.24,-0.19,0.05,0.26,0.06,0.47,0.12,0.21,-0.34,-0.34,0.2,-0.44,0.2,0.39,-0.45,-0.44,0.41,0.46,-0.46,0.35,-0.45,-0.24,-0.3,-0.02,0.24,-0.05,0.09,0.09,-0.41,-0.41,-0.28,0.17,0.4,-0.43,-0.21,0.07,-0.29,-0.1,0.04,0.4,0.41,-0.12,0.22,-0.08,-0.2,0.12,0.48,0.13,-0.29,0.47,-0.19,0.42,0.04,-0.4,-0.46,-0.5,-0.39,-0.43,-0.49,-0.4,-0.12,-0.47,0.11,-0.44,0.43,-0.47,-0.35,0.13,0.1,-0.03,0.34,0,-0.08,-0.36,0.44,0.16,0.03,0.27,-0.33,-0.39,-0.03,0.45,-0.13,-0.38,0.27,-0.21,-0.38,0.3,-0.47,-0.21,-0.04,-0.36,-0.11,-0.07,0.01,0.37,0.26,0.16,-0.02,-0.23,-0.03,-0.15,-0.47,0.24,-0.38,0.31,0,-0.1,-0.35,-0.13,-0.04,-0.17,0.39,0.39,0.13,-0.07,0.16,-0.01,-0.22,0.13,0.4,-0.15,0.1,-0.19,-0.5,0.2,-0.4,0.48,0.12,-0.44,0.39,0.37,-0.21,0.4,0.14,-0.38,0.42,0.12,-0.5,0.46,0.29,0.21,0.15,0.15,0.32,-0.37,-0.26,-0.01,0.3,-0.43,-0.29,-0.23,-0.13,0.34,-0.14,-0.38,0.25,0.22,0.23,-0.09,0.2,0.01,0.27,-0.42,-0.02,0.09,-0.47,0.48,-0.25,0.01,0.01,-0.47,-0.02,-0.18,0.34,-0.32,0.19,0.44,-0.02,0.37,-0.04,0.11,-0.32,0.04,0.34,0.12,0,-0.06,0.04,0.02,-0.13,-0.3,0.38,0.08,-0.25,-0.23,0.44,0.06,-0.34,-0.27,-0.41,-0.25,-0.26,-0.21,0.06,-0.32,0.28,-0.46,-0.5,-0.33,-0.08,0.3,-0.27,0.36,0.45,-0.41,-0.17,-0.27,-0.27,0.36,-0.42,0.09,-0.06,0.22,-0.36,-0.2,-0.36,0.4,-0.44,0.06,-0.26,-0.37,0.27,-0.25,0.27,-0.3,-0.13,0.38,0.47,0.16,0.33,-0.04,-0.06,-0.14,-0.4,0.06,0.46],[-0.47850636,0.13133752,-0.33857766,0.44150078,0.20152195,-0.17849767,-0.19850096,-0.35851854,0.0016597137,0.301888,0.011845115,-0.34837624,-0.2482356,-0.4679133,0.38218078,0.47222877,-0.057866897,0.4220941,-0.21801326,-0.4780258,0.47202855,-0.41799346,0.24210761,0.22227739,-0.057803962,-0.24790196,0.0721601,-0.47773492,0.12209128,-0.34803554,-0.4280787,0.1218558,0.07174544,-0.15820153,-0.37807116,-0.23792848,0.40225253,0.12233619,0.032207657,0.30213806,-0.027924523,-0.3981049,-0.22836934,-0.09835406,0.35189614,0.23201048,0.21221621,0.122458406,0.4424946,-0.01754901,-0.49746534,-0.05717607,0.31282067,0.04283302,0.49280158,0.43,0.39,-0.06,-0.01,-0.05,0.25,-0.22,0.01,-0.16,0.23,0.39,0.07,0.41,0.41,0.12,-0.43,0.31,-0.12,-0.02,0.05,0.36,0.31,-0.16,0.36,0.21,0.03,0.44,-0.42,-0.36,-0.35,0.13,0.3,-0.48,-0.16,-0.31,-0.14,-0.05,-0.38,-0.42,-0.46,-0.31,0.09,0.42,0.17,0.46,-0.35,0.29,0.21,-0.18,-0.09,-0.32,-0.45,-0.17,0.49,-0.38,-0.39,0.05,0.07,0.28,0.42,0.3,-0.3,-0.13,-0.31,-0.41,-0.42,0.05,0.07,0.21,-0.25,0.11,0.18,-0.2,-0.07,-0.15,-0.23,0.38,0.17,0.4,0.05,0.23,-0.27,0.25,0.22,0.46,0.07,-0.03,-0.48,-0.28,-0.43,0.31,0.38,-0.16,-0.35,-0.26,0.49,-0.29,0.22,0.07,0.38,0.1,-0.28,0.49,-0.43,0.3,-0.01,0.25,0.39,0.13,0.34,-0.27,0.38,0.17,-0.28,-0.31,0.07,-0.06,0.15,-0.27,0.02,0.1,0.02,-0.16,0.13,-0.07,0.23,-0.17,-0.36,-0.31,-0.14,-0.44,-0.35,-0.41,-0.49,0.45,0,-0.27,0.18,0.42,-0.03,0.32,0.07,-0.12,-0.13,0.34,0.43,-0.3,-0.38,0.46,0.16,0.04,0.06,-0.01,-0.45,-0.23,-0.43,0.38,-0.15,0.13,-0.44,-0.35,0.1,0.2,-0.24,0.28,-0.43,0.28,0.15,-0.23,0.18,-0.17,0.25,0.22,0.26,0.19,-0.48,-0.37,0.46,0.28,0,0.02,-0.29,-0.32,0.02,0.32,-0.01,0.16,-0.46,0.24,0.37,0.12,0.37,-0.45,0.35,-0.19,-0.29,0.36,-0.39,0.09,0.27,-0.36,0.04,0.34,-0.23,-0.18,0.28,0.33,0.23,-0.15,-0.26,0.43,0.41,0.07,-0.37,0.03,0.43,-0.08,-0.32,-0.06,-0.22,-0.1,0.23,0.41,-0.1,-0.44,-0.04,0.2,0.36,-0.06,-0.02,-0.34,-0.49,-0.13,-0.49,-0.15,0.48,-0.13,0.4,-0.31,-0.47,0.16,0.42,0.19,-0.01,0.43,0.2,-0.2,0.41,-0.18,-0.13,0.29,0.18,0.17,-0.19,-0.14,-0.09,0.12,-0.06,-0.3,0.36,-0.42,0.47,-0.21,0.36,-0.42,0.41,0.04,0.05,0.27,0.05,0.06,0.01,0.48,-0.09,0.12,-0.02,-0.46,-0.08,-0.04,-0.14,-0.35,0.28,0.04,-0.44,0.18,-0.03,-0.16,-0.45,0.14,0.44,-0.15,0.42,0.2,-0.17,0.45,0.18,0.13,0.32,-0.1,-0.49,-0.34,0.24,-0.36,0.26,0.3,-0.22,0.2,-0.25,0.18,0.38,-0.14,-0.3,0.47,0.34,0.2,-0.21,-0.07,-0.28,-0.33,0.11,0.07,-0.02,0.41,0.33,-0.31,0.13,0.31,0.14,-0.04,0.43,0.34,-0.28,-0.48,-0.06,-0.3,-0.1,0.14,0.27,-0.25,-0.1,0.26,-0.41,-0.14,0.25,0.07,-0.35,0.44,0.35,0.13,0.15,-0.25,-0.09,0.14,0.28,-0.06,0.17,0.33,-0.2,0.07,-0.34,-0.04,-0.45,0.29,0.25,-0.46,-0.36,-0.33,0.03,0.14,-0.21,0.15,0.15,0.46,0.27,0.34,-0.03,-0.39,-0.35,-0.25,-0.46,0.19,0.45,-0.49,0.3,0.18,-0.07,0.07,-0.27,0.49,0.02,0.07,-0.16,-0.3,-0.42,0.44,0.2,-0.21,0.11,0.21,-0.07,0.47,-0.09,-0.29,-0.16,-0.5,0.09,-0.06,0.37,0.44,0.47,0.06,0.18,-0.46,0.03,-0.03,0.01,-0.46,0.48,-0.44,0.1,0.06,0.44,0.03,-0.39,0.22,-0.2,-0.05,0.37,0.33,-0.37,-0.33,-0.01,-0.07,0.32,-0.44,-0.23,0.24,0.16,0.3,-0.42,0.48,0.2,-0.21,-0.48,0.46,0.38,-0.21,0.17,0.11,-0.08,0.15,-0.19,0.05,-0.4,0.36,-0.47,0.37,-0.41,0.11,0.19,-0.37,0.06,-0.46,0.3,0.29,-0.44,-0.26,-0.29,-0.04,-0.3,0.27,-0.12,-0.32,0.47,0.12,0.36,0.14,0.01,-0.35,0.33,-0.49,0.28,-0.24,-0.1,-0.03,0.36,0.44,-0.18,0.46,-0.47,-0.11,0.14,-0.46,-0.4,0.45,-0.08,0.15,-0.01,-0.27,0.4,0.13,-0.43,-0.3,-0.1,0.15,-0.23,-0.37,0.07,-0.02,0.49,-0.12,-0.14,0.44,0.28,0.18,-0.15,-0.21,0.14,-0.18,0.42,-0.39,0.42,-0.25,-0.08,0.3,-0.38,-0.17,-0.43,-0.48,-0.31,-0.29,-0.35,-0.22,-0.25,-0.31,0.43,0.07,0.36,0.24,-0.31,0.23,-0.14,0.34,0.46,0.15,-0.47,0.2,-0.24,-0.08,0.09,-0.38,-0.49,-0.34,-0.2,0.28,0.21,0.31,0.28,0.09,0.02,0.44,-0.45,0.05,-0.22,0.28,-0.28,-0.42,0.19,0.08,0.24,0.27,-0.07,0.39,-0.38,-0.31,0.24,-0.43,-0.22,0.27,0.27,-0.08,-0.44,0.14,-0.08,-0.43,-0.31,0.48,0.47,-0.04,-0.02,-0.38,0.29,-0.24,-0.28,-0.26,0.17,0.31,0.05,-0.32,-0.08,0.44,-0.49,0.17,0.18,0.32,0.18,-0.38,-0.47,-0.39,-0.47,0.13,0.03,-0.5,0.31,-0.4,0.38,-0.1,-0.38,-0.3,0.08,-0.27,-0.39,-0.28,-0.4,0.12,0.48,-0.34,0.16,0.38,0.01,0.43,0.02,-0.41,-0.15,0.33,-0.09,-0.12,0.46,0.1,-0.12,-0.43,0.45,0.35,-0.07,0.34,0.08,0.28,-0.06,-0.38,-0.14,-0.24,0.19,-0.16,0.1,-0.32,0.33,0.28,0.07,-0.44,0.33,0.01,-0.05,-0.35,0.09,-0.4,-0.39,-0.07,0.15,0.48,0.19,-0.01,-0.06,0.01,0.31,0.01,-0.22,-0.25,0.29,-0.25,-0.47,-0.31,0.21,0.04,0.01,-0.25,-0.27,-0.33,-0.01,-0.33,-0.5,0.12,0.31,0.4,0.26,0.37,0.11,0.29,-0.24,-0.17,0.22,-0.35,-0.37,-0.04,-0.08,0.37,0.32,-0.32,0.02,-0.41,0.39,0.07,0.49,-0.19,-0.47,0.14,0.29,0.4,0.13,-0.16,0.36,0.44,0.43,-0.02,0.48,-0.44,0.18,0.03,0.24,0.44],[0.39138576,-0.018719941,0.4913185,-0.038726047,0.031203456,0.37119946,-0.43877068,-0.24878706,-0.3887511,0.14127132,-0.06876247,-0.44886294,0.14113894,-0.09888015,-0.22885898,-0.07881713,0.121179014,-0.008822566,0.37118027,-0.3787227,-0.42871496,0.21132085,-0.34853315,0.42172164,-0.038226634,0.28176725,-0.28822508,0.14185116,-0.018281791,-0.13832915,-0.31835285,-0.21840224,-0.06843024,0.07160088,-0.2983462,-0.0882995,0.0817574,0.031792153,0.28176725,-0.34820646,0.07180621,0.041814238,0.2817922,0.4918175,0.40184546,0.31183827,-0.2082206,0.031742975,-0.2883084,0.05168535,-0.068313874,-0.3182926,0.16173063,0.1117282,0.37176988,-0.32,-0.18,-0.43,0.49,0.24,0.15,-0.09,0.27,0.25,-0.05,-0.36,0.12,-0.44,-0.3,0.36,0.33,-0.41,0.21,0.21,0.05,0.03,0.42,-0.34,-0.49,0.15,-0.01,0.18,-0.07,0.42,0.42,-0.5,0.11,0.31,0.2,-0.49,-0.42,0,0.03,-0.46,0,-0.35,0.27,-0.47,0.03,0.25,